{"learner":{"attributes":{"scikit_learn":"{\"_estimator_type\": \"regressor\"}"},"feature_names":["timeDuration","nMovements","movementsDifficulty","robotSpeech","acrobaticMovements","movementsRepetition","movementsTransitionsDuration","humanMovements","balance","speed","bodyPartsCombination","musicBPM","sameStartEndPositionPlace","headMovement","armsMovement","handsMovement","legsMovement","feetMovement","musicGenre_electronic","musicGenre_folk","musicGenre_indie","musicGenre_latin","musicGenre_pop","musicGenre_rap","musicGenre_rock"],"feature_types":["int","int","int","int","int","int","int","int","int","int","int","int","int","int","int","int","int","int","int","int","int","int","int","int","int"],"gradient_booster":{"model":{"gbtree_model_param":{"num_parallel_tree":"1","num_trees":"250"},"iteration_indptr":[0,1,2,3,4,5,6,7,8,9,10,11,12,13,14,15,16,17,18,19,20,21,22,23,24,25,26,27,28,29,30,31,32,33,34,35,36,37,38,39,40,41,42,43,44,45,46,47,48,49,50,51,52,53,54,55,56,57,58,59,60,61,62,63,64,65,66,67,68,69,70,71,72,73,74,75,76,77,78,79,80,81,82,83,84,85,86,87,88,89,90,91,92,93,94,95,96,97,98,99,100,101,102,103,104,105,106,107,108,109,110,111,112,113,114,115,116,117,118,119,120,121,122,123,124,125,126,127,128,129,130,131,132,133,134,135,136,137,138,139,140,141,142,143,144,145,146,147,148,149,150,151,152,153,154,155,156,157,158,159,160,161,162,163,164,165,166,167,168,169,170,171,172,173,174,175,176,177,178,179,180,181,182,183,184,185,186,187,188,189,190,191,192,193,194,195,196,197,198,199,200,201,202,203,204,205,206,207,208,209,210,211,212,213,214,215,216,217,218,219,220,221,222,223,224,225,226,227,228,229,230,231,232,233,234,235,236,237,238,239,240,241,242,243,244,245,246,247,248,249,250],"tree_info":[0,0,0,0,0,0,0,0,0,0,0,0,0,0,0,0,0,0,0,0,0,0,0,0,0,0,0,0,0,0,0,0,0,0,0,0,0,0,0,0,0,0,0,0,0,0,0,0,0,0,0,0,0,0,0,0,0,0,0,0,0,0,0,0,0,0,0,0,0,0,0,0,0,0,0,0,0,0,0,0,0,0,0,0,0,0,0,0,0,0,0,0,0,0,0,0,0,0,0,0,0,0,0,0,0,0,0,0,0,0,0,0,0,0,0,0,0,0,0,0,0,0,0,0,0,0,0,0,0,0,0,0,0,0,0,0,0,0,0,0,0,0,0,0,0,0,0,0,0,0,0,0,0,0,0,0,0,0,0,0,0,0,0,0,0,0,0,0,0,0,0,0,0,0,0,0,0,0,0,0,0,0,0,0,0,0,0,0,0,0,0,0,0,0,0,0,0,0,0,0,0,0,0,0,0,0,0,0,0,0,0,0,0,0,0,0,0,0,0,0,0,0,0,0,0,0,0,0,0,0,0,0,0,0,0,0,0,0,0,0,0,0,0,0,0,0,0,0,0,0],"trees":[{"base_weights":[-8.535427E-3,5.24345E-1,-2.7307537E-1,6.1007303E-1,8.850358E-2,-3.5877535E-1,1.1571504E-1,-7.1358405E-2,6.471364E-1,2.7720508E-1,-9.828469E-2,-5.433692E-1,-2.2647493E-1,2.5510943E-1,-2.907805E-1,-4.490914E-1,1.4483014E-1,8.225076E-1,5.675575E-1,1.2234178E-1,5.63732E-1,-1.9888896E-1,1.6754277E-1,-9.807287E-2,-6.2324464E-1,-1.01392835E-1,-3.0051777E-1,8.500967E-2,5.469106E-1,-5.775538E-1,-2.6517374E-2,-6.293823E-1,5.421814E-1,-5.671109E-1,4.033129E-1,8.7953395E-1,5.286904E-1,5.972317E-1,-5.140409E-1,4.6896803E-1,-2.7900592E-3,3.134041E-2,8.693108E-1,-3.1808788E-1,7.6911256E-2,3.9459366E-1,-2.6745504E-1,-6.541009E-1,8.795086E-2,-4.3652692E-1,-7.723205E-1,-1.6967398E-1,5.3088114E-2,-3.7117743E-1,-1.1203235E-1,2.2760975E-1,-3.6079597E-1,2.618372E-1,8.386512E-1,-7.27394E-1,-1.2702518E-2,-3.1569624E-1,3.197334E-1,-2.0078835E-3,-1.156612E-2,1.9579506E-3,9.638634E-3,6.17609E-4,-1.2048055E-2,-2.205599E-3,6.9973725E-3,4.6868218E-4,8.977055E-3,1.021921E-2,3.1795402E-3,4.094768E-3,7.3286495E-3,-1.1865959E-3,-1.438239E-2,-3.0420492E-3,5.8304295E-3,1.1226463E-3,-4.956823E-3,-2.9748299E-3,5.617609E-3,4.5784637E-3,1.3325449E-2,-2.204483E-3,-8.838847E-3,8.117609E-3,-1.4367054E-3,-5.542049E-3,5.3061764E-3,1.708285E-4,-1.0542049E-2,-1.0186596E-2,-3.801259E-3,1.6674423E-3,-6.007883E-3,-5.3313468E-3,-2.012497E-3,-8.147874E-3,-2.2972159E-3,9.0693655E-5,-2.798995E-3,-2.1826923E-3,1.9142805E-3,-2.7446728E-3,-5.455161E-3,-2.6291828E-3,1.301325E-4,-1.5305565E-3,3.575136E-3,9.421814E-3,-4.4626943E-3,5.2468562E-3,4.450123E-4,1.2381988E-2,6.63231E-3,-1.2349248E-2,-5.17544E-3,-2.9748299E-3,6.0643894E-3,-6.978107E-4,-6.402602E-3,1.8693454E-3,9.380515E-3],"categories":[],"categories_nodes":[],"categories_segments":[],"categories_sizes":[],"default_left":[0,0,0,0,0,0,0,0,0,0,0,0,0,0,0,0,0,0,0,0,0,0,0,0,0,0,0,0,0,0,0,0,0,0,0,0,0,0,0,0,0,0,0,0,0,0,0,0,0,0,0,0,0,0,0,0,0,0,0,0,0,0,0,0,0,0,0,0,0,0,0,0,0,0,0,0,0,0,0,0,0,0,0,0,0,0,0,0,0,0,0,0,0,0,0,0,0,0,0,0,0,0,0,0,0,0,0,0,0,0,0,0,0,0,0,0,0,0,0,0,0,0,0,0,0,0,0],"id":0,"left_children":[1,3,5,7,9,11,13,15,17,19,21,23,25,27,29,31,33,35,37,39,41,43,45,47,49,51,53,55,57,59,61,63,65,67,69,71,73,75,77,79,81,83,85,87,89,91,93,95,97,99,101,103,105,107,109,111,113,115,117,119,121,123,125,-1,-1,-1,-1,-1,-1,-1,-1,-1,-1,-1,-1,-1,-1,-1,-1,-1,-1,-1,-1,-1,-1,-1,-1,-1,-1,-1,-1,-1,-1,-1,-1,-1,-1,-1,-1,-1,-1,-1,-1,-1,-1,-1,-1,-1,-1,-1,-1,-1,-1,-1,-1,-1,-1,-1,-1,-1,-1,-1,-1,-1,-1,-1,-1],"loss_changes":[7.6997034E2,6.764929E1,1.2165704E2,3.8283936E1,1.0566166E1,7.292267E1,3.747189E1,6.5163045E0,1.9573792E1,6.542536E0,4.0715723E0,4.4328033E1,1.612146E1,2.4374077E1,1.2792116E1,5.524046E0,9.613971E0,7.0078735E0,3.211371E1,4.2519584E0,8.432508E0,3.6407247E0,4.2537346E0,1.9813501E1,2.9112396E1,6.865296E0,1.4541969E1,1.9916561E1,1.4833714E1,6.84639E0,9.012367E0,5.416951E0,5.4160476E-1,5.6888056E0,7.181717E0,5.5866394E0,7.4706993E0,2.4274384E1,9.695429E0,2.4705567E0,4.195446E0,3.6554077E0,5.679844E0,4.0589514E0,5.627837E0,3.9077344E0,3.3759112E0,4.4070187E0,7.914782E0,1.0621086E1,1.3338776E1,8.888177E0,7.5496945E0,1.3271095E1,5.6637087E0,1.1774345E1,8.884586E0,5.2894077E0,5.416691E0,6.1772118E0,3.3541546E0,3.8662672E0,3.191235E0,0E0,0E0,0E0,0E0,0E0,0E0,0E0,0E0,0E0,0E0,0E0,0E0,0E0,0E0,0E0,0E0,0E0,0E0,0E0,0E0,0E0,0E0,0E0,0E0,0E0,0E0,0E0,0E0,0E0,0E0,0E0,0E0,0E0,0E0,0E0,0E0,0E0,0E0,0E0,0E0,0E0,0E0,0E0,0E0,0E0,0E0,0E0,0E0,0E0,0E0,0E0,0E0,0E0,0E0,0E0,0E0,0E0,0E0,0E0,0E0,0E0,0E0,0E0,0E0],"parents":[2147483647,0,0,1,1,2,2,3,3,4,4,5,5,6,6,7,7,8,8,9,9,10,10,11,11,12,12,13,13,14,14,15,15,16,16,17,17,18,18,19,19,20,20,21,21,22,22,23,23,24,24,25,25,26,26,27,27,28,28,29,29,30,30,31,31,32,32,33,33,34,34,35,35,36,36,37,37,38,38,39,39,40,40,41,41,42,42,43,43,44,44,45,45,46,46,47,47,48,48,49,49,50,50,51,51,52,52,53,53,54,54,55,55,56,56,57,57,58,58,59,59,60,60,61,61,62,62],"right_children":[2,4,6,8,10,12,14,16,18,20,22,24,26,28,30,32,34,36,38,40,42,44,46,48,50,52,54,56,58,60,62,64,66,68,70,72,74,76,78,80,82,84,86,88,90,92,94,96,98,100,102,104,106,108,110,112,114,116,118,120,122,124,126,-1,-1,-1,-1,-1,-1,-1,-1,-1,-1,-1,-1,-1,-1,-1,-1,-1,-1,-1,-1,-1,-1,-1,-1,-1,-1,-1,-1,-1,-1,-1,-1,-1,-1,-1,-1,-1,-1,-1,-1,-1,-1,-1,-1,-1,-1,-1,-1,-1,-1,-1,-1,-1,-1,-1,-1,-1,-1,-1,-1,-1,-1,-1,-1],"split_conditions":[1.7E1,3E0,1.38E2,1E2,1.24E2,2E0,1.29E2,2E0,1.15E2,1.15E2,3E0,1.8E1,1.1E2,1.12E2,2E0,1E0,1.27E2,1E0,1.38E2,2E0,2E0,1.38E2,3E0,1.05E2,1.19E2,1.23E2,3E0,1.55E2,1.43E2,3E0,1E0,1.56E2,9.8E1,9.7E1,9.4E1,8.9E1,9.8E1,1.3E1,1.45E2,1.06E2,3E0,3E0,1E0,1E0,2E0,1.28E2,1E0,2E0,1.29E2,3E0,1.32E2,1E2,2E0,1.27E2,1.22E2,2E0,2E0,1.19E2,1.8E1,1.38E2,3E0,3E0,1E0,-2.0078835E-3,-1.156612E-2,1.9579506E-3,9.638634E-3,6.17609E-4,-1.2048055E-2,-2.205599E-3,6.9973725E-3,4.6868218E-4,8.977055E-3,1.021921E-2,3.1795402E-3,4.094768E-3,7.3286495E-3,-1.1865959E-3,-1.438239E-2,-3.0420492E-3,5.8304295E-3,1.1226463E-3,-4.956823E-3,-2.9748299E-3,5.617609E-3,4.5784637E-3,1.3325449E-2,-2.204483E-3,-8.838847E-3,8.117609E-3,-1.4367054E-3,-5.542049E-3,5.3061764E-3,1.708285E-4,-1.0542049E-2,-1.0186596E-2,-3.801259E-3,1.6674423E-3,-6.007883E-3,-5.3313468E-3,-2.012497E-3,-8.147874E-3,-2.2972159E-3,9.0693655E-5,-2.798995E-3,-2.1826923E-3,1.9142805E-3,-2.7446728E-3,-5.455161E-3,-2.6291828E-3,1.301325E-4,-1.5305565E-3,3.575136E-3,9.421814E-3,-4.4626943E-3,5.2468562E-3,4.450123E-4,1.2381988E-2,6.63231E-3,-1.2349248E-2,-5.17544E-3,-2.9748299E-3,6.0643894E-3,-6.978107E-4,-6.402602E-3,1.8693454E-3,9.380515E-3],"split_indices":[1,6,11,0,11,6,0,7,11,11,4,1,0,0,2,18,11,24,0,7,5,11,9,0,0,11,6,11,11,10,3,11,0,0,0,11,11,1,11,11,15,9,3,24,8,11,24,16,11,15,11,0,8,0,0,16,6,0,1,0,8,2,19,0,0,0,0,0,0,0,0,0,0,0,0,0,0,0,0,0,0,0,0,0,0,0,0,0,0,0,0,0,0,0,0,0,0,0,0,0,0,0,0,0,0,0,0,0,0,0,0,0,0,0,0,0,0,0,0,0,0,0,0,0,0,0,0],"split_type":[0,0,0,0,0,0,0,0,0,0,0,0,0,0,0,0,0,0,0,0,0,0,0,0,0,0,0,0,0,0,0,0,0,0,0,0,0,0,0,0,0,0,0,0,0,0,0,0,0,0,0,0,0,0,0,0,0,0,0,0,0,0,0,0,0,0,0,0,0,0,0,0,0,0,0,0,0,0,0,0,0,0,0,0,0,0,0,0,0,0,0,0,0,0,0,0,0,0,0,0,0,0,0,0,0,0,0,0,0,0,0,0,0,0,0,0,0,0,0,0,0,0,0,0,0,0,0],"sum_hessian":[5.46E3,1.811E3,3.649E3,1.513E3,2.98E2,2.99E3,6.59E2,7.8E1,1.435E3,1.48E2,1.5E2,1.247E3,1.743E3,4.91E2,1.68E2,2.8E1,5E1,4.45E2,9.9E2,9.7E1,5.1E1,1.09E2,4.1E1,1.9E2,1.057E3,6.49E2,1.094E3,3.11E2,1.8E2,8E1,8.8E1,2.4E1,4E0,1.3E1,3.7E1,3.71E2,7.4E1,9.64E2,2.6E1,2.5E1,7.2E1,1.9E1,3.2E1,7.6E1,3.3E1,2.7E1,1.4E1,4.7E1,1.43E2,4.71E2,5.86E2,4.5E2,1.99E2,7.95E2,2.99E2,2.36E2,7.5E1,9.2E1,8.8E1,6.3E1,1.7E1,4.8E1,4E1,1.4E1,1E1,3E0,1E0,7E0,6E0,1.2E1,2.5E1,8E0,3.63E2,2.1E1,5.3E1,4.06E2,5.58E2,1.9E1,7E0,3E0,2.2E1,5.9E1,1.3E1,1.2E1,7E0,1.8E1,1.4E1,6.6E1,1E1,7E0,2.6E1,3E0,2.4E1,1.1E1,3E0,1.9E1,2.8E1,1.29E2,1.4E1,3.33E2,1.38E2,5.43E2,4.3E1,1.72E2,2.78E2,6.7E1,1.32E2,5.13E2,2.82E2,1.35E2,1.64E2,6E1,1.76E2,4E0,7.1E1,4.1E1,5.1E1,2.5E1,6.3E1,1.7E1,4.6E1,1.2E1,5E0,2.8E1,2E1,3.4E1,6E0],"tree_param":{"num_deleted":"0","num_feature":"25","num_nodes":"127","size_leaf_vector":"1"}},{"base_weights":[-5.649004E-3,5.1507133E-1,-2.5817356E-1,6.138238E-1,2.0907525E-2,-3.4152028E-1,1.07833855E-1,8.266296E-1,5.301523E-1,-8.124921E-2,2.8774008E-1,-5.055039E-1,-2.258688E-1,1.7919533E-1,-3.7206092E-1,8.671662E-1,5.4838043E-1,5.737458E-1,2.64272E-1,8.7703034E-2,-2.2112335E-1,-4.633996E-1,3.8535708E-1,-6.557495E-2,-5.814637E-1,-2.9298916E-1,-5.9340987E-2,-6.623685E-2,3.0393803E-1,9.346439E-1,-4.4454873E-1,5.812456E-1,8.9774054E-1,1.0163261E0,2.3857515E-1,4.127098E-1,6.99897E-1,3.731325E-1,-2.575633E-1,2.0848705E-1,-6.0258657E-1,-5.442206E-2,-4.207745E-1,-6.0852427E-2,-1.0520072E-2,8.222299E-1,1.0155989E-1,1.6975487E-2,-5.4621917E-1,-7.455801E-1,-5.058207E-1,-3.6237866E-1,-1.423159E-1,1.6788505E-1,-1.2403089E-1,-1.6345142E-1,4.965751E-1,6.35494E-1,2.3690893E-1,-4.084754E-4,1.1887287E-2,-3.2839608E-1,-1.0625943E0,1.0051953E-2,3.4691517E-3,8.543634E-3,1.1209625E-2,1.3007432E-2,2.2104045E-3,-1.5798878E-3,1.0118217E-2,1.0191571E-3,5.218203E-3,-3.708062E-3,7.1967393E-3,5.3157276E-3,6.217531E-4,-1.065531E-2,2.4024214E-4,7.157216E-3,6.153267E-4,-9.534507E-3,-6.539171E-4,-1.3511938E-3,7.75071E-3,-2.5994708E-3,-9.080035E-3,-4.578838E-3,6.211507E-3,2.6926366E-3,1.0200617E-2,3.059023E-3,-2.3330066E-3,-5.934044E-3,1.0973637E-3,-6.646155E-3,6.224897E-3,-6.6736797E-3,-9.2291385E-3,-5.960759E-3,-3.2210127E-3,-3.8527714E-3,-1.1023626E-3,-4.4544945E-3,-5.3564E-4,3.896332E-3,5.9150415E-4,-2.3489587E-3,3.0992238E-4,-3.7318396E-3,1.2678272E-4,5.5073774E-3,-5.3707133E-3,2.2453996E-3,7.625085E-3,1.6755794E-4,2.9167628E-3,4.0467656E-3,-5.756685E-3,-1.3610295E-2,-5.08579E-4],"categories":[],"categories_nodes":[],"categories_segments":[],"categories_sizes":[],"default_left":[0,0,0,0,0,0,0,0,0,0,0,0,0,0,0,0,0,0,0,0,0,0,0,0,0,0,0,0,0,0,0,0,0,0,0,0,0,0,0,0,0,0,0,0,0,0,0,0,0,0,0,0,0,0,0,0,0,0,0,0,0,0,0,0,0,0,0,0,0,0,0,0,0,0,0,0,0,0,0,0,0,0,0,0,0,0,0,0,0,0,0,0,0,0,0,0,0,0,0,0,0,0,0,0,0,0,0,0,0,0,0,0,0,0,0,0,0,0,0,0,0],"id":1,"left_children":[1,3,5,7,9,11,13,15,17,19,21,23,25,27,29,31,33,35,37,39,41,43,45,47,49,51,53,55,57,59,61,63,65,67,69,71,73,75,77,79,81,83,85,87,-1,89,91,93,95,97,99,101,103,105,107,109,111,113,115,-1,-1,117,119,-1,-1,-1,-1,-1,-1,-1,-1,-1,-1,-1,-1,-1,-1,-1,-1,-1,-1,-1,-1,-1,-1,-1,-1,-1,-1,-1,-1,-1,-1,-1,-1,-1,-1,-1,-1,-1,-1,-1,-1,-1,-1,-1,-1,-1,-1,-1,-1,-1,-1,-1,-1,-1,-1,-1,-1,-1,-1],"loss_changes":[7.203292E2,8.729013E1,1.12571686E2,2.6110168E1,8.173743E0,5.687549E1,2.352518E1,4.250519E0,1.2285126E1,5.147548E0,6.2644644E0,4.1465637E1,1.9699554E1,1.8297808E1,8.845589E0,2.6601868E0,7.875967E0,1.8421173E1,8.787613E0,8.37985E0,3.9376702E0,2.3054066E0,9.091258E0,7.3099127E0,1.2769592E1,1.3090546E1,7.4880323E0,1.1133297E1,8.650108E0,1.2878442E0,5.7529964E0,3.4263668E0,2.2085571E0,4.6887245E0,1.0892317E1,1.374855E1,1.1172089E1,6.2240047E0,6.1684656E0,6.29189E0,2.7648892E0,4.5226264E0,3.9953957E0,2.1798518E0,0E0,2.897768E0,3.2189732E0,9.01098E0,4.149728E0,3.9888E0,1.187944E1,4.9228973E0,1.0683804E1,2.7015755E0,6.813187E0,6.395374E0,1.9753366E0,3.273796E0,3.9860477E0,0E0,0E0,1.3465571E1,3.8559723E0,0E0,0E0,0E0,0E0,0E0,0E0,0E0,0E0,0E0,0E0,0E0,0E0,0E0,0E0,0E0,0E0,0E0,0E0,0E0,0E0,0E0,0E0,0E0,0E0,0E0,0E0,0E0,0E0,0E0,0E0,0E0,0E0,0E0,0E0,0E0,0E0,0E0,0E0,0E0,0E0,0E0,0E0,0E0,0E0,0E0,0E0,0E0,0E0,0E0,0E0,0E0,0E0,0E0,0E0,0E0,0E0,0E0,0E0],"parents":[2147483647,0,0,1,1,2,2,3,3,4,4,5,5,6,6,7,7,8,8,9,9,10,10,11,11,12,12,13,13,14,14,15,15,16,16,17,17,18,18,19,19,20,20,21,21,22,22,23,23,24,24,25,25,26,26,27,27,28,28,29,29,30,30,31,31,32,32,33,33,34,34,35,35,36,36,37,37,38,38,39,39,40,40,41,41,42,42,43,43,45,45,46,46,47,47,48,48,49,49,50,50,51,51,52,52,53,53,54,54,55,55,56,56,57,57,58,58,61,61,62,62],"right_children":[2,4,6,8,10,12,14,16,18,20,22,24,26,28,30,32,34,36,38,40,42,44,46,48,50,52,54,56,58,60,62,64,66,68,70,72,74,76,78,80,82,84,86,88,-1,90,92,94,96,98,100,102,104,106,108,110,112,114,116,-1,-1,118,120,-1,-1,-1,-1,-1,-1,-1,-1,-1,-1,-1,-1,-1,-1,-1,-1,-1,-1,-1,-1,-1,-1,-1,-1,-1,-1,-1,-1,-1,-1,-1,-1,-1,-1,-1,-1,-1,-1,-1,-1,-1,-1,-1,-1,-1,-1,-1,-1,-1,-1,-1,-1,-1,-1,-1,-1,-1,-1],"split_conditions":[1.7E1,3E0,1.38E2,1.11E2,3E0,2E0,1.56E2,1E0,1.6E1,1.21E2,1.1E2,1.8E1,3E0,2E0,2E0,9.3E1,2E0,1.3E1,1E0,3E0,2E0,1.07E2,1.24E2,1.26E2,1.09E2,3E0,1E2,3E0,1.8E1,2E0,3E0,2E0,1E0,1.04E2,3E0,2E0,1.13E2,3E0,2E0,2E0,3E0,1E0,1E0,3E0,-1.0520072E-2,2E0,3E0,9E1,1E0,2.1E1,2.1E1,1.33E2,1.01E2,2E0,1.22E2,2E0,1E0,1.41E2,1.9E1,-4.084754E-4,1.1887287E-2,3E0,3E0,1.0051953E-2,3.4691517E-3,8.543634E-3,1.1209625E-2,1.3007432E-2,2.2104045E-3,-1.5798878E-3,1.0118217E-2,1.0191571E-3,5.218203E-3,-3.708062E-3,7.1967393E-3,5.3157276E-3,6.217531E-4,-1.065531E-2,2.4024214E-4,7.157216E-3,6.153267E-4,-9.534507E-3,-6.539171E-4,-1.3511938E-3,7.75071E-3,-2.5994708E-3,-9.080035E-3,-4.578838E-3,6.211507E-3,2.6926366E-3,1.0200617E-2,3.059023E-3,-2.3330066E-3,-5.934044E-3,1.0973637E-3,-6.646155E-3,6.224897E-3,-6.6736797E-3,-9.2291385E-3,-5.960759E-3,-3.2210127E-3,-3.8527714E-3,-1.1023626E-3,-4.4544945E-3,-5.3564E-4,3.896332E-3,5.9150415E-4,-2.3489587E-3,3.0992238E-4,-3.7318396E-3,1.2678272E-4,5.5073774E-3,-5.3707133E-3,2.2453996E-3,7.625085E-3,1.6755794E-4,2.9167628E-3,4.0467656E-3,-5.756685E-3,-1.3610295E-2,-5.08579E-4],"split_indices":[1,6,11,11,4,6,11,24,1,11,11,1,6,16,6,11,7,1,24,2,9,11,11,11,11,15,11,6,1,4,15,9,18,11,15,15,11,2,2,7,13,18,24,15,0,5,9,11,22,1,1,11,11,16,11,15,23,11,1,0,0,13,4,0,0,0,0,0,0,0,0,0,0,0,0,0,0,0,0,0,0,0,0,0,0,0,0,0,0,0,0,0,0,0,0,0,0,0,0,0,0,0,0,0,0,0,0,0,0,0,0,0,0,0,0,0,0,0,0,0,0],"split_type":[0,0,0,0,0,0,0,0,0,0,0,0,0,0,0,0,0,0,0,0,0,0,0,0,0,0,0,0,0,0,0,0,0,0,0,0,0,0,0,0,0,0,0,0,0,0,0,0,0,0,0,0,0,0,0,0,0,0,0,0,0,0,0,0,0,0,0,0,0,0,0,0,0,0,0,0,0,0,0,0,0,0,0,0,0,0,0,0,0,0,0,0,0,0,0,0,0,0,0,0,0,0,0,0,0,0,0,0,0,0,0,0,0,0,0,0,0,0,0,0,0],"sum_hessian":[5.476E3,1.788E3,3.688E3,1.49E3,2.98E2,3.004E3,6.84E2,4.18E2,1.072E3,2.16E2,8.2E1,1.241E3,1.763E3,5.96E2,8.8E1,3.63E2,5.5E1,9.2E2,1.52E2,9.8E1,1.18E2,9E0,7.3E1,1.83E2,1.058E3,1.256E3,5.07E2,2.01E2,3.95E2,4E0,8.4E1,3.7E1,3.26E2,2.1E1,3.4E1,4.06E2,5.14E2,1.26E2,2.6E1,8.4E1,1.4E1,6.5E1,5.3E1,6E0,3E0,2.8E1,4.5E1,1.57E2,2.6E1,3.31E2,7.27E2,8.59E2,3.97E2,1.12E2,3.95E2,1.72E2,2.9E1,6.5E1,3.3E2,1E0,3E0,7.2E1,1.2E1,1.2E1,2.5E1,2.77E2,4.9E1,1.5E1,6E0,2.3E1,1.1E1,1.06E2,3E2,9E0,5.05E2,8.3E1,4.3E1,6E0,2E1,1.8E1,6.6E1,8E0,6E0,6E1,5E0,4.1E1,1.2E1,4E0,2E0,8E0,2E1,2.8E1,1.7E1,2E1,1.37E2,2.4E1,2E0,2.33E2,9.8E1,4.86E2,2.41E2,7.87E2,7.2E1,8.9E1,3.08E2,3.6E1,7.6E1,2.3E2,1.65E2,7.8E1,9.4E1,2.8E1,1E0,1.6E1,4.9E1,6.6E1,2.64E2,1.8E1,5.4E1,9E0,3E0],"tree_param":{"num_deleted":"0","num_feature":"25","num_nodes":"121","size_leaf_vector":"1"}},{"base_weights":[2.342064E-3,5.178054E-1,-2.5673443E-1,6.2764704E-1,-2.1059336E-2,-3.4240678E-1,1.16399094E-1,1.6870687E-2,6.6378844E-1,-1.2218207E-1,1.999746E-1,-5.143805E-1,-2.2423688E-1,2.1831396E-1,-1.9365257E-1,-3.2726982E-1,2.4817929E-1,8.401584E-1,5.840018E-1,-7.58524E-2,-8.9574385E-1,-4.0236846E-1,3.595801E-1,6.9935266E-3,-5.9818846E-1,-1.4844091E-1,-4.2924443E-1,3.286224E-1,-2.2396836E-1,-5.158987E-1,1.0882283E-1,7.0236295E-2,-8.619604E-1,6.0936505E-1,-1.9859429E-1,9.396358E-1,7.0540214E-1,6.091717E-1,-5.029026E-1,-1.12394206E-1,5.1513755E-1,-2.277909E-1,-1.3403115E-2,4.37947E-1,-6.923387E-1,6.787543E-1,1.2279029E-1,-6.863057E-1,1.2169827E-1,-4.7187877E-1,-7.637624E-1,-2.2031423E-1,-1.3667961E-2,-5.517285E-1,-1.3606061E-1,2.0061328E-1,4.7358796E-1,-3.6259592E-1,7.636529E-1,-7.5188714E-1,-1.7751747E-1,-1.5984748E-1,3.6910442E-1,6.5736608E-3,-5.232786E-3,-1.2429506E-2,1.4860992E-3,4.2431726E-4,8.2331905E-3,8.297959E-4,-1.0571458E-2,7.375233E-3,1.08270785E-2,9.856264E-3,4.9393973E-3,4.2716735E-3,7.356034E-3,4.333809E-3,-9.396129E-3,-2.9350678E-4,-3.6796783E-3,-5.427813E-4,7.109737E-3,1.93744E-3,-7.139072E-3,7.4008475E-3,-5.3637098E-3,-8.002272E-3,4.629943E-3,8.752904E-3,2.6187527E-3,-7.1229576E-3,1.769373E-3,-5.5846013E-4,-8.492768E-3,-4.9959477E-3,2.3688558E-3,-6.6026133E-3,-4.1096634E-3,-8.163339E-3,8.619929E-4,-9.7665645E-5,-2.791241E-3,-1.0812061E-3,1.9929179E-3,-8.544921E-3,-4.9916967E-3,2.3732262E-3,-2.9152094E-3,-2.1234662E-3,3.3955353E-3,2.5352153E-3,6.5351417E-3,-2.6084823E-4,-4.827479E-3,1.0005321E-2,-1.0394493E-2,-9.472794E-3,-2.097002E-3,-2.9593913E-3,4.441771E-3,-5.9931874E-3,6.521641E-4,5.1885173E-3,4.601649E-6],"categories":[],"categories_nodes":[],"categories_segments":[],"categories_sizes":[],"default_left":[0,0,0,0,0,0,0,0,0,0,0,0,0,0,0,0,0,0,0,0,0,0,0,0,0,0,0,0,0,0,0,0,0,0,0,0,0,0,0,0,0,0,0,0,0,0,0,0,0,0,0,0,0,0,0,0,0,0,0,0,0,0,0,0,0,0,0,0,0,0,0,0,0,0,0,0,0,0,0,0,0,0,0,0,0,0,0,0,0,0,0,0,0,0,0,0,0,0,0,0,0,0,0,0,0,0,0,0,0,0,0,0,0,0,0,0,0,0,0,0,0,0,0,0,0],"id":2,"left_children":[1,3,5,7,9,11,13,15,17,19,21,23,25,27,29,31,33,35,37,39,41,43,45,47,49,51,53,55,57,59,61,63,65,67,69,71,73,75,77,79,81,83,-1,85,87,89,91,93,95,97,99,101,103,105,107,109,111,113,115,117,119,121,123,-1,-1,-1,-1,-1,-1,-1,-1,-1,-1,-1,-1,-1,-1,-1,-1,-1,-1,-1,-1,-1,-1,-1,-1,-1,-1,-1,-1,-1,-1,-1,-1,-1,-1,-1,-1,-1,-1,-1,-1,-1,-1,-1,-1,-1,-1,-1,-1,-1,-1,-1,-1,-1,-1,-1,-1,-1,-1,-1,-1,-1,-1],"loss_changes":[7.310216E2,1.0838971E2,1.16496445E2,3.3563904E1,6.975767E0,6.009909E1,2.1561111E1,6.92705E0,1.9716736E1,7.6015735E0,9.566135E0,5.2700684E1,2.7253403E1,2.5101576E1,1.652883E1,7.499538E0,8.512164E0,5.3024597E0,2.7444733E1,4.4418545E0,3.258092E0,5.420204E0,5.811678E0,1.3443673E1,2.1368805E1,1.2444241E1,1.6946426E1,7.5318794E0,1.4378784E1,6.4145603E0,6.2128344E0,7.6618614E0,5.9599724E0,3.4826965E0,5.889618E0,6.517395E0,1.0949738E1,2.2006592E1,9.81156E0,4.0641575E0,1.3767366E0,1.367805E0,0E0,2.1632297E0,2.3648543E0,2.4745321E0,2.2060323E0,2.4184942E0,1.0495285E1,6.521759E0,2.0088745E1,1.0373623E1,9.032894E0,4.8883667E0,8.253712E0,1.2694989E1,7.4367027E0,3.6667624E0,6.5925307E0,4.8864307E0,2.7082233E0,4.3910866E0,2.4839177E0,0E0,0E0,0E0,0E0,0E0,0E0,0E0,0E0,0E0,0E0,0E0,0E0,0E0,0E0,0E0,0E0,0E0,0E0,0E0,0E0,0E0,0E0,0E0,0E0,0E0,0E0,0E0,0E0,0E0,0E0,0E0,0E0,0E0,0E0,0E0,0E0,0E0,0E0,0E0,0E0,0E0,0E0,0E0,0E0,0E0,0E0,0E0,0E0,0E0,0E0,0E0,0E0,0E0,0E0,0E0,0E0,0E0,0E0,0E0,0E0,0E0,0E0],"parents":[2147483647,0,0,1,1,2,2,3,3,4,4,5,5,6,6,7,7,8,8,9,9,10,10,11,11,12,12,13,13,14,14,15,15,16,16,17,17,18,18,19,19,20,20,21,21,22,22,23,23,24,24,25,25,26,26,27,27,28,28,29,29,30,30,31,31,32,32,33,33,34,34,35,35,36,36,37,37,38,38,39,39,40,40,41,41,43,43,44,44,45,45,46,46,47,47,48,48,49,49,50,50,51,51,52,52,53,53,54,54,55,55,56,56,57,57,58,58,59,59,60,60,61,61,62,62],"right_children":[2,4,6,8,10,12,14,16,18,20,22,24,26,28,30,32,34,36,38,40,42,44,46,48,50,52,54,56,58,60,62,64,66,68,70,72,74,76,78,80,82,84,-1,86,88,90,92,94,96,98,100,102,104,106,108,110,112,114,116,118,120,122,124,-1,-1,-1,-1,-1,-1,-1,-1,-1,-1,-1,-1,-1,-1,-1,-1,-1,-1,-1,-1,-1,-1,-1,-1,-1,-1,-1,-1,-1,-1,-1,-1,-1,-1,-1,-1,-1,-1,-1,-1,-1,-1,-1,-1,-1,-1,-1,-1,-1,-1,-1,-1,-1,-1,-1,-1,-1,-1,-1,-1,-1,-1],"split_conditions":[1.7E1,3E0,1.38E2,1E2,1.11E2,2E0,1.29E2,2E0,1.15E2,1.1E2,2E0,1.8E1,1.25E2,1.51E2,2E0,1.56E2,1.6E1,3E0,1.38E2,1.44E2,2E0,2E0,3E0,9.8E1,1.25E2,1.22E2,3E0,1.11E2,1.14E2,1E0,1E0,1E0,1.63E2,9.4E1,9.8E1,1E0,1.2E2,1.3E1,1.36E2,3E0,2E0,1.23E2,-1.3403115E-2,1.18E2,1E0,3E0,2E0,8.4E1,9E1,1.1E2,1.33E2,1E2,3E0,1.9E1,9.1E1,2E0,1.41E2,2E0,3E0,3E0,3E0,2E0,3E0,6.5736608E-3,-5.232786E-3,-1.2429506E-2,1.4860992E-3,4.2431726E-4,8.2331905E-3,8.297959E-4,-1.0571458E-2,7.375233E-3,1.08270785E-2,9.856264E-3,4.9393973E-3,4.2716735E-3,7.356034E-3,4.333809E-3,-9.396129E-3,-2.9350678E-4,-3.6796783E-3,-5.427813E-4,7.109737E-3,1.93744E-3,-7.139072E-3,7.4008475E-3,-5.3637098E-3,-8.002272E-3,4.629943E-3,8.752904E-3,2.6187527E-3,-7.1229576E-3,1.769373E-3,-5.5846013E-4,-8.492768E-3,-4.9959477E-3,2.3688558E-3,-6.6026133E-3,-4.1096634E-3,-8.163339E-3,8.619929E-4,-9.7665645E-5,-2.791241E-3,-1.0812061E-3,1.9929179E-3,-8.544921E-3,-4.9916967E-3,2.3732262E-3,-2.9152094E-3,-2.1234662E-3,3.3955353E-3,2.5352153E-3,6.5351417E-3,-2.6084823E-4,-4.827479E-3,1.0005321E-2,-1.0394493E-2,-9.472794E-3,-2.097002E-3,-2.9593913E-3,4.441771E-3,-5.9931874E-3,6.521641E-4,5.1885173E-3,4.601649E-6],"split_indices":[1,6,11,0,0,6,0,7,11,0,5,1,0,11,2,11,1,9,0,11,13,10,16,0,0,11,6,0,0,24,3,3,11,0,0,3,0,1,11,17,2,11,0,0,21,7,15,0,11,11,11,0,13,1,11,16,11,9,13,10,13,17,8,0,0,0,0,0,0,0,0,0,0,0,0,0,0,0,0,0,0,0,0,0,0,0,0,0,0,0,0,0,0,0,0,0,0,0,0,0,0,0,0,0,0,0,0,0,0,0,0,0,0,0,0,0,0,0,0,0,0,0,0,0,0],"split_type":[0,0,0,0,0,0,0,0,0,0,0,0,0,0,0,0,0,0,0,0,0,0,0,0,0,0,0,0,0,0,0,0,0,0,0,0,0,0,0,0,0,0,0,0,0,0,0,0,0,0,0,0,0,0,0,0,0,0,0,0,0,0,0,0,0,0,0,0,0,0,0,0,0,0,0,0,0,0,0,0,0,0,0,0,0,0,0,0,0,0,0,0,0,0,0,0,0,0,0,0,0,0,0,0,0,0,0,0,0,0,0,0,0,0,0,0,0,0,0,0,0,0,0,0,0],"sum_hessian":[5.472E3,1.83E3,3.642E3,1.52E3,3.1E2,2.962E3,6.8E2,8.5E1,1.435E3,2.13E2,9.7E1,1.205E3,1.757E3,5.12E2,1.68E2,3.4E1,5.1E1,4.44E2,9.91E2,2.02E2,1.1E1,2E1,7.7E1,1.67E2,1.038E3,1.284E3,4.73E2,4.1E2,1.02E2,8.1E1,8.7E1,2E1,1.4E1,2.8E1,2.3E1,2.52E2,1.92E2,9.69E2,2.2E1,1.91E2,1.1E1,5E0,6E0,5E0,1.5E1,3.2E1,4.5E1,2.3E1,1.44E2,5.91E2,4.47E2,8.37E2,4.47E2,3.33E2,1.4E2,2.19E2,1.91E2,9E1,1.2E1,4.7E1,3.4E1,4.3E1,4.4E1,1E1,1E1,1E1,4E0,8E0,2E1,1.8E1,5E0,1.07E2,1.45E2,8.1E1,1.11E2,3.99E2,5.7E2,7E0,1.5E1,1.45E2,4.6E1,3E0,8E0,3E0,2E0,4E0,1E0,1.4E1,1E0,2.1E1,1.1E1,2E0,4.3E1,5E0,1.8E1,2.2E1,1.22E2,1.42E2,4.49E2,4.21E2,2.6E1,1.83E2,6.54E2,3.1E2,1.37E2,4.7E1,2.86E2,4.1E1,9.9E1,5.5E1,1.64E2,8.7E1,1.04E2,2.4E1,6.6E1,1.1E1,1E0,3.4E1,1.3E1,2.9E1,5E0,1.4E1,2.9E1,3.1E1,1.3E1],"tree_param":{"num_deleted":"0","num_feature":"25","num_nodes":"125","size_leaf_vector":"1"}},{"base_weights":[-5.3651477E-3,5.339813E-1,-2.7577373E-1,6.20045E-1,7.521015E-2,-3.559063E-1,1.1618557E-1,-1.2515521E-1,6.6028786E-1,2.6835588E-1,-4.8912458E-2,-5.296252E-1,-2.3373418E-1,2.0518067E-1,-1.5097405E-1,4.1692704E-1,-3.2516629E-1,4.4931218E-1,7.238375E-1,4.501839E-1,-9.285656E-2,-9.4427854E-2,6.5067834E-1,-1.4842919E-1,-5.9254754E-1,-1.723788E-1,-4.3729E-1,3.2704028E-1,-2.569952E-1,-4.1848576E-1,1.3612361E-1,9.219827E-1,-1.7194527E-1,1.2600014E-1,-5.4262036E-1,6.533706E-1,2.2902513E-1,7.448168E-1,-1.6011909E-2,-4.475592E-1,5.062746E-1,-6.9504255E-1,1.3876076E-1,-7.1147154E-3,-3.4033045E-1,8.145954E-3,-5.7965834E-2,-8.154338E-1,2.5190407E-2,-4.1415596E-1,-7.29181E-1,-2.6897934E-1,7.5240806E-3,-5.4275316E-1,-1.7829823E-1,2.0613813E-1,4.5214728E-1,-3.688224E-1,1.0471637E0,-5.733114E-1,1.5525448E-1,-2.8313306E-1,5.2053297E-1,1.2540218E-2,-5.5601E-4,-5.2244407E-3,9.368663E-3,4.5896606E-3,-7.2741467E-3,-1.0620036E-2,-2.5321345E-3,5.963496E-3,1.2746617E-2,-3.8537758E-3,3.2556844E-3,5.748645E-3,8.014574E-3,6.7740977E-3,-7.517717E-3,-1.0442969E-2,9.696959E-3,8.547356E-3,4.074265E-3,-1.0549251E-2,1.9848323E-3,-2.4313405E-3,3.5255456E-3,-1.6665178E-3,2.0573311E-3,2.6416944E-3,-6.31236E-3,-5.43874E-3,4.5692525E-3,-4.883485E-3,-1.17151365E-2,1.1005874E-3,-5.3447974E-3,-4.797809E-3,-2.54904E-3,-7.791356E-3,-1.4338964E-3,-3.0672157E-4,-3.2859659E-3,2.3803592E-3,-4.1848797E-4,-6.339785E-3,-3.332861E-3,-3.5547202E-3,1.2882795E-3,3.4267227E-3,-1.105029E-3,2.6376091E-3,5.741662E-3,3.4083887E-3,-5.8658994E-3,1.3346862E-2,4.2596958E-3,-6.715027E-3,1.9796581E-3,-1.3735387E-3,9.43507E-3,-6.5564667E-4,-6.358837E-3,7.2935894E-3,1.2386573E-3],"categories":[],"categories_nodes":[],"categories_segments":[],"categories_sizes":[],"default_left":[0,0,0,0,0,0,0,0,0,0,0,0,0,0,0,0,0,0,0,0,0,0,0,0,0,0,0,0,0,0,0,0,0,0,0,0,0,0,0,0,0,0,0,0,0,0,0,0,0,0,0,0,0,0,0,0,0,0,0,0,0,0,0,0,0,0,0,0,0,0,0,0,0,0,0,0,0,0,0,0,0,0,0,0,0,0,0,0,0,0,0,0,0,0,0,0,0,0,0,0,0,0,0,0,0,0,0,0,0,0,0,0,0,0,0,0,0,0,0,0,0,0,0,0,0],"id":3,"left_children":[1,3,5,7,9,11,13,15,17,19,21,23,25,27,29,31,33,35,37,39,41,43,45,47,49,51,53,55,57,59,61,63,65,67,69,71,73,75,77,79,81,83,85,87,89,-1,91,93,95,97,99,101,103,105,107,109,111,113,115,117,119,121,123,-1,-1,-1,-1,-1,-1,-1,-1,-1,-1,-1,-1,-1,-1,-1,-1,-1,-1,-1,-1,-1,-1,-1,-1,-1,-1,-1,-1,-1,-1,-1,-1,-1,-1,-1,-1,-1,-1,-1,-1,-1,-1,-1,-1,-1,-1,-1,-1,-1,-1,-1,-1,-1,-1,-1,-1,-1,-1,-1,-1,-1,-1],"loss_changes":[8.0141364E2,7.24057E1,1.1499722E2,4.641559E1,6.9894867E0,6.4374756E1,1.4819588E1,8.809367E0,1.9330078E1,7.5291557E0,5.729345E0,2.9990204E1,2.2230415E1,2.6385756E1,1.2038076E1,6.701623E0,5.8567405E0,1.5223747E1,1.7473572E1,4.0535736E0,5.5360365E0,3.6046271E0,1.3249669E0,2.0749651E1,2.5924683E1,2.3880386E1,1.1183945E1,5.5033073E0,1.4678581E1,7.284213E0,1.239601E1,3.964878E0,4.764469E0,6.0170193E0,5.7436104E0,5.510376E0,9.971999E0,1.00703125E1,1.6835396E1,5.2412987E0,2.1317768E0,3.7465925E0,2.4534736E0,4.2789254E0,7.9042587E0,0E0,9.990792E-1,3.7372265E0,6.8510776E0,4.779175E0,1.7680206E1,1.269117E1,5.4842386E0,5.3875504E0,6.6299753E0,8.252006E0,4.0091476E0,1.4263179E1,8.6032295E-1,4.97983E0,4.2812815E0,2.797962E0,3.223034E0,0E0,0E0,0E0,0E0,0E0,0E0,0E0,0E0,0E0,0E0,0E0,0E0,0E0,0E0,0E0,0E0,0E0,0E0,0E0,0E0,0E0,0E0,0E0,0E0,0E0,0E0,0E0,0E0,0E0,0E0,0E0,0E0,0E0,0E0,0E0,0E0,0E0,0E0,0E0,0E0,0E0,0E0,0E0,0E0,0E0,0E0,0E0,0E0,0E0,0E0,0E0,0E0,0E0,0E0,0E0,0E0,0E0,0E0,0E0,0E0,0E0,0E0],"parents":[2147483647,0,0,1,1,2,2,3,3,4,4,5,5,6,6,7,7,8,8,9,9,10,10,11,11,12,12,13,13,14,14,15,15,16,16,17,17,18,18,19,19,20,20,21,21,22,22,23,23,24,24,25,25,26,26,27,27,28,28,29,29,30,30,31,31,32,32,33,33,34,34,35,35,36,36,37,37,38,38,39,39,40,40,41,41,42,42,43,43,44,44,46,46,47,47,48,48,49,49,50,50,51,51,52,52,53,53,54,54,55,55,56,56,57,57,58,58,59,59,60,60,61,61,62,62],"right_children":[2,4,6,8,10,12,14,16,18,20,22,24,26,28,30,32,34,36,38,40,42,44,46,48,50,52,54,56,58,60,62,64,66,68,70,72,74,76,78,80,82,84,86,88,90,-1,92,94,96,98,100,102,104,106,108,110,112,114,116,118,120,122,124,-1,-1,-1,-1,-1,-1,-1,-1,-1,-1,-1,-1,-1,-1,-1,-1,-1,-1,-1,-1,-1,-1,-1,-1,-1,-1,-1,-1,-1,-1,-1,-1,-1,-1,-1,-1,-1,-1,-1,-1,-1,-1,-1,-1,-1,-1,-1,-1,-1,-1,-1,-1,-1,-1,-1,-1,-1,-1,-1,-1,-1,-1],"split_conditions":[1.7E1,3E0,1.39E2,1E2,2E0,2E0,1.29E2,1.5E1,1.2E1,1.27E2,1.44E2,1.8E1,1.27E2,1.55E2,2E0,9.8E1,2E0,1.37E2,1.43E2,1.06E2,2E0,3E0,1E0,1.02E2,1.19E2,1.23E2,3E0,1.11E2,1.17E2,3E0,1E0,1.54E2,1E0,3E0,2E0,1E0,1.5E2,1.11E2,1.6E1,2E0,2E0,3E0,2E0,2E0,2E0,8.145954E-3,9.4E1,1.21E2,1.29E2,3E0,1.32E2,1E2,1.26E2,3E0,1.39E2,3E0,1.41E2,2E0,1.6E2,3E0,3E0,2E1,1.45E2,1.2540218E-2,-5.5601E-4,-5.2244407E-3,9.368663E-3,4.5896606E-3,-7.2741467E-3,-1.0620036E-2,-2.5321345E-3,5.963496E-3,1.2746617E-2,-3.8537758E-3,3.2556844E-3,5.748645E-3,8.014574E-3,6.7740977E-3,-7.517717E-3,-1.0442969E-2,9.696959E-3,8.547356E-3,4.074265E-3,-1.0549251E-2,1.9848323E-3,-2.4313405E-3,3.5255456E-3,-1.6665178E-3,2.0573311E-3,2.6416944E-3,-6.31236E-3,-5.43874E-3,4.5692525E-3,-4.883485E-3,-1.17151365E-2,1.1005874E-3,-5.3447974E-3,-4.797809E-3,-2.54904E-3,-7.791356E-3,-1.4338964E-3,-3.0672157E-4,-3.2859659E-3,2.3803592E-3,-4.1848797E-4,-6.339785E-3,-3.332861E-3,-3.5547202E-3,1.2882795E-3,3.4267227E-3,-1.105029E-3,2.6376091E-3,5.741662E-3,3.4083887E-3,-5.8658994E-3,1.3346862E-2,4.2596958E-3,-6.715027E-3,1.9796581E-3,-1.3735387E-3,9.43507E-3,-6.5564667E-4,-6.358837E-3,7.2935894E-3,1.2386573E-3],"split_indices":[1,6,11,0,2,6,0,1,1,11,11,1,0,11,2,0,13,11,0,11,14,7,22,0,0,11,6,0,0,10,3,11,22,15,17,23,11,0,1,9,7,9,13,17,9,0,0,11,11,15,11,0,11,15,0,2,11,9,11,15,9,1,0,0,0,0,0,0,0,0,0,0,0,0,0,0,0,0,0,0,0,0,0,0,0,0,0,0,0,0,0,0,0,0,0,0,0,0,0,0,0,0,0,0,0,0,0,0,0,0,0,0,0,0,0,0,0,0,0,0,0,0,0,0,0],"split_type":[0,0,0,0,0,0,0,0,0,0,0,0,0,0,0,0,0,0,0,0,0,0,0,0,0,0,0,0,0,0,0,0,0,0,0,0,0,0,0,0,0,0,0,0,0,0,0,0,0,0,0,0,0,0,0,0,0,0,0,0,0,0,0,0,0,0,0,0,0,0,0,0,0,0,0,0,0,0,0,0,0,0,0,0,0,0,0,0,0,0,0,0,0,0,0,0,0,0,0,0,0,0,0,0,0,0,0,0,0,0,0,0,0,0,0,0,0,0,0,0,0,0,0,0,0],"sum_hessian":[5.493E3,1.834E3,3.659E3,1.544E3,2.9E2,3.038E3,6.21E2,7.9E1,1.465E3,1.13E2,1.77E2,1.253E3,1.785E3,4.66E2,1.55E2,2.1E1,5.8E1,3.41E2,1.124E3,7.5E1,3.8E1,1.67E2,1E1,1.78E2,1.075E3,1.373E3,4.12E2,3.69E2,9.7E1,8E1,7.5E1,1.1E1,1E1,1.9E1,3.9E1,1.76E2,1.65E2,1.093E3,3.1E1,4E0,7.1E1,1E1,2.8E1,1.24E2,4.3E1,8E0,2E0,3.6E1,1.42E2,4.68E2,6.07E2,8.93E2,4.8E2,2.92E2,1.2E2,1.89E2,1.8E2,9E1,7E0,6.3E1,1.7E1,3.6E1,3.9E1,8E0,3E0,8E0,2E0,1.4E1,5E0,1.3E1,2.6E1,1.63E2,1.3E1,2.2E1,1.43E2,2.76E2,8.17E2,1.6E1,1.5E1,3E0,1E0,1.4E1,5.7E1,7E0,3E0,1E1,1.8E1,7.1E1,5.3E1,1.4E1,2.9E1,1E0,1E0,2E1,1.6E1,1.24E2,1.8E1,3.3E2,1.38E2,5.59E2,4.8E1,1.79E2,7.14E2,8.4E1,3.96E2,2.02E2,9E1,7.6E1,4.4E1,1.32E2,5.7E1,7.2E1,1.08E2,2.1E1,6.9E1,4E0,3E0,5.6E1,7E0,1.3E1,4E0,2.3E1,1.3E1,2.5E1,1.4E1],"tree_param":{"num_deleted":"0","num_feature":"25","num_nodes":"125","size_leaf_vector":"1"}},{"base_weights":[9.459548E-3,7.423501E-2,-4.2758206E-1,-1.1268527E-1,1.3303597E-1,-3.319818E-1,-5.792516E-1,-1.8397771E-1,8.4443145E-2,-8.202079E-3,1.9814298E-1,-4.016465E-1,-1.5544291E-1,-7.013032E-1,-3.6566618E-1,-3.5440275E-1,-9.6130654E-2,2.9314524E-1,-2.0873336E-1,-1.3858381E-1,7.058549E-2,3.3089608E-1,1.00547425E-1,-4.401785E-1,5.8308333E-2,-4.0392327E-1,-2.021634E-2,-8.096687E-1,-4.3565843E-1,-5.109935E-1,5.1564004E-2,-4.0917438E-1,1.8412544E-1,-3.328045E-1,-1.6249714E-2,6.278987E-2,3.877142E-1,-2.5258496E-2,-7.305934E-1,-4.2617276E-1,5.330646E-2,-8.268354E-2,1.4917701E-1,1.834469E-1,5.1379466E-1,3.3154797E-2,2.2282176E-1,-5.055226E-1,-1.6649419E-1,3.9505765E-1,-2.8292623E-1,-5.628502E-1,5.1652616E-1,-3.669674E-1,2.090437E-1,-8.5349715E-1,-1.6941531E-1,1.12714395E-1,-7.0523137E-1,-7.4093837E-1,-3.0223584E-1,-1.8257713E-2,6.162236E-3,-4.947099E-3,2.0026488E-4,-1.2851927E-3,7.2847335E-3,-6.5315687E-3,-1.6908785E-3,-1.0982807E-3,1.8369391E-3,-9.15703E-4,4.9933395E-3,6.562095E-3,2.4070807E-3,3.2524997E-4,-8.878011E-3,-3.261565E-3,-1.19417375E-2,-6.440844E-3,-1.1154556E-3,-1.6133128E-3,2.11783E-3,1.8888337E-3,-2.353451E-3,2.7186493E-3,6.438004E-4,-1.6883113E-3,2.2561178E-3,6.079493E-3,8.7408844E-4,9.0999407E-4,-5.871362E-4,3.4018173E-3,1.3444059E-3,-5.9631965E-3,-1.7975735E-3,-3.351881E-3,5.694247E-3,6.6100936E-3,-7.117846E-3,2.9101213E-3,-4.1373433E-3,-2.3103785E-3,-1.0562266E-2,-3.2884913E-4,7.428676E-3,9.538476E-4,-6.357108E-3,-1.9852421E-3,3.5760875E-3,-7.357935E-3,-1.1411068E-2,-5.523848E-3,4.473927E-3,5.7989783E-3,-5.437521E-3,-4.158933E-3,-9.87125E-3,-2.5685881E-3,-1.0514268E-2,-4.4674138E-3,6.1516995E-3,2.532163E-3,-2.8832727E-3],"categories":[],"categories_nodes":[],"categories_segments":[],"categories_sizes":[],"default_left":[0,0,0,0,0,0,0,0,0,0,0,0,0,0,0,0,0,0,0,0,0,0,0,0,0,0,0,0,0,0,0,0,0,0,0,0,0,0,0,0,0,0,0,0,0,0,0,0,0,0,0,0,0,0,0,0,0,0,0,0,0,0,0,0,0,0,0,0,0,0,0,0,0,0,0,0,0,0,0,0,0,0,0,0,0,0,0,0,0,0,0,0,0,0,0,0,0,0,0,0,0,0,0,0,0,0,0,0,0,0,0,0,0,0,0,0,0,0,0,0,0,0,0,0,0],"id":4,"left_children":[1,3,5,7,9,11,13,15,17,19,21,23,25,27,29,31,33,35,37,39,41,43,45,47,49,51,53,55,57,59,61,63,65,67,69,71,73,75,77,79,81,83,85,87,89,91,93,95,97,99,101,103,105,107,109,111,113,115,117,119,121,123,-1,-1,-1,-1,-1,-1,-1,-1,-1,-1,-1,-1,-1,-1,-1,-1,-1,-1,-1,-1,-1,-1,-1,-1,-1,-1,-1,-1,-1,-1,-1,-1,-1,-1,-1,-1,-1,-1,-1,-1,-1,-1,-1,-1,-1,-1,-1,-1,-1,-1,-1,-1,-1,-1,-1,-1,-1,-1,-1,-1,-1,-1,-1],"loss_changes":[1.5505495E2,5.2442505E1,1.005896E1,1.6064934E1,3.3372406E1,5.2997246E0,6.834175E0,1.2526882E1,1.8661901E1,1.17820215E1,3.214972E1,5.555233E0,4.1919775E0,4.598564E0,6.1504793E0,8.481724E0,1.0487272E1,3.8532887E0,1.2141568E1,2.3862865E1,8.624971E0,2.8276337E1,1.180109E1,5.06633E0,2.984535E0,6.7272315E0,6.5953975E0,3.2508316E0,7.766466E0,3.3762684E0,1.0757395E0,9.518288E0,4.6886854E0,7.2321444E0,7.8037E0,3.6171303E0,4.815325E0,4.763745E0,5.7976513E0,1.1789194E1,8.87808E0,1.0118706E1,4.9033823E0,8.712688E0,1.8775436E1,4.920879E0,5.233822E0,6.755024E0,7.267131E0,4.297262E0,1.0963868E0,5.9768896E0,8.949107E-1,4.161022E0,3.0985115E0,2.985733E0,2.3731008E0,5.835745E0,2.444151E0,4.990469E0,5.7102003E0,1.9059308E0,0E0,0E0,0E0,0E0,0E0,0E0,0E0,0E0,0E0,0E0,0E0,0E0,0E0,0E0,0E0,0E0,0E0,0E0,0E0,0E0,0E0,0E0,0E0,0E0,0E0,0E0,0E0,0E0,0E0,0E0,0E0,0E0,0E0,0E0,0E0,0E0,0E0,0E0,0E0,0E0,0E0,0E0,0E0,0E0,0E0,0E0,0E0,0E0,0E0,0E0,0E0,0E0,0E0,0E0,0E0,0E0,0E0,0E0,0E0,0E0,0E0,0E0,0E0],"parents":[2147483647,0,0,1,1,2,2,3,3,4,4,5,5,6,6,7,7,8,8,9,9,10,10,11,11,12,12,13,13,14,14,15,15,16,16,17,17,18,18,19,19,20,20,21,21,22,22,23,23,24,24,25,25,26,26,27,27,28,28,29,29,30,30,31,31,32,32,33,33,34,34,35,35,36,36,37,37,38,38,39,39,40,40,41,41,42,42,43,43,44,44,45,45,46,46,47,47,48,48,49,49,50,50,51,51,52,52,53,53,54,54,55,55,56,56,57,57,58,58,59,59,60,60,61,61],"right_children":[2,4,6,8,10,12,14,16,18,20,22,24,26,28,30,32,34,36,38,40,42,44,46,48,50,52,54,56,58,60,62,64,66,68,70,72,74,76,78,80,82,84,86,88,90,92,94,96,98,100,102,104,106,108,110,112,114,116,118,120,122,124,-1,-1,-1,-1,-1,-1,-1,-1,-1,-1,-1,-1,-1,-1,-1,-1,-1,-1,-1,-1,-1,-1,-1,-1,-1,-1,-1,-1,-1,-1,-1,-1,-1,-1,-1,-1,-1,-1,-1,-1,-1,-1,-1,-1,-1,-1,-1,-1,-1,-1,-1,-1,-1,-1,-1,-1,-1,-1,-1,-1,-1,-1,-1],"split_conditions":[1.36E2,1.04E2,1.46E2,3E0,2E0,3E0,2E0,2E0,1E2,2E0,2E0,1.45E2,2E0,3E0,1.59E2,1.03E2,9.4E1,2E0,3E0,2E0,2E0,3E0,3E0,3E0,2E0,1E0,1.39E2,1E0,2E0,2E0,1.123E3,1E0,3E0,2E0,3E0,1E0,2E0,1E0,1E0,2E0,2E0,2E0,2E0,1.08E2,3E0,3E0,3E0,3E0,1E0,3E0,2E0,3E0,1.38E2,2E0,2E0,3E0,3E0,3E0,1E0,2E0,1E0,2E0,6.162236E-3,-4.947099E-3,2.0026488E-4,-1.2851927E-3,7.2847335E-3,-6.5315687E-3,-1.6908785E-3,-1.0982807E-3,1.8369391E-3,-9.15703E-4,4.9933395E-3,6.562095E-3,2.4070807E-3,3.2524997E-4,-8.878011E-3,-3.261565E-3,-1.19417375E-2,-6.440844E-3,-1.1154556E-3,-1.6133128E-3,2.11783E-3,1.8888337E-3,-2.353451E-3,2.7186493E-3,6.438004E-4,-1.6883113E-3,2.2561178E-3,6.079493E-3,8.7408844E-4,9.0999407E-4,-5.871362E-4,3.4018173E-3,1.3444059E-3,-5.9631965E-3,-1.7975735E-3,-3.351881E-3,5.694247E-3,6.6100936E-3,-7.117846E-3,2.9101213E-3,-4.1373433E-3,-2.3103785E-3,-1.0562266E-2,-3.2884913E-4,7.428676E-3,9.538476E-4,-6.357108E-3,-1.9852421E-3,3.5760875E-3,-7.357935E-3,-1.1411068E-2,-5.523848E-3,4.473927E-3,5.7989783E-3,-5.437521E-3,-4.158933E-3,-9.87125E-3,-2.5685881E-3,-1.0514268E-2,-4.4674138E-3,6.1516995E-3,2.532163E-3,-2.8832727E-3],"split_indices":[0,0,0,6,16,13,6,8,0,14,4,0,17,7,0,0,0,14,9,2,17,13,8,17,4,22,0,20,14,7,0,19,4,17,14,19,13,21,12,7,6,7,6,0,17,7,16,2,24,14,14,7,0,9,16,14,14,17,12,16,21,2,0,0,0,0,0,0,0,0,0,0,0,0,0,0,0,0,0,0,0,0,0,0,0,0,0,0,0,0,0,0,0,0,0,0,0,0,0,0,0,0,0,0,0,0,0,0,0,0,0,0,0,0,0,0,0,0,0,0,0,0,0,0,0],"split_type":[0,0,0,0,0,0,0,0,0,0,0,0,0,0,0,0,0,0,0,0,0,0,0,0,0,0,0,0,0,0,0,0,0,0,0,0,0,0,0,0,0,0,0,0,0,0,0,0,0,0,0,0,0,0,0,0,0,0,0,0,0,0,0,0,0,0,0,0,0,0,0,0,0,0,0,0,0,0,0,0,0,0,0,0,0,0,0,0,0,0,0,0,0,0,0,0,0,0,0,0,0,0,0,0,0,0,0,0,0,0,0,0,0,0,0,0,0,0,0,0,0,0,0,0,0],"sum_hessian":[5.475E3,4.769E3,7.06E2,1.141E3,3.628E3,4.35E2,2.71E2,8.38E2,3.03E2,1.145E3,2.483E3,3.11E2,1.24E2,1.71E2,1E2,2.84E2,5.54E2,1.77E2,1.26E2,4.31E2,7.14E2,1.051E3,1.432E3,2.87E2,2.4E1,4.3E1,8.1E1,1.2E2,5.1E1,7.4E1,2.6E1,2.58E2,2.6E1,1.39E2,4.15E2,5.2E1,1.25E2,9.4E1,3.2E1,1.72E2,2.59E2,2.42E2,4.72E2,5.83E2,4.68E2,9.24E2,5.08E2,2.31E2,5.6E1,1.2E1,1.2E1,3.7E1,6E0,3.2E1,4.9E1,1.12E2,8E0,1.7E1,3.4E1,3.4E1,4E1,2.4E1,2E0,2.15E2,4.3E1,1.7E1,9E0,4.6E1,9.3E1,2.83E2,1.32E2,3.9E1,1.3E1,4.3E1,8.2E1,8.9E1,5E0,1.8E1,1.4E1,1.01E2,7.1E1,1.1E2,1.49E2,8.7E1,1.55E2,1.92E2,2.8E2,6.2E1,5.21E2,3.83E2,8.5E1,5.67E2,3.57E2,2.17E2,2.91E2,1.8E2,5.1E1,4.6E1,1E1,1E1,2E0,2E0,1E1,2.3E1,1.4E1,2E0,4E0,1.2E1,2E1,1.3E1,3.6E1,8.2E1,3E1,5E0,3E0,1E1,7E0,1.8E1,1.6E1,1.4E1,2E1,3.5E1,5E0,1.2E1,1.2E1],"tree_param":{"num_deleted":"0","num_feature":"25","num_nodes":"125","size_leaf_vector":"1"}},{"base_weights":[1.08534675E-2,5.177685E-1,-2.4233046E-1,-5.563174E-2,5.8108836E-1,-3.3568704E-1,1.5582068E-1,-3.6821267E-1,8.155705E-2,6.302919E-1,2.3336512E-1,-5.153579E-1,-2.1307275E-1,2.682302E-1,-1.8620719E-1,-1.9341707E-2,-5.468399E-1,-1.14121035E-1,5.149019E-1,8.3965933E-1,5.373999E-1,-1.2428629E-1,3.644586E-1,-5.0773226E-2,-5.8908814E-1,-1.4443325E-1,-3.9839882E-1,3.8194528E-1,-2.5050065E-1,-2.720293E-1,1.599494E-1,-3.7778097E-1,1.1315322E-2,-1.1880984E-1,-9.460889E-1,-1.8574247E-2,-6.7127347E-1,-1.4012777E-3,7.3622465E-1,9.060343E-1,4.6771857E-1,5.656511E-1,-5.0478023E-1,7.104346E-2,-6.629239E-1,1.2799343E-1,5.9004855E-1,2.1121335E-1,-4.611095E-1,-3.895293E-1,-7.4089116E-1,-2.2398765E-1,1.991931E-2,-4.9983087E-1,-1.4815514E-1,2.7226678E-1,5.5539435E-1,-4.2087483E-1,1.0887997E0,-5.0206506E-1,-9.98876E-3,-3.9418116E-1,5.481403E-1,-9.34242E-3,1.5882676E-3,-4.8513217E-3,8.757985E-4,-1.1732302E-2,1.9899867E-3,5.0508003E-3,-1.8689386E-3,-3.5558657E-3,-1.2926723E-2,-1.0569331E-2,4.209516E-3,2.5997506E-3,1.1939046E-2,7.1225613E-3,1.00161405E-2,1.1814492E-2,2.1166338E-3,4.051011E-3,6.8598487E-3,3.707787E-3,-8.929512E-3,4.519867E-3,-2.3349673E-3,1.0828737E-3,-1.0593582E-2,2.6985104E-3,-9.422792E-3,8.570698E-3,3.3468667E-3,-4.5984625E-3,3.703697E-3,-1.0023262E-2,-1.6089794E-3,-6.950287E-3,-3.1771187E-3,-7.7341693E-3,-2.6236305E-3,2.1178431E-4,-2.9160115E-3,5.111726E-3,-2.861976E-4,-6.0634078E-3,-3.477971E-3,1.4668126E-3,-2.6876258E-3,-1.4568247E-3,4.1091843E-3,2.0702495E-3,8.20028E-3,7.589962E-3,-5.041042E-3,1.2862254E-2,4.217484E-3,-1.1298686E-2,-3.7451414E-3,-5.60503E-3,1.9244481E-3,-1.458065E-3,-1.0407598E-2,-6.026926E-4,1.0094699E-2],"categories":[],"categories_nodes":[],"categories_segments":[],"categories_sizes":[],"default_left":[0,0,0,0,0,0,0,0,0,0,0,0,0,0,0,0,0,0,0,0,0,0,0,0,0,0,0,0,0,0,0,0,0,0,0,0,0,0,0,0,0,0,0,0,0,0,0,0,0,0,0,0,0,0,0,0,0,0,0,0,0,0,0,0,0,0,0,0,0,0,0,0,0,0,0,0,0,0,0,0,0,0,0,0,0,0,0,0,0,0,0,0,0,0,0,0,0,0,0,0,0,0,0,0,0,0,0,0,0,0,0,0,0,0,0,0,0,0,0,0,0,0,0,0,0],"id":5,"left_children":[1,3,5,7,9,11,13,15,17,19,21,23,25,27,29,31,33,35,37,39,41,43,45,47,49,51,53,55,57,59,61,63,-1,65,67,69,71,73,75,77,79,81,83,85,87,89,91,93,95,97,99,101,103,105,107,109,111,113,115,117,119,121,123,-1,-1,-1,-1,-1,-1,-1,-1,-1,-1,-1,-1,-1,-1,-1,-1,-1,-1,-1,-1,-1,-1,-1,-1,-1,-1,-1,-1,-1,-1,-1,-1,-1,-1,-1,-1,-1,-1,-1,-1,-1,-1,-1,-1,-1,-1,-1,-1,-1,-1,-1,-1,-1,-1,-1,-1,-1,-1,-1,-1,-1,-1],"loss_changes":[7.054972E2,6.6511566E1,1.363176E2,7.877547E0,2.806604E1,6.531995E1,2.6847641E1,3.4792218E0,1.091266E1,2.7632507E1,9.703763E0,4.1211853E1,2.2419914E1,3.1064133E1,5.1829762E0,8.677839E0,6.2105465E0,4.7253685E0,4.5718184E0,1.0488129E1,2.9816742E1,5.938965E0,7.9794464E0,1.7942822E1,3.1186493E1,1.688425E1,1.2033508E1,8.04797E0,2.2135553E1,8.373725E0,7.7448616E0,4.9260044E0,0E0,1.4789855E0,5.175308E0,6.8812766E0,2.0905204E0,6.240408E0,5.7927713E0,6.2135315E0,1.2359982E1,1.8597351E1,9.507487E0,4.978063E0,4.700735E0,1.1641249E1,4.9635563E0,1.10642605E1,1.0399899E1,9.674194E0,8.964569E0,1.4427761E1,1.007721E1,5.2785797E0,4.982188E0,1.547439E1,1.5133823E1,8.7296095E0,9.061613E-1,5.5025387E0,7.463075E0,2.2571568E0,5.9550643E0,0E0,0E0,0E0,0E0,0E0,0E0,0E0,0E0,0E0,0E0,0E0,0E0,0E0,0E0,0E0,0E0,0E0,0E0,0E0,0E0,0E0,0E0,0E0,0E0,0E0,0E0,0E0,0E0,0E0,0E0,0E0,0E0,0E0,0E0,0E0,0E0,0E0,0E0,0E0,0E0,0E0,0E0,0E0,0E0,0E0,0E0,0E0,0E0,0E0,0E0,0E0,0E0,0E0,0E0,0E0,0E0,0E0,0E0,0E0,0E0,0E0,0E0],"parents":[2147483647,0,0,1,1,2,2,3,3,4,4,5,5,6,6,7,7,8,8,9,9,10,10,11,11,12,12,13,13,14,14,15,15,16,16,17,17,18,18,19,19,20,20,21,21,22,22,23,23,24,24,25,25,26,26,27,27,28,28,29,29,30,30,31,31,33,33,34,34,35,35,36,36,37,37,38,38,39,39,40,40,41,41,42,42,43,43,44,44,45,45,46,46,47,47,48,48,49,49,50,50,51,51,52,52,53,53,54,54,55,55,56,56,57,57,58,58,59,59,60,60,61,61,62,62],"right_children":[2,4,6,8,10,12,14,16,18,20,22,24,26,28,30,32,34,36,38,40,42,44,46,48,50,52,54,56,58,60,62,64,-1,66,68,70,72,74,76,78,80,82,84,86,88,90,92,94,96,98,100,102,104,106,108,110,112,114,116,118,120,122,124,-1,-1,-1,-1,-1,-1,-1,-1,-1,-1,-1,-1,-1,-1,-1,-1,-1,-1,-1,-1,-1,-1,-1,-1,-1,-1,-1,-1,-1,-1,-1,-1,-1,-1,-1,-1,-1,-1,-1,-1,-1,-1,-1,-1,-1,-1,-1,-1,-1,-1,-1,-1,-1,-1,-1,-1,-1,-1,-1,-1,-1,-1],"split_conditions":[1.7E1,1.01E2,1.38E2,2E0,3E0,2E0,1.29E2,2E0,1.42E2,1.15E2,2E0,1.8E1,1.25E2,1.55E2,3E0,3E0,1.39E2,1E0,2E0,1E0,1.38E2,3E0,1.11E2,1.15E2,1.19E2,1.23E2,3E0,1.15E2,1.11E2,2E0,2E0,1.4E2,1.1315322E-2,1.4E1,1E0,9.7E1,3E0,2E0,9.6E1,2E0,2E0,1.3E1,1.36E2,2E0,1.07E2,1.1E2,3E0,9E1,1.04E2,1.09E2,1.32E2,1E2,1.8E1,3E0,9.1E1,2E0,1.41E2,2E0,1.6E2,1.8E1,2E0,3E0,1E0,-9.34242E-3,1.5882676E-3,-4.8513217E-3,8.757985E-4,-1.1732302E-2,1.9899867E-3,5.0508003E-3,-1.8689386E-3,-3.5558657E-3,-1.2926723E-2,-1.0569331E-2,4.209516E-3,2.5997506E-3,1.1939046E-2,7.1225613E-3,1.00161405E-2,1.1814492E-2,2.1166338E-3,4.051011E-3,6.8598487E-3,3.707787E-3,-8.929512E-3,4.519867E-3,-2.3349673E-3,1.0828737E-3,-1.0593582E-2,2.6985104E-3,-9.422792E-3,8.570698E-3,3.3468667E-3,-4.5984625E-3,3.703697E-3,-1.0023262E-2,-1.6089794E-3,-6.950287E-3,-3.1771187E-3,-7.7341693E-3,-2.6236305E-3,2.1178431E-4,-2.9160115E-3,5.111726E-3,-2.861976E-4,-6.0634078E-3,-3.477971E-3,1.4668126E-3,-2.6876258E-3,-1.4568247E-3,4.1091843E-3,2.0702495E-3,8.20028E-3,7.589962E-3,-5.041042E-3,1.2862254E-2,4.217484E-3,-1.1298686E-2,-3.7451414E-3,-5.60503E-3,1.9244481E-3,-1.458065E-3,-1.0407598E-2,-6.026926E-4,1.0094699E-2],"split_indices":[1,0,11,7,6,6,0,13,11,11,5,1,0,11,9,16,11,24,9,24,0,10,0,11,0,11,6,0,0,17,8,11,0,1,18,0,10,17,0,17,16,1,11,8,0,0,16,11,0,11,11,0,1,16,11,16,11,6,11,1,15,16,12,0,0,0,0,0,0,0,0,0,0,0,0,0,0,0,0,0,0,0,0,0,0,0,0,0,0,0,0,0,0,0,0,0,0,0,0,0,0,0,0,0,0,0,0,0,0,0,0,0,0,0,0,0,0,0,0,0,0,0,0,0,0],"split_type":[0,0,0,0,0,0,0,0,0,0,0,0,0,0,0,0,0,0,0,0,0,0,0,0,0,0,0,0,0,0,0,0,0,0,0,0,0,0,0,0,0,0,0,0,0,0,0,0,0,0,0,0,0,0,0,0,0,0,0,0,0,0,0,0,0,0,0,0,0,0,0,0,0,0,0,0,0,0,0,0,0,0,0,0,0,0,0,0,0,0,0,0,0,0,0,0,0,0,0,0,0,0,0,0,0,0,0,0,0,0,0,0,0,0,0,0,0,0,0,0,0,0,0,0,0],"sum_hessian":[5.495E3,1.83E3,3.665E3,1.82E2,1.648E3,2.969E3,6.96E2,5.5E1,1.27E2,1.443E3,2.05E2,1.203E3,1.766E3,5.24E2,1.72E2,1.9E1,3.6E1,8.8E1,3.9E1,4.41E2,1.002E3,5.5E1,1.5E2,1.65E2,1.038E3,1.29E3,4.76E2,4.3E2,9.4E1,1.38E2,3.4E1,1.5E1,4E0,1.8E1,1.8E1,7.6E1,1.2E1,1.2E1,2.7E1,3.73E2,6.8E1,9.76E2,2.6E1,4.1E1,1.4E1,7.4E1,7.6E1,1.01E2,6.4E1,4.5E2,5.88E2,8.69E2,4.21E2,3.38E2,1.38E2,2.65E2,1.65E2,8.4E1,1E1,7.3E1,6.5E1,1.4E1,2E1,7E0,8E0,6E0,1.2E1,1.5E1,3E0,1.8E1,5.8E1,9E0,3E0,3E0,9E0,1.4E1,1.3E1,1.26E2,2.47E2,1.7E1,5.1E1,4.2E2,5.56E2,8E0,1.8E1,1.8E1,2.3E1,5E0,9E0,6.6E1,8E0,3.6E1,4E1,1.9E1,8.2E1,2.2E1,4.2E1,8.4E1,3.66E2,5.5E2,3.8E1,1.88E2,6.81E2,3.7E1,3.84E2,1.97E2,1.41E2,4E1,9.8E1,6.6E1,1.99E2,7.2E1,9.3E1,5E0,7.9E1,7E0,3E0,1.1E1,6.2E1,1.7E1,4.8E1,1.1E1,3E0,9E0,1.1E1],"tree_param":{"num_deleted":"0","num_feature":"25","num_nodes":"125","size_leaf_vector":"1"}},{"base_weights":[-1.8344749E-2,-1.04184285E-1,2.9764295E-1,-5.0457295E-2,-4.379292E-1,3.6591044E-1,-2.2207357E-1,-4.0425292E-1,-1.7965887E-2,-2.6274532E-1,-6.128183E-1,2.5269004E-2,4.5145354E-1,-3.586494E-1,1.3958645E-1,-5.13995E-1,1.6529495E-1,-2.2935964E-1,5.952399E-2,-3.6468497E-1,5.992099E-1,-7.167902E-1,-1.6246651E-1,3.2146296E-1,-5.042678E-1,5.59238E-1,2.5420848E-1,-4.2357582E-1,4.328357E-1,-3.723744E-1,3.9019817E-1,-3.0287334E-1,-7.7528614E-1,7.770575E-1,-4.2864244E-2,-4.4755965E-1,-1.20061524E-1,1.039716E-2,3.604665E-1,-4.467123E-1,2.3298565E-1,7.352904E-1,-5.3717583E-1,-7.6213914E-1,-1.4681114E-1,1.2961484E-1,-3.2385144E-1,-7.327078E-2,5.087907E-1,-5.9166044E-1,5.9935784E-1,3.4535313E-1,6.462587E-1,-3.1079298E-3,3.3050632E-1,-3.3589652E-1,-7.4277025E-1,-5.1055193E-2,7.333813E-3,-1.0473089E0,3.557565E-1,7.47109E-1,1.2043458E-1,-1.4417332E-2,-2.6063973E-3,-9.235787E-3,-3.5715613E-3,1.04181105E-2,1.4508958E-3,-6.407639E-3,2.1490937E-3,-1.3213931E-3,-7.1766214E-3,-2.1119341E-3,3.3424443E-4,2.912394E-3,-1.3297051E-4,-6.959683E-4,5.7579814E-3,-6.2263804E-3,-1.4914231E-3,4.5161936E-3,-2.4533807E-3,7.981854E-3,-5.1288484E-3,-1.0287724E-2,-3.0386128E-4,-8.923269E-3,-4.8240637E-3,7.090343E-3,-3.5159683E-3,3.2406251E-3,-1.6565569E-3,-4.2818016E-3,2.8654374E-3,-2.6969062E-3,6.2152576E-3,5.637789E-3,-5.485535E-4,5.240021E-3,-6.672158E-3,-5.257797E-3,9.295412E-3,-3.5598135E-4,5.711773E-3,3.2445854E-3,7.6126074E-3,1.0194562E-3,-9.331383E-3,5.5777016E-3,1.8691729E-3,-5.0684614E-3,1.94386E-4,-1.7415006E-3,-1.1404804E-2,-3.742515E-3,4.5926687E-3,-1.2141898E-2,-2.3011446E-4,6.86069E-3,-6.349516E-4,8.280206E-3,-3.1003475E-4,-1.3410212E-3,9.175702E-3],"categories":[],"categories_nodes":[],"categories_segments":[],"categories_sizes":[],"default_left":[0,0,0,0,0,0,0,0,0,0,0,0,0,0,0,0,0,0,0,0,0,0,0,0,0,0,0,0,0,0,0,0,0,0,0,0,0,0,0,0,0,0,0,0,0,0,0,0,0,0,0,0,0,0,0,0,0,0,0,0,0,0,0,0,0,0,0,0,0,0,0,0,0,0,0,0,0,0,0,0,0,0,0,0,0,0,0,0,0,0,0,0,0,0,0,0,0,0,0,0,0,0,0,0,0,0,0,0,0,0,0,0,0,0,0,0,0,0,0,0,0,0,0,0,0],"id":6,"left_children":[1,3,5,7,9,11,13,15,17,19,21,23,25,27,29,31,33,35,37,39,41,43,45,47,49,51,53,55,57,59,61,63,65,67,69,71,73,75,77,79,81,83,85,87,89,91,93,95,97,99,101,103,105,107,109,111,113,115,-1,117,119,121,123,-1,-1,-1,-1,-1,-1,-1,-1,-1,-1,-1,-1,-1,-1,-1,-1,-1,-1,-1,-1,-1,-1,-1,-1,-1,-1,-1,-1,-1,-1,-1,-1,-1,-1,-1,-1,-1,-1,-1,-1,-1,-1,-1,-1,-1,-1,-1,-1,-1,-1,-1,-1,-1,-1,-1,-1,-1,-1,-1,-1,-1,-1],"loss_changes":[1.4804797E2,7.693823E1,4.1450645E1,4.2502426E1,1.8068436E1,3.0031433E1,6.767648E0,1.9523502E1,5.551206E1,2.6490881E1,1.379026E1,3.2785988E1,1.7376053E1,5.2707815E0,5.020828E0,1.4163048E1,6.527852E0,2.1624866E1,3.6661446E1,1.3242859E1,5.3434563E0,6.117462E0,2.7288146E0,9.945852E0,7.588274E0,9.678604E0,5.753401E0,2.3252869E0,1.200893E0,6.7613153E0,2.413342E0,6.6465597E0,6.8627777E0,2.0239487E0,6.1484942E0,2.5719505E1,8.497452E0,1.419757E1,3.226705E1,1.2261791E1,3.5618632E0,2.6859922E0,9.652841E-1,7.6907043E0,3.579327E0,1.259391E0,2.4789176E0,6.17238E0,2.8513718E0,6.2502213E0,2.717745E0,1.3440704E1,1.370491E1,6.7389336E0,7.27071E0,4.504938E0,4.098158E0,8.3161825E-1,0E0,1.1686101E0,1.0129505E0,7.1821356E-1,3.3694527E0,0E0,0E0,0E0,0E0,0E0,0E0,0E0,0E0,0E0,0E0,0E0,0E0,0E0,0E0,0E0,0E0,0E0,0E0,0E0,0E0,0E0,0E0,0E0,0E0,0E0,0E0,0E0,0E0,0E0,0E0,0E0,0E0,0E0,0E0,0E0,0E0,0E0,0E0,0E0,0E0,0E0,0E0,0E0,0E0,0E0,0E0,0E0,0E0,0E0,0E0,0E0,0E0,0E0,0E0,0E0,0E0,0E0,0E0,0E0,0E0,0E0,0E0],"parents":[2147483647,0,0,1,1,2,2,3,3,4,4,5,5,6,6,7,7,8,8,9,9,10,10,11,11,12,12,13,13,14,14,15,15,16,16,17,17,18,18,19,19,20,20,21,21,22,22,23,23,24,24,25,25,26,26,27,27,28,28,29,29,30,30,31,31,32,32,33,33,34,34,35,35,36,36,37,37,38,38,39,39,40,40,41,41,42,42,43,43,44,44,45,45,46,46,47,47,48,48,49,49,50,50,51,51,52,52,53,53,54,54,55,55,56,56,57,57,59,59,60,60,61,61,62,62],"right_children":[2,4,6,8,10,12,14,16,18,20,22,24,26,28,30,32,34,36,38,40,42,44,46,48,50,52,54,56,58,60,62,64,66,68,70,72,74,76,78,80,82,84,86,88,90,92,94,96,98,100,102,104,106,108,110,112,114,116,-1,118,120,122,124,-1,-1,-1,-1,-1,-1,-1,-1,-1,-1,-1,-1,-1,-1,-1,-1,-1,-1,-1,-1,-1,-1,-1,-1,-1,-1,-1,-1,-1,-1,-1,-1,-1,-1,-1,-1,-1,-1,-1,-1,-1,-1,-1,-1,-1,-1,-1,-1,-1,-1,-1,-1,-1,-1,-1,-1,-1,-1,-1,-1,-1,-1],"split_conditions":[1.4E2,1.36E2,1.34E2,9.1E1,1.1E2,1.01E2,2E0,3E0,1.05E2,1E2,1.33E2,1.56E2,3E0,1E0,2E0,1.23E2,1.06E2,2E0,1E0,3E0,2E0,1E0,2E0,2E0,1E0,2E0,2E0,3E0,2E0,1.41E2,2E0,9E1,3E0,3E0,1.22E2,1.21E2,1.28E2,9.8E1,3E0,3E0,3E0,1.46E2,1.39E2,3E0,1.38E2,3E0,1E0,1E0,1.55E2,2E0,2E0,2E0,2E0,1E0,2E0,2E0,1E0,3E0,7.333813E-3,2E0,1E0,1.56E2,1.49E2,-1.4417332E-2,-2.6063973E-3,-9.235787E-3,-3.5715613E-3,1.04181105E-2,1.4508958E-3,-6.407639E-3,2.1490937E-3,-1.3213931E-3,-7.1766214E-3,-2.1119341E-3,3.3424443E-4,2.912394E-3,-1.3297051E-4,-6.959683E-4,5.7579814E-3,-6.2263804E-3,-1.4914231E-3,4.5161936E-3,-2.4533807E-3,7.981854E-3,-5.1288484E-3,-1.0287724E-2,-3.0386128E-4,-8.923269E-3,-4.8240637E-3,7.090343E-3,-3.5159683E-3,3.2406251E-3,-1.6565569E-3,-4.2818016E-3,2.8654374E-3,-2.6969062E-3,6.2152576E-3,5.637789E-3,-5.485535E-4,5.240021E-3,-6.672158E-3,-5.257797E-3,9.295412E-3,-3.5598135E-4,5.711773E-3,3.2445854E-3,7.6126074E-3,1.0194562E-3,-9.331383E-3,5.5777016E-3,1.8691729E-3,-5.0684614E-3,1.94386E-4,-1.7415006E-3,-1.1404804E-2,-3.742515E-3,4.5926687E-3,-1.2141898E-2,-2.3011446E-4,6.86069E-3,-6.349516E-4,8.280206E-3,-3.1003475E-4,-1.3410212E-3,9.175702E-3],"split_indices":[11,0,0,11,11,0,6,6,0,11,11,11,7,20,8,0,0,6,22,6,6,23,8,16,20,14,15,16,15,11,13,0,10,16,0,11,11,11,14,16,15,0,0,5,0,10,19,19,11,6,4,15,16,22,4,17,12,2,0,16,12,0,11,0,0,0,0,0,0,0,0,0,0,0,0,0,0,0,0,0,0,0,0,0,0,0,0,0,0,0,0,0,0,0,0,0,0,0,0,0,0,0,0,0,0,0,0,0,0,0,0,0,0,0,0,0,0,0,0,0,0,0,0,0,0],"split_type":[0,0,0,0,0,0,0,0,0,0,0,0,0,0,0,0,0,0,0,0,0,0,0,0,0,0,0,0,0,0,0,0,0,0,0,0,0,0,0,0,0,0,0,0,0,0,0,0,0,0,0,0,0,0,0,0,0,0,0,0,0,0,0,0,0,0,0,0,0,0,0,0,0,0,0,0,0,0,0,0,0,0,0,0,0,0,0,0,0,0,0,0,0,0,0,0,0,0,0,0,0,0,0,0,0,0,0,0,0,0,0,0,0,0,0,0,0,0,0,0,0,0,0,0,0],"sum_hessian":[5.456E3,4.291E3,1.165E3,3.697E3,5.94E2,1.03E3,1.35E2,3.1E2,3.387E3,2.98E2,2.96E2,2.07E2,8.23E2,9.8E1,3.7E1,2.6E2,5E1,9.08E2,2.479E3,2.67E2,3.1E1,2.4E2,5.6E1,1.33E2,7.4E1,5.31E2,2.92E2,9.1E1,7E0,1.2E1,2.5E1,1.45E2,1.15E2,1.2E1,3.8E1,3.02E2,6.06E2,2.132E3,3.47E2,2.35E2,3.2E1,2.8E1,3E0,2.22E2,1.8E1,2E1,3.6E1,4.3E1,9E1,6.9E1,5E0,1.55E2,3.76E2,6.7E1,2.25E2,7.3E1,1.8E1,3E0,4E0,6E0,6E0,1E1,1.5E1,4E0,1.41E2,8.4E1,3.1E1,8E0,4E0,1.1E1,2.7E1,1.4E2,1.62E2,3.8E2,2.26E2,1.65E2,1.967E3,1.16E2,2.31E2,1.47E2,8.8E1,2.2E1,1E1,2.7E1,1E0,1E0,2E0,1.5E2,7.2E1,3E0,1.5E1,1.2E1,8E0,3.1E1,5E0,3.4E1,9E0,8.2E1,8E0,4E0,6.5E1,1E0,4E0,5.8E1,9.7E1,1E2,2.76E2,6.1E1,6E0,8.6E1,1.39E2,4.9E1,2.4E1,8E0,1E1,2E0,1E0,5E0,1E0,3E0,3E0,9E0,1E0,1.2E1,3E0],"tree_param":{"num_deleted":"0","num_feature":"25","num_nodes":"125","size_leaf_vector":"1"}},{"base_weights":[6.071703E-3,5.2375424E-1,-2.4927147E-1,6.155789E-1,6.978756E-2,-3.2902512E-1,8.800603E-2,-7.538003E-3,6.4844805E-1,-2.360179E-2,2.9625955E-1,-5.090669E-1,-2.0471117E-1,2.0119236E-1,-2.6318404E-1,-1.8827467E-1,3.3413264E-1,8.197167E-1,5.7283944E-1,-1.4158483E-1,2.3493505E-1,-4.91525E-1,4.3564558E-1,-7.229686E-2,-5.884865E-1,-1.2694903E-1,-4.1359445E-1,-3.0835303E-2,3.9960644E-1,-5.8967036E-1,2.4004944E-2,-7.7283174E-1,3.2043055E-2,-7.038792E-2,7.147866E-1,2.1682988E-1,8.3615184E-1,5.904277E-1,-5.490366E-1,-2.0090835E-1,7.149675E-1,3.0574998E-1,-5.595802E-1,-8.091601E-1,9.428573E-3,8.1711197E-1,1.4622256E-1,-6.05866E-1,6.5991186E-2,-4.1265365E-1,-7.245688E-1,-2.2219633E-1,6.9249764E-2,-5.258179E-1,-1.5069334E-1,1.4711623E-1,-4.1337866E-1,2.536475E-1,5.1901764E-1,-6.983905E-1,-6.474248E-2,-5.8765028E-2,4.9526158E-1,-3.0272945E-3,-1.1996869E-2,7.153418E-3,-3.9635375E-3,4.2557777E-3,-1.0482417E-2,1.8719205E-3,1.2156394E-2,-5.0846296E-3,9.111471E-3,9.192298E-3,6.9999173E-3,4.0829647E-3,7.2107925E-3,1.5544815E-3,-7.968189E-3,-4.4296645E-3,-8.7709125E-4,8.030192E-3,-3.87491E-4,1.6251149E-3,9.129074E-3,4.5291972E-3,-8.526641E-3,-4.999532E-4,-1.1824931E-2,2.6746257E-3,9.823013E-3,-7.163487E-3,2.0300143E-3,-1.0923238E-2,-2.5631646E-3,-5.52765E-3,1.7019614E-3,-5.1389085E-3,-1.7539201E-3,-7.6341336E-3,-1.8011024E-3,4.0094903E-5,-2.8121232E-3,4.6100966E-3,2.0225985E-4,-8.601291E-3,-4.6574334E-3,1.6790363E-3,-2.9115048E-3,3.6136183E-4,5.8997357E-3,9.196719E-3,-4.9673696E-3,-1.1044429E-3,3.7126131E-3,2.031828E-3,6.810551E-3,-8.057906E-3,-1.389907E-3,-6.7925593E-3,5.578638E-3,3.2680093E-3,-1.4550328E-3,-6.5358676E-4,8.139793E-3],"categories":[],"categories_nodes":[],"categories_segments":[],"categories_sizes":[],"default_left":[0,0,0,0,0,0,0,0,0,0,0,0,0,0,0,0,0,0,0,0,0,0,0,0,0,0,0,0,0,0,0,0,0,0,0,0,0,0,0,0,0,0,0,0,0,0,0,0,0,0,0,0,0,0,0,0,0,0,0,0,0,0,0,0,0,0,0,0,0,0,0,0,0,0,0,0,0,0,0,0,0,0,0,0,0,0,0,0,0,0,0,0,0,0,0,0,0,0,0,0,0,0,0,0,0,0,0,0,0,0,0,0,0,0,0,0,0,0,0,0,0,0,0,0,0],"id":7,"left_children":[1,3,5,7,9,11,13,15,17,19,21,23,25,27,29,31,33,35,37,39,41,43,45,47,49,51,53,55,57,59,61,63,65,67,69,71,73,75,77,79,81,83,85,87,-1,89,91,93,95,97,99,101,103,105,107,109,111,113,115,117,119,121,123,-1,-1,-1,-1,-1,-1,-1,-1,-1,-1,-1,-1,-1,-1,-1,-1,-1,-1,-1,-1,-1,-1,-1,-1,-1,-1,-1,-1,-1,-1,-1,-1,-1,-1,-1,-1,-1,-1,-1,-1,-1,-1,-1,-1,-1,-1,-1,-1,-1,-1,-1,-1,-1,-1,-1,-1,-1,-1,-1,-1,-1,-1],"loss_changes":[7.299333E2,7.599112E1,9.950188E1,3.1075073E1,6.5212154E0,6.683948E1,2.819589E1,4.8178444E0,1.819043E1,6.713412E0,1.0096684E1,4.2311615E1,2.8714218E1,2.468845E1,1.6235203E1,6.592966E0,4.207836E0,4.1685486E0,2.0115173E1,7.81651E0,4.053277E0,7.1414657E0,8.381717E0,1.398558E1,2.4418365E1,2.4159515E1,1.408252E1,1.694321E1,4.9053726E0,4.577471E0,3.6566527E0,2.4461374E0,1.1407002E1,7.235855E0,3.4719028E0,7.0098667E0,4.186737E0,2.321579E1,2.9168053E0,3.8520598E0,6.94777E-1,5.4176145E0,2.1666732E0,3.3419366E0,0E0,2.7335472E0,2.3493316E0,6.3516235E0,9.830175E0,1.0790794E1,1.21502075E1,1.1615421E1,8.114625E0,6.347481E0,6.5375223E0,8.333898E0,9.235385E0,5.6935377E0,7.9476013E0,3.913334E0,6.1179314E0,2.723016E0,2.554715E0,0E0,0E0,0E0,0E0,0E0,0E0,0E0,0E0,0E0,0E0,0E0,0E0,0E0,0E0,0E0,0E0,0E0,0E0,0E0,0E0,0E0,0E0,0E0,0E0,0E0,0E0,0E0,0E0,0E0,0E0,0E0,0E0,0E0,0E0,0E0,0E0,0E0,0E0,0E0,0E0,0E0,0E0,0E0,0E0,0E0,0E0,0E0,0E0,0E0,0E0,0E0,0E0,0E0,0E0,0E0,0E0,0E0,0E0,0E0,0E0,0E0,0E0],"parents":[2147483647,0,0,1,1,2,2,3,3,4,4,5,5,6,6,7,7,8,8,9,9,10,10,11,11,12,12,13,13,14,14,15,15,16,16,17,17,18,18,19,19,20,20,21,21,22,22,23,23,24,24,25,25,26,26,27,27,28,28,29,29,30,30,31,31,32,32,33,33,34,34,35,35,36,36,37,37,38,38,39,39,40,40,41,41,42,42,43,43,45,45,46,46,47,47,48,48,49,49,50,50,51,51,52,52,53,53,54,54,55,55,56,56,57,57,58,58,59,59,60,60,61,61,62,62],"right_children":[2,4,6,8,10,12,14,16,18,20,22,24,26,28,30,32,34,36,38,40,42,44,46,48,50,52,54,56,58,60,62,64,66,68,70,72,74,76,78,80,82,84,86,88,-1,90,92,94,96,98,100,102,104,106,108,110,112,114,116,118,120,122,124,-1,-1,-1,-1,-1,-1,-1,-1,-1,-1,-1,-1,-1,-1,-1,-1,-1,-1,-1,-1,-1,-1,-1,-1,-1,-1,-1,-1,-1,-1,-1,-1,-1,-1,-1,-1,-1,-1,-1,-1,-1,-1,-1,-1,-1,-1,-1,-1,-1,-1,-1,-1,-1,-1,-1,-1,-1,-1,-1,-1,-1,-1],"split_conditions":[1.7E1,3E0,1.38E2,1E2,3E0,2E0,1.29E2,3E0,1.14E2,1.12E2,1.1E2,1.8E1,1.25E2,1.08E2,2E0,1.34E2,2E0,8.9E1,1.38E2,1.43E2,1.21E2,1E0,1.24E2,1.02E2,1.19E2,1.23E2,3E0,1.56E2,1.41E2,3E0,1E0,3E0,1.48E2,9.8E1,9.5E1,3E0,3E0,1.3E1,2E0,2E0,3E0,1.17E2,1.5E1,2E0,9.428573E-3,2E0,1.25E2,2E0,9E1,3E0,1.32E2,1E2,1.25E2,1.9E1,9.1E1,3E0,2E0,1E0,1.15E2,3E0,2E0,1.8E1,1.9E1,-3.0272945E-3,-1.1996869E-2,7.153418E-3,-3.9635375E-3,4.2557777E-3,-1.0482417E-2,1.8719205E-3,1.2156394E-2,-5.0846296E-3,9.111471E-3,9.192298E-3,6.9999173E-3,4.0829647E-3,7.2107925E-3,1.5544815E-3,-7.968189E-3,-4.4296645E-3,-8.7709125E-4,8.030192E-3,-3.87491E-4,1.6251149E-3,9.129074E-3,4.5291972E-3,-8.526641E-3,-4.999532E-4,-1.1824931E-2,2.6746257E-3,9.823013E-3,-7.163487E-3,2.0300143E-3,-1.0923238E-2,-2.5631646E-3,-5.52765E-3,1.7019614E-3,-5.1389085E-3,-1.7539201E-3,-7.6341336E-3,-1.8011024E-3,4.0094903E-5,-2.8121232E-3,4.6100966E-3,2.0225985E-4,-8.601291E-3,-4.6574334E-3,1.6790363E-3,-2.9115048E-3,3.6136183E-4,5.8997357E-3,9.196719E-3,-4.9673696E-3,-1.1044429E-3,3.7126131E-3,2.031828E-3,6.810551E-3,-8.057906E-3,-1.389907E-3,-6.7925593E-3,5.578638E-3,3.2680093E-3,-1.4550328E-3,-6.5358676E-4,8.139793E-3],"split_indices":[1,6,11,0,4,6,0,4,11,0,11,1,0,0,2,11,9,11,0,11,0,20,11,0,0,11,6,11,11,10,19,14,11,0,0,14,10,1,14,16,14,11,1,2,0,5,11,16,11,15,11,0,11,1,11,6,6,12,0,15,13,1,1,0,0,0,0,0,0,0,0,0,0,0,0,0,0,0,0,0,0,0,0,0,0,0,0,0,0,0,0,0,0,0,0,0,0,0,0,0,0,0,0,0,0,0,0,0,0,0,0,0,0,0,0,0,0,0,0,0,0,0,0,0,0],"split_type":[0,0,0,0,0,0,0,0,0,0,0,0,0,0,0,0,0,0,0,0,0,0,0,0,0,0,0,0,0,0,0,0,0,0,0,0,0,0,0,0,0,0,0,0,0,0,0,0,0,0,0,0,0,0,0,0,0,0,0,0,0,0,0,0,0,0,0,0,0,0,0,0,0,0,0,0,0,0,0,0,0,0,0,0,0,0,0,0,0,0,0,0,0,0,0,0,0,0,0,0,0,0,0,0,0,0,0,0,0,0,0,0,0,0,0,0,0,0,0,0,0,0,0,0,0],"sum_hessian":[5.52E3,1.823E3,3.697E3,1.516E3,3.07E2,2.99E3,7.07E2,7.6E1,1.44E3,2.18E2,8.9E1,1.22E3,1.77E3,5.35E2,1.72E2,5E1,2.6E1,4.38E2,1.002E3,1.5E2,6.8E1,1.3E1,7.6E1,1.88E2,1.032E3,1.291E3,4.79E2,2.47E2,2.88E2,8E1,9.2E1,1.3E1,3.7E1,1.3E1,1.3E1,1.2E1,4.26E2,9.87E2,1.5E1,1.41E2,9E0,6.3E1,5E0,1.1E1,2E0,3.2E1,4.4E1,3.8E1,1.5E2,4.52E2,5.8E2,8.69E2,4.22E2,3.35E2,1.44E2,1.69E2,7.8E1,1.31E2,1.57E2,6.6E1,1.4E1,7.9E1,1.3E1,7E0,6E0,1.4E1,2.3E1,9E0,4E0,7E0,6E0,6E0,6E0,2.61E2,1.65E2,4.14E2,5.73E2,4E0,1.1E1,4.4E1,9.7E1,8E0,1E0,5.2E1,1.1E1,1E0,4E0,4E0,7E0,8E0,2.4E1,2E0,4.2E1,1.5E1,2.3E1,2.1E1,1.29E2,3.16E2,1.36E2,5.41E2,3.9E1,1.8E2,6.89E2,4.6E1,3.76E2,4.9E1,2.86E2,4.4E1,1E2,1.36E2,3.3E1,4E0,7.4E1,3.2E1,9.9E1,5.4E1,1.03E2,5.5E1,1.1E1,7E0,7E0,1.4E1,6.5E1,5E0,8E0],"tree_param":{"num_deleted":"0","num_feature":"25","num_nodes":"125","size_leaf_vector":"1"}},{"base_weights":[1.8944388E-2,5.2456784E-1,-2.3587841E-1,6.157978E-1,8.5416086E-2,-3.1697857E-1,1.2591411E-1,8.3453524E-1,5.3434753E-1,-5.2769925E-2,4.7099105E-1,-2.1577859E-1,-5.204884E-1,1.9707684E-1,-3.016326E-1,4.0787157E-1,8.6939144E-1,5.5995613E-1,-4.7889933E-1,-1.622496E-1,1.7398381E-1,-3.5956475E-1,5.754519E-1,-3.707025E-1,-1.3291538E-1,-7.664557E-2,-5.6801045E-1,3.3916596E-1,-1.7040181E-1,-4.2790616E-1,1.1408647E0,6.663709E-1,-1.0003326E-1,1.0698612E0,7.899758E-1,4.656034E-2,5.9687066E-1,-9.8043E-1,2.7151075E-1,1.4773317E-1,-2.6768693E-1,-4.2172238E-1,2.6918954E-1,9.339096E-3,-1.0473265E-2,3.743585E-2,6.3913393E-1,-2.213717E-2,-4.2856464E-1,7.428496E-2,-1.8419121E-1,1.2364826E-1,-6.2835747E-1,-7.538031E-1,-3.8909084E-1,2.0807245E-1,4.804128E-1,-2.2570737E-1,2.5481382E-1,7.423424E-1,-5.0640124E-1,-5.89416E-4,1.3206859E0,8.38494E-3,-3.1780666E-3,2.4115816E-3,-8.4270565E-3,1.3022821E-2,9.242455E-3,8.718794E-3,6.371068E-3,-1.0481503E-2,1.4107778E-3,4.364935E-3,7.0725465E-3,-3.162891E-3,-1.3139351E-2,9.281485E-3,-3.3010894E-3,-3.1413452E-3,4.262774E-3,-6.042247E-3,-1.8940613E-3,-9.116626E-3,3.4853849E-3,7.887111E-3,9.0737466E-4,-3.9570094E-3,6.777821E-3,3.8273605E-3,7.826389E-3,-6.074095E-3,2.8856993E-3,-5.051869E-3,-2.5695E-3,-1.2276047E-3,3.6913883E-3,-2.8771916E-3,8.376163E-5,-1.1602445E-2,2.7976355E-3,-8.803738E-3,-5.4507307E-4,-7.832767E-3,7.251973E-4,-4.8757237E-3,-1.228354E-3,1.1822447E-3,5.9087775E-3,1.9429891E-3,6.5940027E-3,-3.0227075E-3,6.065939E-4,1.3688921E-4,7.749696E-3,-7.0960284E-4,1.1667338E-2,-9.68211E-3,-4.1598557E-3,1.5009501E-2,5.8001666E-3],"categories":[],"categories_nodes":[],"categories_segments":[],"categories_sizes":[],"default_left":[0,0,0,0,0,0,0,0,0,0,0,0,0,0,0,0,0,0,0,0,0,0,0,0,0,0,0,0,0,0,0,0,0,0,0,0,0,0,0,0,0,0,0,0,0,0,0,0,0,0,0,0,0,0,0,0,0,0,0,0,0,0,0,0,0,0,0,0,0,0,0,0,0,0,0,0,0,0,0,0,0,0,0,0,0,0,0,0,0,0,0,0,0,0,0,0,0,0,0,0,0,0,0,0,0,0,0,0,0,0,0,0,0,0,0,0,0,0,0,0,0],"id":8,"left_children":[1,3,5,7,9,11,13,15,17,19,21,23,25,27,29,31,33,35,37,39,41,43,45,47,49,51,53,55,57,59,61,63,65,67,69,71,73,75,77,79,81,83,85,-1,-1,87,89,91,93,95,97,99,101,103,105,107,109,111,113,115,117,-1,119,-1,-1,-1,-1,-1,-1,-1,-1,-1,-1,-1,-1,-1,-1,-1,-1,-1,-1,-1,-1,-1,-1,-1,-1,-1,-1,-1,-1,-1,-1,-1,-1,-1,-1,-1,-1,-1,-1,-1,-1,-1,-1,-1,-1,-1,-1,-1,-1,-1,-1,-1,-1,-1,-1,-1,-1,-1,-1],"loss_changes":[7.0825244E2,7.3744934E1,1.0728288E2,2.6723816E1,1.6968231E1,6.138492E1,2.0444458E1,5.7726135E0,2.9174072E1,5.8620863E0,7.4948025E0,2.5574364E1,2.0858948E1,3.0081255E1,1.7974512E1,4.3993306E0,5.2046204E0,2.0572784E1,1.08041E1,5.236264E0,4.4805512E0,9.874132E0,2.5457191E0,1.4007782E1,1.3846615E1,1.0796631E1,2.9458252E1,7.584408E0,3.8437166E0,8.551352E0,1.8038473E0,3.9932737E0,3.243947E0,2.350006E0,2.9001617E0,7.804596E0,1.7642212E1,3.349823E0,5.0469456E0,5.4085827E0,3.020546E0,4.4689503E0,6.1399856E0,0E0,0E0,2.764417E0,2.1656818E0,1.8360107E1,7.7072906E0,1.5093115E1,2.08157E1,1.4755935E1,3.7121239E0,1.0724167E1,1.194944E1,7.3937025E0,1.0062824E1,3.1536393E0,2.3724189E0,2.1537442E0,3.1046429E0,0E0,6.403828E-2,0E0,0E0,0E0,0E0,0E0,0E0,0E0,0E0,0E0,0E0,0E0,0E0,0E0,0E0,0E0,0E0,0E0,0E0,0E0,0E0,0E0,0E0,0E0,0E0,0E0,0E0,0E0,0E0,0E0,0E0,0E0,0E0,0E0,0E0,0E0,0E0,0E0,0E0,0E0,0E0,0E0,0E0,0E0,0E0,0E0,0E0,0E0,0E0,0E0,0E0,0E0,0E0,0E0,0E0,0E0,0E0,0E0,0E0],"parents":[2147483647,0,0,1,1,2,2,3,3,4,4,5,5,6,6,7,7,8,8,9,9,10,10,11,11,12,12,13,13,14,14,15,15,16,16,17,17,18,18,19,19,20,20,21,21,22,22,23,23,24,24,25,25,26,26,27,27,28,28,29,29,30,30,31,31,32,32,33,33,34,34,35,35,36,36,37,37,38,38,39,39,40,40,41,41,42,42,45,45,46,46,47,47,48,48,49,49,50,50,51,51,52,52,53,53,54,54,55,55,56,56,57,57,58,58,59,59,60,60,62,62],"right_children":[2,4,6,8,10,12,14,16,18,20,22,24,26,28,30,32,34,36,38,40,42,44,46,48,50,52,54,56,58,60,62,64,66,68,70,72,74,76,78,80,82,84,86,-1,-1,88,90,92,94,96,98,100,102,104,106,108,110,112,114,116,118,-1,120,-1,-1,-1,-1,-1,-1,-1,-1,-1,-1,-1,-1,-1,-1,-1,-1,-1,-1,-1,-1,-1,-1,-1,-1,-1,-1,-1,-1,-1,-1,-1,-1,-1,-1,-1,-1,-1,-1,-1,-1,-1,-1,-1,-1,-1,-1,-1,-1,-1,-1,-1,-1,-1,-1,-1,-1,-1,-1],"split_conditions":[1.7E1,3E0,1.38E2,1.1E2,3E0,1.25E2,1.55E2,1.08E2,1.38E2,1.12E2,1.09E2,2E0,1.8E1,1.29E2,1.17E2,3E0,2E0,1E2,3E0,2E0,2E0,2E0,1.1E1,1.8E1,1E2,1.22E2,2E0,1.11E2,1.54E2,2E0,2E0,2E0,1.06E2,1.2E2,1.29E2,1.17E2,1.3E1,1E0,1.31E2,2E0,2E0,1.16E2,3E0,9.339096E-3,-1.0473265E-2,3E0,2E0,1.02E2,2.1E1,3E0,1.23E2,8.7E1,3E0,1.34E2,3E0,3E0,1.41E2,3E0,2E0,2E0,2E0,-5.89416E-4,3E0,8.38494E-3,-3.1780666E-3,2.4115816E-3,-8.4270565E-3,1.3022821E-2,9.242455E-3,8.718794E-3,6.371068E-3,-1.0481503E-2,1.4107778E-3,4.364935E-3,7.0725465E-3,-3.162891E-3,-1.3139351E-2,9.281485E-3,-3.3010894E-3,-3.1413452E-3,4.262774E-3,-6.042247E-3,-1.8940613E-3,-9.116626E-3,3.4853849E-3,7.887111E-3,9.0737466E-4,-3.9570094E-3,6.777821E-3,3.8273605E-3,7.826389E-3,-6.074095E-3,2.8856993E-3,-5.051869E-3,-2.5695E-3,-1.2276047E-3,3.6913883E-3,-2.8771916E-3,8.376163E-5,-1.1602445E-2,2.7976355E-3,-8.803738E-3,-5.4507307E-4,-7.832767E-3,7.251973E-4,-4.8757237E-3,-1.228354E-3,1.1822447E-3,5.9087775E-3,1.9429891E-3,6.5940027E-3,-3.0227075E-3,6.065939E-4,1.3688921E-4,7.749696E-3,-7.0960284E-4,1.1667338E-2,-9.68211E-3,-4.1598557E-3,1.5009501E-2,5.8001666E-3],"split_indices":[1,6,11,11,4,0,11,0,0,0,11,6,1,0,0,10,13,0,10,8,5,10,1,1,0,11,6,0,0,6,4,6,0,0,0,11,1,3,11,10,14,11,5,0,0,8,5,0,1,6,11,11,13,11,6,6,11,9,6,4,8,0,8,0,0,0,0,0,0,0,0,0,0,0,0,0,0,0,0,0,0,0,0,0,0,0,0,0,0,0,0,0,0,0,0,0,0,0,0,0,0,0,0,0,0,0,0,0,0,0,0,0,0,0,0,0,0,0,0,0,0],"split_type":[0,0,0,0,0,0,0,0,0,0,0,0,0,0,0,0,0,0,0,0,0,0,0,0,0,0,0,0,0,0,0,0,0,0,0,0,0,0,0,0,0,0,0,0,0,0,0,0,0,0,0,0,0,0,0,0,0,0,0,0,0,0,0,0,0,0,0,0,0,0,0,0,0,0,0,0,0,0,0,0,0,0,0,0,0,0,0,0,0,0,0,0,0,0,0,0,0,0,0,0,0,0,0,0,0,0,0,0,0,0,0,0,0,0,0,0,0,0,0,0,0],"sum_hessian":[5.495E3,1.841E3,3.654E3,1.524E3,3.17E2,2.985E3,6.69E2,4.11E2,1.113E3,2.34E2,8.3E1,1.995E3,9.9E2,5.74E2,9.5E1,3.2E1,3.79E2,1.086E3,2.7E1,1.58E2,7.6E1,9E0,7.4E1,6.94E2,1.301E3,9.6E1,8.94E2,4.14E2,1.6E2,8.8E1,7E0,2.1E1,1.1E1,1.04E2,2.75E2,7.3E1,1.013E3,1.6E1,1.1E1,4E1,1.18E2,1E1,6.6E1,3E0,6E0,8E0,6.6E1,9.9E1,5.95E2,2.58E2,1.043E3,7.1E1,2.5E1,4.37E2,4.57E2,2.16E2,1.98E2,1.42E2,1.8E1,5E0,8.3E1,1E0,6E0,1.8E1,3E0,8E0,3E0,3.7E1,6.7E1,1.76E2,9.9E1,5E0,6.8E1,4.15E2,5.98E2,6E0,1E1,5E0,6E0,1.5E1,2.5E1,2.1E1,9.7E1,6E0,4E0,1.6E1,5E1,5E0,3E0,2.5E1,4.1E1,3.4E1,6.5E1,4.1E2,1.85E2,1.55E2,1.03E2,6.78E2,3.65E2,7E0,6.4E1,1.7E1,8E0,4.22E2,1.5E1,3.33E2,1.24E2,1.76E2,4E1,7.7E1,1.21E2,1.12E2,3E1,1.3E1,5E0,2E0,3E0,1.2E1,7.1E1,4E0,2E0],"tree_param":{"num_deleted":"0","num_feature":"25","num_nodes":"121","size_leaf_vector":"1"}},{"base_weights":[8.118153E-3,4.9535346E-1,-2.305675E-1,-4.6600286E-2,5.5582047E-1,-3.0834895E-1,1.1013163E-1,2.6969033E-1,-1.3135017E-1,6.050461E-1,2.0434698E-1,-5.0188315E-1,-1.761679E-1,-1.2564367E-1,2.3009993E-1,-5.939623E-1,6.7553455E-1,-2.7100664E-1,1.8501991E-1,6.221252E-1,-1.3734193E-1,-1.2347637E-1,3.2784197E-1,-1.1020126E-1,-5.693736E-1,-1.0561025E-1,-3.7284967E-1,-2.0236346E-1,4.6719486E-1,2.9993036E-1,-1.6024728E-1,-7.540799E-1,-4.5177934E-4,1.091568E0,1.435318E-1,-1.81279E-1,-7.363547E-1,6.3495976E-1,-1.7610662E-2,4.9166635E-1,6.9780487E-1,2.0410241E-1,-1.4347212E-2,1.349733E-1,-9.0846634E-1,2.0348734E-1,7.056163E-1,-7.649054E-1,6.333318E-2,-3.917514E-1,-7.040287E-1,-1.8467571E-1,3.7941623E-2,-4.6573246E-1,-1.5524797E-1,-7.1103233E-1,-1.285846E-1,6.474408E-1,-4.5537537E-1,4.0016222E-1,-1.7817821E-2,-3.7400937E-1,1.3301413E-2,-1.0462448E-2,-2.5266584E-3,1.1982106E-2,2.6559408E-3,-2.972794E-3,9.082856E-3,-2.5989902E-3,3.7839361E-3,-1.3605345E-2,-3.289517E-3,2.145196E-3,9.23475E-3,2.498272E-3,-7.2882157E-3,7.6318327E-3,3.248682E-3,6.464207E-3,9.752867E-3,4.8091062E-3,-6.5547973E-3,2.5789419E-3,-8.5080415E-3,-2.544507E-3,-1.1446276E-2,-5.05606E-4,4.1671693E-3,-6.3571346E-4,8.6157285E-3,-1.2229367E-2,-2.915304E-3,-6.9455174E-3,1.6349498E-3,-4.814566E-3,-1.6340845E-3,-7.38554E-3,-1.8125059E-3,7.220283E-4,-2.5214194E-3,4.0292647E-3,2.120401E-5,-8.0432985E-3,-4.1101947E-3,-1.2157054E-3,-1.295146E-2,1.092225E-3,-9.115322E-3,-2.5639704E-3,1.8734375E-3,4.408749E-3,1.0566092E-2,-8.009608E-3,4.6348306E-3,6.8645645E-3,3.3607269E-3,-3.8263623E-3,1.5083402E-3,-2.5551016E-3,-1.0434479E-2],"categories":[],"categories_nodes":[],"categories_segments":[],"categories_sizes":[],"default_left":[0,0,0,0,0,0,0,0,0,0,0,0,0,0,0,0,0,0,0,0,0,0,0,0,0,0,0,0,0,0,0,0,0,0,0,0,0,0,0,0,0,0,0,0,0,0,0,0,0,0,0,0,0,0,0,0,0,0,0,0,0,0,0,0,0,0,0,0,0,0,0,0,0,0,0,0,0,0,0,0,0,0,0,0,0,0,0,0,0,0,0,0,0,0,0,0,0,0,0,0,0,0,0,0,0,0,0,0,0,0,0,0,0,0,0,0,0,0,0,0,0],"id":9,"left_children":[1,3,5,7,9,11,13,15,17,19,21,23,25,27,29,31,33,35,37,39,41,43,45,47,49,51,53,55,57,59,61,63,-1,65,67,69,71,73,75,77,79,81,-1,83,85,87,89,91,93,95,97,99,101,103,105,107,109,111,113,115,117,119,-1,-1,-1,-1,-1,-1,-1,-1,-1,-1,-1,-1,-1,-1,-1,-1,-1,-1,-1,-1,-1,-1,-1,-1,-1,-1,-1,-1,-1,-1,-1,-1,-1,-1,-1,-1,-1,-1,-1,-1,-1,-1,-1,-1,-1,-1,-1,-1,-1,-1,-1,-1,-1,-1,-1,-1,-1,-1,-1],"loss_changes":[6.4160333E2,5.9471283E1,9.816374E1,4.9408474E0,2.8112427E1,7.703998E1,1.9517662E1,1.4071072E1,6.4566956E0,1.8229614E1,8.218358E0,3.2267E1,2.4842812E1,1.0691954E1,1.250502E1,1.108242E0,5.8192596E0,4.083727E0,4.113903E0,1.346936E1,1.49112625E1,1.1483921E1,6.7621784E0,2.0612526E1,2.467041E1,1.500035E1,9.487717E0,7.6770782E0,4.7846456E0,1.2364346E1,2.2798687E1,1.2006063E0,0E0,1.0030231E0,4.652471E0,3.8824704E0,3.621132E0,1.500144E0,6.268631E0,2.316623E1,1.1959534E1,6.7395906E0,0E0,5.429841E0,1.8710918E0,6.08817E0,4.3733253E0,7.882656E0,1.1044757E1,9.1798935E0,1.05512085E1,1.4783903E1,6.144021E0,5.8013916E0,5.332151E0,4.3755455E0,7.3971167E0,1.4781332E0,1.9589521E0,5.1820946E0,5.8412805E0,4.651719E0,0E0,0E0,0E0,0E0,0E0,0E0,0E0,0E0,0E0,0E0,0E0,0E0,0E0,0E0,0E0,0E0,0E0,0E0,0E0,0E0,0E0,0E0,0E0,0E0,0E0,0E0,0E0,0E0,0E0,0E0,0E0,0E0,0E0,0E0,0E0,0E0,0E0,0E0,0E0,0E0,0E0,0E0,0E0,0E0,0E0,0E0,0E0,0E0,0E0,0E0,0E0,0E0,0E0,0E0,0E0,0E0,0E0,0E0,0E0],"parents":[2147483647,0,0,1,1,2,2,3,3,4,4,5,5,6,6,7,7,8,8,9,9,10,10,11,11,12,12,13,13,14,14,15,15,16,16,17,17,18,18,19,19,20,20,21,21,22,22,23,23,24,24,25,25,26,26,27,27,28,28,29,29,30,30,31,31,33,33,34,34,35,35,36,36,37,37,38,38,39,39,40,40,41,41,43,43,44,44,45,45,46,46,47,47,48,48,49,49,50,50,51,51,52,52,53,53,54,54,55,55,56,56,57,57,58,58,59,59,60,60,61,61],"right_children":[2,4,6,8,10,12,14,16,18,20,22,24,26,28,30,32,34,36,38,40,42,44,46,48,50,52,54,56,58,60,62,64,-1,66,68,70,72,74,76,78,80,82,-1,84,86,88,90,92,94,96,98,100,102,104,106,108,110,112,114,116,118,120,-1,-1,-1,-1,-1,-1,-1,-1,-1,-1,-1,-1,-1,-1,-1,-1,-1,-1,-1,-1,-1,-1,-1,-1,-1,-1,-1,-1,-1,-1,-1,-1,-1,-1,-1,-1,-1,-1,-1,-1,-1,-1,-1,-1,-1,-1,-1,-1,-1,-1,-1,-1,-1,-1,-1,-1,-1,-1,-1],"split_conditions":[1.7E1,1.01E2,1.38E2,2E0,3E0,2E0,2E0,1.34E2,3E0,1.43E2,2E0,1.8E1,1.25E2,3E0,1.55E2,3E0,1.51E2,1.48E2,1.32E2,1.3E1,1.41E2,3E0,3E0,1.02E2,1.19E2,1.22E2,3E0,1.01E2,1.29E2,1.28E2,1.11E2,3E0,-4.5177934E-4,1E0,3E0,1.42E2,2E0,1.19E2,9.8E1,1.28E2,1.52E2,1E0,-1.4347212E-2,1E0,1.04E2,1.11E2,1.1E2,2E0,9E1,3E0,1.32E2,1E2,1.8E1,1.9E1,2.4E1,2E0,3E0,1.46E2,1.38E2,1.8E1,2E0,1.01E2,1.3301413E-2,-1.0462448E-2,-2.5266584E-3,1.1982106E-2,2.6559408E-3,-2.972794E-3,9.082856E-3,-2.5989902E-3,3.7839361E-3,-1.3605345E-2,-3.289517E-3,2.145196E-3,9.23475E-3,2.498272E-3,-7.2882157E-3,7.6318327E-3,3.248682E-3,6.464207E-3,9.752867E-3,4.8091062E-3,-6.5547973E-3,2.5789419E-3,-8.5080415E-3,-2.544507E-3,-1.1446276E-2,-5.05606E-4,4.1671693E-3,-6.3571346E-4,8.6157285E-3,-1.2229367E-2,-2.915304E-3,-6.9455174E-3,1.6349498E-3,-4.814566E-3,-1.6340845E-3,-7.38554E-3,-1.8125059E-3,7.220283E-4,-2.5214194E-3,4.0292647E-3,2.120401E-5,-8.0432985E-3,-4.1101947E-3,-1.2157054E-3,-1.295146E-2,1.092225E-3,-9.115322E-3,-2.5639704E-3,1.8734375E-3,4.408749E-3,1.0566092E-2,-8.009608E-3,4.6348306E-3,6.8645645E-3,3.3607269E-3,-3.8263623E-3,1.5083402E-3,-2.5551016E-3,-1.0434479E-2],"split_indices":[1,0,11,6,6,6,16,11,4,0,5,1,0,6,11,2,11,11,11,1,11,10,4,0,0,11,6,0,0,0,0,13,0,24,7,11,16,11,0,11,11,20,0,22,0,0,11,16,11,10,11,0,1,1,1,17,10,11,0,1,2,0,0,0,0,0,0,0,0,0,0,0,0,0,0,0,0,0,0,0,0,0,0,0,0,0,0,0,0,0,0,0,0,0,0,0,0,0,0,0,0,0,0,0,0,0,0,0,0,0,0,0,0,0,0,0,0,0,0,0,0],"split_type":[0,0,0,0,0,0,0,0,0,0,0,0,0,0,0,0,0,0,0,0,0,0,0,0,0,0,0,0,0,0,0,0,0,0,0,0,0,0,0,0,0,0,0,0,0,0,0,0,0,0,0,0,0,0,0,0,0,0,0,0,0,0,0,0,0,0,0,0,0,0,0,0,0,0,0,0,0,0,0,0,0,0,0,0,0,0,0,0,0,0,0,0,0,0,0,0,0,0,0,0,0,0,0,0,0,0,0,0,0,0,0,0,0,0,0,0,0,0,0,0,0],"sum_hessian":[5.515E3,1.813E3,3.702E3,1.82E2,1.631E3,3.014E3,6.88E2,3.8E1,1.44E2,1.43E3,2.01E2,1.222E3,1.792E3,2.32E2,4.56E2,1.2E1,2.6E1,1E2,4.4E1,1.398E3,3.2E1,5.5E1,1.46E2,1.8E2,1.042E3,1.32E3,4.72E2,2.06E2,2.6E1,3.87E2,6.9E1,9E0,3E0,1.4E1,1.2E1,8.5E1,1.5E1,1.3E1,3.1E1,5.16E2,8.82E2,2.6E1,6E0,4.2E1,1.3E1,1.11E2,3.5E1,3.7E1,1.43E2,4.51E2,5.91E2,8.51E2,4.69E2,3.3E2,1.42E2,2.5E1,1.81E2,2.2E1,4E0,2.94E2,9.3E1,6.1E1,8E0,5E0,4E0,1.2E1,2E0,8E0,4E0,7.5E1,1E1,5E0,1E1,6E0,7E0,2.3E1,8E0,1.95E2,3.21E2,7.47E2,1.35E2,2E1,6E0,3.8E1,4E0,4E0,9E0,5.1E1,6E1,6E0,2.9E1,1.8E1,1.9E1,1.6E1,1.27E2,3.23E2,1.28E2,5.54E2,3.7E1,1.77E2,6.74E2,4.1E1,4.28E2,4.4E1,2.86E2,1.39E2,3E0,5E0,2E1,1.29E2,5.2E1,1.6E1,6E0,3E0,1E0,5.2E1,2.42E2,2.9E1,6.4E1,5.3E1,8E0],"tree_param":{"num_deleted":"0","num_feature":"25","num_nodes":"121","size_leaf_vector":"1"}},{"base_weights":[4.8981677E-3,4.908969E-1,-2.3890987E-1,1.3568725E-2,5.477905E-1,-1.5174784E-1,-4.1978657E-1,2.2534384E-1,-6.972556E-2,3.803991E-1,6.0819906E-1,-2.5934175E-1,-9.699263E-2,-3.496236E-2,-4.6560934E-1,-1.9254106E-1,4.0172073E-1,-1.03901345E-2,-4.8148822E-2,2.8451023E-1,6.8392265E-1,6.266427E-1,2.7449107E-1,-3.1133068E-1,-1.3418567E-1,-2.116065E-1,1.9023135E-2,-1.7771305E-1,4.0823212E-1,-5.1246715E-1,-3.3508745E-1,-8.76036E-1,1.6525148E-1,1.2642296E-1,1.0909858E0,3.5761036E-2,-2.781666E-1,6.897339E-1,2.5190476E-1,1.2518525E-1,7.929151E-1,4.7406724E-1,6.728748E-1,7.2004956E-1,2.3959246E-2,-4.4159684E-1,-2.2067834E-1,-1.7166466E-1,3.1670678E-1,3.997977E-2,-2.5138754E-1,-1.16781786E-1,8.076288E-2,-4.669413E-1,1.9832022E-2,-1.4415212E-1,6.7813665E-1,-6.3740516E-1,-4.381466E-1,-3.9395443E-1,-5.642035E-2,-1.2690563E-2,-5.999692E-4,5.7584257E-3,-2.1029108E-3,-4.0459633E-3,3.479825E-3,1.2075216E-2,-3.7185906E-4,-1.3243653E-4,3.722734E-3,-3.8374546E-3,6.887955E-3,1.0757149E-2,-2.1669236E-3,7.116123E-4,3.196684E-3,4.4954843E-3,-3.3646228E-3,8.722871E-3,1.0245952E-3,5.474938E-3,2.1032414E-4,7.0551643E-3,4.9367845E-3,1.0025271E-2,-4.9737534E-3,-1.0554396E-2,1.9834933E-3,-5.896102E-3,-1.0759968E-3,-2.8170894E-3,2.933246E-3,-7.531756E-4,-3.2946789E-3,1.0814562E-2,-2.1951846E-3,-1.853087E-4,9.202866E-3,-3.1784393E-3,-1.0404073E-3,-2.6108953E-3,5.293369E-6,3.9034616E-3,4.166566E-4,-1.262536E-2,-2.2089954E-3,5.344426E-3,-2.0657827E-3,-7.810892E-3,1.9233546E-3,1.8437856E-3,9.118457E-3,-3.7151142E-3,-6.937687E-3,-4.1470765E-3,-7.687917E-3,-1.8352717E-3,-4.939449E-3,3.2280902E-3,-7.485397E-3],"categories":[],"categories_nodes":[],"categories_segments":[],"categories_sizes":[],"default_left":[0,0,0,0,0,0,0,0,0,0,0,0,0,0,0,0,0,0,0,0,0,0,0,0,0,0,0,0,0,0,0,0,0,0,0,0,0,0,0,0,0,0,0,0,0,0,0,0,0,0,0,0,0,0,0,0,0,0,0,0,0,0,0,0,0,0,0,0,0,0,0,0,0,0,0,0,0,0,0,0,0,0,0,0,0,0,0,0,0,0,0,0,0,0,0,0,0,0,0,0,0,0,0,0,0,0,0,0,0,0,0,0,0,0,0,0,0,0,0,0,0],"id":10,"left_children":[1,3,5,7,9,11,13,15,17,19,21,23,25,27,29,31,33,-1,35,37,39,41,43,45,47,49,51,53,55,57,59,61,63,65,67,69,71,73,75,77,79,81,83,85,87,89,91,93,95,97,99,101,103,105,107,109,111,113,115,117,119,-1,-1,-1,-1,-1,-1,-1,-1,-1,-1,-1,-1,-1,-1,-1,-1,-1,-1,-1,-1,-1,-1,-1,-1,-1,-1,-1,-1,-1,-1,-1,-1,-1,-1,-1,-1,-1,-1,-1,-1,-1,-1,-1,-1,-1,-1,-1,-1,-1,-1,-1,-1,-1,-1,-1,-1,-1,-1,-1,-1],"loss_changes":[6.426907E2,4.9200897E1,5.6881607E1,3.4378052E0,1.613977E1,1.4343796E1,2.0685684E1,4.131137E0,2.877942E0,1.2378574E1,7.1398926E0,5.306755E0,2.1518597E1,8.044105E0,6.243927E0,4.3021054E0,7.262446E0,0E0,2.673452E0,4.1863823E0,6.1732483E0,7.616638E0,7.1268487E0,6.751728E0,4.160822E0,8.156857E0,6.759003E0,5.49428E0,4.719576E0,6.8705444E0,4.5709763E0,1.8481803E0,1.9714277E0,3.5527124E0,1.4910994E0,1.6869801E0,4.0416803E0,8.629819E0,3.737341E0,2.8466024E0,4.6236687E0,8.80365E0,4.6878967E0,8.408226E0,8.115277E0,1.1652897E1,1.0873884E1,3.3960586E0,8.028881E0,5.785874E0,6.850807E0,4.266222E0,6.6892667E0,7.355337E0,6.8681655E0,2.507767E0,2.255187E0,4.013466E0,3.4476547E0,4.7697563E0,1.3365237E1,0E0,0E0,0E0,0E0,0E0,0E0,0E0,0E0,0E0,0E0,0E0,0E0,0E0,0E0,0E0,0E0,0E0,0E0,0E0,0E0,0E0,0E0,0E0,0E0,0E0,0E0,0E0,0E0,0E0,0E0,0E0,0E0,0E0,0E0,0E0,0E0,0E0,0E0,0E0,0E0,0E0,0E0,0E0,0E0,0E0,0E0,0E0,0E0,0E0,0E0,0E0,0E0,0E0,0E0,0E0,0E0,0E0,0E0,0E0,0E0],"parents":[2147483647,0,0,1,1,2,2,3,3,4,4,5,5,6,6,7,7,8,8,9,9,10,10,11,11,12,12,13,13,14,14,15,15,16,16,18,18,19,19,20,20,21,21,22,22,23,23,24,24,25,25,26,26,27,27,28,28,29,29,30,30,31,31,32,32,33,33,34,34,35,35,36,36,37,37,38,38,39,39,40,40,41,41,42,42,43,43,44,44,45,45,46,46,47,47,48,48,49,49,50,50,51,51,52,52,53,53,54,54,55,55,56,56,57,57,58,58,59,59,60,60],"right_children":[2,4,6,8,10,12,14,16,18,20,22,24,26,28,30,32,34,-1,36,38,40,42,44,46,48,50,52,54,56,58,60,62,64,66,68,70,72,74,76,78,80,82,84,86,88,90,92,94,96,98,100,102,104,106,108,110,112,114,116,118,120,-1,-1,-1,-1,-1,-1,-1,-1,-1,-1,-1,-1,-1,-1,-1,-1,-1,-1,-1,-1,-1,-1,-1,-1,-1,-1,-1,-1,-1,-1,-1,-1,-1,-1,-1,-1,-1,-1,-1,-1,-1,-1,-1,-1,-1,-1,-1,-1,-1,-1,-1,-1,-1,-1,-1,-1,-1,-1,-1,-1],"split_conditions":[1.7E1,1.01E2,1.25E2,2E0,1.11E2,2E0,1.8E1,2E0,8.4E1,1E0,1.38E2,3E0,1E0,3E0,3E0,2E0,3E0,-1.03901345E-2,3E0,1E1,1.1E1,1.2E1,2E0,2E0,1E0,1.8E1,2E0,2E0,2E0,2E0,1E0,9.9E1,2E0,1.3E1,1E0,1E0,1E0,1E0,1.3E1,3E0,1.6E1,1E0,1.6E1,1E0,1.39E2,3E0,1E0,1.13E2,2E0,1E0,3E0,1.03E2,1.8E1,2E0,2E0,2E0,2E0,1.9E1,1E0,2E0,1.41E2,-1.2690563E-2,-5.999692E-4,5.7584257E-3,-2.1029108E-3,-4.0459633E-3,3.479825E-3,1.2075216E-2,-3.7185906E-4,-1.3243653E-4,3.722734E-3,-3.8374546E-3,6.887955E-3,1.0757149E-2,-2.1669236E-3,7.116123E-4,3.196684E-3,4.4954843E-3,-3.3646228E-3,8.722871E-3,1.0245952E-3,5.474938E-3,2.1032414E-4,7.0551643E-3,4.9367845E-3,1.0025271E-2,-4.9737534E-3,-1.0554396E-2,1.9834933E-3,-5.896102E-3,-1.0759968E-3,-2.8170894E-3,2.933246E-3,-7.531756E-4,-3.2946789E-3,1.0814562E-2,-2.1951846E-3,-1.853087E-4,9.202866E-3,-3.1784393E-3,-1.0404073E-3,-2.6108953E-3,5.293369E-6,3.9034616E-3,4.166566E-4,-1.262536E-2,-2.2089954E-3,5.344426E-3,-2.0657827E-3,-7.810892E-3,1.9233546E-3,1.8437856E-3,9.118457E-3,-3.7151142E-3,-6.937687E-3,-4.1470765E-3,-7.687917E-3,-1.8352717E-3,-4.939449E-3,3.2280902E-3,-7.485397E-3],"split_indices":[1,0,0,2,0,16,1,14,0,18,0,5,12,13,15,16,15,0,15,1,1,1,8,14,23,1,2,5,17,16,18,0,13,1,19,19,18,24,1,10,1,24,1,20,0,13,21,0,10,22,15,0,1,8,14,2,7,1,22,14,0,0,0,0,0,0,0,0,0,0,0,0,0,0,0,0,0,0,0,0,0,0,0,0,0,0,0,0,0,0,0,0,0,0,0,0,0,0,0,0,0,0,0,0,0,0,0,0,0,0,0,0,0,0,0,0,0,0,0,0,0],"split_type":[0,0,0,0,0,0,0,0,0,0,0,0,0,0,0,0,0,0,0,0,0,0,0,0,0,0,0,0,0,0,0,0,0,0,0,0,0,0,0,0,0,0,0,0,0,0,0,0,0,0,0,0,0,0,0,0,0,0,0,0,0,0,0,0,0,0,0,0,0,0,0,0,0,0,0,0,0,0,0,0,0,0,0,0,0,0,0,0,0,0,0,0,0,0,0,0,0,0,0,0,0,0,0,0,0,0,0,0,0,0,0,0,0,0,0,0,0,0,0,0,0],"sum_hessian":[5.422E3,1.811E3,3.611E3,1.93E2,1.618E3,2.438E3,1.173E3,5.4E1,1.39E2,4.31E2,1.187E3,8.21E2,1.617E3,1.25E2,1.048E3,1.6E1,3.8E1,2E0,1.37E2,3.29E2,1.02E2,1.124E3,6.3E1,5.79E2,2.42E2,8.13E2,8.04E2,9.5E1,3E1,7.69E2,2.79E2,5E0,1.1E1,2.8E1,1E1,1.01E2,3.6E1,2.3E1,3.06E2,1.7E1,8.5E1,2.64E2,8.6E2,2.2E1,4.1E1,2.36E2,3.43E2,2.24E2,1.8E1,1.11E2,7.02E2,2.51E2,5.53E2,3.8E1,5.7E1,1E1,2E1,2.84E2,4.85E2,2.3E2,4.9E1,3E0,2E0,5E0,6E0,8E0,2E1,9E0,1E0,8.9E1,1.2E1,3.3E1,3E0,1.6E1,7E0,8.4E1,2.22E2,1E1,7E0,7.6E1,9E0,2.27E2,3.7E1,7.25E2,1.35E2,1.8E1,4E0,5E0,3.6E1,1.63E2,7.3E1,3.07E2,3.6E1,1.4E2,8.4E1,7E0,1.1E1,1.05E2,6E0,4.83E2,2.19E2,1.12E2,1.39E2,6.1E1,4.92E2,8E0,3E1,1.7E1,4E1,3E0,7E0,7E0,1.3E1,5.1E1,2.33E2,4.55E2,3E1,7.5E1,1.55E2,3.2E1,1.7E1],"tree_param":{"num_deleted":"0","num_feature":"25","num_nodes":"121","size_leaf_vector":"1"}},{"base_weights":[-3.8093135E-3,4.7420564E-1,-2.4005796E-1,7.4878174E-1,4.0783674E-1,-3.42759E-1,2.2289375E-2,8.461029E-1,5.938479E-1,3.5242942E-1,5.693497E-1,-5.206841E-2,-3.7730134E-1,-1.4723346E-1,1.0407888E-1,9.892263E-1,6.1623365E-1,-8.284578E-2,7.370364E-1,3.941216E-1,1.0585118E-1,6.750509E-2,7.1931195E-1,-1.0307511E0,3.5252068E-3,-4.284386E-1,-2.5604293E-1,-3.8245276E-1,2.648206E-3,-8.386206E-2,2.2747524E-1,1.3043355E0,8.580225E-1,1.6059013E-1,7.85401E-1,-4.520781E-1,7.5828266E-1,7.506316E-1,2.90536E-1,5.1735276E-1,2.934672E-1,-1.6861295E-2,3.563201E-1,-2.1026868E-1,2.4442591E-1,9.472337E-1,5.3675246E-1,-4.6638107E-1,-1.3551776E-2,-1.3221227E-1,2.6452008E-1,-4.7372743E-1,-3.3632693E-1,-3.245347E-1,1.5854074E-2,-1.0370553E0,-2.4682242E-1,-5.3801734E-2,4.306166E-1,-2.1355994E-2,-2.9386097E-1,3.2545617E-1,-2.9068533E-1,1.5588681E-2,9.281597E-3,9.471165E-3,3.9876597E-3,-8.497374E-3,3.453863E-3,-8.1048725E-4,8.316148E-3,-1.1699323E-3,-8.5631E-3,1.2864995E-2,-9.1558933E-4,7.6453653E-3,3.8218915E-3,6.4360923E-3,-5.608785E-3,4.134551E-3,6.3821333E-3,1.3837363E-3,4.4561983E-3,1.1141297E-3,-6.168375E-3,6.1159558E-3,-4.9638667E-4,2.237831E-3,-8.463271E-3,-1.4920474E-3,5.2858973E-3,7.052155E-3,1.0991761E-2,1.5122797E-3,6.2455633E-3,2.053727E-3,-1.0215395E-2,-2.0601829E-3,6.1411117E-3,7.470987E-3,5.99948E-4,-5.190345E-3,-3.5829493E-3,-3.673553E-3,-1.4746642E-4,-8.804404E-3,-2.8663962E-3,-5.0294935E-3,1.2123905E-3,-4.8496842E-4,-1.19059095E-2,-3.8990218E-3,9.73773E-5,2.0450425E-6,-5.7799197E-3,-1.5918302E-3,7.3546525E-3,-1.9573797E-3,6.907833E-4,-4.0819333E-3,6.75025E-4,7.0311204E-3,2.4856108E-3,-4.0516043E-3,9.406715E-3],"categories":[],"categories_nodes":[],"categories_segments":[],"categories_sizes":[],"default_left":[0,0,0,0,0,0,0,0,0,0,0,0,0,0,0,0,0,0,0,0,0,0,0,0,0,0,0,0,0,0,0,0,0,0,0,0,0,0,0,0,0,0,0,0,0,0,0,0,0,0,0,0,0,0,0,0,0,0,0,0,0,0,0,0,0,0,0,0,0,0,0,0,0,0,0,0,0,0,0,0,0,0,0,0,0,0,0,0,0,0,0,0,0,0,0,0,0,0,0,0,0,0,0,0,0,0,0,0,0,0,0,0,0,0,0,0,0,0,0,0,0,0,0,0,0],"id":11,"left_children":[1,3,5,7,9,11,13,15,17,19,21,23,25,27,29,31,33,35,37,39,41,43,45,47,49,51,53,55,57,59,61,63,65,67,69,71,73,75,77,79,81,83,85,87,89,91,93,95,-1,97,99,101,103,105,107,109,111,113,115,117,119,121,123,-1,-1,-1,-1,-1,-1,-1,-1,-1,-1,-1,-1,-1,-1,-1,-1,-1,-1,-1,-1,-1,-1,-1,-1,-1,-1,-1,-1,-1,-1,-1,-1,-1,-1,-1,-1,-1,-1,-1,-1,-1,-1,-1,-1,-1,-1,-1,-1,-1,-1,-1,-1,-1,-1,-1,-1,-1,-1,-1,-1,-1,-1],"loss_changes":[6.1422925E2,3.2478363E1,9.8081436E1,4.7598724E0,1.2784332E1,2.6247955E1,1.4227143E1,6.365143E0,1.3432541E1,1.1091934E1,2.7721558E1,1.5183607E1,1.4387817E1,1.1776203E1,1.6067406E1,4.2141647E0,6.3485947E0,8.1071E0,4.739189E-1,1.1334061E1,4.8622427E0,4.2777753E0,1.1308594E1,2.11442E0,9.42307E0,6.6946716E0,1.2966553E1,1.1285948E1,4.9757195E0,3.6034307E0,2.13164E1,2.0000877E0,3.468521E0,4.7744007E0,2.5099564E0,2.3379538E0,3.7089949E0,2.7135468E-1,1.8640451E0,4.9473267E0,1.2020462E1,8.303605E0,5.4191866E0,9.576193E0,6.0072136E0,3.8214493E0,5.321636E0,2.8203049E0,0E0,9.76607E0,8.936833E0,5.5616913E0,5.432659E0,1.1460384E1,7.770024E0,3.2813969E0,4.00503E0,5.1524553E0,4.4322658E0,3.3725564E0,2.6304336E0,1.0047272E1,9.82542E0,0E0,0E0,0E0,0E0,0E0,0E0,0E0,0E0,0E0,0E0,0E0,0E0,0E0,0E0,0E0,0E0,0E0,0E0,0E0,0E0,0E0,0E0,0E0,0E0,0E0,0E0,0E0,0E0,0E0,0E0,0E0,0E0,0E0,0E0,0E0,0E0,0E0,0E0,0E0,0E0,0E0,0E0,0E0,0E0,0E0,0E0,0E0,0E0,0E0,0E0,0E0,0E0,0E0,0E0,0E0,0E0,0E0,0E0,0E0,0E0,0E0,0E0],"parents":[2147483647,0,0,1,1,2,2,3,3,4,4,5,5,6,6,7,7,8,8,9,9,10,10,11,11,12,12,13,13,14,14,15,15,16,16,17,17,18,18,19,19,20,20,21,21,22,22,23,23,24,24,25,25,26,26,27,27,28,28,29,29,30,30,31,31,32,32,33,33,34,34,35,35,36,36,37,37,38,38,39,39,40,40,41,41,42,42,43,43,44,44,45,45,46,46,47,47,49,49,50,50,51,51,52,52,53,53,54,54,55,55,56,56,57,57,58,58,59,59,60,60,61,61,62,62],"right_children":[2,4,6,8,10,12,14,16,18,20,22,24,26,28,30,32,34,36,38,40,42,44,46,48,50,52,54,56,58,60,62,64,66,68,70,72,74,76,78,80,82,84,86,88,90,92,94,96,-1,98,100,102,104,106,108,110,112,114,116,118,120,122,124,-1,-1,-1,-1,-1,-1,-1,-1,-1,-1,-1,-1,-1,-1,-1,-1,-1,-1,-1,-1,-1,-1,-1,-1,-1,-1,-1,-1,-1,-1,-1,-1,-1,-1,-1,-1,-1,-1,-1,-1,-1,-1,-1,-1,-1,-1,-1,-1,-1,-1,-1,-1,-1,-1,-1,-1,-1,-1,-1,-1,-1,-1],"split_conditions":[1.7E1,1.06E2,1.31E2,3E0,1.5E2,1.8E1,2E0,3E0,2E0,1.6E1,2E0,8.7E1,3E0,2E0,1.39E2,2E0,2E0,3E0,1E0,1.28E2,3E0,2E0,1E0,2E0,3E0,3E0,1E0,1.8E1,1E0,1E0,1.56E2,1.5E1,1.03E2,1.2E1,8.9E1,1E0,3E0,1E0,1.6E1,1E0,1.3E1,1E0,3E0,1.5E1,1.2E1,1.4E1,2E0,3E0,-1.3551776E-2,1E0,2E0,3E0,1E0,8.6E1,1.9E1,1.35E2,2E1,1.51E2,1.37E2,2E0,3E0,1.8E1,1E0,1.5588681E-2,9.281597E-3,9.471165E-3,3.9876597E-3,-8.497374E-3,3.453863E-3,-8.1048725E-4,8.316148E-3,-1.1699323E-3,-8.5631E-3,1.2864995E-2,-9.1558933E-4,7.6453653E-3,3.8218915E-3,6.4360923E-3,-5.608785E-3,4.134551E-3,6.3821333E-3,1.3837363E-3,4.4561983E-3,1.1141297E-3,-6.168375E-3,6.1159558E-3,-4.9638667E-4,2.237831E-3,-8.463271E-3,-1.4920474E-3,5.2858973E-3,7.052155E-3,1.0991761E-2,1.5122797E-3,6.2455633E-3,2.053727E-3,-1.0215395E-2,-2.0601829E-3,6.1411117E-3,7.470987E-3,5.99948E-4,-5.190345E-3,-3.5829493E-3,-3.673553E-3,-1.4746642E-4,-8.804404E-3,-2.8663962E-3,-5.0294935E-3,1.2123905E-3,-4.8496842E-4,-1.19059095E-2,-3.8990218E-3,9.73773E-5,2.0450425E-6,-5.7799197E-3,-1.5918302E-3,7.3546525E-3,-1.9573797E-3,6.907833E-4,-4.0819333E-3,6.75025E-4,7.0311204E-3,2.4856108E-3,-4.0516043E-3,9.406715E-3],"split_indices":[1,11,11,10,11,1,16,16,17,1,14,11,15,15,11,15,10,16,24,11,17,7,3,15,9,10,18,1,20,24,11,1,11,1,11,3,7,23,1,3,1,19,14,1,1,1,9,7,0,21,10,17,23,11,1,11,1,11,11,15,9,1,19,0,0,0,0,0,0,0,0,0,0,0,0,0,0,0,0,0,0,0,0,0,0,0,0,0,0,0,0,0,0,0,0,0,0,0,0,0,0,0,0,0,0,0,0,0,0,0,0,0,0,0,0,0,0,0,0,0,0,0,0,0,0],"split_type":[0,0,0,0,0,0,0,0,0,0,0,0,0,0,0,0,0,0,0,0,0,0,0,0,0,0,0,0,0,0,0,0,0,0,0,0,0,0,0,0,0,0,0,0,0,0,0,0,0,0,0,0,0,0,0,0,0,0,0,0,0,0,0,0,0,0,0,0,0,0,0,0,0,0,0,0,0,0,0,0,0,0,0,0,0,0,0,0,0,0,0,0,0,0,0,0,0,0,0,0,0,0,0,0,0,0,0,0,0,0,0,0,0,0,0,0,0,0,0,0,0,0,0,0,0],"sum_hessian":[5.437E3,1.798E3,3.639E3,3.48E2,1.45E3,2.615E3,1.024E3,2.11E2,1.37E2,1.082E3,3.68E2,2.78E2,2.337E3,3.33E2,6.91E2,1.28E2,8.3E1,2.4E1,1.13E2,9.25E2,1.57E2,8.5E1,2.83E2,1.4E1,2.64E2,1.642E3,6.95E2,1.29E2,2.04E2,2.74E2,4.17E2,3.5E1,9.3E1,2.3E1,6E1,1.7E1,7E0,1.09E2,4E0,4.14E2,5.11E2,1.06E2,5.1E1,3.3E1,5.2E1,1.24E2,1.59E2,6E0,8E0,1.74E2,9E1,1.098E3,5.44E2,5.55E2,1.4E2,2.1E1,1.08E2,1.81E2,2.3E1,2.12E2,6.2E1,3.51E2,6.6E1,1.9E1,1.6E1,7.7E1,1.6E1,3E0,2E1,3E0,5.7E1,1E1,7E0,4E0,3E0,1.04E2,5E0,3E0,1E0,2.25E2,1.89E2,2.54E2,2.57E2,8.8E1,1.8E1,3.1E1,2E1,2E1,1.3E1,2.2E1,3E1,5E1,7.4E1,3E1,1.29E2,3E0,3E0,1.59E2,1.5E1,2.6E1,6.4E1,7.86E2,3.12E2,4.96E2,4.8E1,3.4E1,5.21E2,2.3E1,1.17E2,3E0,1.8E1,6.9E1,3.9E1,1.65E2,1.6E1,8E0,1.5E1,7.2E1,1.4E2,4.7E1,1.5E1,5.8E1,2.93E2,6.1E1,5E0],"tree_param":{"num_deleted":"0","num_feature":"25","num_nodes":"125","size_leaf_vector":"1"}},{"base_weights":[1.2150792E-3,4.919101E-1,-2.4052471E-1,5.7790214E-1,6.597591E-2,-3.1937292E-1,1.1067167E-1,7.821004E-1,5.0124305E-1,-1.4928831E-1,2.4475285E-1,-4.9537653E-1,-2.0038481E-1,2.0817876E-1,-2.0131168E-1,8.67687E-1,6.2693125E-1,5.2514E-1,-3.969312E-1,-2.1096621E-1,3.7464684E-1,-1.7259872E-1,3.775612E-1,-8.69585E-2,-5.6487757E-1,-2.6140252E-1,-7.446721E-2,3.032424E-1,-2.5546145E-1,-2.2120096E-1,9.199242E-3,-3.7147093E-1,8.7869E-1,-4.7367174E-2,6.972094E-1,-2.6387742E-1,5.427416E-1,-9.151162E-1,3.112285E-1,-1.6152564E-1,-7.633804E-1,7.032336E-1,-2.3543887E-1,-9.031545E-1,1.6084348E-1,4.7188234E-1,2.721572E-2,5.1416785E-2,-7.4032E-1,-3.7975755E-1,-6.999744E-1,-3.282475E-1,-1.0277867E-1,6.540701E-3,-2.9394776E-1,1.9518737E-1,4.8055568E-1,-3.8861117E-1,1.1246119E-2,-4.2398328E-1,-9.065295E-2,-3.1990765E-4,-5.252156E-3,9.390971E-3,5.862349E-3,-2.9184255E-3,4.9995207E-3,1.15180975E-2,6.2640756E-3,-4.370756E-3,7.1138227E-3,4.8825825E-3,7.236803E-3,-1.1961513E-2,-2.0052646E-3,9.095902E-3,-1.7644628E-3,-5.3765825E-3,-7.7564054E-4,-1.2239863E-2,-5.7977147E-4,7.943737E-3,-5.8513996E-4,4.515129E-3,-4.631318E-3,-1.2318826E-2,6.0323374E-3,3.343541E-3,-5.600063E-3,-1.329929E-4,5.5102003E-3,-3.8360914E-3,5.3075277E-3,-4.6644467E-3,1.8264074E-3,-4.0183216E-4,-9.428523E-3,-5.6048566E-3,-2.5965774E-3,-7.3445016E-3,-1.7439728E-3,-2.1593827E-3,-4.9216584E-3,2.5678868E-3,-1.8921639E-3,2.7138554E-3,-5.033712E-4,-5.98695E-3,-1.473176E-3,-8.9188997E-4,3.4028941E-3,2.3952546E-3,6.213704E-3,9.11368E-3,-4.6797846E-3,-3.0795818E-3,-8.81758E-3,1.101678E-2,-1.6660276E-3],"categories":[],"categories_nodes":[],"categories_segments":[],"categories_sizes":[],"default_left":[0,0,0,0,0,0,0,0,0,0,0,0,0,0,0,0,0,0,0,0,0,0,0,0,0,0,0,0,0,0,0,0,0,0,0,0,0,0,0,0,0,0,0,0,0,0,0,0,0,0,0,0,0,0,0,0,0,0,0,0,0,0,0,0,0,0,0,0,0,0,0,0,0,0,0,0,0,0,0,0,0,0,0,0,0,0,0,0,0,0,0,0,0,0,0,0,0,0,0,0,0,0,0,0,0,0,0,0,0,0,0,0,0,0,0,0,0,0,0],"id":12,"left_children":[1,3,5,7,9,11,13,15,17,19,21,23,25,27,29,31,33,35,37,39,41,43,45,47,49,51,53,55,57,59,-1,61,63,65,67,69,71,73,75,77,79,81,83,85,87,89,91,93,95,97,99,101,103,105,107,109,111,113,-1,115,117,-1,-1,-1,-1,-1,-1,-1,-1,-1,-1,-1,-1,-1,-1,-1,-1,-1,-1,-1,-1,-1,-1,-1,-1,-1,-1,-1,-1,-1,-1,-1,-1,-1,-1,-1,-1,-1,-1,-1,-1,-1,-1,-1,-1,-1,-1,-1,-1,-1,-1,-1,-1,-1,-1,-1,-1,-1,-1],"loss_changes":[6.501586E2,6.622003E1,1.0171748E2,2.3166687E1,1.1774243E1,6.2706818E1,2.0545387E1,4.8876953E0,2.3754028E1,4.570854E0,9.321607E0,3.426892E1,1.3741158E1,2.2732182E1,3.793881E0,3.8850098E0,7.0939026E0,1.4989471E1,1.0926584E1,3.2906551E0,3.1725595E0,1.013279E1,4.1838703E0,1.6040474E1,2.5568634E1,1.2753731E1,1.0420803E1,8.087345E0,1.6607595E1,4.170745E0,0E0,1.3977781E-1,4.0250397E0,2.1529984E0,3.62368E0,4.3648443E0,9.958252E0,3.17416E0,3.9539704E0,3.6216567E0,3.1781664E0,7.407403E-1,1.1475945E0,7.1806126E0,3.8144188E0,3.846943E0,5.995837E0,1.00747E1,4.3579216E0,9.361435E0,1.0671234E1,1.55050125E1,1.1206373E1,6.4760294E0,6.9720535E0,1.10477295E1,5.315605E0,8.783745E0,0E0,3.0214844E0,9.05816E0,0E0,0E0,0E0,0E0,0E0,0E0,0E0,0E0,0E0,0E0,0E0,0E0,0E0,0E0,0E0,0E0,0E0,0E0,0E0,0E0,0E0,0E0,0E0,0E0,0E0,0E0,0E0,0E0,0E0,0E0,0E0,0E0,0E0,0E0,0E0,0E0,0E0,0E0,0E0,0E0,0E0,0E0,0E0,0E0,0E0,0E0,0E0,0E0,0E0,0E0,0E0,0E0,0E0,0E0,0E0,0E0,0E0,0E0],"parents":[2147483647,0,0,1,1,2,2,3,3,4,4,5,5,6,6,7,7,8,8,9,9,10,10,11,11,12,12,13,13,14,14,15,15,16,16,17,17,18,18,19,19,20,20,21,21,22,22,23,23,24,24,25,25,26,26,27,27,28,28,29,29,31,31,32,32,33,33,34,34,35,35,36,36,37,37,38,38,39,39,40,40,41,41,42,42,43,43,44,44,45,45,46,46,47,47,48,48,49,49,50,50,51,51,52,52,53,53,54,54,55,55,56,56,57,57,59,59,60,60],"right_children":[2,4,6,8,10,12,14,16,18,20,22,24,26,28,30,32,34,36,38,40,42,44,46,48,50,52,54,56,58,60,-1,62,64,66,68,70,72,74,76,78,80,82,84,86,88,90,92,94,96,98,100,102,104,106,108,110,112,114,-1,116,118,-1,-1,-1,-1,-1,-1,-1,-1,-1,-1,-1,-1,-1,-1,-1,-1,-1,-1,-1,-1,-1,-1,-1,-1,-1,-1,-1,-1,-1,-1,-1,-1,-1,-1,-1,-1,-1,-1,-1,-1,-1,-1,-1,-1,-1,-1,-1,-1,-1,-1,-1,-1,-1,-1,-1,-1,-1,-1],"split_conditions":[1.7E1,3E0,1.38E2,1.1E2,1.04E2,2E0,1.3E2,3E0,1.38E2,1.42E2,2E0,1.8E1,1.23E2,1.56E2,1.51E2,1E2,1.1E2,9.4E1,3E0,1E0,3E0,1.14E2,1.24E2,1.26E2,1.19E2,3E0,1.25E2,1.15E2,1.17E2,1.39E2,9.199242E-3,7.5E1,1E0,3E0,1.19E2,1.63E2,1.24E2,1.47E2,1.31E2,1.2E1,1E0,3E0,2E0,1E0,1E0,1.08E2,3E0,1.04E2,2E0,2E0,1.32E2,1.17E2,1E2,1.26E2,2E1,2E0,1.41E2,2E0,1.1246119E-2,2.1E1,1.4E2,-3.1990765E-4,-5.252156E-3,9.390971E-3,5.862349E-3,-2.9184255E-3,4.9995207E-3,1.15180975E-2,6.2640756E-3,-4.370756E-3,7.1138227E-3,4.8825825E-3,7.236803E-3,-1.1961513E-2,-2.0052646E-3,9.095902E-3,-1.7644628E-3,-5.3765825E-3,-7.7564054E-4,-1.2239863E-2,-5.7977147E-4,7.943737E-3,-5.8513996E-4,4.515129E-3,-4.631318E-3,-1.2318826E-2,6.0323374E-3,3.343541E-3,-5.600063E-3,-1.329929E-4,5.5102003E-3,-3.8360914E-3,5.3075277E-3,-4.6644467E-3,1.8264074E-3,-4.0183216E-4,-9.428523E-3,-5.6048566E-3,-2.5965774E-3,-7.3445016E-3,-1.7439728E-3,-2.1593827E-3,-4.9216584E-3,2.5678868E-3,-1.8921639E-3,2.7138554E-3,-5.033712E-4,-5.98695E-3,-1.473176E-3,-8.9188997E-4,3.4028941E-3,2.3952546E-3,6.213704E-3,9.11368E-3,-4.6797846E-3,-3.0795818E-3,-8.81758E-3,1.101678E-2,-1.6660276E-3],"split_indices":[1,6,11,11,0,6,0,10,0,11,5,1,11,11,11,0,0,0,10,19,10,11,11,11,0,6,0,0,0,0,0,0,24,15,0,11,0,0,11,1,12,5,16,21,19,11,8,0,8,5,11,0,0,11,1,8,11,6,0,1,0,0,0,0,0,0,0,0,0,0,0,0,0,0,0,0,0,0,0,0,0,0,0,0,0,0,0,0,0,0,0,0,0,0,0,0,0,0,0,0,0,0,0,0,0,0,0,0,0,0,0,0,0,0,0,0,0,0,0],"split_type":[0,0,0,0,0,0,0,0,0,0,0,0,0,0,0,0,0,0,0,0,0,0,0,0,0,0,0,0,0,0,0,0,0,0,0,0,0,0,0,0,0,0,0,0,0,0,0,0,0,0,0,0,0,0,0,0,0,0,0,0,0,0,0,0,0,0,0,0,0,0,0,0,0,0,0,0,0,0,0,0,0,0,0,0,0,0,0,0,0,0,0,0,0,0,0,0,0,0,0,0,0,0,0,0,0,0,0,0,0,0,0,0,0,0,0,0,0,0,0],"sum_hessian":[5.479E3,1.808E3,3.671E3,1.504E3,3.04E2,2.998E3,6.73E2,4.08E2,1.096E3,1.38E2,1.66E2,1.208E3,1.79E3,5.13E2,1.6E2,2.6E2,1.48E2,1.068E3,2.8E1,1.24E2,1.4E1,4E1,1.26E2,1.76E2,1.032E3,1.205E3,5.85E2,4.26E2,8.7E1,1.58E2,2E0,2E0,2.58E2,1.4E1,1.34E2,2.3E1,1.045E3,1.6E1,1.2E1,1.15E2,9E0,9E0,5E0,1.2E1,2.8E1,9.9E1,2.7E1,1.46E2,3E1,4.37E2,5.95E2,8.47E2,3.58E2,4.28E2,1.57E2,2.66E2,1.6E2,8E1,7E0,6.1E1,9.7E1,1E0,1E0,2.12E2,4.6E1,1E1,4E0,1.6E1,1.18E2,2E1,3E0,8.06E2,2.39E2,1.1E1,5E0,5E0,7E0,2E1,9.5E1,5E0,4E0,8E0,1E0,1E0,4E0,1E1,2E0,2.3E1,5E0,1.4E1,8.5E1,1.5E1,1.2E1,2.9E1,1.17E2,7E0,2.3E1,1.73E2,2.64E2,5.58E2,3.7E1,5.04E2,3.43E2,6.9E1,2.89E2,7.5E1,3.53E2,5E1,1.07E2,9E1,1.76E2,6E1,1E2,4E0,7.6E1,5E1,1.1E1,5E0,9.2E1],"tree_param":{"num_deleted":"0","num_feature":"25","num_nodes":"119","size_leaf_vector":"1"}},{"base_weights":[4.2041354E-3,4.8420238E-1,-2.3566513E-1,-1.4098659E-2,5.4190576E-1,-3.2236138E-1,6.541601E-2,-8.643073E-2,4.9281326E-1,7.516295E-1,4.7212526E-1,-2.1771887E-1,-4.5067912E-1,-8.2568265E-2,1.5788652E-1,-2.9842207E-1,1.6603967E-2,-6.366808E-2,6.818442E-1,8.342386E-1,6.156389E-1,4.0907413E-1,6.252641E-1,-2.4362803E-1,-4.1177016E-2,-2.2389326E-2,-4.975446E-1,-3.0212086E-1,1.2018667E-1,-3.768095E-2,2.6725504E-1,-1.1779832E-1,-9.358407E-1,-4.4468346E-1,1.0203252E-1,-2.2747338E-1,4.5958185E-3,2.2397149E-1,1.1148311E0,7.7221024E-1,1.1245177E0,-1.7573571E-1,6.8780166E-1,3.419702E-1,6.031674E-1,3.2867816E-1,8.632695E-1,-2.9578075E-1,-1.4957523E-1,-5.123137E-1,5.3851534E-2,-1.6609947E-1,3.316651E-1,-5.563221E-1,-3.1444535E-1,-3.8708243E-1,5.62922E-2,1.5605877E-1,-8.5643405E-1,-4.9436173E-1,3.818772E-2,6.0183727E-3,3.6162618E-1,-2.5110717E-3,6.2270663E-3,4.7297287E-3,-1.1069123E-2,-7.4089076E-3,2.7121296E-3,-1.2305435E-3,4.1246954E-3,-6.149907E-4,-5.2867243E-3,7.196512E-3,-2.2642354E-3,1.2669483E-2,-5.1053404E-4,9.3236E-3,5.96789E-3,8.452562E-3,1.2339606E-2,-8.6220885E-3,1.8507445E-3,2.0849027E-3,7.7183708E-3,4.4192076E-3,2.0261311E-3,6.4522424E-3,-4.732151E-3,3.6874812E-3,-1.3362557E-2,5.849004E-3,1.089828E-2,-2.1309345E-3,-3.744944E-3,-2.0200626E-3,4.226934E-4,3.3810686E-3,-6.3697337E-3,-1.3724994E-3,2.0415427E-3,-1.0631591E-2,-1.1263513E-3,-3.6484879E-3,5.6857485E-3,-6.3055446E-3,-3.7680834E-3,-7.2310335E-4,-4.711978E-3,-5.658122E-3,-2.8037454E-3,9.264996E-3,-2.4883612E-3,9.566609E-5,4.000529E-3,-1.2186115E-2,4.7722673E-3,-7.4997015E-4,-1.1578455E-2,9.412933E-3,8.424872E-5,-2.8614919E-3,1.6481094E-3,4.186879E-3,-1.1974943E-3],"categories":[],"categories_nodes":[],"categories_segments":[],"categories_sizes":[],"default_left":[0,0,0,0,0,0,0,0,0,0,0,0,0,0,0,0,0,0,0,0,0,0,0,0,0,0,0,0,0,0,0,0,0,0,0,0,0,0,0,0,0,0,0,0,0,0,0,0,0,0,0,0,0,0,0,0,0,0,0,0,0,0,0,0,0,0,0,0,0,0,0,0,0,0,0,0,0,0,0,0,0,0,0,0,0,0,0,0,0,0,0,0,0,0,0,0,0,0,0,0,0,0,0,0,0,0,0,0,0,0,0,0,0,0,0,0,0,0,0,0,0,0,0,0,0],"id":13,"left_children":[1,3,5,7,9,11,13,15,17,19,21,23,25,27,29,31,33,35,37,39,41,43,45,47,49,51,53,55,57,59,61,63,65,67,69,71,-1,73,75,77,79,81,83,85,87,89,91,93,95,97,99,101,103,105,107,109,111,113,115,117,119,121,123,-1,-1,-1,-1,-1,-1,-1,-1,-1,-1,-1,-1,-1,-1,-1,-1,-1,-1,-1,-1,-1,-1,-1,-1,-1,-1,-1,-1,-1,-1,-1,-1,-1,-1,-1,-1,-1,-1,-1,-1,-1,-1,-1,-1,-1,-1,-1,-1,-1,-1,-1,-1,-1,-1,-1,-1,-1,-1,-1,-1,-1,-1],"loss_changes":[6.3267584E2,5.265561E1,9.566104E1,7.045798E0,2.3660553E1,3.810312E1,1.1234066E1,3.674489E0,2.5680242E0,4.0699005E0,1.165921E1,7.1666565E0,2.5620758E1,1.4103169E1,1.0811476E1,6.2220716E0,4.5377836E0,7.045204E-1,3.318862E0,3.6510315E0,9.143909E0,1.1216156E1,2.4987137E1,6.665947E0,9.071419E0,6.5170035E0,1.221228E1,4.6503925E0,5.914172E0,6.324771E0,7.9854603E0,4.4998646E0,3.4156342E0,4.017907E0,6.82866E0,2.6743498E-1,0E0,2.395463E0,1.660842E0,5.343239E0,2.4065018E-1,3.627184E0,5.679558E0,9.019913E0,1.0445633E1,1.1233673E1,1.1849808E1,5.6412735E0,4.937258E0,3.8198118E0,4.8822193E0,4.2446747E0,6.3128486E0,1.1355804E1,1.0669312E1,2.1871986E0,8.196295E0,5.715091E0,3.4796853E0,7.1474485E0,4.2120714E0,4.083442E0,6.587549E0,0E0,0E0,0E0,0E0,0E0,0E0,0E0,0E0,0E0,0E0,0E0,0E0,0E0,0E0,0E0,0E0,0E0,0E0,0E0,0E0,0E0,0E0,0E0,0E0,0E0,0E0,0E0,0E0,0E0,0E0,0E0,0E0,0E0,0E0,0E0,0E0,0E0,0E0,0E0,0E0,0E0,0E0,0E0,0E0,0E0,0E0,0E0,0E0,0E0,0E0,0E0,0E0,0E0,0E0,0E0,0E0,0E0,0E0,0E0,0E0,0E0,0E0],"parents":[2147483647,0,0,1,1,2,2,3,3,4,4,5,5,6,6,7,7,8,8,9,9,10,10,11,11,12,12,13,13,14,14,15,15,16,16,17,17,18,18,19,19,20,20,21,21,22,22,23,23,24,24,25,25,26,26,27,27,28,28,29,29,30,30,31,31,32,32,33,33,34,34,35,35,37,37,38,38,39,39,40,40,41,41,42,42,43,43,44,44,45,45,46,46,47,47,48,48,49,49,50,50,51,51,52,52,53,53,54,54,55,55,56,56,57,57,58,58,59,59,60,60,61,61,62,62],"right_children":[2,4,6,8,10,12,14,16,18,20,22,24,26,28,30,32,34,36,38,40,42,44,46,48,50,52,54,56,58,60,62,64,66,68,70,72,-1,74,76,78,80,82,84,86,88,90,92,94,96,98,100,102,104,106,108,110,112,114,116,118,120,122,124,-1,-1,-1,-1,-1,-1,-1,-1,-1,-1,-1,-1,-1,-1,-1,-1,-1,-1,-1,-1,-1,-1,-1,-1,-1,-1,-1,-1,-1,-1,-1,-1,-1,-1,-1,-1,-1,-1,-1,-1,-1,-1,-1,-1,-1,-1,-1,-1,-1,-1,-1,-1,-1,-1,-1,-1,-1,-1,-1,-1,-1,-1],"split_conditions":[1.7E1,1.01E2,1.35E2,1E0,1.08E2,1.19E2,2E0,2E0,9.2E1,3E0,1.5E2,1E0,1.8E1,1.9E1,2E0,1.56E2,1.27E2,3E0,2E0,1E0,1.11E2,3E0,1.3E1,3E0,1.08E2,3E0,1.24E2,3E0,1.57E2,9.9E1,1.4E2,1E0,9.1E1,3E0,2E0,2E0,4.5958185E-3,2E0,1.48E2,1.19E2,2E0,2E0,2E0,1.32E2,1.38E2,1.22E2,1.12E2,2E0,1E0,1.8E1,1.02E2,1.2E2,2E0,3E0,1.26E2,2E0,2E0,1.42E2,1.06E2,3E0,1E2,2E0,1E0,-2.5110717E-3,6.2270663E-3,4.7297287E-3,-1.1069123E-2,-7.4089076E-3,2.7121296E-3,-1.2305435E-3,4.1246954E-3,-6.149907E-4,-5.2867243E-3,7.196512E-3,-2.2642354E-3,1.2669483E-2,-5.1053404E-4,9.3236E-3,5.96789E-3,8.452562E-3,1.2339606E-2,-8.6220885E-3,1.8507445E-3,2.0849027E-3,7.7183708E-3,4.4192076E-3,2.0261311E-3,6.4522424E-3,-4.732151E-3,3.6874812E-3,-1.3362557E-2,5.849004E-3,1.089828E-2,-2.1309345E-3,-3.744944E-3,-2.0200626E-3,4.226934E-4,3.3810686E-3,-6.3697337E-3,-1.3724994E-3,2.0415427E-3,-1.0631591E-2,-1.1263513E-3,-3.6484879E-3,5.6857485E-3,-6.3055446E-3,-3.7680834E-3,-7.2310335E-4,-4.711978E-3,-5.658122E-3,-2.8037454E-3,9.264996E-3,-2.4883612E-3,9.566609E-5,4.000529E-3,-1.2186115E-2,4.7722673E-3,-7.4997015E-4,-1.1578455E-2,9.412933E-3,8.424872E-5,-2.8614919E-3,1.6481094E-3,4.186879E-3,-1.1974943E-3],"split_indices":[1,0,11,18,11,0,4,7,0,10,11,21,1,1,8,11,11,2,16,18,0,4,1,10,11,5,11,10,11,0,11,20,0,17,9,2,0,4,11,0,7,16,17,11,0,0,0,10,18,1,0,0,4,16,0,16,16,11,0,10,0,5,21,0,0,0,0,0,0,0,0,0,0,0,0,0,0,0,0,0,0,0,0,0,0,0,0,0,0,0,0,0,0,0,0,0,0,0,0,0,0,0,0,0,0,0,0,0,0,0,0,0,0,0,0,0,0,0,0,0,0,0,0,0,0],"split_type":[0,0,0,0,0,0,0,0,0,0,0,0,0,0,0,0,0,0,0,0,0,0,0,0,0,0,0,0,0,0,0,0,0,0,0,0,0,0,0,0,0,0,0,0,0,0,0,0,0,0,0,0,0,0,0,0,0,0,0,0,0,0,0,0,0,0,0,0,0,0,0,0,0,0,0,0,0,0,0,0,0,0,0,0,0,0,0,0,0,0,0,0,0,0,0,0,0,0,0,0,0,0,0,0,0,0,0,0,0,0,0,0,0,0,0,0,0,0,0,0,0,0,0,0,0],"sum_hessian":[5.493E3,1.83E3,3.663E3,1.9E2,1.64E3,2.844E3,8.19E2,1.67E2,2.3E1,4.07E2,1.233E3,1.568E3,1.276E3,3.15E2,5.04E2,5.4E1,1.13E2,6E0,1.7E1,2.5E2,1.57E2,8.76E2,3.57E2,1.367E3,2.01E2,1.26E2,1.15E3,1.51E2,1.64E2,1.81E2,3.23E2,4.3E1,1.1E1,1.7E1,9.6E1,5E0,1E0,9E0,8E0,2.09E2,4.1E1,1.3E1,1.44E2,6.53E2,2.23E2,1.6E2,1.97E2,8.78E2,4.89E2,3.3E1,1.68E2,9E1,3.6E1,8.69E2,2.81E2,1.22E2,2.9E1,1.59E2,5E0,2.5E1,1.56E2,8.6E1,2.37E2,3.7E1,6E0,1E0,1E1,1.2E1,5E0,5.6E1,4E1,4E0,1E0,4E0,5E0,7E0,1E0,1.07E2,1.02E2,1.4E1,2.7E1,4E0,9E0,2.2E1,1.22E2,3.79E2,2.74E2,2.15E2,8E0,1.57E2,3E0,9E1,1.07E2,4.3E2,4.48E2,3.84E2,1.05E2,4E0,2.9E1,7.4E1,9.4E1,4E0,8.6E1,9E0,2.7E1,6.13E2,2.56E2,1.11E2,1.7E2,4.4E1,7.8E1,7E0,2.2E1,1E2,5.9E1,4E0,1E0,1.6E1,9E0,4E0,1.52E2,3E1,5.6E1,2.12E2,2.5E1],"tree_param":{"num_deleted":"0","num_feature":"25","num_nodes":"125","size_leaf_vector":"1"}},{"base_weights":[-8.096144E-3,4.5159298E-1,-2.3681611E-1,7.0799065E-1,3.809481E-1,-3.1498358E-1,1.1107299E-1,2.6064953E-1,7.26188E-1,3.0555978E-1,5.0492185E-1,-3.7472564E-1,-1.7928278E-1,-1.0882119E-1,2.1860118E-1,-6.839884E-2,1.06404545E-2,8.0548453E-1,5.969787E-1,3.89025E-1,7.640756E-2,2.4153093E-1,6.172671E-1,-6.4504184E-2,-4.1009784E-1,-2.2602606E-1,6.8950164E-3,-2.5727682E-2,-7.1106565E-1,2.9104465E-1,-1.979675E-1,-4.767621E-1,6.8033475E-1,4.743927E-1,8.804507E-1,7.2579324E-1,6.611517E-2,4.4533828E-1,8.126583E-2,6.0619554E-3,3.0869105E-1,-9.0908885E-2,3.5672256E-1,4.670701E-1,7.9618514E-1,1.5633479E-1,-3.849915E-1,-4.6205726E-1,-3.0237374E-1,-6.639454E-1,-2.0585687E-1,-4.2481872E-1,1.2432124E-1,-2.4055569E-1,1.7671561E-1,-1.2377015E0,-3.789865E-1,5.171965E-1,2.4223043E-1,-4.6086523E-1,2.4443902E-1,2.9724836E-4,-1.1173019E-2,-7.6230284E-4,8.885336E-3,6.3718627E-3,1.9480307E-3,1.181356E-2,8.014116E-3,9.000917E-3,4.29622E-3,3.879476E-3,-1.2858725E-2,2.9367772E-3,5.0858716E-3,-1.2278793E-3,4.644433E-3,-3.8537113E-3,8.081948E-4,1.2331135E-3,7.644334E-3,-4.074593E-3,4.1719526E-3,4.282585E-3,-1.8211771E-3,2.100548E-3,6.2164054E-3,8.750909E-3,3.4002087E-3,-2.8743695E-3,3.399281E-3,-6.225893E-3,2.055336E-3,-5.7803392E-3,-3.967065E-3,-3.8236E-3,-1.87048E-3,-1.5023106E-3,-1.0551548E-2,-2.6053088E-3,-1.006116E-3,-8.632137E-3,-1.2725312E-3,2.2093237E-3,-1.6887225E-3,-4.67449E-3,1.6229453E-4,-1.4270755E-3,3.607366E-3,-1.4716349E-2,4.33849E-3,3.2655462E-3,-8.57654E-3,1.0941986E-3,7.0984135E-3,1.4585353E-3,3.9218254E-3,2.9652533E-3,-5.0504343E-3,9.867355E-3,-2.0658479E-3],"categories":[],"categories_nodes":[],"categories_segments":[],"categories_sizes":[],"default_left":[0,0,0,0,0,0,0,0,0,0,0,0,0,0,0,0,0,0,0,0,0,0,0,0,0,0,0,0,0,0,0,0,0,0,0,0,0,0,0,0,0,0,0,0,0,0,0,0,0,0,0,0,0,0,0,0,0,0,0,0,0,0,0,0,0,0,0,0,0,0,0,0,0,0,0,0,0,0,0,0,0,0,0,0,0,0,0,0,0,0,0,0,0,0,0,0,0,0,0,0,0,0,0,0,0,0,0,0,0,0,0,0,0,0,0,0,0,0,0,0,0],"id":14,"left_children":[1,3,5,7,9,11,13,15,17,19,21,23,25,27,29,31,-1,33,35,37,39,41,43,45,47,49,51,53,55,57,59,61,63,65,67,69,71,73,75,77,79,81,83,85,87,89,91,93,95,97,99,101,103,105,107,109,111,113,115,117,119,-1,-1,-1,-1,-1,-1,-1,-1,-1,-1,-1,-1,-1,-1,-1,-1,-1,-1,-1,-1,-1,-1,-1,-1,-1,-1,-1,-1,-1,-1,-1,-1,-1,-1,-1,-1,-1,-1,-1,-1,-1,-1,-1,-1,-1,-1,-1,-1,-1,-1,-1,-1,-1,-1,-1,-1,-1,-1,-1,-1],"loss_changes":[5.8037506E2,3.294989E1,1.0027063E2,3.0261993E0,1.3304199E1,2.4335052E1,1.6031334E1,4.5668335E0,3.4023132E0,1.7145638E1,1.5918686E1,2.2896545E1,8.025316E0,1.1141208E1,1.3788462E1,4.2991767E0,0E0,5.3407288E0,1.0072685E1,1.1367561E1,3.9360986E0,6.3126917E0,9.839844E0,1.5277048E1,1.0355225E1,6.372856E0,9.481994E0,8.610137E0,4.252817E0,4.15802E0,8.021575E0,2.9530373E0,8.5531306E-1,1.9240665E0,3.5244904E0,5.7563477E0,1.3552257E1,5.183983E0,8.110476E0,5.4739833E0,4.636917E0,7.086135E0,4.7806606E0,8.172359E0,5.893425E0,1.052632E1,1.2475019E1,9.34314E0,5.583084E0,6.272518E0,4.0362396E0,5.108204E0,4.2011957E0,5.600819E0,6.047098E0,4.5487804E0,6.359024E0,5.264145E0,4.5818653E0,1.5885439E0,8.908473E0,0E0,0E0,0E0,0E0,0E0,0E0,0E0,0E0,0E0,0E0,0E0,0E0,0E0,0E0,0E0,0E0,0E0,0E0,0E0,0E0,0E0,0E0,0E0,0E0,0E0,0E0,0E0,0E0,0E0,0E0,0E0,0E0,0E0,0E0,0E0,0E0,0E0,0E0,0E0,0E0,0E0,0E0,0E0,0E0,0E0,0E0,0E0,0E0,0E0,0E0,0E0,0E0,0E0,0E0,0E0,0E0,0E0,0E0,0E0,0E0],"parents":[2147483647,0,0,1,1,2,2,3,3,4,4,5,5,6,6,7,7,8,8,9,9,10,10,11,11,12,12,13,13,14,14,15,15,17,17,18,18,19,19,20,20,21,21,22,22,23,23,24,24,25,25,26,26,27,27,28,28,29,29,30,30,31,31,32,32,33,33,34,34,35,35,36,36,37,37,38,38,39,39,40,40,41,41,42,42,43,43,44,44,45,45,46,46,47,47,48,48,49,49,50,50,51,51,52,52,53,53,54,54,55,55,56,56,57,57,58,58,59,59,60,60],"right_children":[2,4,6,8,10,12,14,16,18,20,22,24,26,28,30,32,-1,34,36,38,40,42,44,46,48,50,52,54,56,58,60,62,64,66,68,70,72,74,76,78,80,82,84,86,88,90,92,94,96,98,100,102,104,106,108,110,112,114,116,118,120,-1,-1,-1,-1,-1,-1,-1,-1,-1,-1,-1,-1,-1,-1,-1,-1,-1,-1,-1,-1,-1,-1,-1,-1,-1,-1,-1,-1,