{"learner":{"attributes":{"scikit_learn":"{\"_estimator_type\": \"regressor\"}"},"feature_names":["timeDuration","nMovements","movementsDifficulty","robotSpeech","acrobaticMovements","movementsRepetition","movementsTransitionsDuration","humanMovements","balance","speed","bodyPartsCombination","musicBPM","sameStartEndPositionPlace","headMovement","armsMovement","handsMovement","legsMovement","feetMovement","musicGenre_electronic","musicGenre_folk","musicGenre_indie","musicGenre_latin","musicGenre_pop","musicGenre_rap","musicGenre_rock"],"feature_types":["int","int","int","int","int","int","int","int","int","int","int","int","int","int","int","int","int","int","int","int","int","int","int","int","int"],"gradient_booster":{"model":{"gbtree_model_param":{"num_parallel_tree":"1","num_trees":"250"},"iteration_indptr":[0,1,2,3,4,5,6,7,8,9,10,11,12,13,14,15,16,17,18,19,20,21,22,23,24,25,26,27,28,29,30,31,32,33,34,35,36,37,38,39,40,41,42,43,44,45,46,47,48,49,50,51,52,53,54,55,56,57,58,59,60,61,62,63,64,65,66,67,68,69,70,71,72,73,74,75,76,77,78,79,80,81,82,83,84,85,86,87,88,89,90,91,92,93,94,95,96,97,98,99,100,101,102,103,104,105,106,107,108,109,110,111,112,113,114,115,116,117,118,119,120,121,122,123,124,125,126,127,128,129,130,131,132,133,134,135,136,137,138,139,140,141,142,143,144,145,146,147,148,149,150,151,152,153,154,155,156,157,158,159,160,161,162,163,164,165,166,167,168,169,170,171,172,173,174,175,176,177,178,179,180,181,182,183,184,185,186,187,188,189,190,191,192,193,194,195,196,197,198,199,200,201,202,203,204,205,206,207,208,209,210,211,212,213,214,215,216,217,218,219,220,221,222,223,224,225,226,227,228,229,230,231,232,233,234,235,236,237,238,239,240,241,242,243,244,245,246,247,248,249,250],"tree_info":[0,0,0,0,0,0,0,0,0,0,0,0,0,0,0,0,0,0,0,0,0,0,0,0,0,0,0,0,0,0,0,0,0,0,0,0,0,0,0,0,0,0,0,0,0,0,0,0,0,0,0,0,0,0,0,0,0,0,0,0,0,0,0,0,0,0,0,0,0,0,0,0,0,0,0,0,0,0,0,0,0,0,0,0,0,0,0,0,0,0,0,0,0,0,0,0,0,0,0,0,0,0,0,0,0,0,0,0,0,0,0,0,0,0,0,0,0,0,0,0,0,0,0,0,0,0,0,0,0,0,0,0,0,0,0,0,0,0,0,0,0,0,0,0,0,0,0,0,0,0,0,0,0,0,0,0,0,0,0,0,0,0,0,0,0,0,0,0,0,0,0,0,0,0,0,0,0,0,0,0,0,0,0,0,0,0,0,0,0,0,0,0,0,0,0,0,0,0,0,0,0,0,0,0,0,0,0,0,0,0,0,0,0,0,0,0,0,0,0,0,0,0,0,0,0,0,0,0,0,0,0,0,0,0,0,0,0,0,0,0,0,0,0,0,0,0,0,0,0,0],"trees":[{"base_weights":[-7.3879478E-3,2.6698412E-2,-3.130321E-1,-1.5561132E-1,4.417143E-2,-5.107278E-1,3.3512115E-2,-6.0155816E-2,-3.7543052E-1,-1.4348751E-1,6.157798E-2,5.0910845E-2,-5.91918E-1,-6.731896E-2,8.5238713E-1,8.0693257E-1,-1.2806934E-1,-4.9950147E-1,-5.0076433E-2,5.956526E-1,-2.2951709E-1,1.8586643E-2,1.3862804E-1,6.4966595E-1,-2.7012223E-1,-7.14649E-1,-2.6051083E-1,-2.3032941E-1,4.5360544E-1,1.0655894E0,-8.56184E-4,1.9398029E-1,1.024666E0,-3.7961254E-1,5.2166164E-2,-1.0972936E0,-4.152727E-1,-8.2456636E-1,2.673112E-1,7.1158284E-1,-1.0713486E-2,-2.7114463E-1,1.0084938E-1,-1.2651653E-2,1.6915144E-1,1.4476019E-1,-8.729093E-1,1.0845245E-2,-2.558525E-1,2.6634273E-1,-5.5167186E-1,-8.152064E-1,-4.5922264E-1,1.6677853E-1,-3.4835124E-1,-6.043474E-1,-7.531869E-2,1.6677853E-1,5.863226E-1,1.2334452E0,1.6973275E-1,-3.3026724E-3,6.6973274E-3,1.2663428E-2,4.1081416E-3,-5.8229957E-3,-1.2387162E-3,-7.002279E-4,3.023663E-3,-1.5891857E-2,-4.2251917E-3,-7.3268884E-3,-2.603502E-3,-1.2186451E-2,1.6973275E-3,-4.552172E-4,8.036792E-3,4.172579E-3,1.1863357E-2,-2.1904297E-3,-4.97969E-3,-5.3783404E-3,5.2243625E-3,-4.8435858E-4,7.2431436E-4,-7.3308714E-5,5.186811E-3,4.0456752E-4,1.8306775E-3,4.4648848E-3,-1.0936451E-2,1.6973275E-3,-7.3801535E-3,-3.7744828E-3,1.1143816E-2,-7.1218833E-3,5.95318E-3,-9.281499E-3,-4.7026635E-3,3.8729464E-5,-6.366608E-3,6.826462E-3,-5.2030543E-3,-1.3253663E-3,-5.4849456E-3,-1.6283406E-3,-8.62742E-3,4.572579E-3,-2.542254E-3,-7.3801535E-3,3.6274798E-3,7.816254E-3,2.8582492E-3,1.3291929E-2,-5.35115E-4,-4.04682E-3,9.464885E-3],"categories":[],"categories_nodes":[],"categories_segments":[],"categories_sizes":[],"default_left":[0,0,0,0,0,0,0,0,0,0,0,0,0,0,0,0,0,0,0,0,0,0,0,0,0,0,0,0,0,0,0,0,0,0,0,0,0,0,0,0,0,0,0,0,0,0,0,0,0,0,0,0,0,0,0,0,0,0,0,0,0,0,0,0,0,0,0,0,0,0,0,0,0,0,0,0,0,0,0,0,0,0,0,0,0,0,0,0,0,0,0,0,0,0,0,0,0,0,0,0,0,0,0,0,0,0,0,0,0,0,0,0,0,0,0,0,0],"id":0,"left_children":[1,3,5,7,9,11,13,15,17,19,21,23,25,27,29,31,33,35,37,39,41,43,45,47,49,51,53,55,57,59,-1,61,63,65,67,69,71,73,75,77,-1,79,81,83,85,87,89,-1,91,93,95,97,99,101,103,105,107,109,111,113,115,-1,-1,-1,-1,-1,-1,-1,-1,-1,-1,-1,-1,-1,-1,-1,-1,-1,-1,-1,-1,-1,-1,-1,-1,-1,-1,-1,-1,-1,-1,-1,-1,-1,-1,-1,-1,-1,-1,-1,-1,-1,-1,-1,-1,-1,-1,-1,-1,-1,-1,-1,-1,-1,-1,-1,-1],"loss_changes":[5.6902668E1,1.5660426E1,3.7560764E1,9.000085E0,1.4659065E1,1.5944374E1,1.6570992E1,1.782834E1,5.2226944E0,2.4363705E1,1.3595173E1,8.8253975E0,1.2219391E1,1.5304463E1,4.490899E0,2.737358E0,1.2714168E1,4.2773457E0,9.315516E0,8.492592E0,4.730648E0,1.240027E1,9.244631E0,6.5778384E0,4.6781793E0,5.3277054E0,3.2108922E0,7.8973036E0,1.5390882E0,2.4973907E0,0E0,1.9670753E0,1.8534298E0,5.992609E0,5.0349307E0,2.979619E0,3.9399366E0,4.5169983E0,4.5670123E0,4.8147907E0,0E0,3.483574E0,1.0782147E1,6.6529827E0,2.7947472E1,5.834179E0,3.1094446E0,0E0,1.3564737E0,6.426179E0,4.1061954E0,5.719002E0,5.3435698E0,5.6718507E0,2.9508753E0,4.422902E0,9.453836E0,2.927393E0,1.4785442E0,1.9194756E0,2.1677468E0,0E0,0E0,0E0,0E0,0E0,0E0,0E0,0E0,0E0,0E0,0E0,0E0,0E0,0E0,0E0,0E0,0E0,0E0,0E0,0E0,0E0,0E0,0E0,0E0,0E0,0E0,0E0,0E0,0E0,0E0,0E0,0E0,0E0,0E0,0E0,0E0,0E0,0E0,0E0,0E0,0E0,0E0,0E0,0E0,0E0,0E0,0E0,0E0,0E0,0E0,0E0,0E0,0E0,0E0,0E0,0E0],"parents":[2147483647,0,0,1,1,2,2,3,3,4,4,5,5,6,6,7,7,8,8,9,9,10,10,11,11,12,12,13,13,14,14,15,15,16,16,17,17,18,18,19,19,20,20,21,21,22,22,23,23,24,24,25,25,26,26,27,27,28,28,29,29,31,31,32,32,33,33,34,34,35,35,36,36,37,37,38,38,39,39,41,41,42,42,43,43,44,44,45,45,46,46,48,48,49,49,50,50,51,51,52,52,53,53,54,54,55,55,56,56,57,57,58,58,59,59,60,60],"right_children":[2,4,6,8,10,12,14,16,18,20,22,24,26,28,30,32,34,36,38,40,42,44,46,48,50,52,54,56,58,60,-1,62,64,66,68,70,72,74,76,78,-1,80,82,84,86,88,90,-1,92,94,96,98,100,102,104,106,108,110,112,114,116,-1,-1,-1,-1,-1,-1,-1,-1,-1,-1,-1,-1,-1,-1,-1,-1,-1,-1,-1,-1,-1,-1,-1,-1,-1,-1,-1,-1,-1,-1,-1,-1,-1,-1,-1,-1,-1,-1,-1,-1,-1,-1,-1,-1,-1,-1,-1,-1,-1,-1,-1,-1,-1,-1,-1,-1],"split_conditions":[1.4E2,9.4E1,2E0,3E0,1.2E1,1.7E1,1.4E2,1E2,3E0,1.14E2,3E0,2E0,1.35E2,3E0,1.58E2,2E1,2E0,1.04E2,2E0,1.32E2,1.63E2,1.42E2,1.63E2,1.05E2,2E0,3E0,1.39E2,2E0,2E1,3E0,-8.56184E-4,3E0,9.8E1,2E0,3E0,2E1,8.5E1,1.24E2,9E1,1.07E2,-1.0713486E-2,1.19E2,2E0,3E0,1.18E2,2E0,2E0,1.0845245E-2,1.5E1,1.6E1,1E0,3E0,2E0,2E0,2E0,9.3E1,2E0,1.41E2,3E0,1.55E2,1.47E2,-3.3026724E-3,6.6973274E-3,1.2663428E-2,4.1081416E-3,-5.8229957E-3,-1.2387162E-3,-7.002279E-4,3.023663E-3,-1.5891857E-2,-4.2251917E-3,-7.3268884E-3,-2.603502E-3,-1.2186451E-2,1.6973275E-3,-4.552172E-4,8.036792E-3,4.172579E-3,1.1863357E-2,-2.1904297E-3,-4.97969E-3,-5.3783404E-3,5.2243625E-3,-4.8435858E-4,7.2431436E-4,-7.3308714E-5,5.186811E-3,4.0456752E-4,1.8306775E-3,4.4648848E-3,-1.0936451E-2,1.6973275E-3,-7.3801535E-3,-3.7744828E-3,1.1143816E-2,-7.1218833E-3,5.95318E-3,-9.281499E-3,-4.7026635E-3,3.8729464E-5,-6.366608E-3,6.826462E-3,-5.2030543E-3,-1.3253663E-3,-5.4849456E-3,-1.6283406E-3,-8.62742E-3,4.572579E-3,-2.542254E-3,-7.3801535E-3,3.6274798E-3,7.816254E-3,2.8582492E-3,1.3291929E-2,-5.35115E-4,-4.04682E-3,9.464885E-3],"split_indices":[0,11,6,4,1,1,11,0,7,11,10,4,11,6,0,1,15,0,5,0,11,11,11,11,13,5,11,2,1,13,0,6,0,17,2,1,11,0,11,11,0,0,13,8,0,16,8,0,1,1,18,4,2,2,10,11,8,0,17,0,0,0,0,0,0,0,0,0,0,0,0,0,0,0,0,0,0,0,0,0,0,0,0,0,0,0,0,0,0,0,0,0,0,0,0,0,0,0,0,0,0,0,0,0,0,0,0,0,0,0,0,0,0,0,0,0,0],"split_type":[0,0,0,0,0,0,0,0,0,0,0,0,0,0,0,0,0,0,0,0,0,0,0,0,0,0,0,0,0,0,0,0,0,0,0,0,0,0,0,0,0,0,0,0,0,0,0,0,0,0,0,0,0,0,0,0,0,0,0,0,0,0,0,0,0,0,0,0,0,0,0,0,0,0,0,0,0,0,0,0,0,0,0,0,0,0,0,0,0,0,0,0,0,0,0,0,0,0,0,0,0,0,0,0,0,0,0,0,0,0,0,0,0,0,0,0,0],"sum_hessian":[5.46E3,4.913E3,5.47E2,4.29E2,4.484E3,3.48E2,1.99E2,3E2,1.29E2,3.8E2,4.104E3,4.4E1,3.04E2,1.78E2,2.1E1,2.1E1,2.79E2,9.3E1,3.6E1,3.9E1,3.41E2,2.635E3,1.469E3,1.5E1,2.9E1,2.21E2,8.3E1,1.36E2,4.2E1,1.7E1,4E0,6E0,1.5E1,1.16E2,1.63E2,1E1,8.3E1,1E1,2.6E1,3.7E1,2E0,3.03E2,3.8E1,2.183E3,4.52E2,1.461E3,8E0,1E1,5E0,1E1,1.9E1,1.57E2,6.4E1,1.4E1,6.9E1,3.9E1,9.7E1,1.4E1,2.8E1,1.4E1,3E0,3E0,3E0,1E1,5E0,6.4E1,5.2E1,1.1E2,5.3E1,5E0,5E0,2.6E1,5.7E1,7E0,3E0,1.7E1,9E0,2.4E1,1.3E1,2.48E2,5.5E1,1.5E1,2.3E1,1.537E3,6.46E2,3.01E2,1.51E2,3.93E2,1.068E3,1E0,7E0,3E0,2E0,6E0,4E0,1.7E1,2E0,1.17E2,4E1,1.8E1,4.6E1,8E0,6E0,3.4E1,3.5E1,1.5E1,2.4E1,2.4E1,7.3E1,2E0,1.2E1,1.6E1,1.2E1,1.3E1,1E0,2E0,1E0],"tree_param":{"num_deleted":"0","num_feature":"25","num_nodes":"117","size_leaf_vector":"1"}},{"base_weights":[-9.970953E-3,2.1805992E-2,-2.987541E-1,-1.3866664E-1,3.7859123E-2,-5.2704847E-1,9.230916E-2,3.9289746E-2,-2.5679064E-1,-2.7783053E-2,7.741846E-2,-3.285256E-1,-7.4426067E-1,2.4629964E-2,1.2590744E0,1.6975816E-1,-2.3807068E-1,-5.222809E-1,-8.731314E-2,-1.3109043E-1,5.3385206E-2,5.1400248E-2,2.8251007E-1,-1.1405957E-1,-5.4410726E-1,-9.246574E-1,-5.034168E-1,-9.8220214E-2,4.7647747E-1,1.3956307E0,-5.324399E-4,7.5517523E-1,4.182743E-2,-8.5803825E-1,1.8536936E-2,-8.5916096E-1,-4.1185766E-1,4.1711682E-1,-1.7550635E-1,1.6022227E-3,-1.9757403E-1,8.3621845E-2,-6.160729E-1,1.6733214E-1,3.7620766E-3,4.6501532E-2,4.9678144E-1,2.1480348E-2,-9.3937755E-1,-6.893114E-2,-7.926077E-1,-9.834823E-1,8.241304E-2,-3.5947803E-1,-8.860103E-1,1.9380963E-1,-2.4040917E-1,8.974824E-1,3.300235E-1,1.5624971E0,-5.308342E-4,4.9431208E-3,1.1498967E-2,5.872588E-3,-5.896257E-4,-1.4586573E-2,-2.9173929E-3,-2.1020619E-3,4.033824E-3,-4.9751475E-3,-1.2742094E-2,-6.1176103E-3,-1.5760061E-3,3.4490155E-4,9.009607E-3,-3.7526214E-3,1.844449E-4,-4.1850717E-3,6.998467E-4,-1.711777E-3,-5.871458E-3,-1.0067953E-2,9.691533E-4,-2.0640162E-3,-9.277112E-3,5.185071E-3,4.230303E-4,-3.1843905E-3,3.0461518E-4,6.5580592E-3,-7.3806435E-4,6.269787E-3,2.9423836E-4,9.62803E-4,-9.170991E-3,-1.3722791E-2,-3.7227916E-3,2.8654353E-3,-2.9654312E-3,-9.660731E-3,-1.6603502E-3,-1.1296421E-2,-5.758201E-3,4.511292E-3,-8.1556034E-4,-6.7556226E-3,-6.369635E-4,-4.6346616E-3,-1.0938722E-2,9.975682E-3,-6.956123E-5,-8.8051095E-4,-5.295503E-3,1.0099625E-2,-5.741966E-4,-1.0498214E-2,4.0839985E-3,4.3984256E-3,1.6478486E-2],"categories":[],"categories_nodes":[],"categories_segments":[],"categories_sizes":[],"default_left":[0,0,0,0,0,0,0,0,0,0,0,0,0,0,0,0,0,0,0,0,0,0,0,0,0,0,0,0,0,0,0,0,0,0,0,0,0,0,0,0,0,0,0,0,0,0,0,0,0,0,0,0,0,0,0,0,0,0,0,0,0,0,0,0,0,0,0,0,0,0,0,0,0,0,0,0,0,0,0,0,0,0,0,0,0,0,0,0,0,0,0,0,0,0,0,0,0,0,0,0,0,0,0,0,0,0,0,0,0,0,0,0,0,0,0,0,0,0,0],"id":1,"left_children":[1,3,5,7,9,11,13,15,17,19,21,23,25,27,29,31,33,35,37,39,41,43,45,47,49,51,53,55,57,59,-1,61,63,65,67,69,71,73,75,77,79,81,83,85,87,89,91,93,95,97,99,101,103,105,107,109,111,113,115,117,-1,-1,-1,-1,-1,-1,-1,-1,-1,-1,-1,-1,-1,-1,-1,-1,-1,-1,-1,-1,-1,-1,-1,-1,-1,-1,-1,-1,-1,-1,-1,-1,-1,-1,-1,-1,-1,-1,-1,-1,-1,-1,-1,-1,-1,-1,-1,-1,-1,-1,-1,-1,-1,-1,-1,-1,-1,-1,-1],"loss_changes":[5.026701E1,1.2718247E1,4.852635E1,9.448482E0,1.1653818E1,1.4546204E1,1.58411045E1,6.5540338E0,1.2102947E1,1.4161351E1,1.4926603E1,8.306463E0,6.61644E0,1.0649123E1,2.0455666E0,9.180231E0,9.243032E0,3.5520859E0,7.458099E0,6.5549774E0,1.9200605E1,1.3729012E1,1.590641E1,1.0311623E1,1.0572699E1,5.531204E0,3.6465416E0,6.3166294E0,2.231781E0,2.5003605E0,0E0,1.6968946E0,5.6419773E0,5.35666E0,3.7820854E0,3.118578E0,4.0205603E0,4.597215E0,5.5084E0,7.1825886E0,4.9897137E0,1.323045E1,5.0429583E0,3.1766802E1,1.5176068E1,1.1117333E1,1.0021587E1,5.7047553E0,2.6806002E0,2.6741023E0,6.2522316E0,4.5333176E0,3.995406E-1,5.005533E0,1.1618128E0,8.075299E0,4.446777E0,1.1320658E0,3.8894565E0,1.375885E-1,0E0,0E0,0E0,0E0,0E0,0E0,0E0,0E0,0E0,0E0,0E0,0E0,0E0,0E0,0E0,0E0,0E0,0E0,0E0,0E0,0E0,0E0,0E0,0E0,0E0,0E0,0E0,0E0,0E0,0E0,0E0,0E0,0E0,0E0,0E0,0E0,0E0,0E0,0E0,0E0,0E0,0E0,0E0,0E0,0E0,0E0,0E0,0E0,0E0,0E0,0E0,0E0,0E0,0E0,0E0,0E0,0E0,0E0,0E0],"parents":[2147483647,0,0,1,1,2,2,3,3,4,4,5,5,6,6,7,7,8,8,9,9,10,10,11,11,12,12,13,13,14,14,15,15,16,16,17,17,18,18,19,19,20,20,21,21,22,22,23,23,24,24,25,25,26,26,27,27,28,28,29,29,31,31,32,32,33,33,34,34,35,35,36,36,37,37,38,38,39,39,40,40,41,41,42,42,43,43,44,44,45,45,46,46,47,47,48,48,49,49,50,50,51,51,52,52,53,53,54,54,55,55,56,56,57,57,58,58,59,59],"right_children":[2,4,6,8,10,12,14,16,18,20,22,24,26,28,30,32,34,36,38,40,42,44,46,48,50,52,54,56,58,60,-1,62,64,66,68,70,72,74,76,78,80,82,84,86,88,90,92,94,96,98,100,102,104,106,108,110,112,114,116,118,-1,-1,-1,-1,-1,-1,-1,-1,-1,-1,-1,-1,-1,-1,-1,-1,-1,-1,-1,-1,-1,-1,-1,-1,-1,-1,-1,-1,-1,-1,-1,-1,-1,-1,-1,-1,-1,-1,-1,-1,-1,-1,-1,-1,-1,-1,-1,-1,-1,-1,-1,-1,-1,-1,-1,-1,-1,-1,-1],"split_conditions":[1.4E2,9.4E1,2E0,1.19E2,1.09E2,1.47E2,1.41E2,3E0,2E0,1.8E1,1.47E2,1.9E1,1.23E2,3E0,3E0,1.02E2,1.04E2,8.5E1,1.7E1,2E0,1.53E2,1.12E2,2E0,1.43E2,2E0,1E0,3E0,2E0,2E0,1.58E2,-5.324399E-4,3E0,1.7E1,2E0,3E0,1.31E2,2E0,1.29E2,2E0,1.14E2,1E0,7.9E1,1E0,1.5E1,1.2E1,1.51E2,1.8E1,1E0,2E0,2E0,3E0,3E0,2E0,2E0,1.52E2,1.9E1,1E0,1.22E2,1.41E2,1.41E2,-5.308342E-4,4.9431208E-3,1.1498967E-2,5.872588E-3,-5.896257E-4,-1.4586573E-2,-2.9173929E-3,-2.1020619E-3,4.033824E-3,-4.9751475E-3,-1.2742094E-2,-6.1176103E-3,-1.5760061E-3,3.4490155E-4,9.009607E-3,-3.7526214E-3,1.844449E-4,-4.1850717E-3,6.998467E-4,-1.711777E-3,-5.871458E-3,-1.0067953E-2,9.691533E-4,-2.0640162E-3,-9.277112E-3,5.185071E-3,4.230303E-4,-3.1843905E-3,3.0461518E-4,6.5580592E-3,-7.3806435E-4,6.269787E-3,2.9423836E-4,9.62803E-4,-9.170991E-3,-1.3722791E-2,-3.7227916E-3,2.8654353E-3,-2.9654312E-3,-9.660731E-3,-1.6603502E-3,-1.1296421E-2,-5.758201E-3,4.511292E-3,-8.1556034E-4,-6.7556226E-3,-6.369635E-4,-4.6346616E-3,-1.0938722E-2,9.975682E-3,-6.956123E-5,-8.8051095E-4,-5.295503E-3,1.0099625E-2,-5.741966E-4,-1.0498214E-2,4.0839985E-3,4.3984256E-3,1.6478486E-2],"split_indices":[0,11,6,0,0,0,11,4,7,1,11,1,11,6,7,0,0,11,1,6,11,11,6,11,2,20,16,8,17,0,0,2,1,6,8,0,2,0,6,11,21,0,3,1,1,11,1,20,8,8,4,16,7,9,0,1,12,11,0,0,0,0,0,0,0,0,0,0,0,0,0,0,0,0,0,0,0,0,0,0,0,0,0,0,0,0,0,0,0,0,0,0,0,0,0,0,0,0,0,0,0,0,0,0,0,0,0,0,0,0,0,0,0,0,0,0,0,0,0],"split_type":[0,0,0,0,0,0,0,0,0,0,0,0,0,0,0,0,0,0,0,0,0,0,0,0,0,0,0,0,0,0,0,0,0,0,0,0,0,0,0,0,0,0,0,0,0,0,0,0,0,0,0,0,0,0,0,0,0,0,0,0,0,0,0,0,0,0,0,0,0,0,0,0,0,0,0,0,0,0,0,0,0,0,0,0,0,0,0,0,0,0,0,0,0,0,0,0,0,0,0,0,0,0,0,0,0,0,0,0,0,0,0,0,0,0,0,0,0,0,0],"sum_hessian":[5.476E3,4.934E3,5.42E2,4.48E2,4.486E3,3.42E2,2E2,1.79E2,2.69E2,1.687E3,2.799E3,1.8E2,1.62E2,1.9E2,1E1,1.22E2,5.7E1,1.04E2,1.65E2,7.42E2,9.45E2,2.485E3,3.14E2,9.1E1,8.9E1,9.1E1,7.1E1,1.5E2,4E1,9E0,1E0,2.1E1,1.01E2,1.6E1,4.1E1,2.4E1,8E1,2.4E1,1.41E2,2.48E2,4.94E2,9.05E2,4E1,7.23E2,1.762E3,1.5E2,1.64E2,7.9E1,1.2E1,3.1E1,5.8E1,8.6E1,5E0,5.3E1,1.8E1,4.9E1,1.01E2,9E0,3.1E1,8E0,1E0,1.4E1,7E0,1.5E1,8.6E1,7E0,9E0,2.6E1,1.5E1,1.4E1,1E1,4.4E1,3.6E1,1.4E1,1E1,6.9E1,7.2E1,3.4E1,2.14E2,4.64E2,3E1,1E1,8.95E2,1.8E1,2.2E1,1.89E2,5.34E2,1.34E2,1.628E3,2.4E1,1.26E2,1.28E2,3.6E1,7.4E1,5E0,6E0,6E0,1.2E1,1.9E1,4.5E1,1.3E1,6.2E1,2.4E1,1E0,4E0,2.5E1,2.8E1,7E0,1.1E1,9E0,4E1,6.7E1,3.4E1,8E0,1E0,1E0,3E1,1E0,7E0],"tree_param":{"num_deleted":"0","num_feature":"25","num_nodes":"119","size_leaf_vector":"1"}},{"base_weights":[-3.445105E-3,2.7913453E-2,-2.9353467E-1,-4.8773978E-2,6.289259E-2,-5.181353E-1,9.643042E-2,-4.1866492E-2,-9.294433E-1,3.539815E-2,1.8365452E-1,-1.13258176E-1,-6.347034E-1,-1.4409686E-2,9.737299E-1,6.725212E-2,-8.91156E-2,-1.0931733E0,-3.286901E-1,-8.069061E-1,3.9670266E-2,3.71492E-2,5.0003713E-1,2.3070922E-1,-4.5432153E-1,-7.412909E-1,-2.771973E-1,-1.7650205E-1,5.3706455E-1,1.1747699E0,2.4182837E-1,1.8793027E-1,-4.376616E-1,-1.5095653E-1,1.9010125E-1,-4.0558243E-1,-1.2316874E-2,-7.34417E-3,4.4424534E-3,-3.901396E-1,-1.4790578E-2,6.52412E-2,-6.447605E-2,1.6413534E-1,-1.1594201E-1,1.4288723E-1,6.3545626E-1,8.952301E-1,-1.7723168E-1,-7.6040506E-1,3.3198893E-2,-6.4782774E-1,-1.0276555E0,6.5510345E-1,-4.0776473E-1,1.8993463E-1,-2.5276735E-1,7.133791E-1,2.8193688E-1,6.695206E-1,1.549489E0,9.335167E-3,-8.321266E-4,5.6389007E-3,3.8242745E-4,-5.7170885E-3,-1.0371021E-3,-9.1507257E-4,-3.1538878E-3,2.2255597E-3,-1.0876891E-2,-5.5261897E-3,-5.575466E-4,-6.7952084E-3,-8.39653E-4,-1.3057223E-3,8.30893E-4,-3.7642403E-3,1.2141813E-3,2.2016566E-3,-3.6432657E-3,-2.043653E-3,4.7007045E-3,-3.546507E-4,6.3274787E-3,8.243128E-3,4.8260964E-3,-7.6171313E-4,1.0505358E-2,5.131031E-4,-9.094997E-3,-1.0283623E-2,-1.9954718E-3,7.5065056E-3,-3.6115649E-3,-2.9954682E-3,-8.258604E-3,-1.4591499E-2,-7.873049E-3,9.0920385E-3,-7.1465096E-4,-2.3934615E-3,-6.905299E-3,-2.1649862E-3,1.0298635E-2,-6.136179E-3,-1.3787386E-3,9.744735E-3,3.9283643E-3,-4.243458E-3,5.8622607E-3,-3.4500384E-3,1.2342834E-2,4.376434E-3,1.6337644E-2],"categories":[],"categories_nodes":[],"categories_segments":[],"categories_sizes":[],"default_left":[0,0,0,0,0,0,0,0,0,0,0,0,0,0,0,0,0,0,0,0,0,0,0,0,0,0,0,0,0,0,0,0,0,0,0,0,0,0,0,0,0,0,0,0,0,0,0,0,0,0,0,0,0,0,0,0,0,0,0,0,0,0,0,0,0,0,0,0,0,0,0,0,0,0,0,0,0,0,0,0,0,0,0,0,0,0,0,0,0,0,0,0,0,0,0,0,0,0,0,0,0,0,0,0,0,0,0,0,0,0,0,0,0,0,0],"id":2,"left_children":[1,3,5,7,9,11,13,15,17,19,21,23,25,27,29,31,33,35,37,39,41,43,45,47,49,51,53,55,57,59,61,63,65,67,69,71,-1,-1,-1,73,-1,75,77,79,81,83,85,87,89,91,93,95,97,99,101,103,105,107,109,111,113,-1,-1,-1,-1,-1,-1,-1,-1,-1,-1,-1,-1,-1,-1,-1,-1,-1,-1,-1,-1,-1,-1,-1,-1,-1,-1,-1,-1,-1,-1,-1,-1,-1,-1,-1,-1,-1,-1,-1,-1,-1,-1,-1,-1,-1,-1,-1,-1,-1,-1,-1,-1,-1,-1],"loss_changes":[4.979493E1,1.3254423E1,4.6821117E1,9.377897E0,1.1259213E1,1.5927467E1,1.9073063E1,7.9303923E0,8.210201E-1,9.981644E0,2.9136663E1,9.138046E0,9.816315E0,1.5738003E1,2.95302E0,2.8415653E1,1.8556217E1,3.5761833E-1,1.5806642E0,3.3447857E0,7.333111E0,8.397869E0,9.533821E0,1.0730988E1,5.844902E0,4.7406845E0,7.8142724E0,3.8487191E0,1.5981808E0,2.181137E0,1.426643E0,2.1138397E1,3.9695835E0,8.563696E0,8.328785E0,1.2350133E-1,0E0,0E0,0E0,8.289548E-1,0E0,7.7345715E0,3.1533903E1,7.0681458E0,1.0252228E1,4.915036E0,3.758892E0,2.3429842E0,4.2305164E0,3.4016552E0,4.7979975E0,9.363457E0,3.8292847E0,1.5419471E0,2.4539843E0,8.415964E0,4.6003084E0,1.5421047E0,4.117218E0,5.5825243E0,1.2830353E-1,0E0,0E0,0E0,0E0,0E0,0E0,0E0,0E0,0E0,0E0,0E0,0E0,0E0,0E0,0E0,0E0,0E0,0E0,0E0,0E0,0E0,0E0,0E0,0E0,0E0,0E0,0E0,0E0,0E0,0E0,0E0,0E0,0E0,0E0,0E0,0E0,0E0,0E0,0E0,0E0,0E0,0E0,0E0,0E0,0E0,0E0,0E0,0E0,0E0,0E0,0E0,0E0,0E0,0E0],"parents":[2147483647,0,0,1,1,2,2,3,3,4,4,5,5,6,6,7,7,8,8,9,9,10,10,11,11,12,12,13,13,14,14,15,15,16,16,17,17,18,18,19,19,20,20,21,21,22,22,23,23,24,24,25,25,26,26,27,27,28,28,29,29,30,30,31,31,32,32,33,33,34,34,35,35,39,39,41,41,42,42,43,43,44,44,45,45,46,46,47,47,48,48,49,49,50,50,51,51,52,52,53,53,54,54,55,55,56,56,57,57,58,58,59,59,60,60],"right_children":[2,4,6,8,10,12,14,16,18,20,22,24,26,28,30,32,34,36,38,40,42,44,46,48,50,52,54,56,58,60,62,64,66,68,70,72,-1,-1,-1,74,-1,76,78,80,82,84,86,88,90,92,94,96,98,100,102,104,106,108,110,112,114,-1,-1,-1,-1,-1,-1,-1,-1,-1,-1,-1,-1,-1,-1,-1,-1,-1,-1,-1,-1,-1,-1,-1,-1,-1,-1,-1,-1,-1,-1,-1,-1,-1,-1,-1,-1,-1,-1,-1,-1,-1,-1,-1,-1,-1,-1,-1,-1,-1,-1,-1,-1,-1,-1],"split_conditions":[1.4E2,2E0,2E0,1.66E2,1.42E2,1.8E1,1.38E2,1.7E1,3E0,7.9E1,1.18E2,1.09E2,1.36E2,3E0,1.55E2,3E0,3E0,2E0,3E0,3E0,3E0,2E0,2E0,2E0,3E0,1.54E2,1.39E2,8.9E1,9.6E1,2E0,2E0,1.18E2,1.11E2,1.24E2,1.47E2,9.8E1,-1.2316874E-2,-7.34417E-3,4.4424534E-3,2E0,-1.4790578E-2,9.1E1,1.7E1,1E0,1.14E2,3E0,3E0,1.41E2,1E0,3E0,2E0,2E0,2E0,1.51E2,1.43E2,1.5E2,2E0,1.58E2,2E0,1.9E1,1.41E2,9.335167E-3,-8.321266E-4,5.6389007E-3,3.8242745E-4,-5.7170885E-3,-1.0371021E-3,-9.1507257E-4,-3.1538878E-3,2.2255597E-3,-1.0876891E-2,-5.5261897E-3,-5.575466E-4,-6.7952084E-3,-8.39653E-4,-1.3057223E-3,8.30893E-4,-3.7642403E-3,1.2141813E-3,2.2016566E-3,-3.6432657E-3,-2.043653E-3,4.7007045E-3,-3.546507E-4,6.3274787E-3,8.243128E-3,4.8260964E-3,-7.6171313E-4,1.0505358E-2,5.131031E-4,-9.094997E-3,-1.0283623E-2,-1.9954718E-3,7.5065056E-3,-3.6115649E-3,-2.9954682E-3,-8.258604E-3,-1.4591499E-2,-7.873049E-3,9.0920385E-3,-7.1465096E-4,-2.3934615E-3,-6.905299E-3,-2.1649862E-3,1.0298635E-2,-6.136179E-3,-1.3787386E-3,9.744735E-3,3.9283643E-3,-4.243458E-3,5.8622607E-3,-3.4500384E-3,1.2342834E-2,4.376434E-3,1.6337644E-2],"split_indices":[0,16,6,11,11,1,11,1,15,0,0,11,11,6,0,6,6,2,2,2,6,6,6,4,13,0,11,11,11,13,8,11,0,0,11,0,0,0,0,5,0,11,1,20,0,2,14,0,20,15,8,2,13,0,11,0,2,0,5,1,0,0,0,0,0,0,0,0,0,0,0,0,0,0,0,0,0,0,0,0,0,0,0,0,0,0,0,0,0,0,0,0,0,0,0,0,0,0,0,0,0,0,0,0,0,0,0,0,0,0,0,0,0,0,0],"split_type":[0,0,0,0,0,0,0,0,0,0,0,0,0,0,0,0,0,0,0,0,0,0,0,0,0,0,0,0,0,0,0,0,0,0,0,0,0,0,0,0,0,0,0,0,0,0,0,0,0,0,0,0,0,0,0,0,0,0,0,0,0,0,0,0,0,0,0,0,0,0,0,0,0,0,0,0,0,0,0,0,0,0,0,0,0,0,0,0,0,0,0,0,0,0,0,0,0,0,0,0,0,0,0,0,0,0,0,0,0,0,0,0,0,0,0],"sum_hessian":[5.472E3,4.939E3,5.33E2,1.547E3,3.392E3,3.38E2,1.95E2,1.536E3,1.1E1,2.764E3,6.28E2,7.6E1,2.62E2,1.74E2,2.1E1,4.64E2,1.072E3,8E0,3E0,1.3E1,2.751E3,4.3E2,1.98E2,3.8E1,3.8E1,2.01E2,6.1E1,1.35E2,3.9E1,1.6E1,5E0,3.75E2,8.9E1,8.78E2,1.94E2,2E0,6E0,2E0,1E0,9E0,4E0,2.209E3,5.42E2,2.35E2,1.95E2,5.5E1,1.43E2,1.4E1,2.4E1,2.3E1,1.5E1,1.54E2,4.7E1,7E0,5.4E1,2.3E1,1.12E2,2.2E1,1.7E1,8E0,8E0,1E0,4E0,1.06E2,2.69E2,6.3E1,2.6E1,6.46E2,2.32E2,1.9E2,4E0,1E0,1E0,4E0,5E0,1.84E2,2.025E3,2.02E2,3.4E2,2.13E2,2.2E1,1.7E2,2.5E1,4.1E1,1.4E1,6.2E1,8.1E1,2E0,1.2E1,1.9E1,5E0,1.5E1,8E0,5E0,1E1,5.3E1,1.01E2,1.5E1,3.2E1,5E0,2E0,3.5E1,1.9E1,1.6E1,7E0,2.6E1,8.6E1,1.1E1,1.1E1,5E0,1.2E1,3E0,5E0,1E0,7E0],"tree_param":{"num_deleted":"0","num_feature":"25","num_nodes":"115","size_leaf_vector":"1"}},{"base_weights":[-1.0338527E-2,1.6687715E-2,-3.6802438E-1,-1.1250153E-2,1.4770956E-1,-5.6598336E-1,4.225104E-3,-5.7263862E-2,7.7179275E-2,5.2401E-2,5.122649E-1,-3.4415588E-1,-6.980181E-1,-1.4022014E-1,5.144574E-1,1.1528946E-2,-1.6531372E-1,1.1860998E-1,-1.5852743E-1,-9.52187E-2,1.2065848E-1,6.431764E-1,2.0470773E-1,-6.0183513E-1,-9.505427E-2,-7.188011E-1,6.08444E-3,-5.4187864E-1,8.301528E-2,2.741792E-1,8.075767E-1,1.06428936E-1,-3.141769E-2,1.0921836E-1,-2.6085013E-1,-4.2078102E-1,1.3387018E-1,-8.6224365E-1,-9.791893E-2,1.6374998E-1,-3.1340995E-1,5.6972798E-2,4.4965178E-1,6.644539E-1,-1.0508135E-2,5.4578286E-1,-4.5357046E-1,-2.1724306E-1,-7.5841224E-1,4.5628753E-1,-2.1093574E-1,-8.613154E-1,-4.8506883E-1,-9.485312E-2,-6.773399E-1,-1.8339427E-1,3.792013E-1,-1.0329067E-3,5.237773E-1,1.0141977E-2,3.9748597E-1,1.0658673E-2,7.436471E-4,-1.998593E-3,6.6768366E-4,3.391044E-3,-1.281225E-3,-4.0997765E-3,-8.1999635E-4,1.9251222E-3,-8.09606E-3,3.870421E-5,2.0059517E-3,-8.6834765E-4,-1.0941514E-2,-1.8523275E-3,3.4955505E-3,-3.8054823E-3,3.3179629E-3,-2.3032206E-3,-8.96288E-3,2.1411885E-4,5.6061787E-3,2.7408549E-3,1.0738297E-2,6.877894E-3,7.144427E-4,-1.8028398E-4,7.7615147E-3,8.1068184E-4,-9.963159E-3,1.15912E-3,-7.362943E-3,-3.4384474E-3,-9.500667E-3,8.963217E-3,-3.1783555E-3,-7.476831E-3,-6.265157E-4,-9.129065E-3,-8.232631E-4,-6.467175E-3,-9.370234E-4,-7.354399E-3,1.5722358E-3,-9.703613E-3,-2.4205488E-3,3.3090254E-3,-4.7575934E-3,9.899607E-3,7.061193E-4,-8.2729734E-4,6.6774883E-3,-6.185496E-4,5.0172512E-3],"categories":[],"categories_nodes":[],"categories_segments":[],"categories_sizes":[],"default_left":[0,0,0,0,0,0,0,0,0,0,0,0,0,0,0,0,0,0,0,0,0,0,0,0,0,0,0,0,0,0,0,0,0,0,0,0,0,0,0,0,0,0,0,0,0,0,0,0,0,0,0,0,0,0,0,0,0,0,0,0,0,0,0,0,0,0,0,0,0,0,0,0,0,0,0,0,0,0,0,0,0,0,0,0,0,0,0,0,0,0,0,0,0,0,0,0,0,0,0,0,0,0,0,0,0,0,0,0,0,0,0,0,0,0,0],"id":3,"left_children":[1,3,5,7,9,11,13,15,17,19,21,23,25,27,29,31,33,35,37,39,41,43,45,47,49,51,-1,53,55,57,59,61,63,65,67,69,71,73,75,77,79,81,83,85,-1,87,89,91,93,95,97,99,101,103,105,107,109,-1,111,-1,113,-1,-1,-1,-1,-1,-1,-1,-1,-1,-1,-1,-1,-1,-1,-1,-1,-1,-1,-1,-1,-1,-1,-1,-1,-1,-1,-1,-1,-1,-1,-1,-1,-1,-1,-1,-1,-1,-1,-1,-1,-1,-1,-1,-1,-1,-1,-1,-1,-1,-1,-1,-1,-1,-1],"loss_changes":[5.311611E1,1.8703009E1,2.8446785E1,1.7142902E1,3.1174385E1,7.140579E0,1.0021722E1,2.0598896E1,1.4100645E1,7.195783E0,7.357216E0,6.104871E0,4.700241E0,9.54941E0,1.8914847E0,6.90747E0,2.8302073E1,1.0156033E1,9.128228E0,1.28213825E1,1.0199038E1,5.38393E0,1.3045324E1,2.6655006E0,3.2907622E0,4.745285E0,0E0,2.2368298E0,5.514111E0,1.7499852E0,6.984043E-1,1.6163942E1,1.9313911E1,1.5266065E1,2.13036E1,8.263626E0,1.035626E1,2.9619856E0,7.8788815E0,9.6388645E0,5.7504683E0,7.3311286E0,8.362864E0,1.7359848E0,0E0,4.949601E0,5.8842235E0,2.679214E0,2.2952995E0,3.3506486E0,3.2959847E0,3.7427902E0,3.7984962E0,1.7303985E0,3.4640055E0,5.7208385E0,6.149734E0,0E0,1.0157602E0,0E0,3.1832212E-1,0E0,0E0,0E0,0E0,0E0,0E0,0E0,0E0,0E0,0E0,0E0,0E0,0E0,0E0,0E0,0E0,0E0,0E0,0E0,0E0,0E0,0E0,0E0,0E0,0E0,0E0,0E0,0E0,0E0,0E0,0E0,0E0,0E0,0E0,0E0,0E0,0E0,0E0,0E0,0E0,0E0,0E0,0E0,0E0,0E0,0E0,0E0,0E0,0E0,0E0,0E0,0E0,0E0,0E0],"parents":[2147483647,0,0,1,1,2,2,3,3,4,4,5,5,6,6,7,7,8,8,9,9,10,10,11,11,12,12,13,13,14,14,15,15,16,16,17,17,18,18,19,19,20,20,21,21,22,22,23,23,24,24,25,25,27,27,28,28,29,29,30,30,31,31,32,32,33,33,34,34,35,35,36,36,37,37,38,38,39,39,40,40,41,41,42,42,43,43,45,45,46,46,47,47,48,48,49,49,50,50,51,51,52,52,53,53,54,54,55,55,56,56,58,58,60,60],"right_children":[2,4,6,8,10,12,14,16,18,20,22,24,26,28,30,32,34,36,38,40,42,44,46,48,50,52,-1,54,56,58,60,62,64,66,68,70,72,74,76,78,80,82,84,86,-1,88,90,92,94,96,98,100,102,104,106,108,110,-1,112,-1,114,-1,-1,-1,-1,-1,-1,-1,-1,-1,-1,-1,-1,-1,-1,-1,-1,-1,-1,-1,-1,-1,-1,-1,-1,-1,-1,-1,-1,-1,-1,-1,-1,-1,-1,-1,-1,-1,-1,-1,-1,-1,-1,-1,-1,-1,-1,-1,-1,-1,-1,-1,-1,-1,-1],"split_conditions":[1.43E2,1.42E2,2E0,3E0,1.23E2,1.47E2,3E0,1.19E2,1E0,1.03E2,3E0,1E0,2.3E1,2E0,2.1E1,1.12E2,1.7E1,8.6E1,1.2E1,1.53E2,1.9E1,2.3E1,3E0,2E0,1.6E1,1.26E2,6.08444E-3,8.7E1,1.5E2,2E0,3E0,1.3E1,1.8E1,1.16E2,2E0,1.21E2,2E0,2E0,1.28E2,1.4E1,1.02E2,1E0,1E0,2.2E1,-1.0508135E-2,1.46E2,1.29E2,3E0,2E0,3E0,1.03E2,1E0,3E0,8.1E1,1.55E2,2E0,9.2E1,-1.0329067E-3,8.5E1,1.0141977E-2,2E0,1.0658673E-2,7.436471E-4,-1.998593E-3,6.6768366E-4,3.391044E-3,-1.281225E-3,-4.0997765E-3,-8.1999635E-4,1.9251222E-3,-8.09606E-3,3.870421E-5,2.0059517E-3,-8.6834765E-4,-1.0941514E-2,-1.8523275E-3,3.4955505E-3,-3.8054823E-3,3.3179629E-3,-2.3032206E-3,-8.96288E-3,2.1411885E-4,5.6061787E-3,2.7408549E-3,1.0738297E-2,6.877894E-3,7.144427E-4,-1.8028398E-4,7.7615147E-3,8.1068184E-4,-9.963159E-3,1.15912E-3,-7.362943E-3,-3.4384474E-3,-9.500667E-3,8.963217E-3,-3.1783555E-3,-7.476831E-3,-6.265157E-4,-9.129065E-3,-8.232631E-4,-6.467175E-3,-9.370234E-4,-7.354399E-3,1.5722358E-3,-9.703613E-3,-2.4205488E-3,3.3090254E-3,-4.7575934E-3,9.899607E-3,7.061193E-4,-8.2729734E-4,6.6774883E-3,-6.185496E-4,5.0172512E-3],"split_indices":[0,11,6,8,0,0,6,0,19,0,10,3,1,2,1,11,1,11,1,11,1,1,4,17,1,11,0,11,0,10,14,1,1,11,6,0,17,7,0,1,0,21,19,1,0,11,0,9,2,4,11,20,15,11,0,9,11,0,11,0,10,0,0,0,0,0,0,0,0,0,0,0,0,0,0,0,0,0,0,0,0,0,0,0,0,0,0,0,0,0,0,0,0,0,0,0,0,0,0,0,0,0,0,0,0,0,0,0,0,0,0,0,0,0,0],"split_type":[0,0,0,0,0,0,0,0,0,0,0,0,0,0,0,0,0,0,0,0,0,0,0,0,0,0,0,0,0,0,0,0,0,0,0,0,0,0,0,0,0,0,0,0,0,0,0,0,0,0,0,0,0,0,0,0,0,0,0,0,0,0,0,0,0,0,0,0,0,0,0,0,0,0,0,0,0,0,0,0,0,0,0,0,0,0,0,0,0,0,0,0,0,0,0,0,0,0,0,0,0,0,0,0,0,0,0,0,0,0,0,0,0,0,0],"sum_hessian":[5.493E3,5.108E3,3.85E2,4.211E3,8.97E2,2.51E2,1.34E2,2.77E3,1.441E3,7.12E2,1.85E2,9.5E1,1.56E2,1.05E2,2.9E1,1.693E3,1.077E3,1.226E3,2.15E2,2.25E2,4.87E2,1.29E2,5.6E1,4.6E1,4.9E1,1.54E2,2E0,3.7E1,6.8E1,1.7E1,1.2E1,5.27E2,1.166E3,2.78E2,7.99E2,3.3E1,1.193E3,1.6E1,1.99E2,1.03E2,1.22E2,4.09E2,7.8E1,1.28E2,1E0,3.7E1,1.9E1,1.4E1,3.2E1,8E0,4.1E1,9.4E1,6E1,9E0,2.8E1,3.6E1,3.2E1,7E0,1E1,7E0,5E0,1.6E1,5.11E2,4.29E2,7.37E2,1.41E2,1.37E2,4.35E2,3.64E2,1.3E1,2E1,4.05E2,7.88E2,4E0,1.2E1,1.67E2,3.2E1,2.4E1,7.9E1,1.08E2,1.4E1,3.83E2,2.6E1,6.2E1,1.6E1,1.23E2,5E0,1.1E1,2.6E1,1E1,9E0,9E0,5E0,1.1E1,2.1E1,5E0,3E0,8E0,3.3E1,8.8E1,6E0,4.2E1,1.8E1,2E0,7E0,1.6E1,1.2E1,1.3E1,2.3E1,1E1,2.2E1,2E0,8E0,1E0,4E0],"tree_param":{"num_deleted":"0","num_feature":"25","num_nodes":"115","size_leaf_vector":"1"}},{"base_weights":[-5.890852E-4,3.5967633E-2,-2.4722975E-1,-4.3103926E-2,6.863021E-2,-2.992821E-1,3.0891925E-1,-3.4669584E-1,2.7331905E-3,2.9305963E-2,2.2507197E-1,8.648346E-2,-4.0792605E-1,-2.7612768E-2,5.43389E-1,-4.397019E-1,7.382214E-2,4.2066157E-2,-3.626199E-1,8.986368E-2,-3.1004867E-2,-2.874354E-3,3.184364E-1,3.1675738E-1,-1.0947245E-1,-5.541927E-1,-1.5623084E-1,-6.6066355E-1,1.9533564E-1,4.663757E-1,1.23507725E-2,-5.511988E-1,-9.657446E-2,2.8971136E-1,-3.4611735E-1,-6.589975E-1,5.1090002E-2,1.702548E-1,-4.7973973E-1,1.393317E-1,-7.6761335E-2,1.3401936E-1,-1.5203927E-1,4.2420126E-2,-1.0839208E0,3.432328E-2,3.986542E-1,-3.0399814E-1,5.7416916E-1,1.3155325E-1,-3.9432338E-1,-6.4521E-1,-2.4413258E-1,-2.4103126E-1,2.78282E-1,-1.0751633E-2,-8.0997765E-4,3.1567535E-1,-1.0455595E-2,1.9409844E-1,6.060679E-1,-8.472518E-3,-3.57234E-3,-6.292007E-3,1.7345304E-3,9.10307E-3,1.7130109E-4,9.471355E-3,-5.49789E-3,-1.9953698E-3,-1.2383554E-2,-3.7148097E-4,1.0639396E-3,-4.2992495E-3,5.4392354E-3,-3.060824E-3,-6.7360858E-3,2.0006702E-3,3.125617E-4,-1.714538E-3,1.7892033E-3,2.6391158E-3,-3.533789E-3,-3.2457416E-3,-1.5479594E-4,-1.9652168E-3,1.7311063E-3,-5.558288E-4,-1.2228859E-2,6.6908994E-3,-1.2845801E-3,2.2873676E-3,5.07203E-3,-9.465882E-3,3.9011068E-4,1.0624009E-3,8.609444E-3,6.9068926E-3,-1.6219134E-3,-6.852885E-3,2.447142E-3,-4.961862E-3,-8.27963E-3,9.043786E-3,-3.2268148E-3,-9.260249E-4,-5.5681677E-3,-2.4528562E-3,6.7004105E-3,1.1399863E-3,7.3364177E-3,5.0240178E-3,1.2523068E-5,6.777212E-3,-7.364329E-4],"categories":[],"categories_nodes":[],"categories_segments":[],"categories_sizes":[],"default_left":[0,0,0,0,0,0,0,0,0,0,0,0,0,0,0,0,0,0,0,0,0,0,0,0,0,0,0,0,0,0,0,0,0,0,0,0,0,0,0,0,0,0,0,0,0,0,0,0,0,0,0,0,0,0,0,0,0,0,0,0,0,0,0,0,0,0,0,0,0,0,0,0,0,0,0,0,0,0,0,0,0,0,0,0,0,0,0,0,0,0,0,0,0,0,0,0,0,0,0,0,0,0,0,0,0,0,0,0,0,0,0,0,0,0,0],"id":4,"left_children":[1,3,5,7,9,11,13,15,17,19,21,23,25,27,29,31,33,35,37,39,41,43,45,47,49,51,53,55,57,59,-1,61,63,65,67,69,71,73,75,77,79,81,83,85,87,89,91,93,95,97,99,101,103,105,107,-1,-1,109,-1,111,113,-1,-1,-1,-1,-1,-1,-1,-1,-1,-1,-1,-1,-1,-1,-1,-1,-1,-1,-1,-1,-1,-1,-1,-1,-1,-1,-1,-1,-1,-1,-1,-1,-1,-1,-1,-1,-1,-1,-1,-1,-1,-1,-1,-1,-1,-1,-1,-1,-1,-1,-1,-1,-1,-1],"loss_changes":[4.9382557E1,1.2322346E1,2.0559292E1,1.9413456E1,2.0762402E1,2.715176E1,4.8283067E0,7.189724E0,1.7446573E1,9.860307E0,1.4430168E1,6.487342E0,1.8504799E1,3.7986302E0,1.3416815E0,5.6854134E0,3.182728E0,6.9672823E0,7.4460783E0,1.1113488E1,2.704467E1,9.7411375E0,1.0948753E1,1.0720671E1,5.4070735E0,8.844925E0,6.9574394E0,1.5948143E0,3.316637E0,1.1755533E0,0E0,6.186226E0,5.574438E0,3.8751497E0,3.6815124E0,3.4795918E0,5.2889013E0,5.1677523E0,3.0594978E0,6.8137455E0,7.511915E0,3.6369453E1,1.8396362E1,5.998459E0,1.0752525E0,1.1142061E1,6.800606E0,4.4452143E0,6.2154846E0,7.174481E0,6.861455E0,6.2888794E0,6.967684E0,7.3072863E0,6.5228353E0,0E0,0E0,1.5179536E0,0E0,7.7228713E-1,1.1213875E0,0E0,0E0,0E0,0E0,0E0,0E0,0E0,0E0,0E0,0E0,0E0,0E0,0E0,0E0,0E0,0E0,0E0,0E0,0E0,0E0,0E0,0E0,0E0,0E0,0E0,0E0,0E0,0E0,0E0,0E0,0E0,0E0,0E0,0E0,0E0,0E0,0E0,0E0,0E0,0E0,0E0,0E0,0E0,0E0,0E0,0E0,0E0,0E0,0E0,0E0,0E0,0E0,0E0,0E0],"parents":[2147483647,0,0,1,1,2,2,3,3,4,4,5,5,6,6,7,7,8,8,9,9,10,10,11,11,12,12,13,13,14,14,15,15,16,16,17,17,18,18,19,19,20,20,21,21,22,22,23,23,24,24,25,25,26,26,27,27,28,28,29,29,31,31,32,32,33,33,34,34,35,35,36,36,37,37,38,38,39,39,40,40,41,41,42,42,43,43,44,44,45,45,46,46,47,47,48,48,49,49,50,50,51,51,52,52,53,53,54,54,57,57,59,59,60,60],"right_children":[2,4,6,8,10,12,14,16,18,20,22,24,26,28,30,32,34,36,38,40,42,44,46,48,50,52,54,56,58,60,-1,62,64,66,68,70,72,74,76,78,80,82,84,86,88,90,92,94,96,98,100,102,104,106,108,-1,-1,110,-1,112,114,-1,-1,-1,-1,-1,-1,-1,-1,-1,-1,-1,-1,-1,-1,-1,-1,-1,-1,-1,-1,-1,-1,-1,-1,-1,-1,-1,-1,-1,-1,-1,-1,-1,-1,-1,-1,-1,-1,-1,-1,-1,-1,-1,-1,-1,-1,-1,-1,-1,-1,-1,-1,-1,-1],"split_conditions":[1.36E2,1.06E2,3E0,1.4E1,1.4E2,1.8E1,1.41E2,1.47E2,1.55E2,1.19E2,2E0,1.42E2,2E0,1.01E2,1.38E2,3E0,3E0,7.9E1,2E0,1E0,1.8E1,1.66E2,1.2E1,2E0,1.7E1,1.35E2,1.31E2,2E1,2.3E1,2E0,1.23507725E-2,1.36E2,2E0,2E0,1.02E2,1E0,2E0,2E0,1.58E2,3E0,1.15E2,1.28E2,2E0,2E0,2E0,2E0,1.15E2,2E0,1.6E1,2E0,3E0,1.47E2,1.38E2,9.9E1,2E0,-1.0751633E-2,-8.0997765E-4,1.38E2,-1.0455595E-2,1.46E2,1.19E2,-8.472518E-3,-3.57234E-3,-6.292007E-3,1.7345304E-3,9.10307E-3,1.7130109E-4,9.471355E-3,-5.49789E-3,-1.9953698E-3,-1.2383554E-2,-3.7148097E-4,1.0639396E-3,-4.2992495E-3,5.4392354E-3,-3.060824E-3,-6.7360858E-3,2.0006702E-3,3.125617E-4,-1.714538E-3,1.7892033E-3,2.6391158E-3,-3.533789E-3,-3.2457416E-3,-1.5479594E-4,-1.9652168E-3,1.7311063E-3,-5.558288E-4,-1.2228859E-2,6.6908994E-3,-1.2845801E-3,2.2873676E-3,5.07203E-3,-9.465882E-3,3.9011068E-4,1.0624009E-3,8.609444E-3,6.9068926E-3,-1.6219134E-3,-6.852885E-3,2.447142E-3,-4.961862E-3,-8.27963E-3,9.043786E-3,-3.2268148E-3,-9.260249E-4,-5.5681677E-3,-2.4528562E-3,6.7004105E-3,1.1399863E-3,7.3364177E-3,5.0240178E-3,1.2523068E-5,6.777212E-3,-7.364329E-4],"split_indices":[0,0,6,1,11,1,0,11,11,0,16,0,6,11,11,2,2,0,6,19,1,11,1,16,1,11,11,1,1,10,0,11,17,13,0,19,4,14,11,7,0,11,6,10,2,9,0,17,1,4,13,0,11,11,5,0,0,11,0,0,11,0,0,0,0,0,0,0,0,0,0,0,0,0,0,0,0,0,0,0,0,0,0,0,0,0,0,0,0,0,0,0,0,0,0,0,0,0,0,0,0,0,0,0,0,0,0,0,0,0,0,0,0,0,0],"split_type":[0,0,0,0,0,0,0,0,0,0,0,0,0,0,0,0,0,0,0,0,0,0,0,0,0,0,0,0,0,0,0,0,0,0,0,0,0,0,0,0,0,0,0,0,0,0,0,0,0,0,0,0,0,0,0,0,0,0,0,0,0,0,0,0,0,0,0,0,0,0,0,0,0,0,0,0,0,0,0,0,0,0,0,0,0,0,0,0,0,0,0,0,0,0,0,0,0,0,0,0,0,0,0,0,0,0,0,0,0,0,0,0,0,0,0],"sum_hessian":[5.475E3,4.769E3,7.06E2,1.394E3,3.375E3,6.46E2,6E1,1.82E2,1.212E3,2.698E3,6.77E2,1.42E2,5.04E2,2.5E1,3.5E1,1.49E2,3.3E1,1.095E3,1.17E2,1.346E3,1.352E3,1.97E2,4.8E2,6.5E1,7.7E1,3.18E2,1.86E2,6E0,1.9E1,3.3E1,2E0,1.12E2,3.7E1,2.2E1,1.1E1,1.3E1,1.082E3,2.1E1,9.6E1,1.038E3,3.08E2,5.72E2,7.8E2,1.9E2,7E0,1.06E2,3.74E2,1.9E1,4.6E1,4.2E1,3.5E1,2.45E2,7.3E1,1.56E2,3E1,3E0,3E0,1.8E1,1E0,1.2E1,2.1E1,4.3E1,6.9E1,1.2E1,2.5E1,6E0,1.6E1,1E0,1E1,8E0,5E0,4.17E2,6.65E2,8E0,1.3E1,5.2E1,4.4E1,6.64E2,3.74E2,2.25E2,8.3E1,4.52E2,1.2E2,3.44E2,4.36E2,6.7E1,1.23E2,1E0,6E0,2.1E1,8.5E1,1.47E2,2.27E2,6E0,1.3E1,1.8E1,2.8E1,1.4E1,2.8E1,2.4E1,1.1E1,1.37E2,1.08E2,4E0,6.9E1,1.07E2,4.9E1,1.3E1,1.7E1,1.3E1,5E0,4E0,8E0,1.9E1,2E0],"tree_param":{"num_deleted":"0","num_feature":"25","num_nodes":"115","size_leaf_vector":"1"}},{"base_weights":[2.2887797E-3,3.422627E-2,-2.8267387E-1,-1.2744795E-1,4.981599E-2,-4.862796E-1,6.9033474E-2,-2.5378948E-1,1.024193E-1,1.9167651E-1,2.9280378E-2,-2.7439728E-1,-7.289758E-1,-1.7578936E-3,1.2018418E0,-3.471035E-2,-3.6909366E-1,1.9771378E-1,-2.0683642E-1,3.5068935E-1,3.4758776E-2,-1.5041356E-1,5.854027E-2,1.8987681E-1,-3.7382627E-1,-7.9609084E-1,-2.6264334E-1,-1.1930473E-1,4.3693537E-1,1.3210169E0,-5.4541946E-4,-3.0964264E-1,1.4457414E-1,8.094004E-3,-4.546435E-1,6.6370714E-1,1.3924997E-1,7.957117E-2,-9.8809403E-1,1.6559826E-1,4.4482383E-1,2.638271E-1,-1.8070649E-1,1.1399783E0,-2.061279E-1,3.3274747E-2,1.5859185E-1,8.11859E-1,-2.8610367E-1,-1.6764915E-1,-5.2316004E-1,-9.811478E-1,-6.604509E-1,-7.1131694E-1,1.7052776E-1,-4.2130995E-1,6.470864E-3,-2.7684975E-1,5.2158374E-1,1.5309957E0,2.5074115E-1,-6.0109706E-3,1.4689168E-3,4.829872E-3,1.05378465E-4,5.688451E-3,-1.7912282E-3,-5.7440936E-3,-1.4326308E-3,-3.985108E-3,8.930659E-3,4.1347323E-3,5.865525E-5,-1.8771613E-3,9.082496E-3,-1.1977925E-2,4.4959616E-3,6.6274838E-3,1.9507458E-4,7.0195184E-3,2.624483E-3,3.3724913E-3,-4.7939187E-3,-3.4805248E-3,1.1163127E-3,1.4346485E-2,6.5971055E-4,-3.0210745E-3,1.9724436E-4,-3.3358534E-5,1.1190628E-3,1.0082891E-4,4.0626074E-3,9.4772065E-3,-5.4510236E-3,-5.5438853E-3,9.256329E-3,-7.789181E-4,-9.258703E-3,-6.9638994E-3,-4.4906768E-4,-5.4392574E-4,-1.0307091E-2,-3.950534E-3,-8.473745E-3,-2.3411356E-3,-1.06996745E-2,-7.665844E-4,9.376392E-3,5.354096E-3,-6.1163744E-3,5.1006638E-3,-1.7390866E-3,-1.0366647E-2,1.7227017E-3,5.789458E-3,-9.638977E-4,4.28666E-3,1.6152037E-2,4.3081343E-3,-5.4701685E-4],"categories":[],"categories_nodes":[],"categories_segments":[],"categories_sizes":[],"default_left":[0,0,0,0,0,0,0,0,0,0,0,0,0,0,0,0,0,0,0,0,0,0,0,0,0,0,0,0,0,0,0,0,0,0,0,0,0,0,0,0,0,0,0,0,0,0,0,0,0,0,0,0,0,0,0,0,0,0,0,0,0,0,0,0,0,0,0,0,0,0,0,0,0,0,0,0,0,0,0,0,0,0,0,0,0,0,0,0,0,0,0,0,0,0,0,0,0,0,0,0,0,0,0,0,0,0,0,0,0,0,0,0,0,0,0,0,0,0,0,0,0],"id":5,"left_children":[1,3,5,7,9,11,13,15,17,19,21,23,25,27,29,31,33,35,37,39,41,43,45,47,49,51,53,55,57,59,-1,61,63,65,67,69,71,73,75,77,79,81,83,85,87,89,91,93,95,97,99,101,103,105,107,109,111,113,115,117,119,-1,-1,-1,-1,-1,-1,-1,-1,-1,-1,-1,-1,-1,-1,-1,-1,-1,-1,-1,-1,-1,-1,-1,-1,-1,-1,-1,-1,-1,-1,-1,-1,-1,-1,-1,-1,-1,-1,-1,-1,-1,-1,-1,-1,-1,-1,-1,-1,-1,-1,-1,-1,-1,-1,-1,-1,-1,-1,-1,-1],"loss_changes":[5.002872E1,1.2464964E1,3.9705303E1,1.2659168E1,1.3129973E1,1.7849457E1,1.6361494E1,7.085457E0,4.608801E0,1.4210415E1,2.0724636E1,8.795656E0,4.892479E0,1.0004561E1,1.8688049E0,4.8752937E0,5.9410534E0,3.1495848E0,8.357674E0,4.8571777E0,1.42622795E1,3.9920097E1,8.561625E0,1.0298021E1,4.7154083E0,2.916359E0,4.397053E0,5.8144145E0,2.6216516E0,2.0882053E0,0E0,5.2775955E0,2.7164884E0,3.7762651E0,5.5116196E0,3.5230746E0,3.9113262E0,6.37236E0,3.553337E0,7.0320897E0,8.584919E0,7.801283E0,7.328166E0,7.184347E0,1.1494877E1,7.7931423E0,2.5117361E1,3.281992E0,7.0149727E0,4.487629E0,7.425026E0,2.6079483E0,3.8820114E0,1.6321478E0,2.34731E0,8.521529E0,9.990083E0,1.8848268E0,1.3673887E0,1.4304352E-1,1.8857156E-1,0E0,0E0,0E0,0E0,0E0,0E0,0E0,0E0,0E0,0E0,0E0,0E0,0E0,0E0,0E0,0E0,0E0,0E0,0E0,0E0,0E0,0E0,0E0,0E0,0E0,0E0,0E0,0E0,0E0,0E0,0E0,0E0,0E0,0E0,0E0,0E0,0E0,0E0,0E0,0E0,0E0,0E0,0E0,0E0,0E0,0E0,0E0,0E0,0E0,0E0,0E0,0E0,0E0,0E0,0E0,0E0,0E0,0E0,0E0,0E0],"parents":[2147483647,0,0,1,1,2,2,3,3,4,4,5,5,6,6,7,7,8,8,9,9,10,10,11,11,12,12,13,13,14,14,15,15,16,16,17,17,18,18,19,19,20,20,21,21,22,22,23,23,24,24,25,25,26,26,27,27,28,28,29,29,31,31,32,32,33,33,34,34,35,35,36,36,37,37,38,38,39,39,40,40,41,41,42,42,43,43,44,44,45,45,46,46,47,47,48,48,49,49,50,50,51,51,52,52,53,53,54,54,55,55,56,56,57,57,58,58,59,59,60,60],"right_children":[2,4,6,8,10,12,14,16,18,20,22,24,26,28,30,32,34,36,38,40,42,44,46,48,50,52,54,56,58,60,-1,62,64,66,68,70,72,74,76,78,80,82,84,86,88,90,92,94,96,98,100,102,104,106,108,110,112,114,116,118,120,-1,-1,-1,-1,-1,-1,-1,-1,-1,-1,-1,-1,-1,-1,-1,-1,-1,-1,-1,-1,-1,-1,-1,-1,-1,-1,-1,-1,-1,-1,-1,-1,-1,-1,-1,-1,-1,-1,-1,-1,-1,-1,-1,-1,-1,-1,-1,-1,-1,-1,-1,-1,-1,-1,-1,-1,-1,-1,-1,-1],"split_conditions":[1.4E2,9.4E1,2E0,3E0,1.06E2,1.47E2,1.41E2,1.19E2,1.31E2,1.7E1,1.3E1,1.7E1,1.41E2,3E0,1.58E2,2E0,1.8E1,9.9E1,3E0,2E0,1E0,1.14E2,1.42E2,2E0,2E0,2E0,2E0,2E0,1.41E2,3E0,-5.4541946E-4,2E1,2E0,2E0,3E0,8.8E1,2E0,3E0,3E0,2E0,3E0,1.36E2,3E0,1.31E2,1.5E2,3E0,1.16E2,1.09E2,3E0,1.43E2,3E0,8.8E1,2E0,1.48E2,3E0,1.9E1,2E0,2E0,1E0,1.41E2,1.41E2,-6.0109706E-3,1.4689168E-3,4.829872E-3,1.05378465E-4,5.688451E-3,-1.7912282E-3,-5.7440936E-3,-1.4326308E-3,-3.985108E-3,8.930659E-3,4.1347323E-3,5.865525E-5,-1.8771613E-3,9.082496E-3,-1.1977925E-2,4.4959616E-3,6.6274838E-3,1.9507458E-4,7.0195184E-3,2.624483E-3,3.3724913E-3,-4.7939187E-3,-3.4805248E-3,1.1163127E-3,1.4346485E-2,6.5971055E-4,-3.0210745E-3,1.9724436E-4,-3.3358534E-5,1.1190628E-3,1.0082891E-4,4.0626074E-3,9.4772065E-3,-5.4510236E-3,-5.5438853E-3,9.256329E-3,-7.789181E-4,-9.258703E-3,-6.9638994E-3,-4.4906768E-4,-5.4392574E-4,-1.0307091E-2,-3.950534E-3,-8.473745E-3,-2.3411356E-3,-1.06996745E-2,-7.665844E-4,9.376392E-3,5.354096E-3,-6.1163744E-3,5.1006638E-3,-1.7390866E-3,-1.0366647E-2,1.7227017E-3,5.789458E-3,-9.638977E-4,4.28666E-3,1.6152037E-2,4.3081343E-3,-5.4701685E-4],"split_indices":[0,11,6,7,11,0,11,0,0,1,1,1,11,6,0,14,1,0,9,17,3,11,11,4,2,15,17,2,0,7,0,1,4,14,14,0,8,17,4,10,14,0,10,0,11,8,0,11,16,11,4,11,10,11,14,1,8,2,20,0,0,0,0,0,0,0,0,0,0,0,0,0,0,0,0,0,0,0,0,0,0,0,0,0,0,0,0,0,0,0,0,0,0,0,0,0,0,0,0,0,0,0,0,0,0,0,0,0,0,0,0,0,0,0,0,0,0,0,0,0,0],"split_type":[0,0,0,0,0,0,0,0,0,0,0,0,0,0,0,0,0,0,0,0,0,0,0,0,0,0,0,0,0,0,0,0,0,0,0,0,0,0,0,0,0,0,0,0,0,0,0,0,0,0,0,0,0,0,0,0,0,0,0,0,0,0,0,0,0,0,0,0,0,0,0,0,0,0,0,0,0,0,0,0,0,0,0,0,0,0,0,0,0,0,0,0,0,0,0,0,0,0,0,0,0,0,0,0,0,0,0,0,0,0,0,0,0,0,0,0,0,0,0,0,0],"sum_hessian":[5.495E3,4.942E3,5.53E2,4.34E2,4.508E3,3.5E2,2.03E2,2.8E2,1.54E2,5.69E2,3.939E3,1.88E2,1.62E2,1.92E2,1.1E1,9.7E1,1.83E2,1.18E2,3.6E1,2.82E2,2.87E2,5.51E2,3.388E3,3.3E1,1.55E2,1.41E2,2.1E1,1.52E2,4E1,1E1,1E0,3.8E1,5.9E1,3.4E1,1.49E2,1.2E1,1.06E2,2.7E1,9E0,9.6E1,1.86E2,1.39E2,1.48E2,2.2E1,5.29E2,2.706E3,6.82E2,1.4E1,1.9E1,6.6E1,8.9E1,5.7E1,8.4E1,1E1,1.1E1,4.4E1,1.08E2,4E0,3.6E1,8E0,2E0,2.3E1,1.5E1,1.6E1,4.3E1,8E0,2.6E1,1.07E2,4.2E1,2E0,1E1,3.4E1,7.2E1,2.1E1,6E0,8E0,1E0,2.1E1,7.5E1,7.6E1,1.1E2,1.27E2,1.2E1,9.4E1,5.4E1,1.7E1,5E0,3.71E2,1.58E2,1.847E3,8.59E2,4.27E2,2.55E2,1.3E1,1E0,1.6E1,3E0,6E1,6E0,6.5E1,2.4E1,3E0,5.4E1,3.6E1,4.8E1,5E0,5E0,9E0,2E0,7E0,3.7E1,2.8E1,8E1,1E0,3E0,3.3E1,3E0,1E0,7E0,1E0,1E0],"tree_param":{"num_deleted":"0","num_feature":"25","num_nodes":"121","size_leaf_vector":"1"}},{"base_weights":[-1.4505984E-3,2.6015764E-2,-2.5159526E-1,-1.4513119E-1,4.2320568E-2,-4.4347242E-1,9.2904575E-2,-2.2283186E-1,3.469675E-2,-4.4361252E-2,8.0265E-2,4.0540922E-2,-5.0845635E-1,-4.261296E-2,5.996557E-1,-1.1997397E-1,-3.7958866E-1,-9.3618613E-1,8.9224845E-2,-3.5227445E-1,5.6012105E-3,4.312629E-2,2.141856E-1,5.705521E-1,-1.9048196E-1,-6.094679E-1,-2.5532183E-1,-1.5629794E-1,7.2689134E-1,6.5719837E-1,-9.6913695E-4,-2.3904368E-1,1.323077E-1,-5.041528E-1,2.6044687E-3,-5.3227664E-4,-1.0744746E-2,-1.0437649E-1,3.3400428E-1,-1.8563333E-1,-4.898912E-1,4.2347673E-2,-3.0708525E-1,1.6238482E-1,2.828531E-3,3.1883877E-2,3.6766833E-1,9.955015E-3,-9.113916E-2,3.685047E-1,-7.026268E-1,-6.498944E-1,7.801854E-2,-1.2533876E-1,-4.944728E-1,1.9590178E-1,-2.863494E-1,1.0028446E0,-8.414034E-4,7.6505196E-1,2.2466445E-1,-2.8444713E-3,3.0700045E-3,3.0878496E-3,-4.569967E-3,-2.6778728E-3,-8.611798E-3,5.0128195E-3,-4.650685E-3,1.1014868E-2,-1.941483E-3,1.1611931E-3,7.407274E-3,-3.3047968E-3,6.7544025E-3,-6.667031E-3,-1.2227054E-3,-7.0915776E-3,5.3868577E-4,3.7525764E-3,-4.7460007E-3,4.928848E-3,1.5631034E-4,-9.1395614E-4,5.888451E-4,1.7700456E-3,-1.8839492E-3,1.2703437E-3,4.684485E-3,-2.8479663E-3,4.3857405E-3,-2.130059E-3,9.039522E-3,-7.130303E-4,-9.071262E-3,-7.5932792E-3,-3.8944476E-3,4.9392954E-3,-3.4903793E-3,-2.4608304E-3,5.728054E-3,-9.721151E-3,-2.207329E-3,-3.439995E-3,5.3949384E-3,-1.3981042E-3,-6.0327966E-3,1.1542716E-2,-5.5856714E-3,9.188076E-3,4.1594612E-3,-9.3159813E-4,4.9755583E-3],"categories":[],"categories_nodes":[],"categories_segments":[],"categories_sizes":[],"default_left":[0,0,0,0,0,0,0,0,0,0,0,0,0,0,0,0,0,0,0,0,0,0,0,0,0,0,0,0,0,0,0,0,0,0,0,0,0,0,0,0,0,0,0,0,0,0,0,0,0,0,0,0,0,0,0,0,0,0,0,0,0,0,0,0,0,0,0,0,0,0,0,0,0,0,0,0,0,0,0,0,0,0,0,0,0,0,0,0,0,0,0,0,0,0,0,0,0,0,0,0,0,0,0,0,0,0,0,0,0,0,0,0,0],"id":6,"left_children":[1,3,5,7,9,11,13,15,17,19,21,23,25,27,29,31,33,35,37,39,41,43,45,47,49,51,53,55,57,59,-1,61,63,65,67,-1,-1,69,71,73,75,77,79,81,83,85,87,-1,89,91,93,95,97,99,101,103,105,107,-1,109,111,-1,-1,-1,-1,-1,-1,-1,-1,-1,-1,-1,-1,-1,-1,-1,-1,-1,-1,-1,-1,-1,-1,-1,-1,-1,-1,-1,-1,-1,-1,-1,-1,-1,-1,-1,-1,-1,-1,-1,-1,-1,-1,-1,-1,-1,-1,-1,-1,-1,-1,-1,-1],"loss_changes":[3.7499214E1,1.3729907E1,3.5736088E1,5.9880705E0,1.4774876E1,1.0934837E1,1.3348245E1,4.7754364E0,6.9657826E0,2.1047424E1,1.5528408E1,5.251358E0,7.668663E0,1.3585698E1,1.7070723E0,5.498744E0,5.6190033E0,7.9752827E-1,5.9111757E0,4.2891884E0,1.35483675E1,1.175946E1,1.8958834E1,3.7461386E0,8.847386E0,6.1095047E0,2.70464E0,6.239647E0,4.5605164E0,1.6008339E0,0E0,3.1615696E0,6.277045E0,7.279999E0,7.22967E0,0E0,0E0,7.7915306E0,4.788024E0,1.1198875E1,6.6784515E0,9.172414E0,1.4351618E1,2.9966604E1,9.671125E0,9.975085E0,8.86491E0,0E0,7.404019E-1,4.8630733E0,2.0010042E0,5.575691E0,2.4814274E0,5.114476E0,3.8386636E0,7.0492992E0,4.5134754E0,4.1913376E0,0E0,1.2281322E0,8.2693565E-1,0E0,0E0,0E0,0E0,0E0,0E0,0E0,0E0,0E0,0E0,0E0,0E0,0E0,0E0,0E0,0E0,0E0,0E0,0E0,0E0,0E0,0E0,0E0,0E0,0E0,0E0,0E0,0E0,0E0,0E0,0E0,0E0,0E0,0E0,0E0,0E0,0E0,0E0,0E0,0E0,0E0,0E0,0E0,0E0,0E0,0E0,0E0,0E0,0E0,0E0,0E0,0E0],"parents":[2147483647,0,0,1,1,2,2,3,3,4,4,5,5,6,6,7,7,8,8,9,9,10,10,11,11,12,12,13,13,14,14,15,15,16,16,17,17,18,18,19,19,20,20,21,21,22,22,23,23,24,24,25,25,26,26,27,27,28,28,29,29,31,31,32,32,33,33,34,34,37,37,38,38,39,39,40,40,41,41,42,42,43,43,44,44,45,45,46,46,48,48,49,49,50,50,51,51,52,52,53,53,54,54,55,55,56,56,57,57,59,59,60,60],"right_children":[2,4,6,8,10,12,14,16,18,20,22,24,26,28,30,32,34,36,38,40,42,44,46,48,50,52,54,56,58,60,-1,62,64,66,68,-1,-1,70,72,74,76,78,80,82,84,86,88,-1,90,92,94,96,98,100,102,104,106,108,-1,110,112,-1,-1,-1,-1,-1,-1,-1,-1,-1,-1,-1,-1,-1,-1,-1,-1,-1,-1,-1,-1,-1,-1,-1,-1,-1,-1,-1,-1,-1,-1,-1,-1,-1,-1,-1,-1,-1,-1,-1,-1,-1,-1,-1,-1,-1,-1,-1,-1,-1,-1,-1,-1],"split_conditions":[1.4E2,9.4E1,2E0,3E0,1.06E2,1.7E1,3E0,1.28E2,8.1E1,1.4E1,1.4E2,2E0,1.34E2,1.4E2,1.109E3,3E0,3E0,2E0,2E1,2E0,1.53E2,1.09E2,2E0,1.05E2,1.44E2,1E0,1.43E2,2E0,1.58E2,1.22E2,-9.6913695E-4,2.2E1,9.2E1,2E0,2E0,-5.3227664E-4,-1.0744746E-2,1.4E1,3E0,1.03E2,3E0,7.9E1,2E0,1.5E1,2E0,3E0,1.15E2,9.955015E-3,1E0,1.6E1,2E0,3E0,1.22E2,3E0,2E0,2E0,1E0,1E0,-8.414034E-4,3E0,3E0,-2.8444713E-3,3.0700045E-3,3.0878496E-3,-4.569967E-3,-2.6778728E-3,-8.611798E-3,5.0128195E-3,-4.650685E-3,1.1014868E-2,-1.941483E-3,1.1611931E-3,7.407274E-3,-3.3047968E-3,6.7544025E-3,-6.667031E-3,-1.2227054E-3,-7.0915776E-3,5.3868577E-4,3.7525764E-3,-4.7460007E-3,4.928848E-3,1.5631034E-4,-9.1395614E-4,5.888451E-4,1.7700456E-3,-1.8839492E-3,1.2703437E-3,4.684485E-3,-2.8479663E-3,4.3857405E-3,-2.130059E-3,9.039522E-3,-7.130303E-4,-9.071262E-3,-7.5932792E-3,-3.8944476E-3,4.9392954E-3,-3.4903793E-3,-2.4608304E-3,5.728054E-3,-9.721151E-3,-2.207329E-3,-3.439995E-3,5.3949384E-3,-1.3981042E-3,-6.0327966E-3,1.1542716E-2,-5.5856714E-3,9.188076E-3,4.1594612E-3,-9.3159813E-4,4.9755583E-3],"split_indices":[0,11,6,8,0,1,6,0,11,1,11,4,11,11,0,5,2,5,1,9,11,11,6,11,0,23,11,8,0,11,0,1,11,4,8,0,0,1,15,0,4,0,6,1,9,7,0,0,19,1,2,5,11,14,8,2,12,18,0,10,2,0,0,0,0,0,0,0,0,0,0,0,0,0,0,0,0,0,0,0,0,0,0,0,0,0,0,0,0,0,0,0,0,0,0,0,0,0,0,0,0,0,0,0,0,0,0,0,0,0,0,0,0],"split_type":[0,0,0,0,0,0,0,0,0,0,0,0,0,0,0,0,0,0,0,0,0,0,0,0,0,0,0,0,0,0,0,0,0,0,0,0,0,0,0,0,0,0,0,0,0,0,0,0,0,0,0,0,0,0,0,0,0,0,0,0,0,0,0,0,0,0,0,0,0,0,0,0,0,0,0,0,0,0,0,0,0,0,0,0,0,0,0,0,0,0,0,0,0,0,0,0,0,0,0,0,0,0,0,0,0,0,0,0,0,0,0,0,0],"sum_hessian":[5.456E3,4.917E3,5.39E2,4.27E2,4.49E3,3.46E2,1.93E2,2.98E2,1.29E2,1.367E3,3.123E3,4.1E1,3.05E2,1.53E2,4E1,1.81E2,1.17E2,6E0,1.23E2,1.9E2,1.177E3,2.446E3,6.77E2,1.2E1,2.9E1,2.17E2,8.8E1,1.34E2,1.9E1,3.7E1,3E0,1.23E2,5.8E1,8.8E1,2.9E1,1E0,5E0,6.9E1,5.4E1,8.7E1,1.03E2,1.054E3,1.23E2,6.17E2,1.829E3,3.1E2,3.67E2,7E0,5E0,1.4E1,1.5E1,2.05E2,1.2E1,5.8E1,3E1,3.6E1,9.8E1,1.4E1,5E0,2.9E1,8E0,1.14E2,9E0,4.5E1,1.3E1,5.4E1,3.4E1,1.4E1,1.5E1,4E0,6.5E1,3.6E1,1.8E1,7.5E1,1.2E1,6.9E1,3.4E1,1.5E1,1.039E3,2.4E1,9.9E1,1.89E2,4.28E2,6.82E2,1.147E3,1.87E2,1.23E2,1.09E2,2.58E2,4E0,1E0,7E0,7E0,4E0,1.1E1,1.43E2,6.2E1,6E0,6E0,5E1,8E0,1E1,2E1,1.4E1,2.2E1,6.8E1,3E1,1.3E1,1E0,1.9E1,1E1,4E0,4E0],"tree_param":{"num_deleted":"0","num_feature":"25","num_nodes":"113","size_leaf_vector":"1"}},{"base_weights":[-7.6291887E-3,2.5652168E-2,-3.1784695E-1,-1.5704937E-1,4.1143242E-2,-5.3130907E-1,5.4066207E-2,-2.7246347E-1,4.4207588E-2,6.312837E-2,-5.933014E-2,1.09066986E-1,-6.0750186E-1,-9.392758E-2,5.6745213E-1,-1.1062229E-1,-4.1851452E-1,1.8386643E-1,-4.2689356E-1,2.4328617E-2,1.300852E-1,-1.2745838E-1,9.285952E-2,6.2312764E-1,-2.697529E-1,-7.323706E-1,-2.976238E-1,-2.0475295E-1,4.5528692E-1,7.3875165E-1,3.4465975E-1,-2.805026E-1,1.4650282E-1,5.704123E-1,-4.626349E-1,4.9861887E-1,6.4502526E-3,-7.0319307E-1,5.244415E-1,-6.5778884E-5,1.2504725E-1,3.8343534E-2,2.1967514E-1,-2.0861936E-1,2.5307972E-2,-5.1971734E-2,4.008182E-1,9.4107974E-1,-5.6599855E-1,3.171789E-1,-8.8551915E-1,-8.237407E-1,-4.8107934E-1,-2.571537E-1,-1.3720499E-2,-5.520336E-2,-5.4461735E-1,2.734199E-1,1.3872006E-2,-9.268188E-4,8.1854934E-1,-4.049264E-1,4.4487548E-1,-1.7307105E-3,-5.931821E-3,5.442766E-3,-6.9392694E-4,-4.6311616E-4,7.0301937E-3,-5.5529345E-3,-3.583962E-5,6.4055193E-3,8.764481E-5,-2.1744699E-3,3.2715462E-3,-4.2348453E-3,-1.1844776E-2,-1.0521685E-2,8.9998115E-3,5.027123E-4,-9.2932634E-4,6.499408E-5,3.9008828E-3,-1.0882131E-3,2.2982545E-3,1.7539497E-3,5.756641E-3,-8.430577E-3,-1.6451895E-3,-1.7246784E-3,2.7673505E-3,6.1471935E-4,-3.622326E-3,-3.9732142E-4,6.2998747E-3,-9.3023456E-4,1.1375551E-2,-4.3228862E-4,-7.258455E-3,-2.4678158E-3,7.552623E-3,-5.9392134E-4,-1.0625038E-2,-8.349833E-3,4.6505188E-3,-2.4222722E-4,-7.6441662E-3,-3.2176443E-3,1.7347722E-3,-2.2151996E-3,5.7795444E-3,-8.317883E-4,-8.295506E-3,7.9453406E-5,8.790838E-3,9.214988E-3,2.8422158E-3,4.2617153E-3,-1.0335611E-2,-9.868903E-4,5.9640524E-3],"categories":[],"categories_nodes":[],"categories_segments":[],"categories_sizes":[],"default_left":[0,0,0,0,0,0,0,0,0,0,0,0,0,0,0,0,0,0,0,0,0,0,0,0,0,0,0,0,0,0,0,0,0,0,0,0,0,0,0,0,0,0,0,0,0,0,0,0,0,0,0,0,0,0,0,0,0,0,0,0,0,0,0,0,0,0,0,0,0,0,0,0,0,0,0,0,0,0,0,0,0,0,0,0,0,0,0,0,0,0,0,0,0,0,0,0,0,0,0,0,0,0,0,0,0,0,0,0,0,0,0,0,0,0,0,0,0,0,0,0,0],"id":7,"left_children":[1,3,5,7,9,11,13,15,17,19,21,23,25,27,29,31,33,35,37,39,41,43,45,47,49,51,53,55,57,59,61,63,65,67,69,71,73,75,77,79,81,83,85,87,89,91,93,95,97,99,101,103,105,107,-1,109,111,113,-1,-1,115,117,119,-1,-1,-1,-1,-1,-1,-1,-1,-1,-1,-1,-1,-1,-1,-1,-1,-1,-1,-1,-1,-1,-1,-1,-1,-1,-1,-1,-1,-1,-1,-1,-1,-1,-1,-1,-1,-1,-1,-1,-1,-1,-1,-1,-1,-1,-1,-1,-1,-1,-1,-1,-1,-1,-1,-1,-1,-1,-1],"loss_changes":[5.7009544E1,1.4120882E1,4.250205E1,9.070922E0,1.0160358E1,1.6655548E1,1.4944973E1,5.8157005E0,9.486953E0,9.798742E0,8.576145E0,7.3733373E0,1.1545029E1,9.405857E0,1.4246101E0,5.2390733E0,5.9360275E0,6.195265E0,9.042945E0,5.872167E0,1.1366856E1,7.084919E0,1.1438953E1,6.5820127E0,8.231951E0,4.5631866E0,3.5170865E0,6.475737E0,4.027305E0,1.6681805E0,1.7576683E0,2.3159356E0,4.159892E0,5.2325E-1,5.3148823E0,2.775447E0,5.241086E0,2.998495E0,5.6835694E0,9.003353E0,1.4639204E1,1.9327904E1,1.0933308E1,1.0297466E1,9.943241E0,6.1817656E0,8.3038E0,2.7471046E0,3.0287504E-1,3.151126E0,1.5452242E0,2.6631393E0,7.7481556E0,2.4764538E0,0E0,9.605449E0,5.058687E0,3.6911478E0,0E0,0E0,9.482813E-1,2.0078452E0,1.6238167E0,0E0,0E0,0E0,0E0,0E0,0E0,0E0,0E0,0E0,0E0,0E0,0E0,0E0,0E0,0E0,0E0,0E0,0E0,0E0,0E0,0E0,0E0,0E0,0E0,0E0,0E0,0E0,0E0,0E0,0E0,0E0,0E0,0E0,0E0,0E0,0E0,0E0,0E0,0E0,0E0,0E0,0E0,0E0,0E0,0E0,0E0,0E0,0E0,0E0,0E0,0E0,0E0,0E0,0E0,0E0,0E0,0E0,0E0],"parents":[2147483647,0,0,1,1,2,2,3,3,4,4,5,5,6,6,7,7,8,8,9,9,10,10,11,11,12,12,13,13,14,14,15,15,16,16,17,17,18,18,19,19,20,20,21,21,22,22,23,23,24,24,25,25,26,26,27,27,28,28,29,29,30,30,31,31,32,32,33,33,34,34,35,35,36,36,37,37,38,38,39,39,40,40,41,41,42,42,43,43,44,44,45,45,46,46,47,47,48,48,49,49,50,50,51,51,52,52,53,53,55,55,56,56,57,57,60,60,61,61,62,62],"right_children":[2,4,6,8,10,12,14,16,18,20,22,24,26,28,30,32,34,36,38,40,42,44,46,48,50,52,54,56,58,60,62,64,66,68,70,72,74,76,78,80,82,84,86,88,90,92,94,96,98,100,102,104,106,108,-1,110,112,114,-1,-1,116,118,120,-1,-1,-1,-1,-1,-1,-1,-1,-1,-1,-1,-1,-1,-1,-1,-1,-1,-1,-1,-1,-1,-1,-1,-1,-1,-1,-1,-1,-1,-1,-1,-1,-1,-1,-1,-1,-1,-1,-1,-1,-1,-1,-1,-1,-1,-1,-1,-1,-1,-1,-1,-1,-1,-1,-1,-1,-1,-1],"split_conditions":[1.4E2,9.2E1,2E0,3E0,1E0,1.7E1,3E0,1.23E2,1.31E2,3E0,3E0,2E0,1.34E2,1.33E2,3E0,3E0,1.5E1,8.8E1,3E0,1.42E2,1.13E2,3E0,1.32E2,1.09E2,1.44E2,3E0,1.65E2,1.01E2,2E1,8.5E1,1.41E2,3E0,2E0,1.31E2,3E0,3E0,1E0,3E0,8.4E1,1.19E2,1.19E2,1.9E1,1.45E2,1.1E1,2E0,3E0,2E0,1.4E1,2E0,1.6E1,2E0,2.4E1,2E0,1.56E2,-1.3720499E-2,1.5E2,2E0,1E0,1.3872006E-2,-9.268188E-4,1.59E2,1.9E1,2E0,-1.7307105E-3,-5.931821E-3,5.442766E-3,-6.9392694E-4,-4.6311616E-4,7.0301937E-3,-5.5529345E-3,-3.583962E-5,6.4055193E-3,8.764481E-5,-2.1744699E-3,3.2715462E-3,-4.2348453E-3,-1.1844776E-2,-1.0521685E-2,8.9998115E-3,5.027123E-4,-9.2932634E-4,6.499408E-5,3.9008828E-3,-1.0882131E-3,2.2982545E-3,1.7539497E-3,5.756641E-3,-8.430577E-3,-1.6451895E-3,-1.7246784E-3,2.7673505E-3,6.1471935E-4,-3.622326E-3,-3.9732142E-4,6.2998747E-3,-9.3023456E-4,1.1375551E-2,-4.3228862E-4,-7.258455E-3,-2.4678158E-3,7.552623E-3,-5.9392134E-4,-1.0625038E-2,-8.349833E-3,4.6505188E-3,-2.4222722E-4,-7.6441662E-3,-3.2176443E-3,1.7347722E-3,-2.2151996E-3,5.7795444E-3,-8.317883E-4,-8.295506E-3,7.9453406E-5,8.790838E-3,9.214988E-3,2.8422158E-3,4.2617153E-3,-1.0335611E-2,-9.868903E-4,5.9640524E-3],"split_indices":[0,11,6,7,19,1,6,0,0,8,10,4,11,11,14,9,1,11,17,11,0,5,11,11,0,16,0,11,1,11,0,16,4,0,6,10,3,9,11,0,0,1,11,1,9,9,16,1,2,1,2,1,14,0,0,0,17,19,0,0,0,1,10,0,0,0,0,0,0,0,0,0,0,0,0,0,0,0,0,0,0,0,0,0,0,0,0,0,0,0,0,0,0,0,0,0,0,0,0,0,0,0,0,0,0,0,0,0,0,0,0,0,0,0,0,0,0,0,0,0,0],"split_type":[0,0,0,0,0,0,0,0,0,0,0,0,0,0,0,0,0,0,0,0,0,0,0,0,0,0,0,0,0,0,0,0,0,0,0,0,0,0,0,0,0,0,0,0,0,0,0,0,0,0,0,0,0,0,0,0,0,0,0,0,0,0,0,0,0,0,0,0,0,0,0,0,0,0,0,0,0,0,0,0,0,0,0,0,0,0,0,0,0,0,0,0,0,0,0,0,0,0,0,0,0,0,0,0,0,0,0,0,0,0,0,0,0,0,0,0,0,0,0,0,0],"sum_hessian":[5.52E3,4.986E3,5.34E2,3.89E2,4.597E3,3.39E2,1.95E2,2.47E2,1.42E2,3.772E3,8.25E2,3.6E1,3.03E2,1.52E2,4.3E1,1.18E2,1.29E2,1.1E2,3.2E1,2.389E3,1.383E3,5.7E2,2.55E2,1.5E1,2.1E1,2.15E2,8.8E1,1.27E2,2.5E1,2.3E1,2E1,7.1E1,4.7E1,5E0,1.24E2,3.9E1,7.1E1,2.5E1,7E0,1.924E3,4.65E2,6.84E2,6.99E2,3.72E2,1.98E2,1.74E2,8.1E1,1.2E1,3E0,1.1E1,1E1,1.56E2,5.9E1,8.6E1,2E0,8.9E1,3.8E1,2.2E1,3E0,2E0,2.1E1,2E0,1.8E1,5.4E1,1.7E1,1.6E1,3.1E1,1E0,4E0,1.03E2,2.1E1,3E1,9E0,4.2E1,2.9E1,1.7E1,8E0,1E0,6E0,1.248E3,6.76E2,3.22E2,1.43E2,3.87E2,2.97E2,6.23E2,7.6E1,2.3E1,3.49E2,1.11E2,8.7E1,1.28E2,4.6E1,2.8E1,5.3E1,2E0,1E1,1E0,2E0,5E0,6E0,2E0,8E0,1.55E2,1E0,2.3E1,3.6E1,7.5E1,1.1E1,7.1E1,1.8E1,1.5E1,2.3E1,1.6E1,6E0,1.7E1,4E0,1E0,1E0,4E0,1.4E1],"tree_param":{"num_deleted":"0","num_feature":"25","num_nodes":"121","size_leaf_vector":"1"}},{"base_weights":[3.8640937E-4,3.556925E-2,-3.1352907E-1,-1.7119883E-1,5.2629907E-2,-5.1650316E-1,4.5507543E-2,-5.906192E-2,-4.1086656E-1,2.087557E-2,1.4502041E-1,-3.1852198E-1,-7.4392945E-1,-6.708758E-2,4.3732816E-1,-1.0499887E-1,4.3848893E-1,-1.153127E0,-2.1328972E-1,-2.7783679E-2,8.223575E-2,3.1026396E-1,-2.0754417E-2,-2.3572902E-1,-8.5883796E-1,-8.5436755E-1,-3.2752818E-1,-1.5168437E-1,5.199846E-1,-9.42783E-2,5.0613594E-1,-2.0734775E-1,5.856564E-2,1.0539584E-2,1.9547096E-1,-1.6898368E-2,-8.505266E-1,-3.503508E-1,2.6365894E-1,2.3121197E-2,-2.0906551E-1,3.30338E-2,2.9532707E-1,2.0359263E-1,4.7881007E-1,-1.3036211E-1,1.8716885E-1,-7.617508E-4,-3.97113E-1,-1.0142726E0,6.1910697E-3,-1.0643909E0,-7.033986E-1,-5.565478E-1,3.2357776E-1,-5.085168E-1,1.5182061E-2,1.2648685E-2,2.5470936E-1,-1.0283932E-2,2.9822335E-1,5.7681227E-1,-1.0396119E-3,3.2080364E-4,-3.1434123E-3,1.3293817E-3,-4.036166E-3,-2.3111172E-3,4.491626E-3,-9.534182E-3,4.4931625E-3,-1.9229611E-3,-7.476202E-3,3.991511E-3,-7.2750845E-3,2.8759749E-5,2.8859542E-3,-2.6809364E-3,1.751885E-3,-3.0006806E-4,1.5539865E-3,7.5206384E-3,2.275625E-3,3.4570757E-3,-2.022401E-3,5.4296246E-3,-3.418262E-3,3.5887322E-4,-2.2204556E-3,-9.068496E-4,4.1125393E-3,1.8055886E-3,-2.0403753E-3,-6.2272237E-3,-3.4054334E-4,-1.102442E-2,4.627266E-3,-5.1545156E-3,-1.2161864E-2,-7.4649565E-3,6.228609E-3,-6.5639215E-3,1.8165486E-3,-2.5335154E-3,7.5042252E-3,-8.4793806E-4,-7.986021E-3,3.983477E-3,-1.3497234E-3,3.0259934E-4,1.2172368E-2,-7.5438496E-4,5.7247737E-3,6.1915466E-3,-9.5338735E-4],"categories":[],"categories_nodes":[],"categories_segments":[],"categories_sizes":[],"default_left":[0,0,0,0,0,0,0,0,0,0,0,0,0,0,0,0,0,0,0,0,0,0,0,0,0,0,0,0,0,0,0,0,0,0,0,0,0,0,0,0,0,0,0,0,0,0,0,0,0,0,0,0,0,0,0,0,0,0,0,0,0,0,0,0,0,0,0,0,0,0,0,0,0,0,0,0,0,0,0,0,0,0,0,0,0,0,0,0,0,0,0,0,0,0,0,0,0,0,0,0,0,0,0,0,0,0,0,0,0,0,0,0,0,0,0],"id":8,"left_children":[1,3,5,7,9,11,13,15,17,19,21,23,25,27,29,31,33,35,37,39,41,43,45,47,49,51,53,55,57,59,61,63,65,-1,67,-1,69,71,73,75,77,79,81,83,85,87,89,91,93,95,-1,97,99,101,103,105,107,-1,109,-1,111,113,-1,-1,-1,-1,-1,-1,-1,-1,-1,-1,-1,-1,-1,-1,-1,-1,-1,-1,-1,-1,-1,-1,-1,-1,-1,-1,-1,-1,-1,-1,-1,-1,-1,-1,-1,-1,-1,-1,-1,-1,-1,-1,-1,-1,-1,-1,-1,-1,-1,-1,-1,-1,-1],"loss_changes":[6.0711388E1,1.7445929E1,4.039633E1,1.0107835E1,1.3395635E1,1.5702293E1,8.896874E0,5.942881E0,1.7352463E1,1.0153802E1,3.2001724E1,8.34181E0,7.2619705E0,7.876188E0,1.693757E0,3.9796758E0,3.084525E0,2.622963E0,6.3679986E0,1.7510593E1,1.5758947E1,1.0420261E1,1.3333753E1,6.3323298E0,6.3710403E0,3.3415146E0,5.548265E0,8.224704E0,3.6298108E0,2.506541E0,1.7847443E0,3.7502046E0,3.2160335E0,0E0,1.9435545E0,0E0,2.835762E0,4.565507E0,3.2448852E0,7.964304E0,9.482595E0,9.43883E0,8.556921E0,2.0832878E1,1.2083546E1,5.845777E0,1.2614397E1,2.580049E0,8.087831E0,3.5053291E0,0E0,3.7060966E0,4.9232826E0,2.1092806E0,2.6527135E0,5.340581E0,5.519497E0,0E0,3.419787E0,0E0,5.5557823E-1,1.0836067E0,0E0,0E0,0E0,0E0,0E0,0E0,0E0,0E0,0E0,0E0,0E0,0E0,0E0,0E0,0E0,0E0,0E0,0E0,0E0,0E0,0E0,0E0,0E0,0E0,0E0,0E0,0E0,0E0,0E0,0E0,0E0,0E0,0E0,0E0,0E0,0E0,0E0,0E0,0E0,0E0,0E0,0E0,0E0,0E0,0E0,0E0,0E0,0E0,0E0,0E0,0E0,0E0,0E0],"parents":[2147483647,0,0,1,1,2,2,3,3,4,4,5,5,6,6,7,7,8,8,9,9,10,10,11,11,12,12,13,13,14,14,15,15,16,16,17,17,18,18,19,19,20,20,21,21,22,22,23,23,24,24,25,25,26,26,27,27,28,28,29,29,30,30,31,31,32,32,34,34,36,36,37,37,38,38,39,39,40,40,41,41,42,42,43,43,44,44,45,45,46,46,47,47,48,48,49,49,51,51,52,52,53,53,54,54,55,55,56,56,58,58,60,60,61,61],"right_children":[2,4,6,8,10,12,14,16,18,20,22,24,26,28,30,32,34,36,38,40,42,44,46,48,50,52,54,56,58,60,62,64,66,-1,68,-1,70,72,74,76,78,80,82,84,86,88,90,92,94,96,-1,98,100,102,104,106,108,-1,110,-1,112,114,-1,-1,-1,-1,-1,-1,-1,-1,-1,-1,-1,-1,-1,-1,-1,-1,-1,-1,-1,-1,-1,-1,-1,-1,-1,-1,-1,-1,-1,-1,-1,-1,-1,-1,-1,-1,-1,-1,-1,-1,-1,-1,-1,-1,-1,-1,-1,-1,-1,-1,-1,-1,-1],"split_conditions":[1.4E2,9.2E1,2E0,1.3E2,1.22E2,1.47E2,3E0,2.2E1,8.5E1,1.9E1,1.8E1,2.1E1,1.37E2,1.38E2,1.41E2,3E0,1.02E2,2E0,3E0,3E0,3E0,2E0,1.31E2,2E0,1.46E2,2E0,2E1,2E0,1.43E2,2E0,1.109E3,2E0,9.1E1,1.0539584E-2,1.13E2,-1.6898368E-2,3E0,3E0,1.39E2,1E0,1.8E1,3E0,9.2E1,1.28E2,3E0,2E0,2E1,1.39E2,3E0,2.4E1,6.1910697E-3,1.9E1,2.3E1,1.59E2,2E0,9.8E1,2E0,1.2648685E-2,2E1,-1.0283932E-2,1E0,1E0,-1.0396119E-3,3.2080364E-4,-3.1434123E-3,1.3293817E-3,-4.036166E-3,-2.3111172E-3,4.491626E-3,-9.534182E-3,4.4931625E-3,-1.9229611E-3,-7.476202E-3,3.991511E-3,-7.2750845E-3,2.8759749E-5,2.8859542E-3,-2.6809364E-3,1.751885E-3,-3.0006806E-4,1.5539865E-3,7.5206384E-3,2.275625E-3,3.4570757E-3,-2.022401E-3,5.4296246E-3,-3.418262E-3,3.5887322E-4,-2.2204556E-3,-9.068496E-4,4.1125393E-3,1.8055886E-3,-2.0403753E-3,-6.2272237E-3,-3.4054334E-4,-1.102442E-2,4.627266E-3,-5.1545156E-3,-1.2161864E-2,-7.4649565E-3,6.228609E-3,-6.5639215E-3,1.8165486E-3,-2.5335154E-3,7.5042252E-3,-8.4793806E-4,-7.986021E-3,3.983477E-3,-1.3497234E-3,3.0259934E-4,1.2172368E-2,-7.5438496E-4,5.7247737E-3,6.1915466E-3,-9.5338735E-4],"split_indices":[0,11,6,0,0,0,6,1,11,1,1,1,11,11,0,7,0,9,8,6,6,6,11,2,0,13,1,2,0,2,0,10,11,0,0,0,6,9,0,21,1,15,0,11,6,15,1,11,2,1,0,1,1,0,17,11,8,0,1,0,12,20,0,0,0,0,0,0,0,0,0,0,0,0,0,0,0,0,0,0,0,0,0,0,0,0,0,0,0,0,0,0,0,0,0,0,0,0,0,0,0,0,0,0,0,0,0,0,0,0,0,0,0,0,0],"split_type":[0,0,0,0,0,0,0,0,0,0,0,0,0,0,0,0,0,0,0,0,0,0,0,0,0,0,0,0,0,0,0,0,0,0,0,0,0,0,0,0,0,0,0,0,0,0,0,0,0,0,0,0,0,0,0,0,0,0,0,0,0,0,0,0,0,0,0,0,0,0,0,0,0,0,0,0,0,0,0,0,0,0,0,0,0,0,0,0,0,0,0,0,0,0,0,0,0,0,0,0,0,0,0,0,0,0,0,0,0,0,0,0,0,0,0],"sum_hessian":[5.495E3,4.942E3,5.53E2,3.76E2,4.566E3,3.53E2,2E2,2.57E2,1.19E2,3.399E3,1.167E3,1.9E2,1.63E2,1.56E2,4.4E1,2.36E2,2.1E1,2.4E1,9.5E1,1.896E3,1.503E3,5.84E2,5.83E2,1.66E2,2.4E1,1.28E2,3.5E1,1.37E2,1.9E1,5E0,3.9E1,1.45E2,9.1E1,5E0,1.6E1,7E0,1.7E1,7.4E1,2.1E1,1.481E3,4.15E2,1.222E3,2.81E2,3.59E2,2.25E2,3.82E2,2.01E2,6.8E1,9.8E1,2.2E1,2E0,5.1E1,7.7E1,2.6E1,9E0,4.3E1,9.4E1,4E0,1.5E1,1E0,4E0,3.5E1,4E0,4.5E1,1E2,7.9E1,1.2E1,6E0,1E1,1.6E1,1E0,5.4E1,2E1,1.9E1,2E0,1.377E3,1.04E2,3.6E2,5.5E1,8.07E2,4.15E2,3.5E1,2.46E2,2.66E2,9.3E1,2.09E2,1.6E1,1.36E2,2.46E2,9E1,1.11E2,3.6E1,3.2E1,6E1,3.8E1,2.1E1,1E0,1.2E1,3.9E1,7.5E1,2E0,2.3E1,3E0,4E0,5E0,1.8E1,2.5E1,2.6E1,6.8E1,1.3E1,2E0,2E0,2E0,3.3E1,2E0],"tree_param":{"num_deleted":"0","num_feature":"25","num_nodes":"115","size_leaf_vector":"1"}},{"base_weights":[5.039171E-3,4.0332947E-2,-3.2499692E-1,-4.5246024E-2,7.900997E-2,-5.4081714E-1,5.4920003E-2,-9.9924155E-2,8.318012E-2,4.5089647E-2,1.9451635E-1,-3.4987053E-1,-7.6379347E-1,-8.962913E-3,1.1185143E0,-4.6063274E-2,-2.6233056E-1,1.8736583E-1,-1.21739484E-1,-9.324199E-2,7.343847E-2,-7.8843236E-2,3.4551126E-1,-4.555151E-1,-1.3293833E-1,-9.272374E-1,-5.497447E-1,-1.23421416E-1,3.932563E-1,1.2411736E0,-5.4039474E-4,-5.403884E-1,-2.1319684E-2,1.1541098E-1,-4.2682907E-1,-7.768967E-1,2.1898878E-1,-2.9078776E-1,2.0608938E-1,3.4543586E-1,-2.4748302E-1,-1.2484642E-1,9.8642714E-2,6.452257E-2,-3.346796E-1,3.1735297E-2,4.3144035E-1,-2.2638269E-1,-6.3487595E-1,-3.8913092E-1,5.0681837E-2,-6.280032E-1,-1.1165681E0,-6.525413E-1,1.3228881E-1,-4.774293E-1,3.7116345E-2,-2.8153664E-1,4.7381598E-1,1.462359E0,2.3762138E-1,-7.9193525E-3,1.7190672E-3,5.6733174E-4,-1.8635852E-3,-2.118659E-4,6.469772E-3,-4.4781673E-3,6.5580606E-3,9.224942E-3,-1.0682172E-2,1.2282486E-3,3.7845152E-3,-4.803963E-3,5.1174377E-4,-2.8827833E-3,4.0362254E-3,1.6726839E-3,8.400585E-3,-1.6623297E-3,-4.6681664E-3,-3.0968436E-3,-3.3884763E-4,-9.6731745E-3,1.0406694E-3,-1.0740072E-3,3.467415E-3,-1.0076849E-3,-4.8257736E-3,1.1721698E-3,-1.2306002E-2,6.1345166E-3,3.2757851E-3,4.634872E-3,-3.51017E-3,-8.034109E-3,-7.209787E-4,4.7354717E-3,-6.7161163E-3,5.2955938E-3,-2.9989644E-3,-8.405748E-3,-1.872553E-3,-1.3183743E-2,-8.458823E-3,-1.0318885E-2,-5.38581E-3,5.939482E-3,-4.4816015E-3,1.0213966E-3,-6.2515875E-3,6.7116288E-3,-1.7193998E-3,-1.0232513E-2,1.5970486E-3,5.277417E-3,-1.0300684E-3,4.1003153E-3,1.5541155E-2,4.2117834E-3,-6.474626E-4],"categories":[],"categories_nodes":[],"categories_segments":[],"categories_sizes":[],"default_left":[0,0,0,0,0,0,0,0,0,0,0,0,0,0,0,0,0,0,0,0,0,0,0,0,0,0,0,0,0,0,0,0,0,0,0,0,0,0,0,0,0,0,0,0,0,0,0,0,0,0,0,0,0,0,0,0,0,0,0,0,0,0,0,0,0,0,0,0,0,0,0,0,0,0,0,0,0,0,0,0,0,0,0,0,0,0,0,0,0,0,0,0,0,0,0,0,0,0,0,0,0,0,0,0,0,0,0,0,0,0,0,0,0,0,0,0,0,0,0,0,0],"id":9,"left_children":[1,3,5,7,9,11,13,15,17,19,21,23,25,27,29,31,33,35,37,39,41,43,45,47,49,51,53,55,57,59,-1,61,63,65,67,69,71,73,75,77,79,81,83,85,87,89,91,93,95,97,99,101,103,105,107,109,111,113,115,117,119,-1,-1,-1,-1,-1,-1,-1,-1,-1,-1,-1,-1,-1,-1,-1,-1,-1,-1,-1,-1,-1,-1,-1,-1,-1,-1,-1,-1,-1,-1,-1,-1,-1,-1,-1,-1,-1,-1,-1,-1,-1,-1,-1,-1,-1,-1,-1,-1,-1,-1,-1,-1,-1,-1,-1,-1,-1,-1,-1,-1],"loss_changes":[6.426469E1,1.6500315E1,4.373237E1,1.0906614E1,1.3441772E1,1.4208817E1,1.3191453E1,9.513784E0,9.929069E0,1.0418535E1,3.2181168E1,4.179222E0,4.947914E0,8.519421E0,1.6491423E0,1.0005979E1,1.6888636E1,9.561919E0,8.760696E0,3.0668768E1,1.1027073E1,1.0218129E1,1.3521481E1,4.9523525E0,2.936334E0,4.227707E0,4.994074E0,8.201475E0,2.3622017E0,1.8722239E0,0E0,7.123988E0,1.0071221E1,6.040392E0,4.5881424E0,5.9361E0,4.5385513E0,6.7678337E0,5.389673E0,1.0258312E1,5.892391E0,4.175985E0,1.1410265E1,8.7223215E0,3.4108648E0,1.1906063E1,7.247238E0,4.9776525E0,6.4865685E0,6.6539793E0,6.3705235E0,3.215455E0,1.7253647E0,2.0813065E0,2.945881E0,3.916727E0,1.3370544E1,1.7997947E0,1.2052679E0,1.352272E-1,1.937748E-1,0E0,0E0,0E0,0E0,0E0,0E0,0E0,0E0,0E0,0E0,0E0,0E0,0E0,0E0,0E0,0E0,0E0,0E0,0E0,0E0,0E0,0E0,0E0,0E0,0E0,0E0,0E0,0E0,0E0,0E0,0E0,0E0,0E0,0E0,0E0,0E0,0E0,0E0,0E0,0E0,0E0,0E0,0E0,0E0,0E0,0E0,0E0,0E0,0E0,0E0,0E0,0E0,0E0,0E0,0E0,0E0,0E0,0E0,0E0,0E0],"parents":[2147483647,0,0,1,1,2,2,3,3,4,4,5,5,6,6,7,7,8,8,9,9,10,10,11,11,12,12,13,13,14,14,15,15,16,16,17,17,18,18,19,19,20,20,21,21,22,22,23,23,24,24,25,25,26,26,27,27,28,28,29,29,31,31,32,32,33,33,34,34,35,35,36,36,37,37,38,38,39,39,40,40,41,41,42,42,43,43,44,44,45,45,46,46,47,47,48,48,49,49,50,50,51,51,52,52,53,53,54,54,55,55,56,56,57,57,58,58,59,59,60,60],"right_children":[2,4,6,8,10,12,14,16,18,20,22,24,26,28,30,32,34,36,38,40,42,44,46,48,50,52,54,56,58,60,-1,62,64,66,68,70,72,74,76,78,80,82,84,86,88,90,92,94,96,98,100,102,104,106,108,110,112,114,116,118,120,-1,-1,-1,-1,-1,-1,-1,-1,-1,-1,-1,-1,-1,-1,-1,-1,-1,-1,-1,-1,-1,-1,-1,-1,-1,-1,-1,-1,-1,-1,-1,-1,-1,-1,-1,-1,-1,-1,-1,-1,-1,-1,-1,-1,-1,-1,-1,-1,-1,-1,-1,-1,-1,-1,-1,-1,-1,-1,-1,-1],"split_conditions":[1.4E2,2E0,2E0,3E0,1.4E2,1.47E2,1.41E2,1.24E2,3E0,1.4E1,1.06E2,3E0,1E0,3E0,1.58E2,9.1E1,1.8E1,8.5E1,3E0,1.11E2,9.2E1,1.55E2,1.2E1,1.9E1,1.03E2,2E0,1E0,2E0,1.41E2,3E0,-5.4039474E-4,1E0,1.33E2,1.41E2,1.5E2,9.1E1,3E0,3E0,2E0,3E0,3E0,2E0,7.9E1,1.5E2,1.7E1,1E0,2E0,1.04E2,3E0,2E0,1.25E2,2E1,1.2E2,9.8E1,2E0,1.9E1,2E0,2E0,1E0,1.41E2,1.41E2,-7.9193525E-3,1.7190672E-3,5.6733174E-4,-1.8635852E-3,-2.118659E-4,6.469772E-3,-4.4781673E-3,6.5580606E-3,9.224942E-3,-1.0682172E-2,1.2282486E-3,3.7845152E-3,-4.803963E-3,5.1174377E-4,-2.8827833E-3,4.0362254E-3,1.6726839E-3,8.400585E-3,-1.6623297E-3,-4.6681664E-3,-3.0968436E-3,-3.3884763E-4,-9.6731745E-3,1.0406694E-3,-1.0740072E-3,3.467415E-3,-1.0076849E-3,-4.8257736E-3,1.1721698E-3,-1.2306002E-2,6.1345166E-3,3.2757851E-3,4.634872E-3,-3.51017E-3,-8.034109E-3,-7.209787E-4,4.7354717E-3,-6.7161163E-3,5.2955938E-3,-2.9989644E-3,-8.405748E-3,-1.872553E-3,-1.3183743E-2,-8.458823E-3,-1.0318885E-2,-5.38581E-3,5.939482E-3,-4.4816015E-3,1.0213966E-3,-6.2515875E-3,6.7116288E-3,-1.7193998E-3,-1.0232513E-2,1.5970486E-3,5.277417E-3,-1.0300684E-3,4.1003153E-3,1.5541155E-2,4.2117834E-3,-6.474626E-4],"split_indices":[0,16,6,8,11,0,11,0,13,1,0,5,12,6,0,0,1,11,5,11,11,11,1,1,11,4,20,2,0,7,0,12,11,11,11,0,15,2,15,2,6,7,0,11,1,20,4,11,4,4,11,1,11,11,8,1,8,2,20,0,0,0,0,0,0,0,0,0,0,0,0,0,0,0,0,0,0,0,0,0,0,0,0,0,0,0,0,0,0,0,0,0,0,0,0,0,0,0,0,0,0,0,0,0,0,0,0,0,0,0,0,0,0,0,0,0,0,0,0,0,0],"split_type":[0,0,0,0,0,0,0,0,0,0,0,0,0,0,0,0,0,0,0,0,0,0,0,0,0,0,0,0,0,0,0,0,0,0,0,0,0,0,0,0,0,0,0,0,0,0,0,0,0,0,0,0,0,0,0,0,0,0,0,0,0,0,0,0,0,0,0,0,0,0,0,0,0,0,0,0,0,0,0,0,0,0,0,0,0,0,0,0,0,0,0,0,0,0,0,0,0,0,0,0,0,0,0,0,0,0,0,0,0,0,0,0,0,0,0,0,0,0,0,0,0],"sum_hessian":[5.515E3,4.983E3,5.32E2,1.551E3,3.432E3,3.39E2,1.93E2,1.088E3,4.63E2,2.654E3,7.78E2,1.84E2,1.55E2,1.83E2,1E1,8.18E2,2.7E2,3.07E2,1.56E2,4.51E2,2.203E3,2.77E2,5.01E2,1.23E2,6.1E1,8.6E1,6.9E1,1.43E2,4E1,9E0,1E0,3.8E1,7.8E2,8.2E1,1.88E2,9E0,2.98E2,1.03E2,5.3E1,1.17E2,3.34E2,2.48E2,1.955E3,1.78E2,9.9E1,1.08E2,3.93E2,5.5E1,6.8E1,2.5E1,3.6E1,3.5E1,5.1E1,6E1,9E0,4.4E1,9.9E1,4E0,3.6E1,7E0,2E0,2.8E1,1E1,5.3E2,2.5E2,6.6E1,1.6E1,1.85E2,3E0,1E0,8E0,1.87E2,1.11E2,6.6E1,3.7E1,1.5E1,3.8E1,8.7E1,3E1,2.45E2,8.9E1,8.1E1,1.67E2,9E0,1.946E3,1.11E2,6.7E1,3.9E1,6E1,1.02E2,6E0,1.41E2,2.52E2,8E0,4.7E1,5.2E1,1.6E1,6E0,1.9E1,1.5E1,2.1E1,2.3E1,1.2E1,2.7E1,2.4E1,1.2E1,4.8E1,5E0,4E0,9E0,3.5E1,2.4E1,7.5E1,1E0,3E0,3.3E1,3E0,1E0,6E0,1E0,1E0],"tree_param":{"num_deleted":"0","num_feature":"25","num_nodes":"121","size_leaf_vector":"1"}},{"base_weights":[-1.1539847E-2,1.6704418E-2,-2.728709E-1,-1.6699183E-1,3.2290272E-2,-4.6141648E-1,7.157301E-2,-4.8938696E-3,-3.3162346E-1,-5.0131865E-2,6.7484714E-2,-2.824989E-1,-6.805859E-1,1.4849273E-2,1.53616555E-2,-2.8894165E-1,1.0115843E-1,5.605588E-1,-3.7392026E-1,-3.5734636E-1,-1.0820983E-3,2.2674033E-2,2.2955506E-1,-6.740623E-2,-4.8802686E-1,-8.136846E-1,-3.211781E-1,-8.85739E-2,4.225502E-1,-7.489731E-2,-7.7923816E-1,-1.7340805E-1,2.666127E-1,-6.2654814E-4,7.4757054E-3,-5.367794E-1,-1.547903E-1,-1.7742461E-1,-5.1709825E-1,3.874954E-2,-3.7259945E-1,-2.6932454E-2,1.1794554E-1,-6.2445346E-2,3.0467892E-1,5.767435E-2,-6.8077874E-1,-6.5612596E-1,-2.7913518E-2,-8.511521E-1,1.5085849E-1,-4.9011007E-1,3.7146598E-1,-1.8305744E-1,3.9934486E-1,2.3698382E-1,7.104818E-1,6.9780266E-3,-1.8632679E-3,-1.0869278E-2,-8.5267384E-4,-3.8554417E-3,3.1097909E-3,1.67069E-3,7.1033905E-3,-6.1686942E-3,1.96425E-3,-3.4444004E-3,1.8406928E-3,-2.9793417E-3,4.3695155E-3,-6.928446E-3,-1.4993604E-3,1.4355872E-3,-3.257574E-4,3.6814187E-3,-5.168256E-3,6.33276E-4,-1.0673876E-3,1.5880087E-3,-1.2449161E-3,-7.3768264E-5,-8.692972E-3,1.0631889E-3,3.974237E-3,1.5198552E-3,-7.983356E-3,-1.2926404E-2,-6.1259535E-4,-7.853187E-3,-7.403272E-4,-3.3666291E-3,5.3062676E-3,4.7555924E-3,-8.681547E-3,-4.4243038E-4,4.656323E-3,-6.092313E-3,3.4646392E-3,1.1693363E-2,-2.2235857E-3,-4.765452E-3,-5.61367E-4,-8.0541824E-4,7.47874E-3,-5.660678E-3,3.786611E-3,8.549747E-3,1.3550591E-3],"categories":[],"categories_nodes":[],"categories_segments":[],"categories_sizes":[],"default_left":[0,0,0,0,0,0,0,0,0,0,0,0,0,0,0,0,0,0,0,0,0,0,0,0,0,0,0,0,0,0,0,0,0,0,0,0,0,0,0,0,0,0,0,0,0,0,0,0,0,0,0,0,0,0,0,0,0,0,0,0,0,0,0,0,0,0,0,0,0,0,0,0,0,0,0,0,0,0,0,0,0,0,0,0,0,0,0,0,0,0,0,0,0,0,0,0,0,0,0,0,0,0,0,0,0,0,0,0,0],"id":10,"left_children":[1,3,5,7,9,11,13,15,17,19,21,23,25,27,-1,29,31,33,35,37,39,41,43,45,47,49,51,53,55,57,59,61,63,-1,-1,65,67,69,71,73,75,77,79,81,83,85,87,89,91,93,95,97,99,101,103,105,107,-1,-1,-1,-1,-1,-1,-1,-1,-1,-1,-1,-1,-1,-1,-1,-1,-1,-1,-1,-1,-1,-1,-1,-1,-1,-1,-1,-1,-1,-1,-1,-1,-1,-1,-1,-1,-1,-1,-1,-1,-1,-1,-1,-1,-1,-1,-1,-1,-1,-1,-1,-1],"loss_changes":[4.0032284E1,1.4020084E1,3.438807E1,1.0219289E1,1.3094696E1,1.3218674E1,1.5595696E1,5.87327E0,7.37953E0,2.0357561E1,2.2966024E1,8.366539E0,7.057678E0,7.7115884E0,0E0,5.503732E0,6.497037E0,1.095773E0,6.4120026E0,5.254421E0,1.7269073E1,1.1719139E1,1.5045322E1,7.251036E0,7.4841156E0,4.139847E0,5.2134776E0,6.8037453E0,1.8085527E0,3.4018784E0,3.323763E0,5.668721E0,3.8124685E0,0E0,0E0,6.2283E0,5.140307E0,6.7195835E0,6.219803E0,7.8839006E0,1.2262538E1,1.1755379E1,8.428988E0,6.2585187E0,9.9840355E0,6.4991093E0,5.9857745E0,5.2812176E0,4.834765E0,2.8265152E0,3.2766527E-1,3.6989594E0,4.524167E0,4.5549607E0,4.0743437E0,2.9449282E0,1.0472641E0,0E0,0E0,0E0,0E0,0E0,0E0,0E0,0E0,0E0,0E0,0E0,0E0,0E0,0E0,0E0,0E0,0E0,0E0,0E0,0E0,0E0,0E0,0E0,0E0,0E0,0E0,0E0,0E0,0E0,0E0,0E0,0E0,0E0,0E0,0E0,0E0,0E0,0E0,0E0,0E0,0E0,0E0,0E0,0E0,0E0,0E0,0E0,0E0,0E0,0E0,0E0,0E0],"parents":[2147483647,0,0,1,1,2,2,3,3,4,4,5,5,6,6,7,7,8,8,9,9,10,10,11,11,12,12,13,13,15,15,16,16,17,17,18,18,19,19,20,20,21,21,22,22,23,23,24,24,25,25,26,26,27,27,28,28,29,29,30,30,31,31,32,32,35,35,36,36,37,37,38,38,39,39,40,40,41,41,42,42,43,43,44,44,45,45,46,46,47,47,48,48,49,49,50,50,51,51,52,52,53,53,54,54,55,55,56,56],"right_children":[2,4,6,8,10,12,14,16,18,20,22,24,26,28,-1,30,32,34,36,38,40,42,44,46,48,50,52,54,56,58,60,62,64,-1,-1,66,68,70,72,74,76,78,80,82,84,86,88,90,92,94,96,98,100,102,104,106,108,-1,-1,-1,-1,-1,-1,-1,-1,-1,-1,-1,-1,-1,-1,-1,-1,-1,-1,-1,-1,-1,-1,-1,-1,-1,-1,-1,-1,-1,-1,-1,-1,-1,-1,-1,-1,-1,-1,-1,-1,-1,-1,-1,-1,-1,-1,-1,-1,-1,-1,-1,-1],"split_conditions":[1.4E2,9.2E1,2E0,1.23E2,1.06E2,1.47E2,1.41E2,2E0,1.5E1,1.4E1,1.4E2,1.9E1,1.32E2,3E0,1.53616555E-2,3E0,2E0,1.31E2,2E0,2E0,1.55E2,3E0,1.2E1,1.43E2,3E0,1E0,2E1,1E0,2.1E1,9.5E1,1E0,3E0,1E0,-6.2654814E-4,7.4757054E-3,2.1E1,3E0,1.03E2,3E0,1.2E2,2E0,1.17E2,1E0,1E0,2E0,1E0,2E0,3E0,1E0,8.1E1,1E0,1E0,2E0,2E0,2E0,1.41E2,3E0,6.9780266E-3,-1.8632679E-3,-1.0869278E-2,-8.5267384E-4,-3.8554417E-3,3.1097909E-3,1.67069E-3,7.1033905E-3,-6.1686942E-3,1.96425E-3,-3.4444004E-3,1.8406928E-3,-2.9793417E-3,4.3695155E-3,-6.928446E-3,-1.4993604E-3,1.4355872E-3,-3.257574E-4,3.6814187E-3,-5.168256E-3,6.33276E-4,-1.0673876E-3,1.5880087E-3,-1.2449161E-3,-7.3768264E-5,-8.692972E-3,1.0631889E-3,3.974237E-3,1.5198552E-3,-7.983356E-3,-1.2926404E-2,-6.1259535E-4,-7.853187E-3,-7.403272E-4,-3.3666291E-3,5.3062676E-3,4.7555924E-3,-8.681547E-3,-4.4243038E-4,4.656323E-3,-6.092313E-3,3.4646392E-3,1.1693363E-2,-2.2235857E-3,-4.765452E-3,-5.61367E-4,-8.0541824E-4,7.47874E-3,-5.660678E-3,3.786611E-3,8.549747E-3,1.3550591E-3],"split_indices":[0,11,6,0,0,0,11,9,1,1,11,1,11,6,0,4,13,0,6,9,11,8,1,11,16,20,1,19,1,0,19,17,19,0,0,1,14,0,4,11,6,0,19,23,16,20,8,4,3,11,3,19,2,2,2,0,7,0,0,0,0,0,0,0,0,0,0,0,0,0,0,0,0,0,0,0,0,0,0,0,0,0,0,0,0,0,0,0,0,0,0,0,0,0,0,0,0,0,0,0,0,0,0,0,0,0,0,0,0],"split_type":[0,0,0,0,0,0,0,0,0,0,0,0,0,0,0,0,0,0,0,0,0,0,0,0,0,0,0,0,0,0,0,0,0,0,0,0,0,0,0,0,0,0,0,0,0,0,0,0,0,0,0,0,0,0,0,0,0,0,0,0,0,0,0,0,0,0,0,0,0,0,0,0,0,0,0,0,0,0,0,0,0,0,0,0,0,0,0,0,0,0,0,0,0,0,0,0,0,0,0,0,0,0,0,0,0,0,0,0,0],"sum_hessian":[5.422E3,4.894E3,5.28E2,3.82E2,4.512E3,3.41E2,1.87E2,1.93E2,1.89E2,1.35E3,3.162E3,1.89E2,1.52E2,1.81E2,6E0,5.2E1,1.41E2,8E0,1.81E2,1.85E2,1.165E3,2.478E3,6.84E2,9.3E1,9.6E1,1.1E2,4.2E1,1.45E2,3.6E1,3.7E1,1.5E1,5.3E1,8.8E1,2E0,6E0,1.03E2,7.8E1,8.8E1,9.7E1,1.053E3,1.12E2,1.63E3,8.48E2,1.4E2,5.44E2,7.8E1,1.5E1,7E1,2.6E1,1.06E2,4E0,3.4E1,8E0,1.22E2,2.3E1,2.3E1,1.3E1,4E0,3.3E1,1E1,5E0,3.7E1,1.6E1,7.3E1,1.5E1,9.3E1,1E1,5E1,2.8E1,7.4E1,1.4E1,6.5E1,3.2E1,4.26E2,6.27E2,1.8E1,9.4E1,7.65E2,8.65E2,7.26E2,1.22E2,1.32E2,8E0,1.74E2,3.7E2,7.1E1,7E0,7E0,8E0,5.7E1,1.3E1,1.7E1,9E0,1E0,1.05E2,3E0,1E0,3E1,4E0,3E0,5E0,3.6E1,8.6E1,1E1,1.3E1,3E0,2E1,1E1,3E0],"tree_param":{"num_deleted":"0","num_feature":"25","num_nodes":"109","size_leaf_vector":"1"}},{"base_weights":[-2.9567434E-3,1.9831028E-2,-2.987801E-1,-1.6608356E-1,3.51238E-2,-3.5816225E-1,5.106457E-1,6.045871E-1,-2.426761E-1,1.1717582E-2,1.6708757E-1,-4.5848793E-1,-1.3214532E-1,5.918875E-1,-1.0446644E-3,1.050914E0,2.172961E-1,-3.6184838E-1,3.8838755E-2,3.7925977E-2,-1.0012743E-1,2.5834307E-2,4.7708526E-1,-2.1778803E-1,-6.0121405E-1,-2.2253816E-1,1.082078E0,-1.0427483E-3,6.5991473E-1,-4.1548514E-1,1.2900772E-2,-5.3887075E-1,5.7985836E-1,-2.8655916E-1,-5.854868E-1,-4.4405323E-1,1.7218426E-1,-1.3854443E-1,5.7155352E-2,-2.4027535E-1,-1.6182842E-2,2.1609965E-1,-1.0777588E-1,7.591173E-2,6.0713017E-1,1.640213E-2,-3.609617E-1,-8.3030945E-1,-4.509457E-1,-5.4138786E-1,-1.308852E-2,1.2572614E0,-7.210326E-4,9.4462895E-1,3.901411E-1,-5.6045423E-3,-6.2773464E-4,-1.0969253E-2,5.7084393E-3,1.0486799E-2,2.0288196E-3,-1.9134597E-3,-5.157591E-3,-1.8845558E-4,-7.3855952E-3,-8.288182E-3,2.4656109E-3,2.5307133E-3,-9.080451E-3,5.410151E-4,-2.7885048E-3,1.7185615E-4,1.3006584E-3,-4.367442E-4,-3.5843458E-3,-9.7524124E-4,1.4154799E-3,-9.25186E-3,2.5010793E-3,5.878779E-4,-2.7358588E-3,-4.659567E-3,3.7484108E-3,7.53998E-3,3.9493996E-3,-5.3977934E-3,3.7841606E-3,-5.408487E-3,2.0276331E-3,-1.0397221E-2,-5.280964E-3,-6.2230187E-3,-4.7506913E-4,-1.4388573E-3,-7.146169E-3,4.685282E-3,-3.06438E-3,1.4872883E-2,-6.145E-4,1.064617E-2,-6.763184E-4,-1.0463774E-3,5.490385E-3],"categories":[],"categories_nodes":[],"categories_segments":[],"categories_sizes":[],"default_left":[0,0,0,0,0,0,0,0,0,0,0,0,0,0,0,0,0,0,0,0,0,0,0,0,0,0,0,0,0,0,0,0,0,0,0,0,0,0,0,0,0,0,0,0,0,0,0,0,0,0,0,0,0,0,0,0,0,0,0,0,0,0,0,0,0,0,0,0,0,0,0,0,0,0,0,0,0,0,0,0,0,0,0,0,0,0,0,0,0,0,0,0,0,0,0,0,0,0,0,0,0,0,0],"id":11,"left_children":[1,3,5,7,9,11,13,15,17,19,21,23,25,27,-1,29,31,33,35,37,39,41,43,45,47,49,51,-1,53,55,-1,57,59,61,63,65,67,69,71,73,75,77,79,81,83,85,87,89,91,93,95,97,-1,99,101,-1,-1,-1,-1,-1,-1,-1,-1,-1,-1,-1,-1,-1,-1,-1,-1,-1,-1,-1,-1,-1,-1,-1,-1,-1,-1,-1,-1,-1,-1,-1,-1,-1,-1,-1,-1,-1,-1,-1,-1,-1,-1,-1,-1,-1,-1,-1,-1],"loss_changes":[3.666432E1,1.4363739E1,1.8880348E1,2.2813324E1,1.4413343E1,8.170555E0,1.411098E0,5.821685E0,1.17561245E1,1.1626316E1,3.0770771E1,8.491955E0,1.2643353E1,1.2054043E0,0E0,6.1473446E0,5.7956204E0,3.9742622E0,6.837564E0,1.0910962E1,8.854899E0,1.2327244E1,1.1431438E1,3.191258E0,5.030422E0,7.071907E0,1.7082005E0,0E0,1.3212461E0,1.1821526E-1,0E0,4.9611435E0,2.2615266E0,3.9603653E0,5.2770596E0,6.3160114E0,7.482058E0,8.5563755E0,8.443153E0,6.535267E0,6.069578E0,7.994027E0,7.8871903E0,9.083581E0,4.875431E0,7.6540437E0,6.0926647E0,3.311451E0,6.6762123E0,2.7892513E0,9.326906E0,2.2147684E0,0E0,1.2865944E0,1.0794984E0,0E0,0E0,0E0,0E0,0E0,0E0,0E0,0E0,0E0,0E0,0E0,0E0,0E0,0E0,0E0,0E0,0E0,0E0,0E0,0E0,0E0,0E0,0E0,0E0,0E0,0E0,0E0,0E0,0E0,0E0,0E0,0E0,0E0,0E0,0E0,0E0,0E0,0E0,0E0,0E0,0E0,0E0,0E0,0E0,0E0,0E0,0E0,0E0],"parents":[2147483647,0,0,1,1,2,2,3,3,4,4,5,5,6,6,7,7,8,8,9,9,10,10,11,11,12,12,13,13,15,15,16,16,17,17,18,18,19,19,20,20,21,21,22,22,23,23,24,24,25,25,26,26,28,28,29,29,31,31,32,32,33,33,34,34,35,35,36,36,37,37,38,38,39,39,40,40,41,41,42,42,43,43,44,44,45,45,46,46,47,47,48,48,49,49,50,50,51,51,53,53,54,54],"right_children":[2,4,6,8,10,12,14,16,18,20,22,24,26,28,-1,30,32,34,36,38,40,42,44,46,48,50,52,-1,54,56,-1,58,60,62,64,66,68,70,72,74,76,78,80,82,84,86,88,90,92,94,96,98,-1,100,102,-1,-1,-1,-1,-1,-1,-1,-1,-1,-1,-1,-1,-1,-1,-1,-1,-1,-1,-1,-1,-1,-1,-1,-1,-1,-1,-1,-1,-1,-1,-1,-1,-1,-1,-1,-1,-1,-1,-1,-1,-1,-1,-1,-1,-1,-1,-1,-1],"split_conditions":[1.43E2,1.2E1,3E0,1.12E2,1.42E2,2E0,1E0,1.2E2,1.56E2,1E0,1.19E2,1.47E2,1.41E2,8.1E1,-1.0446644E-3,9.6E1,2E0,3E0,2E0,9.1E1,2E0,2E0,2E0,1.8E1,2E0,2E0,3E0,-1.0427483E-3,3E0,1.13E2,1.2900772E-2,2E0,2E0,3E0,1E1,3E0,1E0,1.23E2,3E0,1.8E1,1.26E2,9.4E1,1.53E2,1.7E1,1E0,1E0,1E0,1.23E2,3E0,9.4E1,2E0,1.58E2,-7.210326E-4,1.104E3,2E0,-5.6045423E-3,-6.2773464E-4,-1.0969253E-2,5.7084393E-3,1.0486799E-2,2.0288196E-3,-1.9134597E-3,-5.157591E-3,-1.8845558E-4,-7.3855952E-3,-8.288182E-3,2.4656109E-3,2.5307133E-3,-9.080451E-3,5.410151E-4,-2.7885048E-3,1.7185615E-4,1.3006584E-3,-4.367442E-4,-3.5843458E-3,-9.7524124E-4,1.4154799E-3,-9.25186E-3,2.5010793E-3,5.878779E-4,-2.7358588E-3,-4.659567E-3,3.7484108E-3,7.53998E-3,3.9493996E-3,-5.3977934E-3,3.7841606E-3,-5.408487E-3,2.0276331E-3,-1.0397221E-2,-5.280964E-3,-6.2230187E-3,-4.7506913E-4,-1.4388573E-3,-7.146169E-3,4.685282E-3,-3.06438E-3,1.4872883E-2,-6.145E-4,1.064617E-2,-6.763184E-4,-1.0463774E-3,5.490385E-3],"split_indices":[0,1,6,11,11,6,20,0,11,19,0,0,11,11,0,11,4,10,13,11,6,6,6,1,13,2,7,0,14,0,0,2,9,17,1,14,20,0,8,1,11,0,11,1,3,3,19,11,7,11,8,0,0,0,10,0,0,0,0,0,0,0,0,0,0,0,0,0,0,0,0,0,0,0,0,0,0,0,0,0,0,0,0,0,0,0,0,0,0,0,0,0,0,0,0,0,0,0,0,0,0,0,0],"split_type":[0,0,0,0,0,0,0,0,0,0,0,0,0,0,0,0,0,0,0,0,0,0,0,0,0,0,0,0,0,0,0,0,0,0,0,0,0,0,0,0,0,0,0,0,0,0,0,0,0,0,0,0,0,0,0,0,0,0,0,0,0,0,0,0,0,0,0,0,0,0,0,0,0,0,0,0,0,0,0,0,0,0,0,0,0,0,0,0,0,0,0,0,0,0,0,0,0,0,0,0,0,0,0],"sum_hessian":[5.437E3,5.049E3,3.88E2,3.83E2,4.666E3,3.62E2,2.6E1,3.4E1,3.49E2,3.964E3,7.02E2,2.5E2,1.12E2,2.3E1,3E0,1.5E1,1.9E1,2.45E2,1.04E2,3.212E3,7.52E2,4.83E2,2.19E2,9.4E1,1.56E2,1.05E2,7E0,2E0,2.1E1,2E0,1.3E1,6E0,1.3E1,1.85E2,6E1,2.2E1,8.2E1,3.15E2,2.897E3,2.81E2,4.71E2,1.99E2,2.84E2,5.4E1,1.65E2,3.6E1,5.8E1,6E1,9.6E1,4.1E1,6.4E1,6E0,1E0,9E0,1.2E1,1E0,1E0,4E0,2E0,5E0,8E0,1.32E2,5.3E1,1.3E1,4.7E1,1.4E1,8E0,7.7E1,5E0,1.33E2,1.82E2,1.872E3,1.025E3,1.06E2,1.75E2,3.11E2,1.6E2,5E0,1.94E2,1.42E2,1.42E2,1.9E1,3.5E1,9.6E1,6.9E1,1.4E1,2.2E1,4.4E1,1.4E1,3.4E1,2.6E1,6.7E1,2.9E1,1.3E1,2.8E1,2.4E1,4E1,5E0,1E0,8E0,1E0,3E0,9E0],"tree_param":{"num_deleted":"0","num_feature":"25","num_nodes":"103","size_leaf_vector":"1"}},{"base_weights":[9.073617E-3,2.9687438E-2,-2.6153272E-1,-4.047341E-2,6.1370324E-2,-4.5843062E-1,1.06678315E-1,-9.673804E-2,8.925401E-2,2.9303987E-2,1.7370896E-1,-1.8087098E-1,-6.2985635E-1,4.4639956E-2,1.2435795E0,-5.400044E-2,-2.9366434E-1,-1.0520062E-2,2.7979553E-1,-2.8725424E-1,4.0821545E-2,1.1353125E-2,4.2062125E-1,2.2977814E-1,-3.0986708E-1,-7.262937E-1,-4.044464E-1,-1.0049254E-1,4.7428674E-1,-7.174277E-4,1.4747569E-2,-1.644568E-1,-9.326224E-3,1.1125215E-1,-4.2127982E-1,1.0059817E-1,-2.2850426E-1,5.763871E-1,1.4205378E-1,-8.130807E-2,-6.2823933E-1,-4.253456E-2,7.922125E-2,1.2214826E-1,-1.7504866E-1,1.6119313E-1,5.4581857E-1,-7.885334E-1,4.1280043E-1,-3.5538577E-2,-5.023363E-1,-1.0100391E0,-6.4196306E-1,-7.981212E-1,-1.7036536E-1,2.4885313E-1,-2.8168115E-1,5.585293E-1,-1.0917754E-3,7.7952906E-3,-1.9725764E-3,-6.952307E-4,1.1773661E-3,3.8323519E-3,-3.2405008E-3,-5.5113756E-3,-1.732169E-3,-1.0499121E-2,1.3958333E-3,-7.1210894E-3,1.6471777E-4,6.6033024E-3,-1.0147934E-2,-1.0607316E-3,3.1146423E-3,1.4459683E-3,-5.1848865E-3,-8.712351E-3,3.2272987E-5,-9.522591E-4,1.9573057E-3,1.2003758E-3,-9.262389E-4,-3.610404E-5,3.92434E-3,1.1716998E-4,-4.209471E-3,3.3089548E-4,5.76151E-3,7.338963E-3,2.8609778E-3,-1.0388252E-2,-1.8828869E-4,6.003461E-3,-5.343552E-3,1.3971953E-3,-4.989448E-3,-6.2072235E-3,5.452193E-3,-1.5027778E-2,-5.8593717E-3,-7.4262414E-3,-2.7265018E-3,-9.516628E-3,2.8680824E-3,-4.4694175E-3,1.3414487E-3,-2.9246162E-3,8.761111E-3,-5.829158E-3,2.236109E-3,6.1055124E-3,-9.584435E-4],"categories":[],"categories_nodes":[],"categories_segments":[],"categories_sizes":[],"default_left":[0,0,0,0,0,0,0,0,0,0,0,0,0,0,0,0,0,0,0,0,0,0,0,0,0,0,0,0,0,0,0,0,0,0,0,0,0,0,0,0,0,0,0,0,0,0,0,0,0,0,0,0,0,0,0,0,0,0,0,0,0,0,0,0,0,0,0,0,0,0,0,0,0,0,0,0,0,0,0,0,0,0,0,0,0,0,0,0,0,0,0,0,0,0,0,0,0,0,0,0,0,0,0,0,0,0,0,0,0,0,0,0,0],"id":12,"left_children":[1,3,5,7,9,11,13,15,17,19,21,23,25,27,29,31,33,35,37,39,41,43,45,47,49,51,53,55,57,-1,-1,59,61,63,65,67,69,71,73,75,77,79,81,83,85,87,89,91,93,95,97,99,101,103,105,107,109,111,-1,-1,-1,-1,-1,-1,-1,-1,-1,-1,-1,-1,-1,-1,-1,-1,-1,-1,-1,-1,-1,-1,-1,-1,-1,-1,-1,-1,-1,-1,-1,-1,-1,-1,-1,-1,-1,-1,-1,-1,-1,-1,-1,-1,-1,-1,-1,-1,-1,-1,-1,-1,-1,-1,-1],"loss_changes":[3.0576466E1,1.1323705E1,2.81789E1,1.1577653E1,1.2635341E1,1.1924038E1,9.536768E0,9.292411E0,9.128272E0,9.968893E0,3.1223503E1,5.26247E0,3.0973701E0,8.153904E0,2.234313E0,4.488908E0,1.022657E1,7.677145E0,6.6588755E0,6.6904774E0,8.440809E0,9.748667E0,9.94825E0,4.7984757E0,3.942133E0,1.9358635E0,4.379466E0,6.273248E0,1.6830125E0,0E0,0E0,8.266217E0,4.9722447E0,5.807139E0,4.7364693E0,9.565644E0,1.2688188E1,7.6156654E0,4.8250623E0,6.099407E0,5.5267887E0,1.0463993E1,1.267155E1,1.0062687E1,8.0878E0,5.4030104E0,9.950356E0,7.510431E-1,4.0511327E0,2.6686144E0,5.7951326E0,3.9258118E0,2.9946136E0,3.2714195E0,2.7550058E0,1.1800725E1,1.0024092E1,1.0457296E0,0E0,0E0,0E0,0E0,0E0,0E0,0E0,0E0,0E0,0E0,0E0,0E0,0E0,0E0,0E0,0E0,0E0,0E0,0E0,0E0,0E0,0E0,0E0,0E0,0E0,0E0,0E0,0E0,0E0,0E0,0E0,0E0,0E0,0E0,0E0,0E0,0E0,0E0,0E0,0E0,0E0,0E0,0E0,0E0,0E0,0E0,0E0,0E0,0E0,0E0,0E0,0E0,0E0,0E0,0E0],"parents":[2147483647,0,0,1,1,2,2,3,3,4,4,5,5,6,6,7,7,8,8,9,9,10,10,11,11,12,12,13,13,14,14,15,15,16,16,17,17,18,18,19,19,20,20,21,21,22,22,23,23,24,24,25,25,26,26,27,27,28,28,31,31,32,32,33,33,34,34,35,35,36,36,37,37,38,38,39,39,40,40,41,41,42,42,43,43,44,44,45,45,46,46,47,47,48,48,49,49,50,50,51,51,52,52,53,53,54,54,55,55,56,56,57,57],"right_children":[2,4,6,8,10,12,14,16,18,20,22,24,26,28,30,32,34,36,38,40,42,44,46,48,50,52,54,56,58,-1,-1,60,62,64,66,68,70,72,74,76,78,80,82,84,86,88,90,92,94,96,98,100,102,104,106,108,110,112,-1,-1,-1,-1,-1,-1,-1,-1,-1,-1,-1,-1,-1,-1,-1,-1,-1,-1,-1,-1,-1,-1,-1,-1,-1,-1,-1,-1,-1,-1,-1,-1,-1,-1,-1,-1,-1,-1,-1,-1,-1,-1,-1,-1,-1,-1,-1,-1,-1,-1,-1,-1,-1,-1,-1],"split_conditions":[1.43E2,2E0,2E0,3E0,1.4E2,1.47E2,1.41E2,1.3E2,3E0,8.7E1,1.13E2,1.7E1,3E0,3E0,2E0,1.04E2,1.8E1,3E0,1.11E2,1.3E2,2E0,1.55E2,2E0,1.4E1,2E0,9.5E1,2E0,9.2E1,1.109E3,-7.174277E-4,1.4747569E-2,9.1E1,3E0,3E0,1.38E2,8.5E1,1.8E1,1.36E2,2E0,1E0,1.4E2,1E0,3E0,3E0,2E0,1E0,3E0,1.45E2,1.46E2,1.36E2,1.47E2,2E0,1E0,1.37E2,1E0,1.49E2,1.28E2,1E0,-1.0917754E-3,7.7952906E-3,-1.9725764E-3,-6.952307E-4,1.1773661E-3,3.8323519E-3,-3.2405008E-3,-5.5113756E-3,-1.732169E-3,-1.0499121E-2,1.3958333E-3,-7.1210894E-3,1.6471777E-4,6.6033024E-3,-1.0147934E-2,-1.0607316E-3,3.1146423E-3,1.4459683E-3,-5.1848865E-3,-8.712351E-3,3.2272987E-5,-9.522591E-4,1.9573057E-3,1.2003758E-3,-9.262389E-4,-3.610404E-5,3.92434E-3,1.1716998E-4,-4.209471E-3,3.3089548E-4,5.76151E-3,7.338963E-3,2.8609778E-3,-1.0388252E-2,-1.8828869E-4,6.003461E-3,-5.343552E-3,1.3971953E-3,-4.989448E-3,-6.2072235E-3,5.452193E-3,-1.5027778E-2,-5.8593717E-3,-7.4262414E-3,-2.7265018E-3,-9.516628E-3,2.8680824E-3,-4.4694175E-3,1.3414487E-3,-2.9246162E-3,8.761111E-3,-5.829158E-3,2.236109E-3,6.1055124E-3,-9.584435E-4],"split_indices":[0,16,6,8,11,0,11,0,2,11,0,1,7,6,2,0,1,13,11,0,5,11,13,1,2,11,13,11,0,0,0,11,13,9,0,11,1,0,6,12,0,24,6,15,6,24,16,0,0,11,11,16,19,11,12,0,11,20,0,0,0,0,0,0,0,0,0,0,0,0,0,0,0,0,0,0,0,0,0,0,0,0,0,0,0,0,0,0,0,0,0,0,0,0,0,0,0,0,0,0,0,0,0,0,0,0,0,0,0,0,0,0,0],"split_type":[0,0,0,0,0,0,0,0,0,0,0,0,0,0,0,0,0,0,0,0,0,0,0,0,0,0,0,0,0,0,0,0,0,0,0,0,0,0,0,0,0,0,0,0,0,0,0,0,0,0,0,0,0,0,0,0,0,0,0,0,0,0,0,0,0,0,0,0,0,0,0,0,0,0,0,0,0,0,0,0,0,0,0,0,0,0,0,0,0,0,0,0,0,0,0,0,0,0,0,0,0,0,0,0,0,0,0,0,0,0,0,0,0],"sum_hessian":[5.479E3,5.092E3,3.87E2,1.584E3,3.508E3,2.52E2,1.35E2,1.105E3,4.79E2,2.73E3,7.78E2,9.7E1,1.55E2,1.29E2,6E0,9.09E2,1.96E2,3.15E2,1.64E2,9.5E1,2.635E3,4.7E2,3.08E2,2.3E1,7.4E1,1.07E2,4.8E1,9.7E1,3.2E1,1E0,5E0,2.61E2,6.48E2,4.7E1,1.49E2,2.09E2,1.06E2,5.1E1,1.13E2,6E1,3.5E1,8.31E2,1.804E3,2.95E2,1.75E2,1.01E2,2.07E2,3E0,2E1,3.1E1,4.3E1,2.2E1,8.5E1,1.7E1,3.1E1,3.3E1,6.4E1,2.8E1,4E0,8E0,2.53E2,4.4E2,2.08E2,2.9E1,1.8E1,9.7E1,5.2E1,6E0,2.03E2,3.5E1,7.1E1,4.9E1,2E0,4.6E1,6.7E1,4E1,2E1,2.5E1,1E1,6.81E2,1.5E2,1.458E3,3.46E2,2.02E2,9.3E1,1E2,7.5E1,7.8E1,2.3E1,1.19E2,8.8E1,2E0,1E0,1.7E1,3E0,2.3E1,8E0,3.9E1,4E0,9E0,1.3E1,6.6E1,1.9E1,1.5E1,2E0,1.6E1,1.5E1,1.8E1,1.5E1,4E1,2.4E1,2.6E1,2E0],"tree_param":{"num_deleted":"0","num_feature":"25","num_nodes":"113","size_leaf_vector":"1"}},{"base_weights":[-7.979355E-3,1.9031828E-2,-2.6367003E-1,4.5057952E-2,-9.760455E-2,-4.6290305E-1,7.3118605E-2,3.0059922E-3,1.2070307E-1,-1.1703461E0,-8.5549966E-2,-3.1016633E-1,-6.333467E-1,-5.905836E-2,6.242507E-1,-2.633568E-2,1.3789585E-1,6.60065E-1,1.0885995E-1,-1.3149799E-2,-3.945408E-1,-1.3534783E-1,9.233661E-2,-2.539116E-1,-8.568441E-1,-7.34777E-1,-3.4295624E-1,-1.05542615E-1,1.1438806E0,7.1361905E-1,-1.0830417E-3,4.136329E-2,-1.3659394E-1,1.6811145E-2,4.0937883E-1,8.4398454E-1,1.1670775E-1,-5.1986672E-2,1.5809219E-1,-4.5823335E-4,-5.459878E-3,8.7406754E-2,-1.7511192E-1,3.402452E-1,-1.5153717E-1,-1.6623008E-1,-7.242499E-1,-2.7423653E-1,-1.40517205E-2,4.7274837E-3,-7.496466E-1,-4.397876E-1,6.8688846E-1,-4.506507E-1,3.2207817E-2,1.4012103E-2,-7.138407E-4,4.4350824E-1,8.805212E-1,1.3560347E-3,-4.8515713E-4,9.02958E-4,-2.2781603E-3,-8.580098E-4,2.1448848E-3,-2.4580762E-3,4.762737E-3,4.413598E-4,1.1236878E-2,-2.9434632E-3,5.044203E-3,2.2480555E-3,-3.017479E-3,8.9775247E-4,3.5421427E-3,-4.430646E-3,2.5453903E-3,-2.758352E-3,-1.0450872E-3,9.188456E-4,8.4961755E-3,2.711088E-3,-3.1966488E-3,-3.0754814E-3,1.9676266E-3,-8.673374E-3,6.141708E-3,-7.037633E-3,4.3861275E-3,-7.950447E-3,-3.0129277E-3,-8.71656E-3,-1.6307503E-3,-2.9021382E-4,9.351988E-3,-7.605589E-4,-7.0706033E-3,4.4664145E-3,-1.2680021E-3,6.5279463E-3,-1.0562357E-3,-8.294546E-4,9.355955E-3],"categories":[],"categories_nodes":[],"categories_segments":[],"categories_sizes":[],"default_left":[0,0,0,0,0,0,0,0,0,0,0,0,0,0,0,0,0,0,0,0,0,0,0,0,0,0,0,0,0,0,0,0,0,0,0,0,0,0,0,0,0,0,0,0,0,0,0,0,0,0,0,0,0,0,0,0,0,0,0,0,0,0,0,0,0,0,0,0,0,0,0,0,0,0,0,0,0,0,0,0,0,0,0,0,0,0,0,0,0,0,0,0,0,0,0,0,0,0,0,0,0,0,0],"id":13,"left_children":[1,3,5,7,9,11,13,15,17,19,21,23,25,27,29,31,33,35,37,-1,39,41,43,45,47,49,51,53,55,57,-1,59,61,63,65,67,69,71,73,-1,-1,75,77,79,81,83,85,87,-1,-1,89,91,93,95,97,-1,-1,99,101,-1,-1,-1,-1,-1,-1,-1,-1,-1,-1,-1,-1,-1,-1,-1,-1,-1,-1,-1,-1,-1,-1,-1,-1,-1,-1,-1,-1,-1,-1,-1,-1,-1,-1,-1,-1,-1,-1,-1,-1,-1,-1,-1,-1],"loss_changes":[3.794937E1,1.5091293E1,3.5261044E1,1.2927324E1,1.1628711E1,8.394447E0,1.4314873E1,1.034561E1,9.203127E0,6.0326385E-1,7.967315E0,5.1950035E0,4.313431E0,9.011645E0,2.5650415E0,1.6031652E1,1.5344546E1,2.9994574E0,1.126881E1,0E0,1.3341776E-1,6.233363E0,1.1961864E1,6.519244E0,4.7260113E0,2.4013252E0,4.490378E0,7.3354874E0,1.976366E0,1.142273E0,0E0,1.1280434E1,1.6930315E1,6.590449E0,6.4283943E0,5.09597E0,1.5828116E0,2.3157913E1,1.4559128E1,0E0,0E0,9.59928E0,4.2095604E0,1.2319722E1,7.1925144E0,7.0882607E0,5.3204746E0,3.0643702E0,0E0,0E0,2.060501E0,4.518489E0,7.382121E-1,4.172411E0,7.3713427E0,0E0,0E0,1.7928386E0,1.1388483E0,0E0,0E0,0E0,0E0,0E0,0E0,0E0,0E0,0E0,0E0,0E0,0E0,0E0,0E0,0E0,0E0,0E0,0E0,0E0,0E0,0E0,0E0,0E0,0E0,0E0,0E0,0E0,0E0,0E0,0E0,0E0,0E0,0E0,0E0,0E0,0E0,0E0,0E0,0E0,0E0,0E0,0E0,0E0,0E0],"parents":[2147483647,0,0,1,1,2,2,3,3,4,4,5,5,6,6,7,7,8,8,9,9,10,10,11,11,12,12,13,13,14,14,15,15,16,16,17,17,18,18,20,20,21,21,22,22,23,23,24,24,25,25,26,26,27,27,28,28,29,29,31,31,32,32,33,33,34,34,35,35,36,36,37,37,38,38,41,41,42,42,43,43,44,44,45,45,46,46,47,47,50,50,51,51,52,52,53,53,54,54,57,57,58,58],"right_children":[2,4,6,8,10,12,14,16,18,20,22,24,26,28,30,32,34,36,38,-1,40,42,44,46,48,50,52,54,56,58,-1,60,62,64,66,68,70,72,74,-1,-1,76,78,80,82,84,86,88,-1,-1,90,92,94,96,98,-1,-1,100,102,-1,-1,-1,-1,-1,-1,-1,-1,-1,-1,-1,-1,-1,-1,-1,-1,-1,-1,-1,-1,-1,-1,-1,-1,-1,-1,-1,-1,-1,-1,-1,-1,-1,-1,-1,-1,-1,-1,-1,-1,-1,-1,-1,-1],"split_conditions":[1.4E2,1E0,2E0,3E0,8.3E1,1.47E2,3E0,1.42E2,8.9E1,1E0,1.39E2,1.42E2,3E0,1.41E2,1.109E3,1.19E2,1.19E2,1.26E2,1.05E2,-1.3149799E-2,8.1E1,1.02E2,1E0,2.1E1,3E0,8.1E1,1E0,2E0,1.52E2,2E0,-1.0830417E-3,1.2E2,1.7E1,1E0,1.3E1,1.08E2,2E0,1.33E2,1.36E2,-4.5823335E-4,-5.459878E-3,1.8E1,2E0,1.9E1,2E0,3E0,1.46E2,1.9E1,-1.40517205E-2,4.7274837E-3,1.41E2,1.2E2,1.8E1,9.4E1,2E0,1.4012103E-2,-7.138407E-4,1.22E2,8.1E1,1.3560347E-3,-4.8515713E-4,9.02958E-4,-2.2781603E-3,-8.580098E-4,2.1448848E-3,-2.4580762E-3,4.762737E-3,4.413598E-4,1.1236878E-2,-2.9434632E-3,5.044203E-3,2.2480555E-3,-3.017479E-3,8.9775247E-4,3.5421427E-3,-4.430646E-3,2.5453903E-3,-2.758352E-3,-1.0450872E-3,9.188456E-4,8.4961755E-3,2.711088E-3,-3.1966488E-3,-3.0754814E-3,1.9676266E-3,-8.673374E-3,6.141708E-3,-7.037633E-3,4.3861275E-3,-7.950447E-3,-3.0129277E-3,-8.71656E-3,-1.6307503E-3,-2.9021382E-4,9.351988E-3,-7.605589E-4,-7.0706033E-3,4.4664145E-3,-1.2680021E-3,6.5279463E-3,-1.0562357E-3,-8.294546E-4,9.355955E-3],"split_indices":[0,19,6,8,0,0,6,11,0,3,11,11,15,11,0,0,0,11,0,0,0,0,3,1,10,11,20,2,0,13,0,11,1,18,1,11,9,11,11,0,0,1,9,1,14,13,0,1,0,0,11,11,1,11,8,0,0,11,11,0,0,0,0,0,0,0,0,0,0,0,0,0,0,0,0,0,0,0,0,0,0,0,0,0,0,0,0,0,0,0,0,0,0,0,0,0,0,0,0,0,0,0,0],"split_type":[0,0,0,0,0,0,0,0,0,0,0,0,0,0,0,0,0,0,0,0,0,0,0,0,0,0,0,0,0,0,0,0,0,0,0,0,0,0,0,0,0,0,0,0,0,0,0,0,0,0,0,0,0,0,0,0,0,0,0,0,0,0,0,0,0,0,0,0,0,0,0,0,0,0,0,0,0,0,0,0,0,0,0,0,0,0,0,0,0,0,0,0,0,0,0,0,0,0,0,0,0,0,0],"sum_hessian":[5.493E3,4.969E3,5.24E2,4.063E3,9.06E2,3.29E2,1.95E2,2.612E3,1.451E3,9E0,8.97E2,1.75E2,1.54E2,1.58E2,3.7E1,2.146E3,4.66E2,3E1,1.421E3,7E0,2E0,7.01E2,1.96E2,1.6E2,1.5E1,1.13E2,4.1E1,1.53E2,5E0,3.3E1,4E0,1.33E3,8.16E2,3.23E2,1.43E2,2.2E1,8E0,3.33E2,1.088E3,1E0,1E0,1.06E2,5.95E2,9.7E1,9.9E1,1.36E2,2.4E1,8E0,7E0,1E0,1.12E2,3.8E1,3E0,4.3E1,1.1E2,4E0,1E0,1.4E1,1.9E1,6.49E2,6.81E2,2.34E2,5.82E2,2.13E2,1.1E2,1.3E1,1.3E2,6E0,1.6E1,4E0,4E0,1.58E2,1.75E2,8.08E2,2.8E2,2.5E1,8.1E1,2.44E2,3.51E2,6.6E1,3.1E1,2.8E1,7.1E1,9.8E1,3.8E1,2.2E1,2E0,5E0,3E0,1.01E2,1.1E1,1.4E1,2.4E1,1E0,2E0,1.8E1,2.5E1,3E1,8E1,1E1,4E0,1E0,1.8E1],"tree_param":{"num_deleted":"0","num_feature":"25","num_nodes":"103","size_leaf_vector":"1"}},{"base_weights":[-3.6746974E-3,1.9796982E-2,-3.0249158E-1,-2.3735907E-2,1.0447184E-1,-3.6794016E-1,5.2133554E-1,-1.1508981E-1,2.150729E-2,2.4080423E-4,1.960822E-1,-4.7136146E-1,-1.1958214E-1,-1.1373191E-3,5.9611094E-1,4.790981E-2,-1.6717558E-1,-9.519682E-3,1.7185636E-1,-2.2314575E-1,1.0727131E-1,1.2918283E-1,4.3338352E-1,-2.1959893E-1,-6.294992E-1,-4.3305635E-1,7.750444E-2,6.559729E-1,-1.0144273E-3,4.6545637E-1,-1.1049374E-1,-2.2277835E-1,1.5068258E-1,5.6170654E-2,-1.2675403E-1,3.9822858E-2,4.6529904E-1,-4.0015098E-1,-1.3843333E-2,-1.0721977E0,1.2003604E-1,-5.008852E-1,1.4967126E-1,6.33435E-2,4.9222794E-1,-4.61164E-1,1.699385E-2,-7.238484E-1,-2.937385E-1,6.4701915E-1,-5.302375E-1,4.9587652E-1,-2.0325561E-1,6.907212E-1,-8.899319E-4,-6.612488E-3,5.7301405E-3,1.3939476E-4,-6.347899E-3,-1.5675697E-3,-4.071607E-3,-3.3449783E-4,4.5443065E-3,6.63E-4,-5.7853693E-3,-3.830333E-3,-4.425589E-4,9.871724E-4,-5.3657917E-3,7.711701E-4,5.8260313E-3,-3.2519095E-3,-8.722484E-3,5.955955E-4,-6.3387975E-3,-1.26777245E-2,-4.7162056E-4,-1.290046E-2,1.3020232E-3,-6.6261995E-3,4.330099E-3,4.980172E-4,2.3390367E-3,-1.9865166E-3,6.676274E-3,6.234669E-3,2.8646286E-3,-1.750242E-3,-7.2956667E-3,2.4713525E-3,-5.825067E-3,4.703846E-3,-7.372727E-3,-4.912937E-3,3.7546596E-3,8.910811E-3,-4.2583345E-4,-7.2300195E-4,-7.4804807E-3,-1.1654877E-3,7.0556817E-3,-4.6946267E-3,3.0721463E-3,8.981863E-3,4.4608256E-3],"categories":[],"categories_nodes":[],"categories_segments":[],"categories_sizes":[],"default_left":[0,0,0,0,0,0,0,0,0,0,0,0,0,0,0,0,0,0,0,0,0,0,0,0,0,0,0,0,0,0,0,0,0,0,0,0,0,0,0,0,0,0,0,0,0,0,0,0,0,0,0,0,0,0,0,0,0,0,0,0,0,0,0,0,0,0,0,0,0,0,0,0,0,0,0,0,0,0,0,0,0,0,0,0,0,0,0,0,0,0,0,0,0,0,0,0,0,0,0,0,0,0,0,0,0],"id":14,"left_children":[1,3,5,7,9,11,13,15,17,19,21,23,25,-1,27,29,31,33,35,37,39,41,43,45,47,49,51,53,-1,55,57,59,61,63,65,67,69,71,73,75,77,79,81,83,85,87,89,91,93,95,97,99,101,103,-1,-1,-1,-1,-1,-1,-1,-1,-1,-1,-1,-1,-1,-1,-1,-1,-1,-1,-1,-1,-1,-1,-1,-1,-1,-1,-1,-1,-1,-1,-1,-1,-1,-1,-1,-1,-1,-1,-1,-1,-1,-1,-1,-1,-1,-1,-1,-1,-1,-1,-1],"loss_changes":[3.8714787E1,1.886815E1,2.1866982E1,1.397663E1,1.6595495E1,9.52433E0,1.4924192E0,9.516762E0,1.0553586E1,1.9486006E1,1.4628674E1,1.0332623E1,6.891318E0,0E0,1.1939821E0,1.8041742E1,1.5038626E1,1.4454504E1,1.49755E1,9.775033E0,8.42434E0,9.408247E0,4.389103E0,5.8945494E0,4.8876534E0,4.8564816E0,8.205678E0,7.0862675E-1,0E0,9.46784E0,1.2926339E1,8.737381E0,7.118292E0,7.7726507E0,1.4233136E1,9.150723E0,5.4193153E0,4.7768993E0,5.5902743E0,1.1430354E0,7.9950376E0,3.7609172E0,5.8853397E0,4.7238903E0,4.5471687E0,3.7891445E0,7.4563627E0,2.350769E0,5.076042E0,7.1116793E-1,3.9356585E0,3.6780071E0,5.851639E0,8.174305E-1,0E0,0E0,0E0,0E0,0E0,0E0,0E0,0E0,0E0,0E0,0E0,0E0,0E0,0E0,0E0,0E0,0E0,0E0,0E0,0E0,0E0,0E0,0E0,0E0,0E0,0E0,0E0,0E0,0E0,0E0,0E0,0E0,0E0,0E0,0E0,0E0,0E0,0E0,0E0,0E0,0E0,0E0,0E0,0E0,0E0,0E0,0E0,0E0,0E0,0E0,0E0],"parents":[2147483647,0,0,1,1,2,2,3,3,4,4,5,5,6,6,7,7,8,8,9,9,10,10,11,11,12,12,14,14,15,15,16,16,17,17,18,18,19,19,20,20,21,21,22,22,23,23,24,24,25,25,26,26,27,27,29,29,30,30,31,31,32,32,33,33,34,34,35,35,36,36,37,37,38,38,39,39,40,40,41,41,42,42,43,43,44,44,45,45,46,46,47,47,48,48,49,49,50,50,51,51,52,52,53,53],"right_children":[2,4,6,8,10,12,14,16,18,20,22,24,26,-1,28,30,32,34,36,38,40,42,44,46,48,50,52,54,-1,56,58,60,62,64,66,68,70,72,74,76,78,80,82,84,86,88,90,92,94,96,98,100,102,104,-1,-1,-1,-1,-1,-1,-1,-1,-1,-1,-1,-1,-1,-1,-1,-1,-1,-1,-1,-1,-1,-1,-1,-1,-1,-1,-1,-1,-1,-1,-1,-1,-1,-1,-1,-1,-1,-1,-1,-1,-1,-1,-1,-1,-1,-1,-1,-1,-1,-1,-1],"split_conditions":[1.43E2,3E0,3E0,2E0,1.13E2,2E0,8.4E1,1.6E1,1.42E2,1.6E1,1.36E2,1.47E2,2E0,-1.1373191E-3,1E0,1.19E2,3E0,1.19E2,1.19E2,1.37E2,8.3E1,8.5E1,1.3E1,1E0,1.36E2,1.8E1,2E0,1E0,-1.0144273E-3,1.09E2,3E0,3E0,3E0,1.41E2,1.22E2,1E0,2E0,1E0,1E0,1.06E2,7.9E1,1E0,2E0,3E0,1.26E2,1.19E2,3E0,8.1E1,2E1,1.49E2,9.4E1,1.46E2,1.54E2,3E0,-8.899319E-4,-6.612488E-3,5.7301405E-3,1.3939476E-4,-6.347899E-3,-1.5675697E-3,-4.071607E-3,-3.3449783E-4,4.5443065E-3,6.63E-4,-5.7853693E-3,-3.830333E-3,-4.425589E-4,9.871724E-4,-5.3657917E-3,7.711701E-4,5.8260313E-3,-3.2519095E-3,-8.722484E-3,5.955955E-4,-6.3387975E-3,-1.26777245E-2,-4.7162056E-4,-1.290046E-2,1.3020232E-3,-6.6261995E-3,4.330099E-3,4.980172E-4,2.3390367E-3,-1.9865166E-3,6.676274E-3,6.234669E-3,2.8646286E-3,-1.750242E-3,-7.2956667E-3,2.4713525E-3,-5.825067E-3,4.703846E-3,-7.372727E-3,-4.912937E-3,3.7546596E-3,8.910811E-3,-4.2583345E-4,-7.2300195E-4,-7.4804807E-3,-1.1654877E-3,7.0556817E-3,-4.6946267E-3,3.0721463E-3,8.981863E-3,4.4608256E-3],"split_indices":[0,8,6,16,0,6,11,1,11,1,11,0,2,0,20,11,6,0,0,11,11,11,1,3,11,1,8,23,0,0,6,9,5,11,0,20,13,19,23,0,0,21,6,15,0,11,8,11,1,0,11,0,0,7,0,0,0,0,0,0,0,0,0,0,0,0,0,0,0,0,0,0,0,0,0,0,0,0,0,0,0,0,0,0,0,0,0,0,0,0,0,0,0,0,0,0,0,0,0,0,0,0,0,0,0],"split_type":[0,0,0,0,0,0,0,0,0,0,0,0,0,0,0,0,0,0,0,0,0,0,0,0,0,0,0,0,0,0,0,0,0,0,0,0,0,0,0,0,0,0,0,0,0,0,0,0,0,0,0,0,0,0,0,0,0,0,0,0,0,0,0,0,0,0,0,0,0,0,0,0,0,0,0,0,0,0,0,0,0,0,0,0,0,0,0,0,0,0,0,0,0,0,0,0,0,0,0,0,0,0,0,0,0],"sum_hessian":[5.518E3,5.117E3,4.01E2,3.38E3,1.737E3,3.72E2,2.9E1,1.119E3,2.261E3,8.13E2,9.24E2,2.62E2,1.1E2,3E0,2.6E1,2.71E2,8.48E2,1.875E3,3.86E2,2.63E2,5.5E2,7.22E2,2.02E2,1.02E2,1.6E2,4.2E1,6.8E1,2.4E1,2E0,7.4E1,1.97E2,7.22E2,1.26E2,1.202E3,6.73E2,2.67E2,1.19E2,1.42E2,1.21E2,5E0,5.45E2,2.2E1,7E2,2.8E1,1.74E2,5E1,5.2E1,1.24E2,3.6E1,3E0,3.9E1,2.7E1,4.1E1,2.3E1,1E0,6E0,6.8E1,1.6E2,3.7E1,5.33E2,1.89E2,7.9E1,4.7E1,1.184E3,1.8E1,1.63E2,5.1E2,2.43E2,2.4E1,2.8E1,9.1E1,1.24E2,1.8E1,1.09E2,1.2E1,4E0,1E0,3E0,5.42E2,1.9E1,3E0,3.21E2,3.79E2,2E1,8E0,1.05E2,6.9E1,2.5E1,2.5E1,3.8E1,1.4E1,1E0,1.23E2,2.8E1,8E0,2E0,1E0,1.3E1,2.6E1,7E0,2E1,2.7E1,1.4E1,1.1E1,1.2E1],"tree_param":{"num_deleted":"0","num_feature":"25","num_nodes":"105","size_leaf_vector":"1"}},{"base_weights":[-3.963154E-3,1.8915834E-2,-3.0338463E-1,-4.711011E-3,1.3101503E-1,-4.874936E-1,4.1342974E-2,-7.720444E-2,3.512464E-2,-7.9976924E-2,2.5867438E-1,-1.836258E-1,-6.7525995E-1,-3.648549E-2,1.2911592E0,-1.7853071E-1,4.219903E-3,-2.6345262E-1,4.667417E-2,7.234055E-2,-2.0758459E-1,2.6949728E-2,3.551074E-1,-4.3775344E-1,4.040246E-2,-7.835397E-1,-3.3032995E-1,2.3509242E-1,-2.1706967E-1,1.4948352E-2,-6.728697E-4,-2.2093739E-1,4.8934694E-2,-8.269895E-1,2.5871487E-2,-9.42094E-2,-8.025159E-1,5.4161777E-3,1.2012346E-1,-7.6036006E-1,1.2352651E-1,3.8126191E-1,-2.9093388E-1,5.309469E-2,-1.3851465E-2,2.1946745E-1,4.650024E-1,-1.2932049E-1,-8.692466E-1,-3.479095E-1,3.497053E-1,-8.844987E-1,-5.080968E-1,-5.39151E-1,5.462455E-1,-1.8135008E-1,6.27404E-1,-5.598163E-1,6.05031E-2,-3.4353535E-3,-8.06506E-4,-3.2369206E-3,3.5647175E-3,-1.4998447E-2,2.3680024E-3,-1.2179889E-3,1.077659E-3,-1.5916565E-3,1.1472725E-2,-1.8005148E-3,-1.04823345E-2,6.791942E-4,-1.0539873E-3,-5.4483158E-3,1.4269337E-3,-8.9877937E-4,-1.2787702E-2,-4.239741E-3,2.145184E-3,-8.583815E-4,6.8767183E-3,-1.8015129E-3,-6.543421E-3,1.0461868E-3,-6.59016E-3,2.9497659E-3,-6.7535094E-3,2.7680406E-3,6.0736304E-3,-4.1067614E-3,7.7341455E-3,-1.0939959E-2,-1.99957E-3,-6.0543763E-3,3.6400696E-3,7.851169E-3,-2.0398784E-3,-9.063269E-3,4.7453344E-3,-8.820226E-3,-8.228739E-4,-6.4531285E-3,1.6318535E-3,-3.8903079E-3,9.228427E-3,-3.5200673E-3,8.452632E-3,9.764109E-3,1.0977783E-3,-8.335793E-4,-8.375708E-3,-1.9058672E-3,5.586492E-3],"categories":[],"categories_nodes":[],"categories_segments":[],"categories_sizes":[],"default_left":[0,0,0,0,0,0,0,0,0,0,0,0,0,0,0,0,0,0,0,0,0,0,0,0,0,0,0,0,0,0,0,0,0,0,0,0,0,0,0,0,0,0,0,0,0,0,0,0,0,0,0,0,0,0,0,0,0,0,0,0,0,0,0,0,0,0,0,0,0,0,0,0,0,0,0,0,0,0,0,0,0,0,0,0,0,0,0,0,0,0,0,0,0,0,0,0,0,0,0,0,0,0,0,0,0,0,0,0,0,0,0,0,0],"id":15,"left_children":[1,3,5,7,9,11,13,15,17,19,21,23,25,27,29,31,33,35,37,39,41,43,45,47,49,51,53,55,57,-1,-1,59,61,63,65,67,69,71,73,75,77,79,81,83,-1,85,87,89,91,93,95,97,99,101,103,105,107,109,111,-1,-1,-1,-1,-1,-1,-1,-1,-1,-1,-1,-1,-1,-1,-1,-1,-1,-1,-1,-1,-1,-1,-1,-1,-1,-1,-1,-1,-1,-1,-1,-1,-1,-1,-1,-1,-1,-1,-1,-1,-1,-1,-1,-1,-1,-1,-1,-1,-1,-1,-1,-1,-1,-1],"loss_changes":[3.74435E1,1.3449957E1,2.464552E1,1.2117129E1,2.3831316E1,1.4311211E1,1.3276001E1,1.2277385E1,9.350639E0,6.506934E0,1.23030205E1,5.5970006E0,5.567604E0,6.3775363E0,2.3140469E0,6.406145E0,1.4886917E1,9.13891E0,7.902555E0,6.6151805E0,9.04347E0,6.091375E0,5.6964417E0,6.0095778E0,6.4872837E0,2.831993E0,7.4333587E0,8.609291E0,7.454567E0,0E0,0E0,9.58647E0,1.2148024E1,1.5386472E1,9.760388E0,6.4726834E0,3.4820738E0,1.1580993E1,1.4155228E1,3.0133295E0,7.3145766E0,3.3508828E0,6.3236074E0,5.9761615E0,0E0,1.2091E1,5.5653763E0,7.4293323E0,2.6392727E0,4.6205072E0,7.3926888E0,2.9516144E0,5.3409386E0,2.4912672E0,3.1767938E0,4.8526974E0,4.7704983E0,4.562029E0,5.609966E0,0E0,0E0,0E0,0E0,0E0,0E0,0E0,0E0,0E0,0E0,0E0,0E0,0E0,0E0,0E0,0E0,0E0,0E0,0E0,0E0,0E0,0E0,0E0,0E0,0E0,0E0,0E0,0E0,0E0,0E0,0E0,0E0,0E0,0E0,0E0,0E0,0E0,0E0,0E0,0E0,0E0,0E0,0E0,0E0,0E0,0E0,0E0,0E0,0E0,0E0,0E0,0E0,0E0,0E0],"parents":[2147483647,0,0,1,1,2,2,3,3,4,4,5,5,6,6,7,7,8,8,9,9,10,10,11,11,12,12,13,13,14,14,15,15,16,16,17,17,18,18,19,19,20,20,21,21,22,22,23,23,24,24,25,25,26,26,27,27,28,28,31,31,32,32,33,33,34,34,35,35,36,36,37,37,38,38,39,39,40,40,41,41,42,42,43,43,45,45,46,46,47,47,48,48,49,49,50,50,51,51,52,52,53,53,54,54,55,55,56,56,57,57,58,58],"right_children":[2,4,6,8,10,12,14,16,18,20,22,24,26,28,30,32,34,36,38,40,42,44,46,48,50,52,54,56,58,-1,-1,60,62,64,66,68,70,72,74,76,78,80,82,84,-1,86,88,90,92,94,96,98,100,102,104,106,108,110,112,-1,-1,-1,-1,-1,-1,-1,-1,-1,-1,-1,-1,-1,-1,-1,-1,-1,-1,-1,-1,-1,-1,-1,-1,-1,-1,-1,-1,-1,-1,-1,-1,-1,-1,-1,-1,-1,-1,-1,-1,-1,-1,-1,-1,-1,-1,-1,-1,-1,-1,-1,-1,-1,-1],"split_conditions":[1.43E2,1.42E2,2E0,2E0,1.06E2,1.47E2,1.41E2,2E0,8.7E1,2E0,2E0,1E0,1.36E2,9.2E1,3E0,1E0,8.6E1,1.32E2,3E0,9.5E1,1.45E2,1.69E2,2E0,1.19E2,2E0,3E0,2E1,1.5E2,2E0,1.4948352E-2,-6.728697E-4,1.9E1,2E0,2E0,2E0,2.3E1,2E0,1.19E2,1.1E1,2E0,1.2E1,1.43E2,1.01E2,2.1E1,-1.3851465E-2,1E0,1.21E2,1E2,3E0,3E0,3E0,2.3E1,1.2E2,1E0,2E0,3E0,3E0,2E0,1.28E2,-3.4353535E-3,-8.06506E-4,-3.2369206E-3,3.5647175E-3,-1.4998447E-2,2.3680024E-3,-1.2179889E-3,1.077659E-3,-1.5916565E-3,1.1472725E-2,-1.8005148E-3,-1.04823345E-2,6.791942E-4,-1.0539873E-3,-5.4483158E-3,1.4269337E-3,-8.9877937E-4,-1.2787702E-2,-4.239741E-3,2.145184E-3,-8.583815E-4,6.8767183E-3,-1.8015129E-3,-6.543421E-3,1.0461868E-3,-6.59016E-3,2.9497659E-3,-6.7535094E-3,2.7680406E-3,6.0736304E-3,-4.1067614E-3,7.7341455E-3,-1.0939959E-2,-1.99957E-3,-6.0543763E-3,3.6400696E-3,7.851169E-3,-2.0398784E-3,-9.063269E-3,4.7453344E-3,-8.820226E-3,-8.228739E-4,-6.4531285E-3,1.6318535E-3,-3.8903079E-3,9.228427E-3,-3.5200673E-3,8.452632E-3,9.764109E-3,1.0977783E-3,-8.335793E-4,-8.375708E-3,-1.9058672E-3,5.586492E-3],"split_indices":[0,11,6,9,0,0,11,4,11,6,16,3,11,11,7,24,11,0,8,0,11,11,6,11,17,15,1,0,7,0,0,1,17,