{"learner":{"attributes":{"scikit_learn":"{\"_estimator_type\": \"regressor\"}"},"feature_names":["timeDuration","nMovements","movementsDifficulty","robotSpeech","acrobaticMovements","movementsRepetition","movementsTransitionsDuration","humanMovements","balance","speed","bodyPartsCombination","musicBPM","sameStartEndPositionPlace","headMovement","armsMovement","handsMovement","legsMovement","feetMovement","musicGenre_electronic","musicGenre_folk","musicGenre_indie","musicGenre_latin","musicGenre_pop","musicGenre_rap","musicGenre_rock"],"feature_types":["int","int","int","int","int","int","int","int","int","int","int","int","int","int","int","int","int","int","int","int","int","int","int","int","int"],"gradient_booster":{"model":{"gbtree_model_param":{"num_parallel_tree":"1","num_trees":"500"},"iteration_indptr":[0,1,2,3,4,5,6,7,8,9,10,11,12,13,14,15,16,17,18,19,20,21,22,23,24,25,26,27,28,29,30,31,32,33,34,35,36,37,38,39,40,41,42,43,44,45,46,47,48,49,50,51,52,53,54,55,56,57,58,59,60,61,62,63,64,65,66,67,68,69,70,71,72,73,74,75,76,77,78,79,80,81,82,83,84,85,86,87,88,89,90,91,92,93,94,95,96,97,98,99,100,101,102,103,104,105,106,107,108,109,110,111,112,113,114,115,116,117,118,119,120,121,122,123,124,125,126,127,128,129,130,131,132,133,134,135,136,137,138,139,140,141,142,143,144,145,146,147,148,149,150,151,152,153,154,155,156,157,158,159,160,161,162,163,164,165,166,167,168,169,170,171,172,173,174,175,176,177,178,179,180,181,182,183,184,185,186,187,188,189,190,191,192,193,194,195,196,197,198,199,200,201,202,203,204,205,206,207,208,209,210,211,212,213,214,215,216,217,218,219,220,221,222,223,224,225,226,227,228,229,230,231,232,233,234,235,236,237,238,239,240,241,242,243,244,245,246,247,248,249,250,251,252,253,254,255,256,257,258,259,260,261,262,263,264,265,266,267,268,269,270,271,272,273,274,275,276,277,278,279,280,281,282,283,284,285,286,287,288,289,290,291,292,293,294,295,296,297,298,299,300,301,302,303,304,305,306,307,308,309,310,311,312,313,314,315,316,317,318,319,320,321,322,323,324,325,326,327,328,329,330,331,332,333,334,335,336,337,338,339,340,341,342,343,344,345,346,347,348,349,350,351,352,353,354,355,356,357,358,359,360,361,362,363,364,365,366,367,368,369,370,371,372,373,374,375,376,377,378,379,380,381,382,383,384,385,386,387,388,389,390,391,392,393,394,395,396,397,398,399,400,401,402,403,404,405,406,407,408,409,410,411,412,413,414,415,416,417,418,419,420,421,422,423,424,425,426,427,428,429,430,431,432,433,434,435,436,437,438,439,440,441,442,443,444,445,446,447,448,449,450,451,452,453,454,455,456,457,458,459,460,461,462,463,464,465,466,467,468,469,470,471,472,473,474,475,476,477,478,479,480,481,482,483,484,485,486,487,488,489,490,491,492,493,494,495,496,497,498,499,500],"tree_info":[0,0,0,0,0,0,0,0,0,0,0,0,0,0,0,0,0,0,0,0,0,0,0,0,0,0,0,0,0,0,0,0,0,0,0,0,0,0,0,0,0,0,0,0,0,0,0,0,0,0,0,0,0,0,0,0,0,0,0,0,0,0,0,0,0,0,0,0,0,0,0,0,0,0,0,0,0,0,0,0,0,0,0,0,0,0,0,0,0,0,0,0,0,0,0,0,0,0,0,0,0,0,0,0,0,0,0,0,0,0,0,0,0,0,0,0,0,0,0,0,0,0,0,0,0,0,0,0,0,0,0,0,0,0,0,0,0,0,0,0,0,0,0,0,0,0,0,0,0,0,0,0,0,0,0,0,0,0,0,0,0,0,0,0,0,0,0,0,0,0,0,0,0,0,0,0,0,0,0,0,0,0,0,0,0,0,0,0,0,0,0,0,0,0,0,0,0,0,0,0,0,0,0,0,0,0,0,0,0,0,0,0,0,0,0,0,0,0,0,0,0,0,0,0,0,0,0,0,0,0,0,0,0,0,0,0,0,0,0,0,0,0,0,0,0,0,0,0,0,0,0,0,0,0,0,0,0,0,0,0,0,0,0,0,0,0,0,0,0,0,0,0,0,0,0,0,0,0,0,0,0,0,0,0,0,0,0,0,0,0,0,0,0,0,0,0,0,0,0,0,0,0,0,0,0,0,0,0,0,0,0,0,0,0,0,0,0,0,0,0,0,0,0,0,0,0,0,0,0,0,0,0,0,0,0,0,0,0,0,0,0,0,0,0,0,0,0,0,0,0,0,0,0,0,0,0,0,0,0,0,0,0,0,0,0,0,0,0,0,0,0,0,0,0,0,0,0,0,0,0,0,0,0,0,0,0,0,0,0,0,0,0,0,0,0,0,0,0,0,0,0,0,0,0,0,0,0,0,0,0,0,0,0,0,0,0,0,0,0,0,0,0,0,0,0,0,0,0,0,0,0,0,0,0,0,0,0,0,0,0,0,0,0,0,0,0,0,0,0,0,0,0,0,0,0,0,0,0,0,0,0,0,0,0,0,0,0,0,0,0,0,0,0,0,0,0,0,0,0,0,0,0,0,0,0,0,0,0,0,0,0,0,0,0,0,0,0,0,0,0],"trees":[{"base_weights":[-4.361242E-3,2.932058E-1,-2.1967107E-1,3.440839E-1,1.3553988E-2,-3.0713573E-1,3.0845584E-2,4.1480374E-1,9.252904E-2,-1.1833695E-1,1.20478E-1,-2.4803826E-1,-4.8736805E-1,5.9533305E-2,-3.9454654E-1,2.6340988E-1,4.918998E-1,-4.5802005E-2,4.2335007E-1,2.2182274E-1,-2.2331835E-1,2.5668338E-1,-1.2293549E-1,-4.167433E-1,-2.0766337E-1,-7.382359E-1,-2.1119359E-1,-8.602245E-2,1.3652508E-1,-8.630456E-1,-1.992299E-1,5.091605E-1,1.8707596E-1,2.8143135E-1,5.957716E-1,-6.3266027E-1,3.0719175E-4,6.657969E-1,1.08402275E-1,-4.120574E-1,4.6292484E-1,-1.8501514E-1,-5.4130524E-2,-2.6059997E-1,3.5097295E-1,-1.9603088E-2,-6.8478465E-1,4.8401333E-2,-4.634139E-1,-1.7120045E-1,-3.1606743E-1,-7.591643E-1,6.419738E-3,-1.466275E-2,-4.8383847E-1,-1.0507268E0,-3.6547869E-3,4.6890578E-1,1.05293706E-1,-1.2302393E0,1.17389485E-1,-3.5890687E-1,1.3544941E-1,1.2935288E-2,5.7121057E-2,5.8872458E-3,1.7891385E-2,2.430935E-2,1.052023E-2,3.0659059E-2,-2.5148323E-2,-1.812171E-2,-5.7996996E-2,3.7496598E-3,-2.0740759E-2,7.0033497E-3,4.4190105E-2,-6.014127E-3,2.8003326E-2,-4.3885965E-2,6.114036E-3,4.1387856E-2,6.8782903E-3,-3.7922807E-2,-6.8207644E-3,1.3431581E-2,-2.5330076E-2,3.0722395E-2,5.4537407E-3,-1.6956631E-2,9.841253E-3,-4.9033917E-2,2.1557895E-2,2.0108588E-2,-2.1758646E-2,-3.2393213E-2,-1.7175457E-2,-5.7841996E-3,-1.1102042E-2,-7.5096864E-4,-1.7530663E-2,-3.2040503E-2,-4.9236525E-2,9.612934E-4,-5.4130524E-2,-1.1887464E-2,-3.4716975E-2,-6.2458303E-2,-3.236725E-2,3.6439393E-3,-9.910827E-3,6.9506937E-3,3.504337E-2,8.315881E-3,-4.2325095E-3,-6.858026E-2,-3.1997368E-2,1.8002633E-2,-2.1331578E-2,1.8002633E-2,-2.3416935E-2,-1.9497368E-2,1.6603159E-2],"categories":[],"categories_nodes":[],"categories_segments":[],"categories_sizes":[],"default_left":[0,0,0,0,0,0,0,0,0,0,0,0,0,0,0,0,0,0,0,0,0,0,0,0,0,0,0,0,0,0,0,0,0,0,0,0,0,0,0,0,0,0,0,0,0,0,0,0,0,0,0,0,0,0,0,0,0,0,0,0,0,0,0,0,0,0,0,0,0,0,0,0,0,0,0,0,0,0,0,0,0,0,0,0,0,0,0,0,0,0,0,0,0,0,0,0,0,0,0,0,0,0,0,0,0,0,0,0,0,0,0,0,0,0,0,0,0,0,0,0,0,0,0],"id":0,"left_children":[1,3,5,7,9,11,13,15,17,19,21,23,25,27,29,31,33,35,37,39,41,43,45,47,49,51,53,55,57,59,61,63,65,67,69,71,73,75,77,79,81,83,-1,85,87,89,91,93,95,97,99,101,-1,103,105,107,109,111,113,115,117,119,121,-1,-1,-1,-1,-1,-1,-1,-1,-1,-1,-1,-1,-1,-1,-1,-1,-1,-1,-1,-1,-1,-1,-1,-1,-1,-1,-1,-1,-1,-1,-1,-1,-1,-1,-1,-1,-1,-1,-1,-1,-1,-1,-1,-1,-1,-1,-1,-1,-1,-1,-1,-1,-1,-1,-1,-1,-1,-1,-1,-1],"loss_changes":[3.499458E2,3.2620483E1,6.944658E1,3.447406E1,5.0064745E0,2.4898956E1,1.0042587E1,1.7541656E1,1.9560114E1,5.727497E0,6.529785E0,1.197654E1,3.995909E1,8.640823E0,4.5863495E0,9.528175E0,2.1737793E1,8.172182E0,9.548948E0,5.998285E0,3.815166E0,6.2370405E0,4.1086392E0,7.4250526E0,5.6022415E0,5.593048E0,1.4835432E1,2.12121E1,5.182502E0,5.5445604E0,2.0793555E0,1.889543E1,4.6103563E0,4.7405663E0,1.3124588E1,2.714261E0,8.743184E0,8.013651E0,5.851536E0,2.844358E0,3.2097707E0,3.1850948E0,0E0,2.7399242E0,6.752528E0,4.2852154E0,4.0550313E0,5.6493907E0,6.63356E0,3.0028286E0,3.7283173E0,7.2711945E0,0E0,5.8838E0,5.84396E0,8.7233925E-1,3.6924007E0,3.1930275E0,5.3691754E0,4.016304E-2,8.1367916E-1,2.2142296E0,1.4723903E0,0E0,0E0,0E0,0E0,0E0,0E0,0E0,0E0,0E0,0E0,0E0,0E0,0E0,0E0,0E0,0E0,0E0,0E0,0E0,0E0,0E0,0E0,0E0,0E0,0E0,0E0,0E0,0E0,0E0,0E0,0E0,0E0,0E0,0E0,0E0,0E0,0E0,0E0,0E0,0E0,0E0,0E0,0E0,0E0,0E0,0E0,0E0,0E0,0E0,0E0,0E0,0E0,0E0,0E0,0E0,0E0,0E0,0E0,0E0,0E0],"parents":[2147483647,0,0,1,1,2,2,3,3,4,4,5,5,6,6,7,7,8,8,9,9,10,10,11,11,12,12,13,13,14,14,15,15,16,16,17,17,18,18,19,19,20,20,21,21,22,22,23,23,24,24,25,25,26,26,27,27,28,28,29,29,30,30,31,31,32,32,33,33,34,34,35,35,36,36,37,37,38,38,39,39,40,40,41,41,43,43,44,44,45,45,46,46,47,47,48,48,49,49,50,50,51,51,53,53,54,54,55,55,56,56,57,57,58,58,59,59,60,60,61,61,62,62],"right_children":[2,4,6,8,10,12,14,16,18,20,22,24,26,28,30,32,34,36,38,40,42,44,46,48,50,52,54,56,58,60,62,64,66,68,70,72,74,76,78,80,82,84,-1,86,88,90,92,94,96,98,100,102,-1,104,106,108,110,112,114,116,118,120,122,-1,-1,-1,-1,-1,-1,-1,-1,-1,-1,-1,-1,-1,-1,-1,-1,-1,-1,-1,-1,-1,-1,-1,-1,-1,-1,-1,-1,-1,-1,-1,-1,-1,-1,-1,-1,-1,-1,-1,-1,-1,-1,-1,-1,-1,-1,-1,-1,-1,-1,-1,-1,-1,-1,-1,-1,-1,-1,-1,-1],"split_conditions":[1.8E1,3E0,1.31E2,1.7E1,2E0,1.31E2,1E0,1.3E1,1.41E2,2E0,3E0,1E2,2E0,2E0,1.9E1,1.19E2,1.13E2,9.2E1,3E0,2E0,1.2E2,1.08E2,1E0,9.9E1,3E0,1.118E3,9.7E1,9.5E1,9.7E1,3E0,3E0,1.07E2,1.2E1,2E0,1.47E2,3E0,1.39E2,2E0,1.01E2,3E0,2E0,1.14E2,-5.4130524E-2,1.5E1,1.25E2,2E0,3E0,3E0,2E0,1.1E2,9.3E1,1.47E2,6.419738E-3,2.3E1,1.38E2,3E0,3E0,3E0,2.1E1,1E0,3E0,1.33E2,1.37E2,1.2935288E-2,5.7121057E-2,5.8872458E-3,1.7891385E-2,2.430935E-2,1.052023E-2,3.0659059E-2,-2.5148323E-2,-1.812171E-2,-5.7996996E-2,3.7496598E-3,-2.0740759E-2,7.0033497E-3,4.4190105E-2,-6.014127E-3,2.8003326E-2,-4.3885965E-2,6.114036E-3,4.1387856E-2,6.8782903E-3,-3.7922807E-2,-6.8207644E-3,1.3431581E-2,-2.5330076E-2,3.0722395E-2,5.4537407E-3,-1.6956631E-2,9.841253E-3,-4.9033917E-2,2.1557895E-2,2.0108588E-2,-2.1758646E-2,-3.2393213E-2,-1.7175457E-2,-5.7841996E-3,-1.1102042E-2,-7.5096864E-4,-1.7530663E-2,-3.2040503E-2,-4.9236525E-2,9.612934E-4,-5.4130524E-2,-1.1887464E-2,-3.4716975E-2,-6.2458303E-2,-3.236725E-2,3.6439393E-3,-9.910827E-3,6.9506937E-3,3.504337E-2,8.315881E-3,-4.2325095E-3,-6.858026E-2,-3.1997368E-2,1.8002633E-2,-2.1331578E-2,1.8002633E-2,-2.3416935E-2,-1.9497368E-2,1.6603159E-2],"split_indices":[1,6,11,1,4,0,23,1,11,7,15,11,6,6,1,11,11,0,8,5,0,11,19,0,9,0,11,0,0,9,16,11,1,16,0,4,0,15,0,9,9,11,0,1,11,9,10,10,15,0,0,0,0,1,0,7,10,6,1,3,6,11,11,0,0,0,0,0,0,0,0,0,0,0,0,0,0,0,0,0,0,0,0,0,0,0,0,0,0,0,0,0,0,0,0,0,0,0,0,0,0,0,0,0,0,0,0,0,0,0,0,0,0,0,0,0,0,0,0,0,0,0,0],"split_type":[0,0,0,0,0,0,0,0,0,0,0,0,0,0,0,0,0,0,0,0,0,0,0,0,0,0,0,0,0,0,0,0,0,0,0,0,0,0,0,0,0,0,0,0,0,0,0,0,0,0,0,0,0,0,0,0,0,0,0,0,0,0,0,0,0,0,0,0,0,0,0,0,0,0,0,0,0,0,0,0,0,0,0,0,0,0,0,0,0,0,0,0,0,0,0,0,0,0,0,0,0,0,0,0,0,0,0,0,0,0,0,0,0,0,0,0,0,0,0,0,0,0,0],"sum_hessian":[5.46E3,2.292E3,3.168E3,1.939E3,3.53E2,2.348E3,8.2E2,1.513E3,4.26E2,1.58E2,1.95E2,1.77E3,5.78E2,7.69E2,5.1E1,5.12E2,1.001E3,3.01E2,1.25E2,3.7E1,1.21E2,1.25E2,7E1,3.4E2,1.43E3,3.02E2,2.76E2,2.66E2,5.03E2,1.4E1,3.7E1,1.2E2,3.92E2,3.32E2,6.69E2,2.1E1,2.8E2,7E1,5.5E1,1E1,2.7E1,1.17E2,4E0,1.9E1,1.06E2,6E1,1E1,3.1E1,3.09E2,1.072E3,3.58E2,2.95E2,7E0,1.61E2,1.15E2,2E1,2.46E2,4.2E1,4.61E2,1E1,4E0,2.5E1,1.2E1,8.7E1,3.3E1,2.8E2,1.12E2,8.4E1,2.48E2,6.59E2,1E1,1.5E1,6E0,2.38E2,4.2E1,2.1E1,4.9E1,3.7E1,1.8E1,5E0,5E0,1.2E1,1.5E1,8E0,1.09E2,6E0,1.3E1,5E1,5.6E1,2.4E1,3.6E1,8E0,2E0,1.8E1,1.3E1,1.2E2,1.89E2,5.14E2,5.58E2,3.7E1,3.21E2,1.96E2,9.9E1,1.57E2,4E0,5.4E1,6.1E1,1.2E1,8E0,1.77E2,6.9E1,1.8E1,2.4E1,3.49E2,1.12E2,7E0,3E0,3E0,1E0,3E0,2.2E1,3E0,9E0],"tree_param":{"num_deleted":"0","num_feature":"25","num_nodes":"123","size_leaf_vector":"1"}},{"base_weights":[-6.6129984E-3,2.74316E-1,-2.0346186E-1,3.2204118E-1,1.2477418E-2,-2.8365013E-1,8.053313E-2,3.8835832E-1,8.528491E-2,-3.99054E-1,3.7380908E-2,-3.1740057E-1,-1.15745336E-1,3.3793967E-2,2.9689723E-1,2.8904507E-1,4.78273E-1,-1.298544E-1,1.8468645E-1,-1.0439422E-1,-7.4759436E-1,-1.3978184E-2,1.6647372E-1,-4.2517006E-1,-2.5743517E-1,-1.5512975E-1,9.5248654E-2,5.2656945E-2,-2.4700524E-1,3.2818028E-1,-2.817974E-1,-1.6815151E-1,3.06644E-1,2.4231079E-1,5.9760845E-1,7.0833303E-3,-5.2879316E-1,9.4769E-2,3.8045275E-1,-4.2836434E-1,2.9096997E-1,-4.3127604E-2,4.3016733E-3,7.4375615E-2,-3.008784E-1,-5.714817E-1,2.5133348E-1,-3.855775E-1,-5.736451E-1,-3.1262642E-1,-1.8400565E-1,-1.1237538E-1,-3.0607003E-1,3.319088E-3,4.1371652E-1,6.363655E-2,-3.7146616E-1,-5.78715E-1,-1.99334E-2,1.3572438E-1,4.2271167E-1,4.4676924E-1,-3.31289E-2,5.4763395E-2,-1.8585755E-2,8.742335E-3,1.816768E-2,9.399228E-3,2.0287028E-2,3.708039E-2,2.2920003E-2,-1.9897792E-2,3.3419083E-3,-4.034117E-2,-3.6988445E-3,2.8713665E-3,5.5272963E-2,2.1934293E-2,-3.486235E-2,-2.6421813E-2,4.3016733E-3,5.821264E-3,2.9092336E-2,1.5135132E-2,-9.6418423E-4,-4.0218282E-2,5.9009595E-5,1.5875427E-2,-6.0853E-2,1.9924454E-3,3.0017976E-2,-4.6096984E-2,-1.8691791E-2,-3.4284424E-2,-1.1140312E-2,-2.289895E-2,-1.3379954E-2,-1.3863782E-3,-1.1613644E-2,-8.9618034E-4,-8.64151E-3,-2.0681601E-2,1.0759354E-2,-4.366671E-2,2.7410924E-3,2.943793E-2,6.478005E-3,-1.1541896E-3,6.5199337E-3,2.0218046E-2,-5.019408E-2,-3.8165614E-2,5.9877723E-3,-9.739622E-3,2.0378593E-2,-1.5195546E-2,2.005245E-2,2.7936164E-2,6.7516263E-3,2.9253846E-2,4.2538466E-3],"categories":[],"categories_nodes":[],"categories_segments":[],"categories_sizes":[],"default_left":[0,0,0,0,0,0,0,0,0,0,0,0,0,0,0,0,0,0,0,0,0,0,0,0,0,0,0,0,0,0,0,0,0,0,0,0,0,0,0,0,0,0,0,0,0,0,0,0,0,0,0,0,0,0,0,0,0,0,0,0,0,0,0,0,0,0,0,0,0,0,0,0,0,0,0,0,0,0,0,0,0,0,0,0,0,0,0,0,0,0,0,0,0,0,0,0,0,0,0,0,0,0,0,0,0,0,0,0,0,0,0,0,0,0,0,0,0,0,0,0,0],"id":1,"left_children":[1,3,5,7,9,11,13,15,17,19,21,23,25,27,29,31,33,35,37,39,41,43,45,47,49,51,53,55,57,59,61,63,65,67,69,71,73,75,77,79,81,-1,-1,83,85,87,89,91,93,95,97,99,101,103,105,107,109,111,113,115,117,119,-1,-1,-1,-1,-1,-1,-1,-1,-1,-1,-1,-1,-1,-1,-1,-1,-1,-1,-1,-1,-1,-1,-1,-1,-1,-1,-1,-1,-1,-1,-1,-1,-1,-1,-1,-1,-1,-1,-1,-1,-1,-1,-1,-1,-1,-1,-1,-1,-1,-1,-1,-1,-1,-1,-1,-1,-1,-1,-1],"loss_changes":[3.0293695E2,2.8200119E1,7.337491E1,2.9940094E1,3.5916672E0,1.419841E1,7.169967E0,1.3175949E1,8.984371E0,1.9759724E0,2.1902564E0,1.3403519E1,3.521543E0,3.1115818E0,2.3734999E0,5.7723846E0,2.1847107E1,7.269504E0,5.015951E0,1.6616755E0,9.366951E-1,6.0300255E0,6.030169E0,4.1641846E0,5.3973694E0,2.2630005E0,1.96016E0,2.5801682E0,2.7753768E0,2.125803E0,2.2379873E0,7.3511553E0,5.0562744E0,2.2676592E0,1.0043823E1,2.4469037E0,4.239705E0,7.409208E0,5.954075E0,4.0580046E-1,2.368843E-1,0E0,0E0,3.897898E0,8.517576E0,6.1255536E0,6.250234E0,3.3836517E0,5.9401436E0,4.897339E0,4.368561E0,1.5900104E0,4.4622684E0,2.440831E0,6.698103E-1,3.106254E0,7.27496E0,2.0254464E0,1.7987144E0,4.9043717E0,3.0547695E0,1.0029799E-1,0E0,0E0,0E0,0E0,0E0,0E0,0E0,0E0,0E0,0E0,0E0,0E0,0E0,0E0,0E0,0E0,0E0,0E0,0E0,0E0,0E0,0E0,0E0,0E0,0E0,0E0,0E0,0E0,0E0,0E0,0E0,0E0,0E0,0E0,0E0,0E0,0E0,0E0,0E0,0E0,0E0,0E0,0E0,0E0,0E0,0E0,0E0,0E0,0E0,0E0,0E0,0E0,0E0,0E0,0E0,0E0,0E0,0E0,0E0],"parents":[2147483647,0,0,1,1,2,2,3,3,4,4,5,5,6,6,7,7,8,8,9,9,10,10,11,11,12,12,13,13,14,14,15,15,16,16,17,17,18,18,19,19,20,20,21,21,22,22,23,23,24,24,25,25,26,26,27,27,28,28,29,29,30,30,31,31,32,32,33,33,34,34,35,35,36,36,37,37,38,38,39,39,40,40,43,43,44,44,45,45,46,46,47,47,48,48,49,49,50,50,51,51,52,52,53,53,54,54,55,55,56,56,57,57,58,58,59,59,60,60,61,61],"right_children":[2,4,6,8,10,12,14,16,18,20,22,24,26,28,30,32,34,36,38,40,42,44,46,48,50,52,54,56,58,60,62,64,66,68,70,72,74,76,78,80,82,-1,-1,84,86,88,90,92,94,96,98,100,102,104,106,108,110,112,114,116,118,120,-1,-1,-1,-1,-1,-1,-1,-1,-1,-1,-1,-1,-1,-1,-1,-1,-1,-1,-1,-1,-1,-1,-1,-1,-1,-1,-1,-1,-1,-1,-1,-1,-1,-1,-1,-1,-1,-1,-1,-1,-1,-1,-1,-1,-1,-1,-1,-1,-1,-1,-1,-1,-1,-1,-1,-1,-1,-1,-1],"split_conditions":[1.8E1,3E0,1.34E2,1.7E1,1.06E2,3E0,3E0,1.4E1,1.11E2,3E0,3E0,2E0,2.2E1,1E0,1E0,9.6E1,1.12E2,2E0,3E0,2E0,1E0,3E0,1.1E1,1E0,3E0,1E0,1E0,1.62E2,2E0,1.4E2,2E0,9E1,1.1E1,3E0,1E0,8.8E1,3E0,1.59E2,1.59E2,1E0,3E0,-4.3127604E-2,4.3016733E-3,2E0,2E0,3E0,3E0,8.3E1,3E0,9.8E1,2E0,2E0,1.23E2,8.4E1,3E0,2E0,1E0,1.44E2,3E0,2E0,3E0,2E1,-3.31289E-2,5.4763395E-2,-1.8585755E-2,8.742335E-3,1.816768E-2,9.399228E-3,2.0287028E-2,3.708039E-2,2.2920003E-2,-1.9897792E-2,3.3419083E-3,-4.034117E-2,-3.6988445E-3,2.8713665E-3,5.5272963E-2,2.1934293E-2,-3.486235E-2,-2.6421813E-2,4.3016733E-3,5.821264E-3,2.9092336E-2,1.5135132E-2,-9.6418423E-4,-4.0218282E-2,5.9009595E-5,1.5875427E-2,-6.0853E-2,1.9924454E-3,3.0017976E-2,-4.6096984E-2,-1.8691791E-2,-3.4284424E-2,-1.1140312E-2,-2.289895E-2,-1.3379954E-2,-1.3863782E-3,-1.1613644E-2,-8.9618034E-4,-8.64151E-3,-2.0681601E-2,1.0759354E-2,-4.366671E-2,2.7410924E-3,2.943793E-2,6.478005E-3,-1.1541896E-3,6.5199337E-3,2.0218046E-2,-5.019408E-2,-3.8165614E-2,5.9877723E-3,-9.739622E-3,2.0378593E-2,-1.5195546E-2,2.005245E-2,2.7936164E-2,6.7516263E-3,2.9253846E-2,4.2538466E-3],"split_indices":[1,6,11,1,11,6,6,1,11,5,4,15,1,23,23,11,11,6,17,2,19,2,1,19,7,18,19,11,13,11,7,11,1,17,3,11,13,11,11,3,8,0,0,7,16,9,2,11,8,11,2,9,11,11,16,6,3,11,16,2,16,1,0,0,0,0,0,0,0,0,0,0,0,0,0,0,0,0,0,0,0,0,0,0,0,0,0,0,0,0,0,0,0,0,0,0,0,0,0,0,0,0,0,0,0,0,0,0,0,0,0,0,0,0,0,0,0,0,0,0,0],"split_type":[0,0,0,0,0,0,0,0,0,0,0,0,0,0,0,0,0,0,0,0,0,0,0,0,0,0,0,0,0,0,0,0,0,0,0,0,0,0,0,0,0,0,0,0,0,0,0,0,0,0,0,0,0,0,0,0,0,0,0,0,0,0,0,0,0,0,0,0,0,0,0,0,0,0,0,0,0,0,0,0,0,0,0,0,0,0,0,0,0,0,0,0,0,0,0,0,0,0,0,0,0,0,0,0,0,0,0,0,0,0,0,0,0,0,0,0,0,0,0,0,0],"sum_hessian":[5.476E3,2.256E3,3.22E3,1.908E3,3.48E2,2.511E3,7.09E2,1.49E3,4.18E2,1.9E1,3.29E2,2.09E3,4.21E2,5.84E2,1.25E2,7.1E2,7.8E2,1.32E2,2.86E2,1.1E1,8E0,2.36E2,9.3E1,7.45E2,1.345E3,3.55E2,6.6E1,5.48E2,3.6E1,1.19E2,6E0,2.6E1,6.84E2,2.63E2,5.17E2,9.9E1,3.3E1,1.97E2,8.9E1,6E0,5E0,7E0,1E0,1.81E2,5.5E1,9E0,8.4E1,5.91E2,1.54E2,7.66E2,5.79E2,2.78E2,7.7E1,5.2E1,1.4E1,5.35E2,1.3E1,1.4E1,2.2E1,4E1,7.9E1,2E0,4E0,3E0,2.3E1,2.07E2,4.77E2,1.99E2,6.4E1,2.52E2,2.65E2,1.2E1,8.7E1,2E1,1.3E1,1.91E2,6E0,8.5E1,4E0,5E0,1E0,4E0,1E0,5.2E1,1.29E2,2E1,3.5E1,4E0,5E0,5.3E1,3.1E1,1.1E1,5.8E2,1.16E2,3.8E1,1.79E2,5.87E2,1.37E2,4.42E2,1.09E2,1.69E2,6.4E1,1.3E1,2E0,5E1,8E0,6E0,2.33E2,3.02E2,6E0,7E0,1.1E1,3E0,1.6E1,6E0,1.5E1,2.5E1,5.3E1,2.6E1,1E0,1E0],"tree_param":{"num_deleted":"0","num_feature":"25","num_nodes":"121","size_leaf_vector":"1"}},{"base_weights":[1.3207904E-2,2.92788E-1,-1.8817826E-1,3.621507E-1,-6.966909E-2,-2.5930056E-1,8.503147E-2,4.245884E-1,1.2618557E-1,1.6882868E-2,-1.8795402E-1,-1.9194315E-1,-4.6953383E-1,-5.3457346E-2,1.5663274E-1,3.536512E-1,5.869307E-1,1.2993122E-2,4.2859995E-1,-1.2148585E-2,3.540208E-1,-1.18863255E-1,-7.458808E-1,-3.135025E-1,-1.6567376E-1,-6.761416E-1,-2.495641E-1,-5.151193E-1,7.464939E-2,2.0872593E-1,-1.3182886E-1,2.6279938E-1,4.6019363E-1,3.186585E-1,7.231006E-1,-5.7881486E-1,6.51637E-2,9.2482996E-1,2.6399508E-1,-4.391185E-1,2.7799971E-2,-1.04030475E-1,7.7273643E-1,-1.7457733E-1,4.3884945E-1,9.371243E-2,-1.0114257E0,-4.5553136E-1,-2.294694E-1,-2.042434E-1,-8.9815654E-2,-7.2976005E-1,-7.718324E-2,-1.0432337E-1,-4.0209866E-1,-6.5346336E-1,-2.4055657E-1,-1.24802984E-1,2.4043283E-1,2.7766466E-1,-1.3779876E-2,6.301896E-2,-4.6169394E-1,-2.213194E-2,1.3867137E-2,1.2900581E-2,2.819725E-2,2.2673983E-2,1.053582E-3,3.9642774E-2,-4.493409E-3,-3.6661573E-2,1.8828794E-2,-6.0784942E-3,9.443794E-3,-9.274067E-3,6.254471E-2,5.6218817E-3,5.068756E-2,-5.7870466E-2,2.8947734E-3,4.66574E-3,-8.989957E-3,3.027615E-2,-2.7986387E-2,-1.1988839E-2,5.481399E-2,-5.6493566E-3,-3.553612E-2,5.510601E-2,1.0802335E-3,1.6931752E-2,-2.214945E-2,-5.514388E-2,2.1499097E-3,1.2516156E-2,-2.4976274E-2,-1.53322E-2,5.7917773E-3,-3.148088E-2,-9.595039E-3,-1.0565999E-2,-1.566951E-3,-3.0005632E-2,-5.2215267E-2,-3.3072777E-2,1.8292246E-2,-3.27662E-2,2.2786448E-3,-1.04003055E-2,-2.8080946E-2,-3.539222E-2,5.4084226E-3,-4.2287815E-2,2.8635364E-3,2.6807433E-4,-1.3611773E-2,5.9064697E-3,2.6156995E-2,1.5403846E-2,-7.895948E-3,5.947218E-3,-1.970208E-2,-3.3751447E-2,7.801231E-3,-1.0653245E-2,-6.067542E-2],"categories":[],"categories_nodes":[],"categories_segments":[],"categories_sizes":[],"default_left":[0,0,0,0,0,0,0,0,0,0,0,0,0,0,0,0,0,0,0,0,0,0,0,0,0,0,0,0,0,0,0,0,0,0,0,0,0,0,0,0,0,0,0,0,0,0,0,0,0,0,0,0,0,0,0,0,0,0,0,0,0,0,0,0,0,0,0,0,0,0,0,0,0,0,0,0,0,0,0,0,0,0,0,0,0,0,0,0,0,0,0,0,0,0,0,0,0,0,0,0,0,0,0,0,0,0,0,0,0,0,0,0,0,0,0,0,0,0,0,0,0,0,0,0,0,0,0],"id":2,"left_children":[1,3,5,7,9,11,13,15,17,19,21,23,25,27,29,31,33,35,37,39,41,43,45,47,49,51,53,55,57,59,61,63,65,67,69,71,73,75,77,79,81,83,85,87,89,91,93,95,97,99,101,103,105,107,109,111,113,115,117,119,121,123,125,-1,-1,-1,-1,-1,-1,-1,-1,-1,-1,-1,-1,-1,-1,-1,-1,-1,-1,-1,-1,-1,-1,-1,-1,-1,-1,-1,-1,-1,-1,-1,-1,-1,-1,-1,-1,-1,-1,-1,-1,-1,-1,-1,-1,-1,-1,-1,-1,-1,-1,-1,-1,-1,-1,-1,-1,-1,-1,-1,-1,-1,-1,-1,-1],"loss_changes":[3.0820444E2,5.7648438E1,6.185247E1,2.8292953E1,3.7809186E0,3.5665817E1,6.5330844E0,1.730841E1,1.3823765E1,2.098848E0,5.924766E0,6.060013E0,2.7645096E1,1.3345407E1,6.549184E0,1.0149078E1,1.6610184E1,9.145833E0,8.740856E0,3.38946E0,3.3408732E0,4.426756E0,3.8849297E0,3.9414787E0,4.5927505E0,1.0059982E1,6.560013E0,1.7040272E0,5.8826714E0,5.648678E0,4.335419E0,6.021946E0,1.0070129E1,6.289443E0,1.736734E1,3.8167944E0,6.306493E0,1.0006903E1,9.43103E0,6.1360183E0,2.4921274E0,3.249002E0,3.2111897E0,4.146423E0,3.5738904E0,8.0726314E-1,1.3009987E0,4.0067215E0,5.765005E0,5.3604126E0,3.7804298E0,1.1158707E1,7.230915E0,1.2749178E1,4.3726254E0,1.4019527E0,3.292847E0,1.5558876E0,3.2920775E0,3.771082E0,4.4882245E0,3.0569541E0,4.414517E0,0E0,0E0,0E0,0E0,0E0,0E0,0E0,0E0,0E0,0E0,0E0,0E0,0E0,0E0,0E0,0E0,0E0,0E0,0E0,0E0,0E0,0E0,0E0,0E0,0E0,0E0,0E0,0E0,0E0,0E0,0E0,0E0,0E0,0E0,0E0,0E0,0E0,0E0,0E0,0E0,0E0,0E0,0E0,0E0,0E0,0E0,0E0,0E0,0E0,0E0,0E0,0E0,0E0,0E0,0E0,0E0,0E0,0E0,0E0,0E0,0E0,0E0,0E0,0E0],"parents":[2147483647,0,0,1,1,2,2,3,3,4,4,5,5,6,6,7,7,8,8,9,9,10,10,11,11,12,12,13,13,14,14,15,15,16,16,17,17,18,18,19,19,20,20,21,21,22,22,23,23,24,24,25,25,26,26,27,27,28,28,29,29,30,30,31,31,32,32,33,33,34,34,35,35,36,36,37,37,38,38,39,39,40,40,41,41,42,42,43,43,44,44,45,45,46,46,47,47,48,48,49,49,50,50,51,51,52,52,53,53,54,54,55,55,56,56,57,57,58,58,59,59,60,60,61,61,62,62],"right_children":[2,4,6,8,10,12,14,16,18,20,22,24,26,28,30,32,34,36,38,40,42,44,46,48,50,52,54,56,58,60,62,64,66,68,70,72,74,76,78,80,82,84,86,88,90,92,94,96,98,100,102,104,106,108,110,112,114,116,118,120,122,124,126,-1,-1,-1,-1,-1,-1,-1,-1,-1,-1,-1,-1,-1,-1,-1,-1,-1,-1,-1,-1,-1,-1,-1,-1,-1,-1,-1,-1,-1,-1,-1,-1,-1,-1,-1,-1,-1,-1,-1,-1,-1,-1,-1,-1,-1,-1,-1,-1,-1,-1,-1,-1,-1,-1,-1,-1,-1,-1,-1,-1,-1,-1,-1,-1],"split_conditions":[1.8E1,3E0,1.35E2,1.7E1,1E0,1.31E2,2E0,1.23E2,1.44E2,1E0,1.18E2,9.9E1,2E0,1.06E2,1.49E2,1.4E1,1.07E2,9.2E1,2E0,1.1E1,2E0,1.14E2,2E0,2E0,3E0,1E0,9.7E1,3E0,2E0,1.24E2,3E0,9.5E1,1.22E2,3E0,1.39E2,1E0,2E0,2E0,3E0,2E0,3E0,2E0,1.06E2,1E0,2E0,3E0,3E0,9.6E1,3E0,8.6E1,2E0,1.49E2,1.38E2,1.36E2,1.37E2,1E0,9.6E1,2E0,3E0,1E0,3E0,9.4E1,3E0,-2.213194E-2,1.3867137E-2,1.2900581E-2,2.819725E-2,2.2673983E-2,1.053582E-3,3.9642774E-2,-4.493409E-3,-3.6661573E-2,1.8828794E-2,-6.0784942E-3,9.443794E-3,-9.274067E-3,6.254471E-2,5.6218817E-3,5.068756E-2,-5.7870466E-2,2.8947734E-3,4.66574E-3,-8.989957E-3,3.027615E-2,-2.7986387E-2,-1.1988839E-2,5.481399E-2,-5.6493566E-3,-3.553612E-2,5.510601E-2,1.0802335E-3,1.6931752E-2,-2.214945E-2,-5.514388E-2,2.1499097E-3,1.2516156E-2,-2.4976274E-2,-1.53322E-2,5.7917773E-3,-3.148088E-2,-9.595039E-3,-1.0565999E-2,-1.566951E-3,-3.0005632E-2,-5.2215267E-2,-3.3072777E-2,1.8292246E-2,-3.27662E-2,2.2786448E-3,-1.04003055E-2,-2.8080946E-2,-3.539222E-2,5.4084226E-3,-4.2287815E-2,2.8635364E-3,2.6807433E-4,-1.3611773E-2,5.9064697E-3,2.6156995E-2,1.5403846E-2,-7.895948E-3,5.947218E-3,-1.970208E-2,-3.3751447E-2,7.801231E-3,-1.0653245E-2,-6.067542E-2],"split_indices":[1,6,11,1,12,0,6,0,11,20,0,11,6,0,11,1,11,0,17,1,5,0,10,7,15,20,11,8,2,0,15,11,11,5,0,21,13,16,15,5,17,10,0,21,10,7,17,0,6,0,13,0,0,0,0,20,0,7,17,23,17,0,2,0,0,0,0,0,0,0,0,0,0,0,0,0,0,0,0,0,0,0,0,0,0,0,0,0,0,0,0,0,0,0,0,0,0,0,0,0,0,0,0,0,0,0,0,0,0,0,0,0,0,0,0,0,0,0,0,0,0,0,0,0,0,0,0],"split_type":[0,0,0,0,0,0,0,0,0,0,0,0,0,0,0,0,0,0,0,0,0,0,0,0,0,0,0,0,0,0,0,0,0,0,0,0,0,0,0,0,0,0,0,0,0,0,0,0,0,0,0,0,0,0,0,0,0,0,0,0,0,0,0,0,0,0,0,0,0,0,0,0,0,0,0,0,0,0,0,0,0,0,0,0,0,0,0,0,0,0,0,0,0,0,0,0,0,0,0,0,0,0,0,0,0,0,0,0,0,0,0,0,0,0,0,0,0,0,0,0,0,0,0,0,0,0,0],"sum_hessian":[5.472E3,2.291E3,3.181E3,1.923E3,3.68E2,2.524E3,6.57E2,1.52E3,4.03E2,2.13E2,1.55E2,1.913E3,6.11E2,2.24E2,4.33E2,1.06E3,4.6E2,2.94E2,1.09E2,1.97E2,1.6E1,1.39E2,1.6E1,3.38E2,1.575E3,3.14E2,2.97E2,4.8E1,1.76E2,3.67E2,6.6E1,5.74E2,4.86E2,1.56E2,3.04E2,2.3E1,2.71E2,2.6E1,8.3E1,1.6E1,1.81E2,8E0,8E0,1.27E2,1.2E1,4E0,1.2E1,1.24E2,2.14E2,1.043E3,5.32E2,2.88E2,2.6E1,1.53E2,1.44E2,3.1E1,1.7E1,8E1,9.6E1,2.8E2,8.7E1,4.2E1,2.4E1,1.1E1,5.63E2,1.66E2,3.2E2,1.07E2,4.9E1,2.8E2,2.4E1,2E1,3E0,1.08E2,1.63E2,6E0,2E1,7E1,1.3E1,6E0,1E1,1.38E2,4.3E1,3E0,5E0,2E0,6E0,1.15E2,1.2E1,4E0,8E0,3E0,1E0,1.1E1,1E0,7E0,1.17E2,1.75E2,3.9E1,2.8E1,1.015E3,1.72E2,3.6E2,2.06E2,8.2E1,1.1E1,1.5E1,3.2E1,1.21E2,6.6E1,7.8E1,2.9E1,2E0,5E0,1.2E1,4.3E1,3.7E1,6.8E1,2.8E1,2.62E2,1.8E1,6.5E1,2.2E1,4E0,3.8E1,1.9E1,5E0],"tree_param":{"num_deleted":"0","num_feature":"25","num_nodes":"127","size_leaf_vector":"1"}},{"base_weights":[1.1056458E-3,3.1701514E-1,-1.5728097E-1,3.8279393E-1,-3.3312302E-2,-2.4344732E-1,1.11173235E-1,3.2530198E-1,5.1400083E-1,2.1960326E-2,-1.8453063E-1,-1.9487792E-1,-3.9546138E-1,3.2971606E-2,2.0264594E-1,1.8821123E-1,3.782351E-1,2.4554078E-1,6.4573896E-1,-4.618245E-2,2.7183357E-1,1.4215718E-1,-3.5060832E-1,-2.9648474E-1,-1.511899E-1,-2.6465797E-1,-5.3267527E-1,-1.1735696E-1,1.358787E-1,3.283491E-1,2.325118E-2,8.994405E-1,1.0353393E-1,2.3014072E-1,4.4653904E-1,5.7773244E-1,1.7465834E-1,7.227881E-1,-5.5843405E-2,-3.31191E-1,2.8050749E-2,5.7440674E-1,-1.5023193E-1,-7.317019E-2,5.521158E-2,-5.1959723E-1,6.2091574E-2,-4.975695E-2,-3.33246E-1,-2.7334418E-2,-1.8695608E-1,-4.2145026E-1,-1.2026359E-1,-4.0894732E-1,-7.591785E-1,-7.574915E-1,-5.2330267E-2,2.7180514E-1,-4.646128E-2,4.0714285E-1,3.4134526E-2,-7.795575E-2,3.5412258E-1,1.5895415E-2,6.1623227E-2,6.684702E-3,-3.1074772E-2,1.350634E-2,-9.554323E-3,1.6858665E-2,2.5044272E-2,4.1069057E-2,-2.0596726E-2,1.6304369E-3,2.0832354E-2,3.9630976E-2,2.628364E-2,-1.4241824E-2,1.7477404E-2,-1.0005475E-2,-5.3882908E-2,4.9703587E-3,-1.3746035E-2,3.971167E-2,-8.356559E-3,1.8333174E-2,-2.2838255E-2,6.7336075E-3,-2.8373865E-2,-3.498987E-2,1.8461406E-3,-1.8808221E-2,3.3965066E-2,-1.0332898E-2,1.5108335E-2,-1.03648035E-2,-2.1556234E-2,2.4091862E-3,-7.7715814E-3,-6.1766762E-2,-9.109277E-3,4.3797283E-3,-2.795873E-2,-2.106583E-2,1.6250411E-3,-2.8704656E-2,-8.1585925E-3,-4.0081013E-2,2.0452056E-4,-3.1335354E-3,-4.7576766E-2,1.3053888E-2,-4.5589604E-3,1.542096E-2,-8.860285E-3,-8.899651E-3,6.8276534E-3,3.7732735E-2,1.5171281E-2,9.237375E-3,-1.3031021E-2,1.1649756E-3,-2.026686E-2,-1.0312783E-3,5.2577835E-2],"categories":[],"categories_nodes":[],"categories_segments":[],"categories_sizes":[],"default_left":[0,0,0,0,0,0,0,0,0,0,0,0,0,0,0,0,0,0,0,0,0,0,0,0,0,0,0,0,0,0,0,0,0,0,0,0,0,0,0,0,0,0,0,0,0,0,0,0,0,0,0,0,0,0,0,0,0,0,0,0,0,0,0,0,0,0,0,0,0,0,0,0,0,0,0,0,0,0,0,0,0,0,0,0,0,0,0,0,0,0,0,0,0,0,0,0,0,0,0,0,0,0,0,0,0,0,0,0,0,0,0,0,0,0,0,0,0,0,0,0,0,0,0,0,0],"id":3,"left_children":[1,3,5,7,9,11,13,15,17,19,21,23,25,27,29,31,33,35,37,39,41,43,45,47,49,51,53,55,57,59,61,63,65,67,69,71,73,75,77,79,81,83,85,87,-1,89,91,93,95,97,99,101,103,105,107,109,111,113,115,117,119,121,123,-1,-1,-1,-1,-1,-1,-1,-1,-1,-1,-1,-1,-1,-1,-1,-1,-1,-1,-1,-1,-1,-1,-1,-1,-1,-1,-1,-1,-1,-1,-1,-1,-1,-1,-1,-1,-1,-1,-1,-1,-1,-1,-1,-1,-1,-1,-1,-1,-1,-1,-1,-1,-1,-1,-1,-1,-1,-1,-1,-1,-1,-1],"loss_changes":[2.7494675E2,4.229872E1,8.4689156E1,1.1487244E1,2.4362986E0,2.0381866E1,6.359769E0,7.7442245E0,1.6428299E1,3.656344E0,4.2817745E0,9.28595E0,1.1884201E1,7.456956E0,9.238068E0,1.8094822E1,7.7468033E0,3.5723572E0,1.7014038E1,3.5848396E0,5.9607573E0,5.6741433E0,3.658832E0,5.7066E0,6.5156097E0,7.76009E0,8.825615E0,8.119024E0,7.101089E0,5.5730286E0,5.7203074E0,5.805443E0,6.009038E0,4.211895E0,2.9812393E0,6.8488903E0,4.4550867E0,3.4788055E0,3.0701828E0,3.2090318E0,2.9458888E0,4.534005E0,3.336391E0,2.4393961E0,0E0,3.7363825E0,4.5834627E0,4.6454706E0,6.678604E0,3.209472E0,5.4864426E0,1.16167755E1,8.337915E0,8.551735E0,3.6962433E0,2.3672276E0,2.2032318E0,2.7508316E0,2.9851851E0,6.6191826E0,2.3566327E0,4.351976E0,1.0476175E1,0E0,0E0,0E0,0E0,0E0,0E0,0E0,0E0,0E0,0E0,0E0,0E0,0E0,0E0,0E0,0E0,0E0,0E0,0E0,0E0,0E0,0E0,0E0,0E0,0E0,0E0,0E0,0E0,0E0,0E0,0E0,0E0,0E0,0E0,0E0,0E0,0E0,0E0,0E0,0E0,0E0,0E0,0E0,0E0,0E0,0E0,0E0,0E0,0E0,0E0,0E0,0E0,0E0,0E0,0E0,0E0,0E0,0E0,0E0,0E0,0E0,0E0],"parents":[2147483647,0,0,1,1,2,2,3,3,4,4,5,5,6,6,7,7,8,8,9,9,10,10,11,11,12,12,13,13,14,14,15,15,16,16,17,17,18,18,19,19,20,20,21,21,22,22,23,23,24,24,25,25,26,26,27,27,28,28,29,29,30,30,31,31,32,32,33,33,34,34,35,35,36,36,37,37,38,38,39,39,40,40,41,41,42,42,43,43,45,45,46,46,47,47,48,48,49,49,50,50,51,51,52,52,53,53,54,54,55,55,56,56,57,57,58,58,59,59,60,60,61,61,62,62],"right_children":[2,4,6,8,10,12,14,16,18,20,22,24,26,28,30,32,34,36,38,40,42,44,46,48,50,52,54,56,58,60,62,64,66,68,70,72,74,76,78,80,82,84,86,88,-1,90,92,94,96,98,100,102,104,106,108,110,112,114,116,118,120,122,124,-1,-1,-1,-1,-1,-1,-1,-1,-1,-1,-1,-1,-1,-1,-1,-1,-1,-1,-1,-1,-1,-1,-1,-1,-1,-1,-1,-1,-1,-1,-1,-1,-1,-1,-1,-1,-1,-1,-1,-1,-1,-1,-1,-1,-1,-1,-1,-1,-1,-1,-1,-1,-1,-1,-1,-1,-1,-1,-1,-1,-1,-1],"split_conditions":[1.7E1,3E0,1.34E2,1.23E2,3E0,1.31E2,1.41E2,1.2E1,1.07E2,3E0,1E2,1.09E2,1.1E2,2E0,1.49E2,1.19E2,1.18E2,9.4E1,1.38E2,2E0,1E0,1E0,3E0,9.9E1,1.9E1,2E0,1.45E2,9.8E1,1.18E2,1.33E2,1.17E2,2E0,1.22E2,1.11E2,2E0,1.6E1,1E0,3E0,3E0,1E0,3E0,3E0,2E0,1.37E2,5.521158E-2,1.11E2,1E0,3E0,2E0,3E0,8.1E1,1.8E1,1.4E2,1E0,1.31E2,2E0,1.35E2,2.2E1,1.28E2,1.8E1,3E0,3E0,1.51E2,1.5895415E-2,6.1623227E-2,6.684702E-3,-3.1074772E-2,1.350634E-2,-9.554323E-3,1.6858665E-2,2.5044272E-2,4.1069057E-2,-2.0596726E-2,1.6304369E-3,2.0832354E-2,3.9630976E-2,2.628364E-2,-1.4241824E-2,1.7477404E-2,-1.0005475E-2,-5.3882908E-2,4.9703587E-3,-1.3746035E-2,3.971167E-2,-8.356559E-3,1.8333174E-2,-2.2838255E-2,6.7336075E-3,-2.8373865E-2,-3.498987E-2,1.8461406E-3,-1.8808221E-2,3.3965066E-2,-1.0332898E-2,1.5108335E-2,-1.03648035E-2,-2.1556234E-2,2.4091862E-3,-7.7715814E-3,-6.1766762E-2,-9.109277E-3,4.3797283E-3,-2.795873E-2,-2.106583E-2,1.6250411E-3,-2.8704656E-2,-8.1585925E-3,-4.0081013E-2,2.0452056E-4,-3.1335354E-3,-4.7576766E-2,1.3053888E-2,-4.5589604E-3,1.542096E-2,-8.860285E-3,-8.899651E-3,6.8276534E-3,3.7732735E-2,1.5171281E-2,9.237375E-3,-1.3031021E-2,1.1649756E-3,-2.026686E-2,-1.0312783E-3,5.2577835E-2],"split_indices":[1,6,11,0,2,0,11,1,11,9,0,11,11,6,11,11,11,11,0,5,12,19,13,0,1,6,0,0,0,0,0,2,0,11,9,1,22,15,10,19,7,5,10,11,0,0,12,6,6,14,0,1,0,12,11,10,11,1,0,1,9,10,11,0,0,0,0,0,0,0,0,0,0,0,0,0,0,0,0,0,0,0,0,0,0,0,0,0,0,0,0,0,0,0,0,0,0,0,0,0,0,0,0,0,0,0,0,0,0,0,0,0,0,0,0,0,0,0,0,0,0,0,0,0,0],"split_type":[0,0,0,0,0,0,0,0,0,0,0,0,0,0,0,0,0,0,0,0,0,0,0,0,0,0,0,0,0,0,0,0,0,0,0,0,0,0,0,0,0,0,0,0,0,0,0,0,0,0,0,0,0,0,0,0,0,0,0,0,0,0,0,0,0,0,0,0,0,0,0,0,0,0,0,0,0,0,0,0,0,0,0,0,0,0,0,0,0,0,0,0,0,0,0,0,0,0,0,0,0,0,0,0,0,0,0,0,0,0,0,0,0,0,0,0,0,0,0,0,0,0,0,0,0],"sum_hessian":[5.493E3,1.834E3,3.659E3,1.544E3,2.9E2,2.77E3,8.89E2,1.076E3,4.68E2,2.13E2,7.7E1,2.101E3,6.69E2,4.8E2,4.09E2,3.01E2,7.75E2,1.55E2,3.13E2,1.68E2,4.5E1,2.6E1,5.1E1,6.3E2,1.471E3,3.44E2,3.25E2,1.95E2,2.85E2,2.4E2,1.69E2,3.1E1,2.7E2,2.46E2,5.29E2,2.6E1,1.29E2,2.82E2,3.1E1,3.4E1,1.34E2,2.6E1,1.9E1,2.2E1,4E0,3.6E1,1.5E1,8.2E1,5.48E2,3.3E2,1.141E3,1.64E2,1.8E2,2.12E2,1.13E2,1.7E1,1.78E2,1.63E2,1.22E2,1.89E2,5.1E1,1.3E2,3.9E1,1.2E1,1.9E1,2.6E2,1E1,2.25E2,2.1E1,1.78E2,3.51E2,2.1E1,5E0,8.2E1,4.7E1,2.06E2,7.6E1,2E1,1.1E1,3E1,4E0,1.09E2,2.5E1,2E1,6E0,7E0,1.2E1,1.6E1,6E0,2.7E1,9E0,9E0,6E0,5.7E1,2.5E1,2.41E2,3.07E2,2.08E2,1.22E2,4E0,1.137E3,3.5E1,1.29E2,6E1,1.2E2,1.26E2,8.6E1,1.07E2,6E0,4E0,1.3E1,1.9E1,1.59E2,1.51E2,1.2E1,7.1E1,5.1E1,4.2E1,1.47E2,3.4E1,1.7E1,1E2,3E1,2.6E1,1.3E1],"tree_param":{"num_deleted":"0","num_feature":"25","num_nodes":"125","size_leaf_vector":"1"}},{"base_weights":[-2.7826072E-3,3.5364643E-2,-2.778733E-1,-3.0605797E-2,6.9314994E-2,-1.9212578E-1,-4.2669973E-1,-9.3093336E-2,-2.7574524E-3,1.3869333E-1,2.2648958E-2,-2.587439E-1,-3.552948E-2,-4.9536195E-1,2.8555998E-1,-1.5059571E-1,5.0313205E-2,3.2675108E-1,-5.3422455E-2,-3.23048E-1,1.694117E-1,1.4705464E-1,5.1321933E-4,-2.859397E-1,1.3357447E-1,-9.67189E-2,5.132015E-1,-4.2723548E-1,-7.5383186E-1,3.940647E-1,-5.3299147E-1,-5.6689706E-2,-1.3915765E-1,-6.4044245E-2,4.4037622E-1,1.3941087E-1,5.415389E-1,-1.7114225E-1,-2.3096241E-2,-3.6977404E-1,1.4370832E-1,7.793907E-2,2.0877095E-1,2.2484604E-1,-5.265949E-3,-1.5869626E-1,3.6685806E-2,-3.2993934E-1,-1.08784296E-1,4.4808173E-1,-2.2574095E-1,-2.1378963E-1,2.0421019E-1,8.40767E-1,-9.086172E-3,-5.688974E-1,-3.2564536E-1,-9.95899E-1,-4.5549354E-1,6.422925E-1,1.9309308E-2,-4.3543566E-2,3.5692037E-3,-1.3626115E-2,-5.0139385E-3,8.224548E-3,-1.1464066E-2,4.094669E-2,1.32147465E-2,2.3409745E-2,1.6526651E-4,-3.681745E-4,3.334282E-2,-4.2983443E-3,-1.5079535E-2,-6.392789E-3,2.0659547E-3,-2.4434406E-2,-5.3314595E-3,3.676061E-2,-8.799749E-3,-2.779578E-3,7.4300594E-3,7.154199E-3,1.6842699E-2,1.3164903E-2,-2.4681013E-2,7.2715483E-3,-1.1848616E-2,-4.660956E-3,-1.5607275E-2,3.5449266E-3,-3.4357E-3,-1.5038607E-2,-3.4424573E-2,6.3458667E-3,-2.5944395E-2,-5.6449743E-3,3.3628106E-2,6.452892E-3,-2.4189157E-2,-1.684407E-2,3.6878348E-3,1.52825285E-2,-2.12493E-2,4.94926E-3,5.3576507E-2,-2.483151E-2,1.794217E-2,-1.4715791E-2,-3.9403465E-2,-1.9040767E-2,1.7220076E-3,-6.2527746E-2,-2.571626E-2,-4.5093062E-4,-3.819489E-2,1.4014505E-2,4.7878996E-2,1.3376835E-2,-2.831622E-2],"categories":[],"categories_nodes":[],"categories_segments":[],"categories_sizes":[],"default_left":[0,0,0,0,0,0,0,0,0,0,0,0,0,0,0,0,0,0,0,0,0,0,0,0,0,0,0,0,0,0,0,0,0,0,0,0,0,0,0,0,0,0,0,0,0,0,0,0,0,0,0,0,0,0,0,0,0,0,0,0,0,0,0,0,0,0,0,0,0,0,0,0,0,0,0,0,0,0,0,0,0,0,0,0,0,0,0,0,0,0,0,0,0,0,0,0,0,0,0,0,0,0,0,0,0,0,0,0,0,0,0,0,0,0,0,0,0,0,0,0,0],"id":4,"left_children":[1,3,5,7,9,11,13,15,17,19,21,23,25,27,29,31,33,35,37,39,41,43,45,47,49,51,53,55,57,59,61,-1,63,65,67,69,71,73,75,77,79,81,83,85,87,89,91,93,95,97,99,101,103,105,107,109,111,113,115,117,119,-1,-1,-1,-1,-1,-1,-1,-1,-1,-1,-1,-1,-1,-1,-1,-1,-1,-1,-1,-1,-1,-1,-1,-1,-1,-1,-1,-1,-1,-1,-1,-1,-1,-1,-1,-1,-1,-1,-1,-1,-1,-1,-1,-1,-1,-1,-1,-1,-1,-1,-1,-1,-1,-1,-1,-1,-1,-1,-1,-1],"loss_changes":[5.7474716E1,1.0775171E1,8.429935E0,2.8449292E0,1.0279514E1,4.424471E0,1.2025452E1,4.1636705E0,1.8915688E1,1.8167624E1,5.2321672E0,3.2176762E0,4.347432E0,3.5870514E0,2.1640005E0,3.8907423E0,6.496162E0,6.0005016E0,3.501783E0,1.7979145E0,4.296879E0,3.4019136E0,9.300879E0,2.1388493E0,2.361297E0,4.1303368E0,2.2317245E0,2.376419E0,2.7961807E0,1.8480921E0,6.747852E-1,0E0,1.8237414E0,4.3048754E0,1.9832373E0,3.6678972E0,4.8200054E0,2.2073832E0,5.2823133E0,2.2321806E0,1.6422395E0,3.4239328E0,6.993805E0,5.3790007E0,3.4563718E0,2.97508E0,4.750387E0,2.1250439E0,5.575595E0,1.4611537E0,9.7796655E-1,2.9979928E0,2.2361517E0,1.263341E0,1.2545036E0,4.1612396E0,2.1189022E0,2.3000622E0,3.0223966E0,1.1012168E0,1.4598455E0,0E0,0E0,0E0,0E0,0E0,0E0,0E0,0E0,0E0,0E0,0E0,0E0,0E0,0E0,0E0,0E0,0E0,0E0,0E0,0E0,0E0,0E0,0E0,0E0,0E0,0E0,0E0,0E0,0E0,0E0,0E0,0E0,0E0,0E0,0E0,0E0,0E0,0E0,0E0,0E0,0E0,0E0,0E0,0E0,0E0,0E0,0E0,0E0,0E0,0E0,0E0,0E0,0E0,0E0,0E0,0E0,0E0,0E0,0E0,0E0],"parents":[2147483647,0,0,1,1,2,2,3,3,4,4,5,5,6,6,7,7,8,8,9,9,10,10,11,11,12,12,13,13,14,14,15,15,16,16,17,17,18,18,19,19,20,20,21,21,22,22,23,23,24,24,25,25,26,26,27,27,28,28,29,29,30,30,32,32,33,33,34,34,35,35,36,36,37,37,38,38,39,39,40,40,41,41,42,42,43,43,44,44,45,45,46,46,47,47,48,48,49,49,50,50,51,51,52,52,53,53,54,54,55,55,56,56,57,57,58,58,59,59,60,60],"right_children":[2,4,6,8,10,12,14,16,18,20,22,24,26,28,30,32,34,36,38,40,42,44,46,48,50,52,54,56,58,60,62,-1,64,66,68,70,72,74,76,78,80,82,84,86,88,90,92,94,96,98,100,102,104,106,108,110,112,114,116,118,120,-1,-1,-1,-1,-1,-1,-1,-1,-1,-1,-1,-1,-1,-1,-1,-1,-1,-1,-1,-1,-1,-1,-1,-1,-1,-1,-1,-1,-1,-1,-1,-1,-1,-1,-1,-1,-1,-1,-1,-1,-1,-1,-1,-1,-1,-1,-1,-1,-1,-1,-1,-1,-1,-1,-1,-1,-1,-1,-1,-1],"split_conditions":[1.37E2,2E0,1.47E2,1.06E2,2E0,3E0,3E0,3E0,1.09E2,9.5E1,1E2,1.46E2,1E0,1E0,1E0,8E1,3E0,1.08E2,1.13E2,1E0,2E0,3E0,1.06E2,3E0,2E0,3E0,3E0,2E0,2E0,3E0,1.5E2,-5.6689706E-2,9.5E1,1E2,9.4E1,2E0,2E0,1E0,2E0,3E0,2E0,2E0,3E0,1E0,3E0,3E0,3E0,1.45E2,3E0,2E0,2E0,3E0,1.44E2,2E0,2E0,1.52E2,1E0,2E0,3E0,2E0,3E0,-4.3543566E-2,3.5692037E-3,-1.3626115E-2,-5.0139385E-3,8.224548E-3,-1.1464066E-2,4.094669E-2,1.32147465E-2,2.3409745E-2,1.6526651E-4,-3.681745E-4,3.334282E-2,-4.2983443E-3,-1.5079535E-2,-6.392789E-3,2.0659547E-3,-2.4434406E-2,-5.3314595E-3,3.676061E-2,-8.799749E-3,-2.779578E-3,7.4300594E-3,7.154199E-3,1.6842699E-2,1.3164903E-2,-2.4681013E-2,7.2715483E-3,-1.1848616E-2,-4.660956E-3,-1.5607275E-2,3.5449266E-3,-3.4357E-3,-1.5038607E-2,-3.4424573E-2,6.3458667E-3,-2.5944395E-2,-5.6449743E-3,3.3628106E-2,6.452892E-3,-2.4189157E-2,-1.684407E-2,3.6878348E-3,1.52825285E-2,-2.12493E-2,4.94926E-3,5.3576507E-2,-2.483151E-2,1.794217E-2,-1.4715791E-2,-3.9403465E-2,-1.9040767E-2,1.7220076E-3,-6.2527746E-2,-2.571626E-2,-4.5093062E-4,-3.819489E-2,1.4014505E-2,4.7878996E-2,1.3376835E-2,-2.831622E-2],"split_indices":[0,13,0,0,6,4,6,6,0,0,0,0,18,19,19,0,10,0,0,20,16,16,0,2,14,16,16,7,13,10,0,0,0,0,0,16,16,12,17,17,16,14,8,23,4,14,6,0,7,8,8,17,0,8,7,0,20,8,13,10,4,0,0,0,0,0,0,0,0,0,0,0,0,0,0,0,0,0,0,0,0,0,0,0,0,0,0,0,0,0,0,0,0,0,0,0,0,0,0,0,0,0,0,0,0,0,0,0,0,0,0,0,0,0,0,0,0,0,0,0,0],"split_type":[0,0,0,0,0,0,0,0,0,0,0,0,0,0,0,0,0,0,0,0,0,0,0,0,0,0,0,0,0,0,0,0,0,0,0,0,0,0,0,0,0,0,0,0,0,0,0,0,0,0,0,0,0,0,0,0,0,0,0,0,0,0,0,0,0,0,0,0,0,0,0,0,0,0,0,0,0,0,0,0,0,0,0,0,0,0,0,0,0,0,0,0,0,0,0,0,0,0,0,0,0,0,0,0,0,0,0,0,0,0,0,0,0,0,0,0,0,0,0,0,0],"sum_hessian":[5.475E3,4.809E3,6.66E2,1.634E3,3.175E3,4.24E2,2.42E2,5.03E2,1.131E3,1.276E3,1.899E3,2.97E2,1.27E2,2.21E2,2.1E1,3.59E2,1.44E2,1.5E2,9.81E2,7.9E1,1.197E3,2.86E2,1.613E3,2.78E2,1.9E1,1.15E2,1.2E1,1.77E2,4.4E1,1.9E1,2E0,3E0,3.56E2,1.12E2,3.2E1,8.1E1,6.9E1,2E2,7.81E2,7.2E1,7E0,3.61E2,8.36E2,1.89E2,9.7E1,2.98E2,1.315E3,2.22E2,5.6E1,1E1,9E0,8.3E1,3.2E1,7E0,5E0,7.2E1,1.05E2,2.3E1,2.1E1,1.1E1,8E0,1E0,1E0,7.9E1,2.77E2,4.7E1,6.5E1,9E0,2.3E1,2.3E1,5.8E1,1.3E1,5.6E1,1.22E2,7.8E1,2.97E2,4.84E2,4.9E1,2.3E1,2E0,5E0,1.25E2,2.36E2,5.54E2,2.82E2,1.8E2,9E0,5.9E1,3.8E1,2.1E2,8.8E1,9.93E2,3.22E2,2.07E2,1.5E1,3.6E1,2E1,3E0,7E0,4E0,5E0,5.8E1,2.5E1,2.8E1,4E0,2E0,5E0,2E0,3E0,3.3E1,3.9E1,9.1E1,1.4E1,1.4E1,9E0,9E0,1.2E1,6E0,5E0,6E0,2E0],"tree_param":{"num_deleted":"0","num_feature":"25","num_nodes":"121","size_leaf_vector":"1"}},{"base_weights":[3.491773E-3,2.4941167E-1,-1.7422518E-1,2.913454E-1,2.2673635E-2,-2.4774665E-1,8.728152E-2,3.385737E-1,1.1789225E-1,1.3128304E-1,-1.0713684E-1,-1.8601733E-1,-4.3372977E-1,-2.745848E-1,1.1134662E-1,2.7139103E-1,4.9411038E-1,-6.8921976E-2,2.799944E-1,7.643918E-2,2.909952E-1,-3.4161516E-2,-4.2147654E-1,-1.5116762E-1,-2.8704968E-1,-5.9731764E-1,-2.549626E-1,-5.629158E-1,5.412076E-1,4.8383498E-1,8.837415E-2,9.549367E-2,3.3885032E-1,5.2004707E-1,-5.1753056E-1,1.195669E-1,-5.389134E-1,3.5967755E-1,-1.9210139E-1,-4.10692E-1,1.1854966E-1,8.417857E-2,8.167967E-1,6.011541E-1,-1.12637326E-1,-1.4169423E-1,-9.172904E-1,-3.02134E-1,-1.21852316E-1,-9.600492E-2,-3.2802126E-1,-5.033245E-1,-7.6294583E-1,-1.299173E-1,-4.4460863E-1,-4.2977542E-1,-9.252577E-1,-2.1189564E-1,8.15786E-1,-1.0120197E-2,6.6060895E-1,1.5174848E-1,-3.9107595E-2,3.3662908E-2,1.8895485E-3,1.10405935E-2,1.9595379E-2,1.378307E-2,3.0070795E-2,-3.5915382E-2,-9.851778E-3,1.0910804E-2,-1.1009664E-2,-1.8091477E-2,-5.2216005E-2,2.4685876E-2,3.186375E-3,-1.7127685E-2,5.639156E-4,1.3383821E-3,-5.1424455E-2,1.8779665E-2,4.3400918E-4,9.684051E-3,-3.276867E-2,5.427702E-2,-6.322378E-3,1.1900402E-2,4.9108855E-2,-1.4386048E-2,7.5250133E-3,5.3363528E-2,-1.6256291E-2,3.4420013E-3,-5.1139373E-2,1.4168796E-2,-1.7106822E-2,-7.933766E-3,-2.293459E-3,-1.16014285E-2,2.8165448E-2,-3.839369E-2,-1.4613666E-2,-4.3742344E-2,-2.2170087E-2,-4.0853415E-2,1.7822808E-2,-1.634971E-2,8.306396E-3,-1.2101244E-2,-3.3612933E-2,-3.092415E-2,-7.903817E-3,-5.9620626E-2,-1.7999986E-2,-2.2804005E-2,1.0762931E-3,4.5637857E-2,1.0004282E-3,3.0902697E-2,-1.6147112E-2,1.6861532E-2,4.2500835E-2,1.4801571E-3,1.0494519E-2,-8.150337E-3,7.781842E-3],"categories":[],"categories_nodes":[],"categories_segments":[],"categories_sizes":[],"default_left":[0,0,0,0,0,0,0,0,0,0,0,0,0,0,0,0,0,0,0,0,0,0,0,0,0,0,0,0,0,0,0,0,0,0,0,0,0,0,0,0,0,0,0,0,0,0,0,0,0,0,0,0,0,0,0,0,0,0,0,0,0,0,0,0,0,0,0,0,0,0,0,0,0,0,0,0,0,0,0,0,0,0,0,0,0,0,0,0,0,0,0,0,0,0,0,0,0,0,0,0,0,0,0,0,0,0,0,0,0,0,0,0,0,0,0,0,0,0,0,0,0,0,0,0,0,0,0],"id":5,"left_children":[1,3,5,7,9,11,13,15,17,19,21,23,25,27,29,31,33,35,37,39,41,43,45,47,49,51,53,55,57,59,61,63,65,67,69,71,73,75,77,79,81,83,85,87,89,91,93,95,97,99,101,103,105,107,109,111,113,115,117,119,121,123,125,-1,-1,-1,-1,-1,-1,-1,-1,-1,-1,-1,-1,-1,-1,-1,-1,-1,-1,-1,-1,-1,-1,-1,-1,-1,-1,-1,-1,-1,-1,-1,-1,-1,-1,-1,-1,-1,-1,-1,-1,-1,-1,-1,-1,-1,-1,-1,-1,-1,-1,-1,-1,-1,-1,-1,-1,-1,-1,-1,-1,-1,-1,-1,-1],"loss_changes":[2.4024136E2,2.1918777E1,6.1372917E1,1.590152E1,5.1036735E0,2.8517517E1,6.1351266E0,1.5842972E1,1.26775875E1,1.703326E0,3.770543E0,6.5478287E0,1.797908E1,1.065426E1,5.5877323E0,1.2664169E1,1.2338921E1,1.7339128E1,8.495544E0,3.0846598E0,5.368468E0,6.7983947E0,4.1703434E0,6.1325073E0,3.7178345E0,4.6444244E0,7.0091114E0,1.1943436E0,2.6542919E0,3.3247852E0,5.023037E0,9.909451E0,4.7546005E0,8.762741E0,6.306448E-1,4.7404375E0,4.634098E0,7.5850105E0,1.0136288E0,3.270666E0,3.865791E0,3.1232953E0,3.6861382E0,1.8417392E0,5.617903E0,5.004006E0,1.2147808E0,5.3902855E0,3.2634964E0,7.8433805E0,5.9707565E0,4.264984E0,7.2584915E0,1.0614529E1,5.2792454E0,1.2352962E0,7.788229E-1,2.378091E-1,6.7624426E-1,2.3611696E0,1.4283581E0,2.9410172E0,5.0200043E0,0E0,0E0,0E0,0E0,0E0,0E0,0E0,0E0,0E0,0E0,0E0,0E0,0E0,0E0,0E0,0E0,0E0,0E0,0E0,0E0,0E0,0E0,0E0,0E0,0E0,0E0,0E0,0E0,0E0,0E0,0E0,0E0,0E0,0E0,0E0,0E0,0E0,0E0,0E0,0E0,0E0,0E0,0E0,0E0,0E0,0E0,0E0,0E0,0E0,0E0,0E0,0E0,0E0,0E0,0E0,0E0,0E0,0E0,0E0,0E0,0E0,0E0,0E0,0E0],"parents":[2147483647,0,0,1,1,2,2,3,3,4,4,5,5,6,6,7,7,8,8,9,9,10,10,11,11,12,12,13,13,14,14,15,15,16,16,17,17,18,18,19,19,20,20,21,21,22,22,23,23,24,24,25,25,26,26,27,27,28,28,29,29,30,30,31,31,32,32,33,33,34,34,35,35,36,36,37,37,38,38,39,39,40,40,41,41,42,42,43,43,44,44,45,45,46,46,47,47,48,48,49,49,50,50,51,51,52,52,53,53,54,54,55,55,56,56,57,57,58,58,59,59,60,60,61,61,62,62],"right_children":[2,4,6,8,10,12,14,16,18,20,22,24,26,28,30,32,34,36,38,40,42,44,46,48,50,52,54,56,58,60,62,64,66,68,70,72,74,76,78,80,82,84,86,88,90,92,94,96,98,100,102,104,106,108,110,112,114,116,118,120,122,124,126,-1,-1,-1,-1,-1,-1,-1,-1,-1,-1,-1,-1,-1,-1,-1,-1,-1,-1,-1,-1,-1,-1,-1,-1,-1,-1,-1,-1,-1,-1,-1,-1,-1,-1,-1,-1,-1,-1,-1,-1,-1,-1,-1,-1,-1,-1,-1,-1,-1,-1,-1,-1,-1,-1,-1,-1,-1,-1,-1,-1,-1,-1,-1,-1],"split_conditions":[1.8E1,3E0,1.34E2,1.7E1,1E0,1.31E2,9.4E1,1.23E2,1.24E2,3E0,3E0,3E0,2E0,3E0,9.8E1,1.2E1,1.47E2,2E0,1.36E2,1.1E1,1.11E2,1.2E1,1.09E2,9.8E1,1E2,1.47E2,1.01E2,1.48E2,1E0,2E0,3E0,1.19E2,1.18E2,1.01E2,1E0,1.17E2,1.13E2,1.55E2,1.45E2,3E0,1.04E2,1.1E2,1.21E2,3E0,1.07E2,2E0,1.05E2,9.9E1,3E0,2.2E1,1.03E2,1.33E2,1E0,1.43E2,2.1E1,2E0,1E0,8.9E1,1E0,2E0,2E0,2E0,3E0,3.3662908E-2,1.8895485E-3,1.10405935E-2,1.9595379E-2,1.378307E-2,3.0070795E-2,-3.5915382E-2,-9.851778E-3,1.0910804E-2,-1.1009664E-2,-1.8091477E-2,-5.2216005E-2,2.4685876E-2,3.186375E-3,-1.7127685E-2,5.639156E-4,1.3383821E-3,-5.1424455E-2,1.8779665E-2,4.3400918E-4,9.684051E-3,-3.276867E-2,5.427702E-2,-6.322378E-3,1.1900402E-2,4.9108855E-2,-1.4386048E-2,7.5250133E-3,5.3363528E-2,-1.6256291E-2,3.4420013E-3,-5.1139373E-2,1.4168796E-2,-1.7106822E-2,-7.933766E-3,-2.293459E-3,-1.16014285E-2,2.8165448E-2,-3.839369E-2,-1.4613666E-2,-4.3742344E-2,-2.2170087E-2,-4.0853415E-2,1.7822808E-2,-1.634971E-2,8.306396E-3,-1.2101244E-2,-3.3612933E-2,-3.092415E-2,-7.903817E-3,-5.9620626E-2,-1.7999986E-2,-2.2804005E-2,1.0762931E-3,4.5637857E-2,1.0004282E-3,3.0902697E-2,-1.6147112E-2,1.6861532E-2,4.2500835E-2,1.4801571E-3,1.0494519E-2,-8.150337E-3,7.781842E-3],"split_indices":[1,6,11,1,12,0,0,0,11,10,16,9,6,6,0,1,0,6,0,1,0,1,0,11,0,0,11,11,3,6,17,11,11,11,3,11,0,11,0,5,0,0,11,13,0,15,11,0,15,1,0,0,20,0,1,6,3,0,24,8,10,5,16,0,0,0,0,0,0,0,0,0,0,0,0,0,0,0,0,0,0,0,0,0,0,0,0,0,0,0,0,0,0,0,0,0,0,0,0,0,0,0,0,0,0,0,0,0,0,0,0,0,0,0,0,0,0,0,0,0,0,0,0,0,0,0,0],"split_type":[0,0,0,0,0,0,0,0,0,0,0,0,0,0,0,0,0,0,0,0,0,0,0,0,0,0,0,0,0,0,0,0,0,0,0,0,0,0,0,0,0,0,0,0,0,0,0,0,0,0,0,0,0,0,0,0,0,0,0,0,0,0,0,0,0,0,0,0,0,0,0,0,0,0,0,0,0,0,0,0,0,0,0,0,0,0,0,0,0,0,0,0,0,0,0,0,0,0,0,0,0,0,0,0,0,0,0,0,0,0,0,0,0,0,0,0,0,0,0,0,0,0,0,0,0,0,0],"sum_hessian":[5.495E3,2.305E3,3.19E3,1.945E3,3.6E2,2.49E3,7E2,1.528E3,4.17E2,1.96E2,1.64E2,1.871E3,6.19E2,4.3E1,6.57E2,1.069E3,4.59E2,1.94E2,2.23E2,1.47E2,4.9E1,1.34E2,3E1,1.393E3,4.78E2,3.22E2,2.97E2,3.2E1,1.1E1,3.7E1,6.2E2,2.97E2,7.72E2,4.48E2,1.1E1,1.39E2,5.5E1,1.91E2,3.2E1,1.1E1,1.36E2,3.6E1,1.3E1,1.4E1,1.2E2,2E1,1E1,2.25E2,1.168E3,8.5E1,3.93E2,2.08E2,1.14E2,1.8E2,1.17E2,2.5E1,7E0,3E0,8E0,1E1,2.7E1,4.14E2,2.06E2,2.6E1,2.71E2,2.41E2,5.31E2,1.13E2,3.35E2,6E0,5E0,1.08E2,3.1E1,4.2E1,1.3E1,1.31E2,6E1,1.8E1,1.4E1,7E0,4E0,4E1,9.6E1,3.2E1,4E0,1E1,3E0,8E0,6E0,7.2E1,4.8E1,2E0,1.8E1,1E0,9E0,1.4E1,2.11E2,7.86E2,3.82E2,7.1E1,1.4E1,2.8E1,3.65E2,2.7E1,1.81E2,1.09E2,5E0,1.08E2,7.2E1,6.3E1,5.4E1,1.4E1,1.1E1,4E0,3E0,1E0,2E0,7E0,1E0,3E0,7E0,1.1E1,1.6E1,1.34E2,2.8E2,1.26E2,8E1],"tree_param":{"num_deleted":"0","num_feature":"25","num_nodes":"127","size_leaf_vector":"1"}},{"base_weights":[-4.1660955E-3,-6.831778E-2,2.3197728E-1,-4.3505177E-2,-4.1313073E-1,2.5975263E-1,-1.45819485E-2,-2.603523E-1,-1.9905834E-2,-4.8443154E-1,2.9405224E-1,3.706926E-1,2.124351E-1,-1.2431205E-1,9.911497E-2,-3.3750725E-1,5.556194E-2,-1.2540509E-1,2.0071529E-2,2.0907117E-1,-5.1855594E-1,4.1768426E-1,-5.2125293E-1,4.24715E-1,-1.3269466E-1,4.409839E-1,1.839345E-1,-1.7186882E-1,2.6710704E-1,-8.274957E-2,2.4490975E-1,-5.062026E-1,-2.4369565E-1,-1.4899147E-1,3.5426342E-1,-9.763776E-2,-2.820359E-1,-3.2684498E-2,1.0844431E-1,5.3340495E-1,-4.165438E-1,-5.676271E-1,-9.224163E-2,-1.1837298E-1,6.453768E-1,-3.968858E-2,7.407576E-3,1.0725277E-1,4.6492115E-1,-7.7196574E-1,5.1609028E-2,1.4311936E-1,5.7919043E-1,-8.864994E-2,2.1815935E-1,-2.3211956E-2,-3.7768653E-1,6.458533E-3,2.7368134E-2,2.5295627E-1,-2.3741288E-1,-3.7292153E-1,3.191236E-1,-1.1337864E-2,-3.5997476E-2,-3.6661176E-3,-1.8310321E-2,-5.9120305E-2,-3.839312E-3,2.6500491E-2,8.592685E-4,-9.423244E-3,-2.2193694E-3,-5.706855E-3,-2.253306E-2,-8.0318574E-4,-1.3089341E-2,1.2129942E-2,4.1161184E-4,3.7449587E-2,1.0556857E-2,-2.769936E-2,3.3307434E-3,-2.0749275E-2,-3.543481E-2,8.228319E-3,-1.2649277E-2,1.5843777E-2,-3.1642016E-2,3.5601452E-2,4.8495056E-3,1.258948E-2,-2.9256398E-2,1.3418525E-2,2.738118E-2,-4.6897303E-2,-1.19005E-2,1.9946765E-2,-1.4984357E-2,-1.6016755E-2,1.45394495E-2,1.19263595E-2,3.8352005E-2,2.1349145E-2,-1.1912763E-2,7.26987E-3,1.4886342E-2,4.132275E-3,-2.1410165E-2,-6.609857E-3,-2.2827676E-2,2.58566E-2,-3.0905341E-3,-1.6836375E-2,2.0225378E-2,3.582436E-3,-2.7249727E-2,5.7423543E-3,2.453438E-2],"categories":[],"categories_nodes":[],"categories_segments":[],"categories_sizes":[],"default_left":[0,0,0,0,0,0,0,0,0,0,0,0,0,0,0,0,0,0,0,0,0,0,0,0,0,0,0,0,0,0,0,0,0,0,0,0,0,0,0,0,0,0,0,0,0,0,0,0,0,0,0,0,0,0,0,0,0,0,0,0,0,0,0,0,0,0,0,0,0,0,0,0,0,0,0,0,0,0,0,0,0,0,0,0,0,0,0,0,0,0,0,0,0,0,0,0,0,0,0,0,0,0,0,0,0,0,0,0,0,0,0,0,0,0,0,0,0,0,0],"id":6,"left_children":[1,3,5,7,9,11,13,15,17,19,21,23,25,27,29,31,33,35,37,39,41,43,45,47,49,51,53,55,57,59,61,63,65,67,69,71,73,75,77,79,81,83,85,87,89,-1,-1,91,93,95,97,99,101,103,105,107,109,-1,-1,111,113,115,117,-1,-1,-1,-1,-1,-1,-1,-1,-1,-1,-1,-1,-1,-1,-1,-1,-1,-1,-1,-1,-1,-1,-1,-1,-1,-1,-1,-1,-1,-1,-1,-1,-1,-1,-1,-1,-1,-1,-1,-1,-1,-1,-1,-1,-1,-1,-1,-1,-1,-1,-1,-1,-1,-1,-1,-1],"loss_changes":[8.2683914E1,3.6703114E1,7.9888763E0,2.049021E1,1.4664188E1,5.4226303E0,1.4969622E0,9.597866E0,1.5240641E1,6.3087387E0,2.9392605E0,8.540943E0,4.7195396E0,1.1813993E0,1.5846453E0,4.8775215E0,4.818614E0,4.291238E0,1.2223163E1,2.8599916E0,5.177574E0,3.0057454E0,8.4729934E-1,3.5495644E0,3.6922612E0,3.2516184E0,6.1485996E0,1.674025E0,1.9989896E-1,1.4619324E0,1.6321119E0,6.5265694E0,4.2520256E0,3.4162507E0,1.886579E0,4.0785427E0,4.1670475E0,6.2483E0,1.3173025E1,4.671502E-1,3.6893857E-1,4.529297E0,1.1562015E0,1.9919007E0,5.5231047E-1,0E0,0E0,3.4497886E0,3.9168434E0,3.9714193E-1,3.1699154E0,1.9409797E0,3.3366814E0,5.8101954E0,3.3377724E0,1.4501436E0,3.8494825E-1,0E0,0E0,7.803483E-1,1.3474983E0,3.450423E-1,9.9504066E-1,0E0,0E0,0E0,0E0,0E0,0E0,0E0,0E0,0E0,0E0,0E0,0E0,0E0,0E0,0E0,0E0,0E0,0E0,0E0,0E0,0E0,0E0,0E0,0E0,0E0,0E0,0E0,0E0,0E0,0E0,0E0,0E0,0E0,0E0,0E0,0E0,0E0,0E0,0E0,0E0,0E0,0E0,0E0,0E0,0E0,0E0,0E0,0E0,0E0,0E0,0E0,0E0,0E0,0E0,0E0,0E0],"parents":[2147483647,0,0,1,1,2,2,3,3,4,4,5,5,6,6,7,7,8,8,9,9,10,10,11,11,12,12,13,13,14,14,15,15,16,16,17,17,18,18,19,19,20,20,21,21,22,22,23,23,24,24,25,25,26,26,27,27,28,28,29,29,30,30,31,31,32,32,33,33,34,34,35,35,36,36,37,37,38,38,39,39,40,40,41,41,42,42,43,43,44,44,47,47,48,48,49,49,50,50,51,51,52,52,53,53,54,54,55,55,56,56,59,59,60,60,61,61,62,62],"right_children":[2,4,6,8,10,12,14,16,18,20,22,24,26,28,30,32,34,36,38,40,42,44,46,48,50,52,54,56,58,60,62,64,66,68,70,72,74,76,78,80,82,84,86,88,90,-1,-1,92,94,96,98,100,102,104,106,108,110,-1,-1,112,114,116,118,-1,-1,-1,-1,-1,-1,-1,-1,-1,-1,-1,-1,-1,-1,-1,-1,-1,-1,-1,-1,-1,-1,-1,-1,-1,-1,-1,-1,-1,-1,-1,-1,-1,-1,-1,-1,-1,-1,-1,-1,-1,-1,-1,-1,-1,-1,-1,-1,-1,-1,-1,-1,-1,-1,-1,-1],"split_conditions":[1.4E2,1.44E2,1.36E2,9.1E1,3E0,2E0,2E0,1E0,1.06E2,8.4E1,1E2,1.61E2,9.8E1,1.48E2,1E0,2E0,8.9E1,1.04E2,3E0,1.51E2,1.31E2,2E0,3E0,9.8E1,2E0,2E0,1.01E2,2E0,3E0,2E0,1.39E2,2E0,2E0,8.8E1,3E0,9.6E1,1.18E2,1.38E2,2E0,3E0,3E0,1.08E2,3E0,2E0,1.109E3,-3.968858E-2,7.407576E-3,1E0,2E0,3E0,1E0,2E0,2E0,1E0,1.5E2,2E0,2E0,6.458533E-3,2.7368134E-2,2E0,3E0,1.46E2,2E0,-1.1337864E-2,-3.5997476E-2,-3.6661176E-3,-1.8310321E-2,-5.9120305E-2,-3.839312E-3,2.6500491E-2,8.592685E-4,-9.423244E-3,-2.2193694E-3,-5.706855E-3,-2.253306E-2,-8.0318574E-4,-1.3089341E-2,1.2129942E-2,4.1161184E-4,3.7449587E-2,1.0556857E-2,-2.769936E-2,3.3307434E-3,-2.0749275E-2,-3.543481E-2,8.228319E-3,-1.2649277E-2,1.5843777E-2,-3.1642016E-2,3.5601452E-2,4.8495056E-3,1.258948E-2,-2.9256398E-2,1.3418525E-2,2.738118E-2,-4.6897303E-2,-1.19005E-2,1.9946765E-2,-1.4984357E-2,-1.6016755E-2,1.45394495E-2,1.19263595E-2,3.8352005E-2,2.1349145E-2,-1.1912763E-2,7.26987E-3,1.4886342E-2,4.132275E-3,-2.1410165E-2,-6.609857E-3,-2.2827676E-2,2.58566E-2,-3.0905341E-3,-1.6836375E-2,2.0225378E-2,3.582436E-3,-2.7249727E-2,5.7423543E-3,2.453438E-2],"split_indices":[11,0,0,11,6,17,15,19,0,11,11,11,0,11,3,7,11,0,16,0,11,15,2,0,5,15,0,4,2,8,0,4,13,0,14,0,11,0,6,8,15,11,15,4,0,0,0,23,16,14,12,6,5,3,11,17,13,0,0,13,6,11,8,0,0,0,0,0,0,0,0,0,0,0,0,0,0,0,0,0,0,0,0,0,0,0,0,0,0,0,0,0,0,0,0,0,0,0,0,0,0,0,0,0,0,0,0,0,0,0,0,0,0,0,0,0,0,0,0],"split_type":[0,0,0,0,0,0,0,0,0,0,0,0,0,0,0,0,0,0,0,0,0,0,0,0,0,0,0,0,0,0,0,0,0,0,0,0,0,0,0,0,0,0,0,0,0,0,0,0,0,0,0,0,0,0,0,0,0,0,0,0,0,0,0,0,0,0,0,0,0,0,0,0,0,0,0,0,0,0,0,0,0,0,0,0,0,0,0,0,0,0,0,0,0,0,0,0,0,0,0,0,0,0,0,0,0,0,0,0,0,0,0,0,0,0,0,0,0,0,0],"sum_hessian":[5.456E3,4.291E3,1.165E3,4.004E3,2.87E2,1.047E3,1.18E2,3.92E2,3.612E3,2.61E2,2.6E1,3.11E2,7.36E2,6E1,5.8E1,3.15E2,7.7E1,9.92E2,2.62E3,1.2E1,2.49E2,2.3E1,3E0,2.81E2,3E1,8E1,6.56E2,5.4E1,6E0,2.6E1,3.2E1,1.11E2,2.04E2,4.6E1,3.1E1,8.44E2,1.48E2,1.641E3,9.79E2,8E0,4E0,2.23E2,2.6E1,7E0,1.6E1,2E0,1E0,3.2E1,2.49E2,6E0,2.4E1,2.6E1,5.4E1,7.3E1,5.83E2,3.2E1,2.2E1,5E0,1E0,8E0,1.8E1,3E0,2.9E1,4.9E1,6.2E1,8.6E1,1.18E2,2E0,4.4E1,2E1,1.1E1,3.11E2,5.33E2,7.5E1,7.3E1,1.531E3,1.1E2,4.18E2,5.61E2,4E0,4E0,3E0,1E0,1.09E2,1.14E2,1E1,1.6E1,4E0,3E0,1.4E1,2E0,2.7E1,5E0,7.5E1,1.74E2,4E0,2E0,1.2E1,1.2E1,6E0,2E1,2E1,3.4E1,1.6E1,5.7E1,3.06E2,2.77E2,2.6E1,6E0,6E0,1.6E1,4E0,4E0,1.6E1,2E0,1E0,2E0,1.4E1,1.5E1],"tree_param":{"num_deleted":"0","num_feature":"25","num_nodes":"119","size_leaf_vector":"1"}},{"base_weights":[-2.756954E-3,2.3191953E-1,-1.7165592E-1,2.7533123E-1,-3.338483E-3,-2.3223361E-1,3.7873454E-2,3.2252738E-1,1.1010841E-1,-3.0035937E-1,3.565594E-2,-1.7085913E-1,-3.6639428E-1,-3.8571322E-1,6.0698032E-2,2.511473E-1,4.8858124E-1,2.8665695E-2,2.9482296E-1,-8.230093E-1,-1.1131221E-1,-5.479635E-1,5.430719E-2,-3.005155E-1,-1.4635688E-1,-5.3074986E-1,-1.9333509E-1,-5.7732123E-1,3.8103098E-1,7.142531E-2,-5.468759E-1,8.7963305E-2,2.874761E-1,2.516499E-1,6.12563E-1,-9.105457E-1,5.722243E-2,1.3203089E-1,4.8480654E-1,-4.6180308E-2,4.573971E-3,-4.3015122E-1,1.6057098E-1,-5.5372227E-2,-1.4997959E-1,2.5835094E-1,-6.03063E-3,-2.0625757E-1,-5.3964764E-1,-1.1434699E-1,-2.3385845E-1,-4.434288E-1,-7.541043E-1,-2.701307E-1,-1.2686777E-2,-4.237435E-2,-3.9986402E-1,-2.1160913E-1,3.8946845E-2,-4.0873736E-2,1.281674E-1,-1.0408347E0,-4.5357533E-2,-2.0302718E-3,2.0798376E-2,1.199886E-2,2.1454291E-2,2.458839E-3,1.6468301E-2,3.284987E-2,-1.8962031E-3,4.094386E-3,-5.224179E-2,-1.4336415E-3,1.1124663E-2,1.955927E-2,-6.5345997E-3,-3.568649E-2,3.0228196E-2,-2.9929994E-2,2.215883E-2,-6.5016E-3,3.817245E-2,5.8356524E-3,-2.7223706E-2,2.2929244E-2,-8.97335E-3,3.8781234E-3,-1.38617875E-2,7.3580476E-3,-1.4891053E-2,-2.3134299E-2,-6.1608594E-2,-9.015449E-3,-3.4322112E-3,-7.13154E-3,-2.0281924E-2,-1.5922796E-2,-2.9227868E-2,-4.1341156E-2,1.4275148E-2,-1.5191453E-2,1.5925175E-2,4.629495E-3,-9.89361E-3,2.4008434E-2,-2.6216073E-2,-2.1998322E-2,5.58273E-4,-1.2265346E-2,7.6357464E-5,7.734906E-3,-1.6345998E-2,-6.370806E-2,3.1449439E-3,2.255102E-2,-4.2876747E-2],"categories":[],"categories_nodes":[],"categories_segments":[],"categories_sizes":[],"default_left":[0,0,0,0,0,0,0,0,0,0,0,0,0,0,0,0,0,0,0,0,0,0,0,0,0,0,0,0,0,0,0,0,0,0,0,0,0,0,0,0,0,0,0,0,0,0,0,0,0,0,0,0,0,0,0,0,0,0,0,0,0,0,0,0,0,0,0,0,0,0,0,0,0,0,0,0,0,0,0,0,0,0,0,0,0,0,0,0,0,0,0,0,0,0,0,0,0,0,0,0,0,0,0,0,0,0,0,0,0,0,0,0,0,0,0,0,0],"id":7,"left_children":[1,3,5,7,9,11,13,15,17,19,21,23,25,27,29,31,33,35,37,39,41,43,45,47,49,51,53,55,57,59,61,63,65,67,69,71,73,75,77,-1,-1,79,81,-1,83,85,87,89,91,93,95,97,99,101,103,-1,105,107,-1,109,111,113,115,-1,-1,-1,-1,-1,-1,-1,-1,-1,-1,-1,-1,-1,-1,-1,-1,-1,-1,-1,-1,-1,-1,-1,-1,-1,-1,-1,-1,-1,-1,-1,-1,-1,-1,-1,-1,-1,-1,-1,-1,-1,-1,-1,-1,-1,-1,-1,-1,-1,-1,-1,-1,-1,-1],"loss_changes":[2.1887357E2,2.3603058E1,4.076539E1,1.5178146E1,4.1918683E0,2.0448395E1,6.994174E0,1.7858215E1,6.535538E0,4.058219E0,3.5130324E0,5.3916435E0,2.2111565E1,5.655808E0,4.5036297E0,6.276474E0,1.3211548E1,8.178809E0,4.049391E0,1.0964327E0,2.8430529E0,2.0605505E0,3.8304517E0,5.9970627E0,4.0093765E0,7.4670258E0,5.2960577E0,1.0994062E0,2.0513499E0,4.300023E0,2.925543E0,8.240253E0,5.7421875E0,2.4699993E0,8.638298E0,1.2850261E0,4.1941934E0,5.021389E0,9.18704E0,0E0,0E0,2.4719481E0,3.2528393E0,0E0,8.000088E-1,6.3065867E0,5.4851837E0,6.3864307E0,3.480526E0,3.1741028E0,5.9755116E0,4.9286423E0,8.627544E0,5.412819E0,2.2603269E0,0E0,2.4422948E0,2.0840123E-1,0E0,1.9680442E0,5.4596314E0,1.6253247E0,3.2087948E0,0E0,0E0,0E0,0E0,0E0,0E0,0E0,0E0,0E0,0E0,0E0,0E0,0E0,0E0,0E0,0E0,0E0,0E0,0E0,0E0,0E0,0E0,0E0,0E0,0E0,0E0,0E0,0E0,0E0,0E0,0E0,0E0,0E0,0E0,0E0,0E0,0E0,0E0,0E0,0E0,0E0,0E0,0E0,0E0,0E0,0E0,0E0,0E0,0E0,0E0,0E0,0E0,0E0,0E0],"parents":[2147483647,0,0,1,1,2,2,3,3,4,4,5,5,6,6,7,7,8,8,9,9,10,10,11,11,12,12,13,13,14,14,15,15,16,16,17,17,18,18,19,19,20,20,21,21,22,22,23,23,24,24,25,25,26,26,27,27,28,28,29,29,30,30,31,31,32,32,33,33,34,34,35,35,36,36,37,37,38,38,41,41,42,42,44,44,45,45,46,46,47,47,48,48,49,49,50,50,51,51,52,52,53,53,54,54,56,56,57,57,59,59,60,60,61,61,62,62],"right_children":[2,4,6,8,10,12,14,16,18,20,22,24,26,28,30,32,34,36,38,40,42,44,46,48,50,52,54,56,58,60,62,64,66,68,70,72,74,76,78,-1,-1,80,82,-1,84,86,88,90,92,94,96,98,100,102,104,-1,106,108,-1,110,112,114,116,-1,-1,-1,-1,-1,-1,-1,-1,-1,-1,-1,-1,-1,-1,-1,-1,-1,-1,-1,-1,-1,-1,-1,-1,-1,-1,-1,-1,-1,-1,-1,-1,-1,-1,-1,-1,-1,-1,-1,-1,-1,-1,-1,-1,-1,-1,-1,-1,-1,-1,-1,-1,-1,-1],"split_conditions":[1.8E1,3E0,1.34E2,1.7E1,1.09E2,1.26E2,9.4E1,1.23E2,3E0,2E0,9.1E1,1E2,2E0,3E0,1.62E2,1.1E1,1.07E2,8.8E1,1E0,1.7E1,2E0,2E0,2E0,9.3E1,3E0,1.47E2,3E0,2E0,3E0,2E0,2E0,3E0,1.49E2,2E0,1.39E2,2E0,1.42E2,1.18E2,9.9E1,-4.6180308E-2,4.573971E-3,1E0,1.08E2,-5.5372227E-2,3E0,1.12E2,3E0,1.05E2,1.23E2,2E1,3E0,1.13E2,1.118E3,1E0,3E0,-4.237435E-2,8.5E1,8.9E1,3.8946845E-2,1.06E2,1E0,1.05E2,1E2,-2.0302718E-3,2.0798376E-2,1.199886E-2,2.1454291E-2,2.458839E-3,1.6468301E-2,3.284987E-2,-1.8962031E-3,4.094386E-3,-5.224179E-2,-1.4336415E-3,1.1124663E-2,1.955927E-2,-6.5345997E-3,-3.568649E-2,3.0228196E-2,-2.9929994E-2,2.215883E-2,-6.5016E-3,3.817245E-2,5.8356524E-3,-2.7223706E-2,2.2929244E-2,-8.97335E-3,3.8781234E-3,-1.38617875E-2,7.3580476E-3,-1.4891053E-2,-2.3134299E-2,-6.1608594E-2,-9.015449E-3,-3.4322112E-3,-7.13154E-3,-2.0281924E-2,-1.5922796E-2,-2.9227868E-2,-4.1341156E-2,1.4275148E-2,-1.5191453E-2,1.5925175E-2,4.629495E-3,-9.89361E-3,2.4008434E-2,-2.6216073E-2,-2.1998322E-2,5.58273E-4,-1.2265346E-2,7.6357464E-5,7.734906E-3,-1.6345998E-2,-6.370806E-2,3.1449439E-3,2.255102E-2,-4.2876747E-2],"split_indices":[1,6,11,1,11,0,0,0,9,14,0,11,6,6,11,1,11,11,12,1,13,13,14,11,9,0,2,9,8,6,10,15,11,2,0,5,11,0,0,0,0,23,11,0,9,0,15,0,0,1,14,11,0,22,4,0,0,0,0,0,23,0,0,0,0,0,0,0,0,0,0,0,0,0,0,0,0,0,0,0,0,0,0,0,0,0,0,0,0,0,0,0,0,0,0,0,0,0,0,0,0,0,0,0,0,0,0,0,0,0,0,0,0,0,0,0,0],"split_type":[0,0,0,0,0,0,0,0,0,0,0,0,0,0,0,0,0,0,0,0,0,0,0,0,0,0,0,0,0,0,0,0,0,0,0,0,0,0,0,0,0,0,0,0,0,0,0,0,0,0,0,0,0,0,0,0,0,0,0,0,0,0,0,0,0,0,0,0,0,0,0,0,0,0,0,0,0,0,0,0,0,0,0,0,0,0,0,0,0,0,0,0,0,0,0,0,0,0,0,0,0,0,0,0,0,0,0,0,0,0,0,0,0,0,0,0,0],"sum_hessian":[5.52E3,2.31E3,3.21E3,1.95E3,3.6E2,2.49E3,7.2E2,1.516E3,4.34E2,4.1E1,3.19E2,1.71E3,7.8E2,3.6E1,6.84E2,1.062E3,4.54E2,3.02E2,1.32E2,1E1,3.1E1,9E0,3.1E2,2.7E2,1.44E3,3.99E2,3.81E2,2.9E1,7E0,6.73E2,1.1E1,1.94E2,8.68E2,1.57E2,2.97E2,8E0,2.94E2,7.2E1,6E1,9E0,1E0,1.4E1,1.7E1,3E0,6E0,7E1,2.4E2,1.95E2,7.5E1,1.056E3,3.84E2,2.89E2,1.1E2,2.67E2,1.14E2,1E1,1.9E1,3E0,4E0,2.26E2,4.47E2,5E0,6E0,1.4E2,5.4E1,6.52E2,2.16E2,4.4E1,1.13E2,2.78E2,1.9E1,1E0,7E0,1.94E2,1E2,3.6E1,3.6E1,5E0,5.5E1,1.2E1,2E0,1.2E1,5E0,4E0,2E0,4.8E1,2.2E1,1.84E2,5.6E1,4E1,1.55E2,6.9E1,6E0,4.31E2,6.25E2,2.52E2,1.32E2,1.55E2,1.34E2,1.03E2,7E0,2.53E2,1.4E1,7.3E1,4.1E1,2E0,1.7E1,1E0,2E0,3.8E1,1.88E2,4.23E2,2.4E1,4E0,1E0,4E0,2E0],"tree_param":{"num_deleted":"0","num_feature":"25","num_nodes":"117","size_leaf_vector":"1"}},{"base_weights":[7.3580546E-3,2.2933729E-1,-1.5547104E-1,2.7791104E-1,-2.171976E-2,-1.9951545E-1,1.13380134E-1,3.260507E-1,1.0452069E-1,1.4285333E-1,-7.515884E-2,-2.9641953E-1,-1.3830945E-1,-2.0117717E-2,1.8501513E-1,2.7402252E-1,4.397855E-1,-3.4445032E-1,1.3705379E-1,5.444282E-1,-4.7616974E-2,-1.5934524E-1,1.0141851E-2,-1.9380635E-1,-5.343757E-1,-5.0028074E-1,-1.2147131E-1,-5.054171E-1,9.330689E-3,2.5151026E-1,-1.405217E-1,2.1136326E-1,3.472931E-1,4.597996E-1,-4.4988385E-1,7.151694E-1,-5.425963E-1,-6.852242E-2,2.2958809E-1,8.8968724E-1,1.867211E-1,-4.4238466E-1,1.0458378E-1,-5.33287E-2,-5.4407233E-1,6.6474825E-2,-3.6100364E-1,-1.3095611E-1,-3.0100214E-1,-5.7413805E-1,-8.603449E-2,6.798698E-1,-5.774303E-1,3.7003715E-2,-1.4664742E-1,-6.054274E-1,7.366616E-3,-1.1217004E-1,1.2751126E-1,1.665792E-1,4.458496E-1,1.5532424E-1,-5.2411306E-1,1.9695869E-2,8.000964E-3,1.0041363E-2,2.2220554E-2,1.0819471E-2,2.7073935E-2,-3.2368954E-2,-8.870397E-3,5.438518E-2,5.2122753E-3,-5.595987E-2,-1.0270971E-2,1.0080027E-2,-8.036558E-3,1.6094565E-2,-9.51841E-3,5.8271118E-2,-7.996979E-3,1.2464604E-2,-1.8796086E-2,5.713637E-3,-3.0479599E-2,-3.8566987E-3,3.9232645E-2,-5.770236E-3,3.418571E-2,-3.1457033E-2,2.2980612E-2,3.625502E-2,1.0629451E-3,2.505877E-2,-3.1216487E-2,-4.310674E-3,-1.6845973E-2,-2.6073435E-2,-1.1026576E-2,-2.3926904E-2,-3.9461594E-2,-1.9596167E-2,1.9726207E-2,5.2181955E-2,4.473861E-3,-3.9928872E-2,7.683122E-4,-6.043821E-3,1.3107006E-2,-8.517432E-3,-1.0110344E-3,-3.631554E-2,6.0189306E-3,-2.6293905E-3,-2.6832154E-2,-2.8270937E-3,1.1802677E-2,3.2292187E-2,6.946257E-3,2.4916535E-2,-1.1162221E-2,-2.8742714E-2,2.0689175E-2,-3.4127545E-2,1.797475E-2],"categories":[],"categories_nodes":[],"categories_segments":[],"categories_sizes":[],"default_left":[0,0,0,0,0,0,0,0,0,0,0,0,0,0,0,0,0,0,0,0,0,0,0,0,0,0,0,0,0,0,0,0,0,0,0,0,0,0,0,0,0,0,0,0,0,0,0,0,0,0,0,0,0,0,0,0,0,0,0,0,0,0,0,0,0,0,0,0,0,0,0,0,0,0,0,0,0,0,0,0,0,0,0,0,0,0,0,0,0,0,0,0,0,0,0,0,0,0,0,0,0,0,0,0,0,0,0,0,0,0,0,0,0,0,0,0,0,0,0,0,0,0,0,0,0],"id":8,"left_children":[1,3,5,7,9,11,13,15,17,19,21,23,25,27,29,31,33,35,37,39,41,43,45,47,49,51,53,55,57,59,61,63,65,67,69,71,73,75,77,79,81,83,85,87,89,91,93,95,97,99,101,103,105,107,109,111,-1,113,115,117,119,121,123,-1,-1,-1,-1,-1,-1,-1,-1,-1,-1,-1,-1,-1,-1,-1,-1,-1,-1,-1,-1,-1,-1,-1,-1,-1,-1,-1,-1,-1,-1,-1,-1,-1,-1,-1,-1,-1,-1,-1,-1,-1,-1,-1,-1,-1,-1,-1,-1,-1,-1,-1,-1,-1,-1,-1,-1,-1,-1,-1,-1,-1,-1],"loss_changes":[1.986868E2,2.8371094E1,3.757167E1,1.623413E1,3.335109E0,1.612127E1,4.2784348E0,8.903534E0,6.2549357E0,7.139316E0,2.055427E0,2.5632416E1,1.0129942E1,2.2484488E0,6.33451E0,4.7426376E0,8.700287E0,6.4768686E0,7.5678034E0,3.5389261E0,3.8916388E0,5.8443756E0,3.013803E0,4.9326954E0,5.6017914E0,7.1301403E0,6.3850956E0,6.7673373E-1,2.1537979E0,3.9200478E0,5.7556047E0,5.2608624E0,6.766941E0,9.167496E0,4.770894E-1,1.0245619E0,4.63051E0,3.1209579E0,1.06824255E1,4.5276814E0,6.5699613E-1,1.7450495E0,5.8688126E0,5.2947097E0,2.935995E0,3.707131E0,4.6265497E0,4.274518E0,4.710575E0,5.60614E0,4.1235566E0,9.8045135E-1,9.188934E0,7.8514905E0,4.131674E0,7.8933597E-1,0E0,1.8433172E0,1.53164E0,2.163391E0,2.6746283E0,5.7107863E0,3.325307E0,0E0,0E0,0E0,0E0,0E0,0E0,0E0,0E0,0E0,0E0,0E0,0E0,0E0,0E0,0E0,0E0,0E0,0E0,0E0,0E0,0E0,0E0,0E0,0E0,0E0,0E0,0E0,0E0,0E0,0E0,0E0,0E0,0E0,0E0,0E0,0E0,0E0,0E0,0E0,0E0,0E0,0E0,0E0,0E0,0E0,0E0,0E0,0E0,0E0,0E0,0E0,0E0,0E0,0E0,0E0,0E0,0E0,0E0,0E0,0E0,0E0,0E0],"parents":[2147483647,0,0,1,1,2,2,3,3,4,4,5,5,6,6,7,7,8,8,9,9,10,10,11,11,12,12,13,13,14,14,15,15,16,16,17,17,18,18,19,19,20,20,21,21,22,22,23,23,24,24,25,25,26,26,27,27,28,28,29,29,30,30,31,31,32,32,33,33,34,34,35,35,36,36,37,37,38,38,39,39,40,40,41,41,42,42,43,43,44,44,45,45,46,46,47,47,48,48,49,49,50,50,51,51,52,52,53,53,54,54,55,55,57,57,58,58,59,59,60,60,61,61,62,62],"right_children":[2,4,6,8,10,12,14,16,18,20,22,24,26,28,30,32,34,36,38,40,42,44,46,48,50,52,54,56,58,60,62,64,66,68,70,72,74,76,78,80,82,84,86,88,90,92,94,96,98,100,102,104,106,108,110,112,-1,114,116,118,120,122,124,-1,-1,-1,-1,-1,-1,-1,-1,-1,-1,-1,-1,-1,-1,-1,-1,-1,-1,-1,-1,-1,-1,-1,-1,-1,-1,-1,-1,-1,-1,-1,-1,-1,-1,-1,-1,-1,-1,-1,-1,-1,-1,-1,-1,-1,-1,-1,-1,-1,-1,-1,-1,-1,-1,-1,-1,-1,-1,-1,-1,-1,-1],"split_conditions":[1.8E1,3E0,1.4E2,1.7E1,2E0,2E0,2E0,1.23E2,9.2E1,2E0,1.06E2,1.31E2,8.5E1,9.6E1,1.5E2,1.4E1,1.47E2,8.2E1,1.01E2,1.09E2,1.1E2,1.03E2,1E0,1.23E2,1E0,9.4E1,1E2,1E0,1.42E2,3E0,3E0,1.19E2,1.31E2,1.02E2,1E0,1.18E2,8.7E1,2E0,1.39E2,1.36E2,1.2E2,1.5E1,1.7E1,1E0,1E0,1.1E1,2E0,1.27E2,9.8E1,1.49E2,1.42E2,1E0,1.41E2,3E0,1.31E2,3E0,7.366616E-3,2.1E1,1.24E2,9.6E1,1E0,2E0,1E0,1.9695869E-2,8.000964E-3,1.0041363E-2,2.2220554E-2,1.0819471E-2,2.7073935E-2,-3.2368954E-2,-8.870397E-3,5.438518E-2,5.2122753E-3,-5.595987E-2,-1.0270971E-2,1.0080027E-2,-8.036558E-3,1.6094565E-2,-9.51841E-3,5.8271118E-2,-7.996979E-3,1.2464604E-2,-1.8796086E-2,5.713637E-3,-3.0479599E-2,-3.8566987E-3,3.9232645E-2,-5.770236E-3,3.418571E-2,-3.1457033E-2,2.2980612E-2,3.625502E-2,1.0629451E-3,2.505877E-2,-3.1216487E-2,-4.310674E-3,-1.6845973E-2,-2.6073435E-2,-1.1026576E-2,-2.3926904E-2,-3.9461594E-2,-1.9596167E-2,1.9726207E-2,5.2181955E-2,4.473861E-3,-3.9928872E-2,7.683122E-4,-6.043821E-3,1.3107006E-2,-8.517432E-3,-1.0110344E-3,-3.631554E-2,6.0189306E-3,-2.6293905E-3,-2.6832154E-2,-2.8270937E-3,1.1802677E-2,3.2292187E-2,6.946257E-3,2.4916535E-2,-1.1162221E-2,-2.8742714E-2,2.0689175E-2,-3.4127545E-2,1.797475E-2],"split_indices":[1,6,11,1,15,6,6,0,11,9,0,0,11,0,11,1,0,11,0,0,11,0,18,11,20,0,0,24,11,13,15,11,11,11,3,0,11,15,0,11,0,1,1,22,23,1,17,0,0,0,0,3,0,6,11,4,0,1,0,0,23,8,19,0,0,0,0,0,0,0,0,0,0,0,0,0,0,0,0,0,0,0,0,0,0,0,0,0,0,0,0,0,0,0,0,0,0,0,0,0,0,0,0,0,0,0,0,0,0,0,0,0,0,0,0,0,0,0,0,0,0,0,0,0,0],"split_type":[0,0,0,0,0,0,0,0,0,0,0,0,0,0,0,0,0,0,0,0,0,0,0,0,0,0,0,0,0,0,0,0,0,0,0,0,0,0,0,0,0,0,0,0,0,0,0,0,0,0,0,0,0,0,0,0,0,0,0,0,0,0,0,0,0,0,0,0,0,0,0,0,0,0,0,0,0,0,0,0,0,0,0,0,0,0,0,0,0,0,0,0,0,0,0,0,0,0,0,0,0,0,0,0,0,0,0,0,0,0,0,0,0,0,0,0,0,0,0,0,0,0,0,0,0],"sum_hessian":[5.495E3,2.325E3,3.17E3,1.948E3,3.77E2,2.724E3,4.46E2,1.524E3,4.24E2,9.2E1,2.85E2,1.053E3,1.671E3,1.56E2,2.9E2,1.048E3,4.76E2,2.8E1,3.96E2,2.9E1,6.3E1,1.43E2,1.42E2,7.37E2,3.16E2,7.3E1,1.598E3,8E0,1.48E2,2.41E2,4.9E1,5.67E2,4.81E2,4.66E2,1E1,4E0,2.4E1,1.23E2,2.73E2,1.4E1,1.5E1,1.7E1,4.6E1,1.13E2,3E1,1.24E2,1.8E1,4.66E2,2.71E2,2.9E2,2.6E1,4E0,6.9E1,2.19E2,1.379E3,7E0,1E0,7.3E1,7.5E1,1.69E2,7.2E1,2.8E1,2.1E1,1.23E2,4.44E2,1.93E2,2.88E2,1.18E2,3.48E2,5E0,5E0,2E0,2E0,8E0,1.6E1,3.1E1,9.2E1,2.24E2,4.9E1,1.1E1,3E0,1.4E1,1E0,4E0,1.3E1,3.7E1,9E0,1.05E2,8E0,2.8E1,2E0,7E0,1.17E2,4E0,1.4E1,3.84E2,8.2E1,7.1E1,2E2,2.03E2,8.7E1,1.6E1,1E1,2E0,2E0,5E1,1.9E1,1.29E2,9E1,1.161E3,2.18E2,6E0,1E0,6.5E1,8E0,2.8E1,4.7E1,8E0,1.61E2,6.7E1,5E0,7E0,2.1E1,1.8E1,3E0],"tree_param":{"num_deleted":"0","num_feature":"25","num_nodes":"125","size_leaf_vector":"1"}},{"base_weights":[1.048875E-2,2.117627E-1,-1.3363042E-1,2.4565484E-1,2.7036583E-2,-1.8909763E-1,6.2333625E-2,2.9763538E-1,6.291365E-2,4.5967523E-2,-3.3310157E-1,-1.3563317E-1,-3.5686675E-1,-2.657712E-1,8.4409274E-2,1.503262E-1,3.3543894E-1,-5.2573097E-1,9.578172E-2,2.5724346E-2,7.898575E-1,-6.3930005E-1,1.2955904E-1,-2.4904495E-1,-1.0980687E-1,-5.157092E-1,-1.8139987E-1,-4.633316E-1,4.720233E-1,8.824491E-2,-3.9634023E-2,-2.1141853E-2,2.3782761E-1,1.4963725E-1,4.0483773E-1,-6.386085E-1,4.3965578E-1,2.070303E-2,2.7704936E-1,9.432619E-2,-1.9240806E-1,6.0962554E-2,-4.7534642E-1,-9.487605E-2,-4.684229E-2,2.7541596E-2,-9.313072E-3,-2.972365E-1,9.50512E-2,-1.3508542E-1,6.943861E-3,-4.5766696E-1,-7.295112E-1,-7.6788984E-2,-3.5861847E-1,-6.4812666E-1,-1.9182989E-1,-3.1044483E-1,7.0644593E-1,6.289085E-2,2.1536544E-1,8.209847E-3,-5.0055183E-2,2.5059989E-2,7.5100325E-3,3.384368E-2,4.625956E-3,2.1069402E-2,-3.796352E-3,-4.1946203E-2,1.00046396E-4,4.6345354E-3,2.8339649E-2,1.1217052E-2,-3.6536981E-3,9.278059E-5,3.0112231E-2,-1.0386909E-2,6.558485E-3,-4.2355307E-3,-5.1630445E-2,5.906922E-3,-4.1557904E-2,-1.8644447E-2,3.3924698E-3,-1.030941E-2,5.533731E-3,-1.1569256E-2,-2.446457E-2,1.9090982E-2,-2.424112E-2,-5.01896E-3,-9.881301E-3,1.3188155E-2,-4.0588723E-3,-1.3731502E-2,-2.7377537E-2,-3.8205277E-2,1.2583487E-2,-8.275602E-3,1.0362844E-2,-3.4731457E-3,-2.8776575E-2,-1.0502538E-2,-4.0467683E-2,-3.7533186E-2,6.5213824E-3,-2.177604E-2,-1.507324E-3,4.0635742E-2,-9.359062E-4,4.7061713E-3,-2.3213297E-3,2.2323271E-2,-3.6748542E-4],"categories":[],"categories_nodes":[],"categories_segments":[],"categories_sizes":[],"default_left":[0,0,0,0,0,0,0,0,0,0,0,0,0,0,0,0,0,0,0,0,0,0,0,0,0,0,0,0,0,0,0,0,0,0,0,0,0,0,0,0,0,0,0,0,0,0,0,0,0,0,0,0,0,0,0,0,0,0,0,0,0,0,0,0,0,0,0,0,0,0,0,0,0,0,0,0,0,0,0,0,0,0,0,0,0,0,0,0,0,0,0,0,0,0,0,0,0,0,0,0,0,0,0,0,0,0,0,0,0,0,0,0,0,0,0],"id":9,"left_children":[1,3,5,7,9,11,13,15,17,19,21,23,25,27,29,31,33,35,37,39,41,43,45,47,49,51,53,55,57,59,-1,61,63,65,67,69,71,73,75,77,79,-1,81,83,-1,-1,85,87,89,91,93,95,97,99,101,103,105,107,109,111,113,-1,-1,-1,-1,-1,-1,-1,-1,-1,-1,-1,-1,-1,-1,-1,-1,-1,-1,-1,-1,-1,-1,-1,-1,-1,-1,-1,-1,-1,-1,-1,-1,-1,-1,-1,-1,-1,-1,-1,-1,-1,-1,-1,-1,-1,-1,-1,-1,-1,-1,-1,-1,-1,-1],"loss_changes":[1.6003331E2,1.4405624E1,3.4957478E1,1.845681E1,2.4560678E0,2.2429626E1,5.165055E0,8.380753E0,8.408526E0,5.1146965E0,2.632815E0,5.543621E0,1.6768768E1,6.7778573E0,2.310503E0,4.671178E0,1.5464294E1,2.7870889E0,5.5740933E0,5.0012555E0,5.469E0,1.693017E0,4.7315437E-1,5.865301E0,4.5783863E0,3.5999603E0,5.3302317E0,1.6818681E0,2.0535948E0,2.1265416E0,0E0,1.9416618E1,4.678891E0,9.845131E0,7.0021515E0,2.6964836E0,7.980001E-2,5.573492E0,1.0737885E1,2.8540428E0,7.151526E0,0E0,7.3169804E-1,2.5149915E-1,0E0,0E0,1.8817794E-1,3.794733E0,7.5018497E0,2.74761E0,6.2902665E0,3.9955444E0,2.4325523E0,4.6461635E0,6.671234E0,1.3132181E0,2.9793215E0,9.204632E-2,6.317117E-1,1.899287E0,5.6649227E0,0E0,0E0,0E0,0E0,0E0,0E0,0E0,0E0,0E0,0E0,0E0,0E0,0E0,0E0,0E0,0E0,0E0,0E0,0E0,0E0,0E0,0E0,0E0,0E0,0E0,0E0,0E0,0E0,0E0,0E0,0E0,0E0,0E0,0E0,0E0,0E0,0E0,0E0,0E0,0E0,0E0,0E0,0E0,0E0,0E0,0E0,0E0,0E0,0E0,0E0,0E0,0E0,0E0,0E0],"parents":[2147483647,0,0,1,1,2,2,3,3,4,4,5,5,6,6,7,7,8,8,9,9,10,10,11,11,12,12,13,13,14,14,15,15,16,16,17,17,18,18,19,19,20,20,21,21,22,22,23,23,24,24,25,25,26,26,27,27,28,28,29,29,31,31,32,32,33,33,34,34,35,35,36,36,37,37,38,38,39,39,40,40,42,42,43,43,46,46,47,47,48,48,49,49,50,50,51,51,52,52,53,53,54,54,55,55,56,56,57,57,58,58,59,59,60,60],"right_children":[2,4,6,8,10,12,14,16,18,20,22,24,26,28,30,32,34,36,38,40,42,44,46,48,50,52,54,56,58,60,-1,62,64,66,68,70,72,74,76,78,80,-1,82,84,-1,-1,86,88,90,92,94,96,98,100,102,104,106,108,110,112,114,-1,-1,-1,-1,-1,-1,-1,-1,-1,-1,-1,-1,-1,-1,-1,-1,-1,-1,-1,-1,-1,-1,-1,-1,-1,-1,-1,-1,-1,-1,-1,-1,-1,-1,-1,-1,-1,-1,-1,-1,-1,-1,-1,-1,-1,-1,-1,-1,-1,-1,-1,-1,-1,-1],"split_conditions":[1.8E1,3E0,1.34E2,1.7E1,1.21E2,1.31E2,9.4E1,1.04E2,9.2E1,1.2E2,3E0,1E2,2E0,3E0,1.65E2,2E0,1.2E1,1E0,1.44E2,3E0,3E0,1E0,1.22E2,1E0,3E0,1.51E2,2.1E1,3E0,1E0,3E0,-3.9634023E-2,3E0,2E0,1.19E2,1.39E2,3E0,7.4E1,2E0,2E0,1.1E2,1E0,6.0962554E-2,1E0,1.23E2,-4.684229E-2,2.7541596E-2,1.6E1,9.3E1,3E0,3E0,1E2,2E0,1.118E3,3E0,9.6E1,1.37E2,1E0,8.9E1,1.41E2,2.1E1,1.17E2,8.209847E-3,-5.0055183E-2,2.5059989E-2,7.5100325E-3,3.384368E-2,4.625956E-3,2.1069402E-2,-3.796352E-3,-4.1946203E-2,1.00046396E-4,4.6345354E-3,2.8339649E-2,1.1217052E-2,-3.6536981E-3,9.278059E-5,3.0112231E-2,-1.0386909E-2,6.558485E-3,-4.2355307E-3,-5.1630445E-2,5.906922E-3,-4.1557904E-2,-1.8644447E-2,3.3924698E-3,-1.030941E-2,5.533731E-3,-1.1569256E-2,-2.446457E-2,1.9090982E-2,-2.424112E-2,-5.01896E-3,-9.881301E-3,1.3188155E-2,-4.0588723E-3,-1.3731502E-2,-2.7377537E-2,-3.8205277E-2,1.2583487E-2,-8.275602E-3,1.0362844E-2,-3.4731457E-3,-2.8776575E-2,-1.0502538E-2,-4.0467683E-2,-3.7533186E-2,6.5213824E-3,-2.177604E-2,-1.507324E-3,4.0635742E-2,-9.359062E-4,4.7061713E-3,-2.3213297E-3,2.2323271E-2,-3.6748542E-4],"split_indices":[1,6,11,1,0,0,0,11,0,0,17,11,6,6,11,17,1,21,11,17,7,12,0,24,6,0,1,16,3,6,0,10,7,11,0,17,0,10,4,11,19,0,3,0,0,0,1,11,16,4,0,2,0,5,11,11,3,0,11,1,0,0,0,0,0,0,0,0,0,0,0,0,0,0,0,0,0,0,0,0,0,0,0,0,0,0,0,0,0,0,0,0,0,0,0,0,0,0,0,0,0,0,0,0,0,0,0,0,0,0,0,0,0,0,0],"split_type":[0,0,0,0,0,0,0,0,0,0,0,0,0,0,0,0,0,0,0,0,0,0,0,0,0,0,0,0,0,0,0,0,0,0,0,0,0,0,0,0,0,0,0,0,0,0,0,0,0,0,0,0,0,0,0,0,0,0,0,0,0,0,0,0,0,0,0,0,0,0,0,0,0,0,0,0,0,0,0,0,0,0,0,0,0,0,0,0,0,0,0,0,0,0,0,0,0,0,0,0,0,0,0,0,0,0,0,0,0,0,0,0,0,0,0],"sum_hessian":[5.515E3,2.301E3,3.214E3,1.944E3,3.57E2,2.505E3,7.09E2,1.513E3,4.31E2,3.4E2,1.7E1,1.901E3,6.04E2,4.4E1,6.65E2,3.1E2,1.203E3,2.2E1,4.09E2,3.32E2,8E0,1E1,7E0,3.51E2,1.55E3,3.16E2,2.88E2,3.5E1,9E0,6.63E2,2E0,1.05E2,2.05E2,3.28E2,8.75E2,2E1,2E0,2.9E2,1.19E2,2.53E2,7.9E1,6E0,2E0,4E0,6E0,1E0,6E0,3.08E2,4.3E1,1.274E3,2.76E2,2.51E2,6.5E1,1.82E2,1.06E2,2E1,1.5E1,2E0,7E0,5.54E2,1.09E2,8.9E1,1.6E1,5E1,1.55E2,3.1E1,2.97E2,8.46E2,2.9E1,1.5E1,5E0,1E0,1E0,9.1E1,1.99E2,6.5E1,5.4E1,2.7E1,2.26E2,7.1E1,8E0,1E0,1E0,1E0,3E0,2E0,4E0,2.31E2,7.7E1,2.9E1,1.4E1,8.21E2,4.53E2,7E1,2.06E2,8.4E1,1.67E2,6.3E1,2E0,1.39E2,4.3E1,4.6E1,6E1,6E0,1.4E1,5E0,1E1,1E0,1E0,6E0,1E0,4.31E2,1.23E2,5.3E1,5.6E1],"tree_param":{"num_deleted":"0","num_feature":"25","num_nodes":"115","size_leaf_vector":"1"}},{"base_weights":[-8.132755E-3,1.8030228E-1,-1.4457485E-1,2.1739875E-1,3.5978667E-2,-1.03033684E-1,-2.4314688E-1,1.6821001E-1,3.5952568E-1,-3.4103844E-1,6.1719615E-2,-5.65639E-1,-9.962244E-2,-2.123217E-1,-3.9870572E-1,7.9253055E-2,2.0317729E-1,3.8905722E-1,-1.3395126E-1,-7.43687E-2,-6.404918E-1,9.595598E-2,-2.0587373E-1,-8.1788003E-1,1.5286732E-1,-5.0979204E-2,-1.2429254E-1,-2.454453E-1,-8.344623E-2,-1.80823E-1,-5.7552814E-1,2.5529334E-1,3.4176619E-3,1.8423335E-1,4.8152098E-1,4.4181013E-1,2.3109283E-1,-8.9842427E-1,3.806249E-2,2.0930405E-1,-6.293194E-1,-8.963882E-1,-2.5654E-1,3.017169E-2,2.4496092E-1,-8.4283754E-2,-6.293033E-1,-1.1248826E0,-1.6309996E-1,3.8278228E-1,-1.9169813E-2,-2.7944032E-2,-2.9046947E-1,-1.104929E-1,-2.2556862E-1,-2.9296649E-1,-1.4418596E-1,-6.322177E-2,-5.6376375E-2,-4.7384673E-1,5.0790958E-2,-6.974335E-1,-3.3285072E-1,6.0578864E-3,3.338724E-2,1.4126368E-3,-1.6176974E-2,-4.8888482E-2,9.329758E-3,3.3863567E-2,6.433042E-3,2.11893E-2,4.4056546E-2,-1.2916081E-2,2.429523E-2,2.2151114E-3,-5.725907E-2,1.6493743E-2,-2.2626033E-2,2.9404918E-2,-1.3375332E-2,-5.3151358E-2,7.936537E-3,-5.1964242E-2,2.5972128E-3,9.050119E-3,-3.149737E-2,7.2258473E-3,-5.638649E-3,3.8217828E-2,9.249107E-3,-1.031663E-2,5.5842637E-3,-4.9496274E-2,-8.189861E-3,-6.2495667E-2,-2.4993015E-2,1.068801E-2,-4.1763514E-2,5.4731173E-3,3.0068552E-2,-5.7257954E-3,1.4287359E-3,-5.81172E-4,-2.2670647E-2,-4.946118E-3,-1.38502065E-2,-1.37969805E-2,1.445455E-2,-1.7150158E-2,-8.155014E-3,-1.0724638E-2,4.1460423E-3,1.8211132E-3,-1.4720368E-2,-4.38106E-2,-6.7285597E-3,-8.951401E-3,1.3362378E-2,-3.7711706E-2,1.076667E-2,-3.3395838E-2,-3.6183426E-3],"categories":[],"categories_nodes":[],"categories_segments":[],"categories_sizes":[],"default_left":[0,0,0,0,0,0,0,0,0,0,0,0,0,0,0,0,0,0,0,0,0,0,0,0,0,0,0,0,0,0,0,0,0,0,0,0,0,0,0,0,0,0,0,0,0,0,0,0,0,0,0,0,0,0,0,0,0,0,0,0,0,0,0,0,0,0,0,0,0,0,0,0,0,0,0,0,0,0,0,0,0,0,0,0,0,0,0,0,0,0,0,0,0,0,0,0,0,0,0,0,0,0,0,0,0,0,0,0,0,0,0,0,0,0,0,0,0,0,0,0,0,0,0],"id":10,"left_children":[1,3,5,7,9,11,13,15,17,19,21,23,25,27,29,31,33,35,37,39,41,43,45,47,49,51,53,55,57,59,61,63,65,67,69,71,73,75,77,79,81,83,85,87,89,91,93,95,97,99,-1,101,103,105,107,109,111,113,-1,115,117,119,121,-1,-1,-1,-1,-1,-1,-1,-1,-1,-1,-1,-1,-1,-1,-1,-1,-1,-1,-1,-1,-1,-1,-1,-1,-1,-1,-1,-1,-1,-1,-1,-1,-1,-1,-1,-1,-1,-1,-1,-1,-1,-1,-1,-1,-1,-1,-1,-1,-1,-1,-1,-1,-1,-1,-1,-1,-1,-1,-1,-1],"loss_changes":[1.3945396E2,1.2188347E1,1.2857178E1,1.26073E1,4.5531797E0,3.439045E0,4.384407E0,4.17696E0,6.8286247E0,2.3480217E0,4.0324583E0,3.024816E0,2.6337357E0,3.3091965E0,5.790493E0,5.0988593E0,5.0102043E0,3.5561218E0,3.584693E0,2.8079338E0,1.1455669E0,3.805659E0,2.5211995E0,2.2287617E0,7.632324E-1,4.085274E0,2.0141354E0,2.9411736E0,3.3283892E0,4.774854E0,2.2528877E0,6.2814054E0,2.1853025E0,2.6716137E0,4.1262836E0,2.2238235E0,1.4092878E1,1.2138567E0,3.4419143E0,2.3246784E0,2.219436E0,1.1380935E0,1.2576928E0,4.4458046E0,3.5657806E0,9.7975594E-1,1.684443E0,3.938675E-4,1.4451187E0,1.731512E-1,0E0,3.3206818E0,2.948079E0,2.4502363E0,4.5905313E0,2.6797485E0,3.2112164E0,3.6734898E0,0E0,4.1139793E0,2.0376785E0,3.0139294E0,2.5700443E0,0E0,0E0,0E0,0E0,0E0,0E0,0E0,0E0,0E0,0E0,0E0,0E0,0E0,0E0,0E0,0E0,0E0,0E0,0E0,0E0,0E0,0E0,0E0,0E0,0E0,0E0,0E0,0E0,0E0,0E0,0E0,0E0,0E0,0E0,0E0,0E0,0E0,0E0,0E0,0E0,0E0,0E0,0E0,0E0,0E0,0E0,0E0,0E0,0E0,0E0,0E0,0E0,0E0,0E0,0E0,0E0,0E0,0E0,0E0,0E0],"parents":[2147483647,0,0,1,1,2,2,3,3,4,4,5,5,6,6,7,7,8,8,9,9,10,10,11,11,12,12,13,13,14,14,15,15,16,16,17,17,18,18,19,19,20,20,21,21,22,22,23,23,24,24,25,25,26,26,27,27,28,28,29,29,30,30,31,31,32,32,33,33,34,34,35,35,36,36,37,37,38,38,39,39,40,40,41,41,42,42,43,43,44,44,45,45,46,46,47,47,48,48,49,49,51,51,52,52,53,53,54,54,55,55,56,56,57,57,59,59,60,60,61,61,62,62],"right_children":[2,4,6,8,10,12,14,16,18,20,22,24,26,28,30,32,34,36,38,40,42,44,46,48,50,52,54,56,58,60,62,64,66,68,70,72,74,76,78,80,82,84,86,88,90,92,94,96,98,100,-1,102,104,106,108,110,112,114,-1,116,118,120,122,-1,-1,-1,-1,-1,-1,-1,-1,-1,-1,-1,-1,-1,-1,-1,-1,-1,-1,-1,-1,-1,-1,-1,-1,-1,-1,-1,-1,-1,-1,-1,-1,-1,-1,-1,-1,-1,-1,-1,-1,-1,-1,-1,-1,-1,-1,-1,-1,-1,-1,-1,-1,-1,-1,-1,-1,-1,-1,-1,-1],"split_conditions":[1.8E1,1.7E1,1.27E2,1.23E2,9.2E1,8.1E1,1.5E2,2E0,1.44E2,3E0,1.39E2,3E0,2E0,1E0,2E1,2E0,1E0,3E0,1.4E1,3E0,3E0,3E0,3E0,3E0,8E1,1E0,2.2E1,3E0,2.4E1,2E0,3E0,1E0,1E0,8E1,3E0,1.41E2,2E0,2E0,1.47E2,8.6E1,3E0,3E0,8.8E1,2E0,9.6E1,3E0,2E0,1E0,3E0,2.2E1,-1.9169813E-2,2E0,2E0,1E0,1E0,3E0,3E0,3E0,-5.6376375E-2,2E0,2E0,1.7E2,1.55E2,6.0578864E-3,3.338724E-2,1.4126368E-3,-1.6176974E-2,-4.8888482E-2,9.329758E-3,3.3863567E-2,6.433042E-3,2.11893E-2,4.4056546E-2,-1.2916081E-2,2.429523E-2,2.2151114E-3,-5.725907E-2,1.6493743E-2,-2.2626033E-2,2.9404918E-2,-1.3375332E-2,-5.3151358E-2,7.936537E-3,-5.1964242E-2,2.5972128E-3,9.050119E-3,-3.149737E-2,7.2258473E-3,-5.638649E-3,3.8217828E-2,9.249107E-3,-1.031663E-2,5.5842637E-3,-4.9496274E-2,-8.189861E-3,-6.2495667E-2,-2.4993015E-2,1.068801E-2,-4.1763514E-2,5.4731173E-3,3.0068552E-2,-5.7257954E-3,1.4287359E-3,-5.81172E-4,-2.2670647E-2,-4.946118E-3,-1.38502065E-2,-1.37969805E-2,1.445455E-2,-1.7150158E-2,-8.155014E-3,-1.0724638E-2,4.1460423E-3,1.8211132E-3,-1.4720368E-2,-4.38106E-2,-6.7285597E-3,-8.951401E-3,1.3362378E-2,-3.7711706E-2,1.076667E-2,-3.3395838E-2,-3.6183426E-3],"split_indices":[1,1,0,0,0,0,0,2,0,2,0,15,2,24,1,16,21,15,1,14,5,10,17,2,0,20,1,8,1,15,16,18,21,0,7,0,17,16,0,0,7,10,0,10,0,14,7,21,5,1,0,8,8,23,20,10,2,13,0,5,7,0,0,0,0,0,0,0,0,0,0,0,0,0,0,0,0,0,0,0,0,0,0,0,0,0,0,0,0,0,0,0,0,0,0,0,0,0,0,0,0,0,0,0,0,0,0,0,0,0,0,0,0,0,0,0,0,0,0,0,0,0,0],"split_type":[0,0,0,0,0,0,0,0,0,0,0,0,0,0,0,0,0,0,0,0,0,0,0,0,0,0,0,0,0,0,0,0,0,0,0,0,0,0,0,0,0,0,0,0,0,0,0,0,0,0,0,0,0,0,0,0,0,0,0,0,0,0,0,0,0,0,0,0,0,0,0,0,0,0,0,0,0,0,0,0,0,0,0,0,0,0,0,0,0,0,0,0,0,0,0,0,0,0,0,0,0,0,0,0,0,0,0,0,0,0,0,0,0,0,0,0,0,0,0,0,0,0,0],"sum_hessian":[5.422E3,2.277E3,3.145E3,1.811E3,4.66E2,2.214E3,9.31E2,1.347E3,4.64E2,2.9E1,4.37E2,1.5E1,2.199E3,7.79E2,1.52E2,3.81E2,9.66E2,4.38E2,2.6E1,1.6E1,1.3E1,3.88E2,4.9E1,1.1E1,4E0,7.41E2,1.458E3,6.19E2,1.6E2,6.9E1,8.3E1,1.14E2,2.67E2,9.06E2,6E1,3.27E2,1.11E2,4E0,2.2E1,1.1E1,5E0,7E0,6E0,2.7E2,1.18E2,3.9E1,1E1,7E0,4E0,3E0,1E0,6.77E2,6.4E1,1.285E3,1.73E2,4.2E2,1.99E2,1.58E2,2E0,3E1,3.9E1,5.4E1,2.9E1,8.7E1,2.7E1,2.49E2,1.8E1,1E0,9.05E2,3.8E1,2.2E1,3.16E2,1.1E1,3.8E1,7.3E1,1E0,3E0,1.4E1,8E0,6E0,5E0,3E0,2E0,6E0,1E0,3E0,3E0,1.5E2,1.2E2,1.1E1,1.07E2,2.4E1,1.5E1,5E0,5E0,5E0,2E0,3E0,1E0,2E0,1E0,2.67E2,4.1E2,2.4E1,4E1,1.203E3,8.2E1,1.58E2,1.5E1,3.02E2,1.18E2,1.52E2,4.7E1,1.11E2,4.7E1,1.3E1,1.7E1,1.9E1,2E1,5.1E1,3E0,1.2E1,1.7E1],"tree_param":{"num_deleted":"0","num_feature":"25","num_nodes":"123","size_leaf_vector":"1"}},{"base_weights":[-7.6662535E-3,1.6316694E-1,-1.2966448E-1,-6.1891866E-1,1.7005548E-1,-1.965257E-1,5.7478104E-2,-7.513207E-1,3.817998E-1,2.0457986E-1,9.4408676E-2,-2.5260842E-1,-1.6496731E-1,7.46921E-2,-2.5407133E-1,-9.682192E-1,-1.5615384E-1,1.1500061E-3,2.7484978E-2,1.3068601E-1,2.9805902E-1,3.391946E-2,2.3056217E-1,-3.1052905E-1,-2.0998725E-1,-2.000338E-1,-1.13106795E-1,1.1788361E-1,-6.1120313E-2,-7.1075696E-1,-6.060303E-2,5.819583E-3,-1.0683028E0,-3.2996893E-1,6.382545E-3,-3.4574524E-1,1.5064308E-1,1.8074007E-1,3.734668E-1,-1.1961677E-2,2.2481431E-1,1.2923785E-1,5.943047E-1,-2.044164E-1,-3.9798874E-1,-5.003988E-1,-1.9517122E-1,-1.9282593E-1,-5.214474E-1,-2.1939464E-1,-7.927317E-2,3.0493725E-3,1.7289498E-1,7.216578E-2,-2.6112118E-1,-1.089869E0,1.1379619E-1,-2.8797004E-1,3.9964035E-1,-1.26316715E-2,-6.0308665E-2,3.556192E-3,-2.4368724E-2,4.785329E-2,-2.2685274E-2,1.7296124E-2,5.0429106E-3,2.3278344E-2,5.3346176E-3,2.2010876E-2,7.423232E-3,7.4622333E-3,-4.520343E-3,-5.473822E-5,1.6454844E-2,1.7659094E-2,-8.8118715E-3,2.0325247E-2,5.0396975E-2,-1.3225135E-2,5.290582E-3,-2.144527E-2,-1.2585799E-4,-4.1706845E-2,5.5715614E-3,1.8497115E-2,-1.0547888E-2,-1.0454398E-2,-2.934421E-3,1.4442396E-3,-3.350642E-2,-2.044954E-2,-6.813604E-3,-2.0600196E-3,-1.11056E-2,-3.4312054E-3,8.738301E-3,8.970018E-3,-3.8148012E-2,-3.7677814E-3,1.6693933E-2,-1.9108241E-2,-2.9373658E-3,-5.9967764E-2,-2.3555577E-2,-2.0763619E-2,1.7494071E-2,-2.4586601E-2,1.686753E-2,3.840455E-2,-1.770854E-3],"categories":[],"categories_nodes":[],"categories_segments":[],"categories_sizes":[],"default_left":[0,0,0,0,0,0,0,0,0,0,0,0,0,0,0,0,0,0,0,0,0,0,0,0,0,0,0,0,0,0,0,0,0,0,0,0,0,0,0,0,0,0,0,0,0,0,0,0,0,0,0,0,0,0,0,0,0,0,0,0,0,0,0,0,0,0,0,0,0,0,0,0,0,0,0,0,0,0,0,0,0,0,0,0,0,0,0,0,0,0,0,0,0,0,0,0,0,0,0,0,0,0,0,0,0,0,0,0,0,0,0],"id":11,"left_children":[1,3,5,7,9,11,13,15,17,19,21,23,25,27,29,31,33,-1,-1,35,37,39,41,43,45,47,49,51,53,55,57,-1,59,61,-1,63,65,67,69,71,73,75,77,79,81,83,85,87,89,91,93,95,97,99,101,103,105,107,109,-1,-1,-1,-1,-1,-1,-1,-1,-1,-1,-1,-1,-1,-1,-1,-1,-1,-1,-1,-1,-1,-1,-1,-1,-1,-1,-1,-1,-1,-1,-1,-1,-1,-1,-1,-1,-1,-1,-1,-1,-1,-1,-1,-1,-1,-1,-1,-1,-1,-1,-1,-1],"loss_changes":[1.1335641E2,1.231316E1,3.971372E1,2.9367976E0,5.849083E0,4.096298E0,4.502453E0,2.1724424E0,1.6808397E-1,1.0612465E1,5.806667E0,2.0084534E0,2.7034035E0,4.6588974E0,3.8445106E0,1.5355148E0,3.3809808E-1,0E0,0E0,8.257634E0,5.9482994E0,4.2943406E0,7.9209366E0,3.2039719E0,1.9977741E0,1.968277E0,2.1654415E0,3.8024206E0,5.1370525E0,4.187798E0,3.4636977E0,0E0,1.0447607E0,2.872008E-1,0E0,5.357039E0,8.024614E0,5.6026545E0,6.13752E0,5.021254E0,2.2384067E0,1.1760244E1,3.241253E0,3.0477428E0,2.3586636E0,4.7893424E0,4.2263947E0,1.8964043E0,1.5740108E0,2.2451844E0,2.50333E0,2.4242687E0,2.6147223E0,4.5037165E0,1.8637457E0,4.4677734E-2,7.698224E-1,2.9690504E0,1.790473E0,0E0,0E0,0E0,0E0,0E0,0E0,0E0,0E0,0E0,0E0,0E0,0E0,0E0,0E0,0E0,0E0,0E0,0E0,0E0,0E0,0E0,0E0,0E0,0E0,0E0,0E0,0E0,0E0,0E0,0E0,0E0,0E0,0E0,0E0,0E0,0E0,0E0,0E0,0E0,0E0,0E0,0E0,0E0,0E0,0E0,0E0,0E0,0E0,0E0,0E0,0E0,0E0],"parents":[2147483647,0,0,1,1,2,2,3,3,4,4,5,5,6,6,7,7,8,8,9,9,10,10,11,11,12,12,13,13,14,14,15,15,16,16,19,19,20,20,21,21,22,22,23,23,24,24,25,25,26,26,27,27,28,28,29,29,30,30,32,32,33,33,35,35,36,36,37,37,38,38,39,39,40,40,41,41,42,42,43,43,44,44,45,45,46,46,47,47,48,48,49,49,50,50,51,51,52,52,53,53,54,54,55,55,56,56,57,57,58,58],"right_children":[2,4,6,8,10,12,14,16,18,20,22,24,26,28,30,32,34,-1,-1,36,38,40,42,44,46,48,50,52,54,56,58,-1,60,62,-1,64,66,68,70,72,74,76,78,80,82,84,86,88,90,92,94,96,98,100,102,104,106,108,110,-1,-1,-1,-1,-1,-1,-1,-1,-1,-1,-1,-1,-1,-1,-1,-1,-1,-1,-1,-1,-1,-1,-1,-1,-1,-1,-1,-1,-1,-1,-1,-1,-1,-1,-1,-1,-1,-1,-1,-1,-1,-1,-1,-1,-1,-1,-1,-1,-1,-1,-1,-1],"split_conditions":[1.8E1,8.8E1,1.31E2,1E0,1.6E1,2E0,1E0,3E0,1.7E1,1.4E1,1.41E2,2E1,3E0,2.1E1,1.9E1,8.1E1,2E0,1.1500061E-3,2.7484978E-2,9.8E1,1.15E2,1E0,3E0,2E0,8.5E1,1.3E2,2E0,2E0,3E0,3E0,3E0,5.819583E-3,2E0,2E0,6.382545E-3,9E1,1.19E2,2E0,3E0,2E0,1.09E2,1.55E2,1.54E2,3E0,1E0,2.2E1,8.9E1,1.27E2,2E0,2E0,1E0,1.42E2,1.65E2,3E0,1.39E2,1E0,2E0,3E0,3E0,-1.26316715E-2,-6.0308665E-2,3.556192E-3,-2.4368724E-2,4.785329E-2,-2.2685274E-2,1.7296124E-2,5.0429106E-3,2.3278344E-2,5.3346176E-3,2.2010876E-2,7.423232E-3,7.4622333E-3,-4.520343E-3,-5.473822E-5,1.6454844E-2,1.7659094E-2,-8.8118715E-3,2.0325247E-2,5.0396975E-2,-1.3225135E-2,5.290582E-3,-2.144527E-2,-1.2585799E-4,-4.1706845E-2,5.5715614E-3,1.8497115E-2,-1.0547888E-2,-1.0454398E-2,-2.934421E-3,1.4442396E-3,-3.350642E-2,-2.044954E-2,-6.813604E-3,-2.0600196E-3,-1.11056E-2,-3.4312054E-3,8.738301E-3,8.970018E-3,-3.8148012E-2,-3.7677814E-3,1.6693933E-2,-1.9108241E-2,-2.9373658E-3,-5.9967764E-2,-2.3555577E-2,-2.0763619E-2,1.7494071E-2,-2.4586601E-2,1.686753E-2,3.840455E-2,-1.770854E-3],"split_indices":[1,11,11,22,1,15,23,10,1,1,11,1,7,1,1,11,15,0,0,11,11,24,15,17,11,11,10,15,10,9,16,0,5,5,0,11,11,5,15,10,11,11,11,14,20,1,11,11,13,13,19,11,11,14,11,3,10,9,10,0,0,0,0,0,0,0,0,0,0,0,0,0,0,0,0,0,0,0,0,0,0,0,0,0,0,0,0,0,0,0,0,0,0,0,0,0,0,0,0,0,0,0,0,0,0,0,0,0,0,0,0],"split_type":[0,0,0,0,0,0,0,0,0,0,0,0,0,0,0,0,0,0,0,0,0,0,0,0,0,0,0,0,0,0,0,0,0,0,0,0,0,0,0,0,0,0,0,0,0,0,0,0,0,0,0,0,0,0,0,0,0,0,0,0,0,0,0,0,0,0,0,0,0,0,0,0,0,0,0,0,0,0,0,0,0,0,0,0,0,0,0,0,0,0,0,0,0,0,0,0,0,0,0,0,0,0,0,0,0,0,0,0,0,0,0],"sum_hessian":[5.437E3,2.265E3,3.172E3,1.9E1,2.246E3,2.337E3,8.35E2,1.7E1,2E0,1.541E3,7.05E2,8.39E2,1.498E3,7.92E2,4.3E1,1.2E1,5E0,1E0,1E0,8.62E2,6.79E2,4.89E2,2.16E2,3.53E2,4.86E2,8.92E2,6.06E2,6.01E2,1.91E2,1.2E1,3.1E1,1E0,1.1E1,3E0,2E0,3.4E1,8.28E2,2.67E2,4.12E2,3.95E2,9.4E1,1.7E2,4.6E1,1.61E2,1.92E2,2.2E1,4.64E2,8.74E2,1.8E1,1.45E2,4.61E2,1.95E2,4.06E2,1.15E2,7.6E1,8E0,4E0,2.1E1,1E1,2E0,9E0,1E0,2E0,2E0,3.2E1,1.67E2,6.61E2,5.4E1,2.13E2,3.17E2,9.5E1,1.29E2,2.66E2,3E1,6.4E1,9.8E1,7.2E1,3.3E1,1.3E1,1.35E2,2.6E1,1.78E2,1.4E1,1.4E1,8E0,1.2E1,4.52E2,7.79E2,9.5E1,4E0,1.4E1,4.3E1,1.02E2,3.65E2,9.6E1,1.38E2,5.7E1,4.04E2,2E0,7.4E1,4.1E1,4.7E1,2.9E1,6E0,2E0,1E0,3E0,1.6E1,5E0,5E0,5E0],"tree_param":{"num_deleted":"0","num_feature":"25","num_nodes":"111","size_leaf_vector":"1"}},{"base_weights":[-8.346537E-3,1.5706266E-1,-1.2616117E-1,1.9945298E-1,-6.7349724E-2,-1.8221523E-1,3.655613E-2,2.5542298E-1,8.781259E-2,3.2244194E-2,-1.8443148E-1,-1.372102E-1,-3.1647283E-1,-8.463356E-3,2.3636751E-1,2.611123E-1,-8.1408376E-1,2.4320437E-2,2.1033706E-1,7.211996E-2,-4.9414045E-1,-1.2348443E-1,-4.8257986E-1,-2.1497476E-1,-1.0194654E-1,-4.6217752E-1,-1.6473573E-1,-4.9387845E-1,1.9834E-2,4.7173762E-1,2.713732E-2,1.28719E-1,3.0278024E-1,-6.721904E-2,3.4110594E-1,8.5424595E-2,-1.1924932E-1,3.6328897E-1,-1.715775E-2,-3.0522168E-1,1.09874055E-1,8.270927E-2,-7.3315126E-1,4.0784156E-1,-1.764825E-1,-9.7850576E-2,-8.0948853E-1,-3.3254904E-1,-1.4210309E-1,-5.128287E-1,-9.54212E-2,-4.7824797E-1,1.4399479E-2,-9.134247E-1,-1.3515717E-1,-6.5481585E-1,-1.463928E-1,3.226496E-2,-5.774214E-1,6.0589516E-1,2.6819247E-1,9.164674E-2,-3.5142908E-1,2.5903916E-2,4.983981E-3,2.8649095E-2,1.2909758E-2,1.1202693E-3,2.4462676E-2,8.257966E-3,-1.2729846E-2,-2.0187365E-2,1.1860873E-2,1.3469911E-2,3.2873604E-2,-8.833569E-3,2.8991124E-2,-3.0821169E-2,6.762638E-2,3.1684474E-3,2.7385598E-2,1.6323188E-2,-2.2307718E-2,-6.2037803E-2,-9.397767E-3,-8.7440014E-4,5.4593325E-2,-1.6909167E-2,4.126723E-3,-2.4989344E-2,1.8774193E-2,-9.425175E-3,-4.4526223E-2,-9.249075E-3,-2.5617147E-2,-9.526561E-3,6.415171E-3,-3.61661E-2,3.1896909E-3,-7.045833E-3,-1.5397159E-3,-2.5156796E-2,-3.1574906E-3,-1.8632647E-2,-5.8460046E-2,-1.0625112E-2,4.1605565E-3,-3.904583E-2,-1.4461865E-2,1.6995981E-2,-2.0015026E-2,2.3124893E-3,-1.1373132E-2,-4.7263127E-2,-6.3545774E-3,2.2316908E-2,3.8777582E-2,5.658901E-3,2.834518E-2,1.2451019E-2,-1.6304499E-3,-3.3488836E-2,-5.426659E-3],"categories":[],"categories_nodes":[],"categories_segments":[],"categories_sizes":[],"default_left":[0,0,0,0,0,0,0,0,0,0,0,0,0,0,0,0,0,0,0,0,0,0,0,0,0,0,0,0,0,0,0,0,0,0,0,0,0,0,0,0,0,0,0,0,0,0,0,0,0,0,0,0,0,0,0,0,0,0,0,0,0,0,0,0,0,0,0,0,0,0,0,0,0,0,0,0,0,0,0,0,0,0,0,0,0,0,0,0,0,0,0,0,0,0,0,0,0,0,0,0,0,0,0,0,0,0,0,0,0,0,0,0,0,0,0,0,0,0,0,0,0,0,0],"id":12,"left_children":[1,3,5,7,9,11,13,15,17,19,21,23,25,27,29,31,33,35,37,39,41,43,45,47,49,51,53,55,57,59,61,63,65,-1,67,69,71,73,75,77,79,81,83,85,87,89,91,93,95,97,99,101,-1,103,105,107,109,111,113,115,117,119,121,-1,-1,-1,-1,-1,-1,-1,-1,-1,-1,-1,-1,-1,-1,-1,-1,-1,-1,-1,-1,-1,-1,-1,-1,-1,-1,-1,-1,-1,-1,-1,-1,-1,-1,-1,-1,-1,-1,-1,-1,-1,-1,-1,-1,-1,-1,-1,-1,-1,-1,-1,-1,-1,-1,-1,-1,-1,-1,-1,-1],"loss_changes":[1.06812E2,2.1702866E1,2.9202873E1,1.1962227E1,4.238756E0,1.4343224E1,7.387228E0,7.982811E0,4.989221E0,4.1706653E0,2.97501E0,4.873024E0,1.3122818E1,9.226627E0,7.4234247E0,6.9725647E0,4.7467327E0,3.729815E0,7.626507E0,2.654835E0,1.990865E0,4.0142727E0,3.442389E0,4.7164593E0,3.2488737E0,3.8026047E0,6.387218E0,1.9733067E0,4.73316E0,1.77631E0,2.0103161E0,3.408226E0,1.1489433E1,0E0,1.3068223E-1,8.121283E0,1.2975362E1,3.4412384E0,8.577595E0,9.603933E0,3.3860576E0,7.9021764E-1,2.534234E0,3.8012626E0,5.388969E0,2.851166E0,5.8696365E-1,5.529957E0,4.5423183E0,2.352272E0,3.5592184E0,3.046852E0,0E0,1.0857763E0,4.8143606E0,9.266224E-1,1.7412901E0,2.273409E0,2.0333133E0,7.907772E-1,1.324975E0,1.3769407E0,8.5521114E-1,0E0,0E0,0E0,0E0,0E0,0E0,0E0,0E0,0E0,0E0,0E0,0E0,0E0,0E0,0E0,0E0,0E0,0E0,0E0,0E0,0E0,0E0,0E0,0E0,0E0,0E0,0E0,0E0,0E0,0E0,0E0,0E0,0E0,0E0,0E0,0E0,0E0,0E0,0E0,0E0,0E0,0E0,0E0,0E0,0E0,0E0,0E0,0E0,0E0,0E0,0E0,0E0,0E0,0E0,0E0,0E0,0E0,0E0,0E0,0E0],"parents":[2147483647,0,0,1,1,2,2,3,3,4,4,5,5,6,6,7,7,8,8,9,9,10,10,11,11,12,12,13,13,14,14,15,15,16,16,17,17,18,18,19,19,20,20,21,21,22,22,23,23,24,24,25,25,26,26,27,27,28,28,29,29,30,30,31,31,32,32,34,34,35,35,36,36,37,37,38,38,39,39,40,40,41,41,42,42,43,43,44,44,45,45,46,46,47,47,48,48,49,49,50,50,51,51,53,53,54,54,55,55,56,56,57,57,58,58,59,59,60,60,61,61,62,62],"right_children":[2,4,6,8,10,12,14,16,18,20,22,24,26,28,30,32,34,36,38,40,42,44,46,48,50,52,54,56,58,60,62,64,66,-1,68,70,72,74,76,78,80,82,84,86,88,90,92,94,96,98,100,102,-1,104,106,108,110,112,114,116,118,120,122,-1,-1,-1,-1,-1,-1,-1,-1,-1,-1,-1,-1,-1,-1,-1,-1,-1,-1,-1,-1,-1,-1,-1,-1,-1,-1,-1,-1,-1,-1,-1,-1,-1,-1,-1,-1,-1,-1,-1,-1,-1,-1,-1,-1,-1,-1,-1,-1,-1,-1,-1,-1,-1,-1,-1,-1,-1,-1,-1,-1],"split_conditions":[1.8E1,3E0,1.31E2,1.6E1,1E0,1.31E2,3E0,1.69E2,1.41E2,1E0,3E0,1.1E2,2E0,9.4E1,1.14E2,1.07E2,3E0,2E0,3E0,1.1E1,2E0,1.2E1,1.04E2,2E0,8.3E1,1.118E3,1.32E2,3E0,1.62E2,3E0,1E0,9.2E1,1.19E2,-6.721904E-2,1.06E2,1.29E2,1.24E2,3E0,3E0,3E0,1E0,1.04E2,1.03E2,3E0,1.07E2,1.35E2,1.05E2,1E0,1E0,3E0,1E0,1E0,1.4399479E-2,1E0,3E0,3E0,2E0,1E0,2E0,3E0,1E0,2E0,2E0,2.5903916E-2,4.983981E-3,2.8649095E-2,1.2909758E-2,1.1202693E-3,2.4462676E-2,8.257966E-3,-1.2729846E-2,-2.0187365E-2,1.1860873E-2,1.3469911E-2,3.2873604E-2,-8.833569E-3,2.8991124E-2,-3.0821169E-2,6.762638E-2,3.1684474E-3,2.7385598E-2,1.6323188E-2,-2.2307718E-2,-6.2037803E-2,-9.397767E-3,-8.7440014E-4,5.4593325E-2,-1.6909167E-2,4.126723E-3,-2.4989344E-2,1.8774193E-2,-9.425175E-3,-4.4526223E-2,-9.249075E-3,-2.5617147E-2,-9.526561E-3,6.415171E-3,-3.61661E-2,3.1896909E-3,-7.045833E-3,-1.5397159E-3,-2.5156796E-2,-3.1574906E-3,-1.8632647E-2,-5.8460046E-2,-1.0625112E-2,4.1605565E-3,-3.904583E-2,-1.4461865E-2,1.6995981E-2,-2.0015026E-2,2.3124893E-3,-1.1373132E-2,-4.7263127E-2,-6.3545774E-3,2.2316908E-2,3.8777582E-2,5.658901E-3,2.834518E-2,1.2451019E-2,-1.6304499E-3,-3.3488836E-2,-5.426659E-3],"split_indices":[1,6,11,1,12,0,6,11,11,23,16,11,6,0,0,11,7,6,8,1,8,1,0,15,0,0,0,16,11,16,24,11,11,0,0,11,11,15,5,10,21,0,0,7,0,11,11,3,24,8,3,23,0,3,6,7,7,23,10,13,19,7,10,0,0,0,0,0,0,0,0,0,0,0,0,0,0,0,0,0,0,0,0,0,0,0,0,0,0,0,0,0,0,0,0,0,0,0,0,0,0,0,0,0,0,0,0,0,0,0,0,0,0,0,0,0,0,0,0,0,0,0,0],"split_type":[0,0,0,0,0,0,0,0,0,0,0,0,0,0,0,0,0,0,0,0,0,0,0,0,0,0,0,0,0,0,0,0,0,0,0,0,0,0,0,0,0,0,0,0,0,0,0,0,0,0,0,0,0,0,0,0,0,0,0,0,0,0,0,0,0,0,0,0,0,0,0,0,0,0,0,0,0,0,0,0,0,0,0,0,0,0,0,0,0,0,0,0,0,0,0,0,0,0,0,0,0,0,0,0,0,0,0,0,0,0,0,0,0,0,0,0,0,0,0,0,0,0,0],"sum_hessian":[5.479E3,2.279E3,3.2E3,1.917E3,3.62E2,2.38E3,8.2E2,1.276E3,6.41E2,1.96E2,1.66E2,1.784E3,5.96E2,6.7E2,1.5E2,1.27E3,6E0,4.23E2,2.18E2,1.83E2,1.3E1,1.39E2,2.7E1,5.55E2,1.229E3,3.03E2,2.93E2,3.6E1,6.34E2,7E1,8E1,3.05E2,9.65E2,4E0,2E0,2.97E2,1.26E2,1.3E2,8.8E1,1.6E1,1.67E2,4E0,9E0,1.2E1,1.27E2,1.3E1,1.4E1,2.11E2,3.44E2,1.8E1,1.211E3,2.97E2,6E0,1E1,2.83E2,2.4E1,1.2E1,6.22E2,1.2E1,4.1E1,2.9E1,6.9E1,1.1E1,2E1,2.85E2,1.35E2,8.3E2,1E0,1E0,2.41E2,5.6E1,7E1,5.6E1,1E2,3E1,7E1,1.8E1,1.4E1,2E0,1.52E2,1.5E1,3E0,1E0,4E0,5E0,8E0,4E0,7.8E1,4.9E1,7E0,6E0,2E0,1.2E1,1.17E2,9.4E1,2.92E2,5.2E1,1.3E1,5E0,7.1E2,5.01E2,2.8E2,1.7E1,4E0,6E0,2.09E2,7.4E1,1.7E1,7E0,4E0,8E0,5.91E2,3.1E1,6E0,6E0,2.3E1,1.8E1,2E1,9E0,3E1,3.9E1,4E0,7E0],"tree_param":{"num_deleted":"0","num_feature":"25","num_nodes":"123","size_leaf_vector":"1"}},{"base_weights":[-6.5480606E-3,1.8896437E-1,-1.0424912E-1,1.390386E-1,3.234326E-1,-1.4539436E-1,1.0993816E-1,3.5125013E-2,1.897991E-1,1.0632469E-1,4.0046743E-1,-1.2997045E-1,-3.2616597E-1,-2.0098021E-2,1.9166914E-1,-8.242159E-2,9.4380215E-2,1.21835314E-1,3.29011E-1,-2.4365504E-1,2.1725495E-1,4.2483526E-1,-4.2235565E-1,-1.4817372E-1,-3.856299E-2,3.5753846E-3,-4.4289228E-1,8.2825266E-2,-1.176176E-1,1.9306393E-2,2.5987706E-1,3.1863324E-2,-3.2869053E-1,2.5845087E-1,3.1544045E-2,3.5207322E-1,9.584202E-2,8.956943E-2,5.289835E-1,3.2866E-1,-5.590896E-1,2.6762846E-1,-6.1653477E-1,5.0113326E-1,3.2199737E-1,-3.0419935E-2,-1.6592002E-1,-7.762828E-2,-1.7139375E-1,6.0268387E-2,-1.3598657E-1,-2.5447956E-1,3.2379615E-1,-5.5072844E-1,-1.2147714E-1,1.9596886E-2,6.0809535E-1,-8.421653E-2,-1.048494E0,1.4659011E-1,-3.1493047E-1,5.4960746E-1,1.8654758E-1,-4.2598557E-2,3.362598E-3,-7.329309E-3,-5.99063E-2,-5.484156E-3,2.2750312E-2,-4.560367E-3,1.3659947E-2,2.1225177E-2,-2.7202353E-2,3.785424E-3,1.8920248E-2,1.1309793E-2,-2.7587632E-2,2.1717092E-2,3.7704397E-2,3.5460074E-2,-8.504083E-3,-3.6279913E-2,3.4091424E-2,2.9946405E-2,3.657557E-3,-1.0487398E-3,-4.5453552E-2,1.4640423E-2,2.9891813E-2,2.628382E-3,2.0490285E-2,-1.7750701E-2,7.0756E-3,-1.4625201E-2,-2.058147E-3,-1.112995E-2,-7.021197E-3,6.3235434E-3,-4.5681605E-3,-5.902412E-3,-4.741515E-2,-2.0565001E-2,6.9660763E-3,6.460643E-3,3.1522926E-2,-3.0374562E-2,6.7024636E-3,1.8665653E-3,-2.107881E-2,5.3953277E-3,-1.2659038E-2,4.471655E-2,-2.7436087E-2,3.641593E-3,-1.314859E-2,-6.0646184E-2,-1.3880128E-2,-2.732361E-4,2.1960674E-2,-3.6248393E-2,1.2274881E-2,-8.365961E-3,3.8443424E-2,9.757741E-3,-4.0094055E-2],"categories":[],"categories_nodes":[],"categories_segments":[],"categories_sizes":[],"default_left":[0,0,0,0,0,0,0,0,0,0,0,0,0,0,0,0,0,0,0,0,0,0,0,0,0,0,0,0,0,0,0,0,0,0,0,0,0,0,0,0,0,0,0,0,0,0,0,0,0,0,0,0,0,0,0,0,0,0,0,0,0,0,0,0,0,0,0,0,0,0,0,0,0,0,0,0,0,0,0,0,0,0,0,0,0,0,0,0,0,0,0,0,0,0,0,0,0,0,0,0,0,0,0,0,0,0,0,0,0,0,0,0,0,0,0,0,0,0,0,0,0,0,0,0,0],"id":13,"left_children":[1,3,5,7,9,11,13,15,17,19,21,23,25,27,29,31,33,35,37,39,41,43,45,47,49,51,53,55,57,59,61,63,65,67,69,71,73,75,77,79,81,83,85,87,89,-1,91,93,95,97,99,101,103,105,107,109,111,113,115,117,119,121,123,-1,-1,-1,-1,-1,-1,-1,-1,-1,-1,-1,-1,-1,-1,-1,-1,-1,-1,-1,-1,-1,-1,-1,-1,-1,-1,-1,-1,-1,-1,-1,-1,-1,-1,-1,-1,-1,-1,-1,-1,-1,-1,-1,-1,-1,-1,-1,-1,-1,-1,-1,-1,-1,-1,-1,-1,-1,-1,-1,-1,-1,-1],"loss_changes":[1.0496483E2,1.2247322E1,3.230602E1,7.0456142E0,8.236229E0,8.528557E0,6.2849913E0,3.0724876E0,8.456223E0,5.138793E0,7.497837E0,4.7098236E0,9.277548E0,2.308223E0,4.2625933E0,4.175907E0,3.0125518E0,3.5869656E0,1.4029848E1,5.9606447E0,4.3650928E0,2.6240845E0,4.2384303E-1,3.8574448E0,4.5528502E0,5.3710103E0,6.1026077E0,3.7078247E0,3.5805867E0,4.4706287E0,5.4213734E0,3.247621E0,7.265785E0,5.9109626E0,6.343238E0,4.1902328E0,3.0718527E0,1.1953712E1,3.0811462E0,2.3981245E0,4.8338304E0,6.0770636E0,1.0262699E0,3.8943634E0,3.6218157E0,0E0,3.9904007E-1,4.587408E0,2.7867432E0,2.3705757E0,3.3560944E0,2.2805214E0,1.6490064E0,5.251129E0,2.208018E0,2.460299E0,4.4642057E0,3.2475736E0,1.703186E-1,3.3840046E0,6.8420744E0,8.302738E0,1.9345927E0,0E0,0E0,0E0,0E0,0E0,0E0,0E0,0E0,0E0,0E0,0E0,0E0,0E0,0E0,0E0,0E0,0E0,0E0,0E0,0E0,0E0,0E0,0E0,0E0,0E0,0E0,0E0,0E0,0E0,0E0,0E0,0E0,0E0,0E0,0E0,0E0,0E0,0E0,0E0,0E0,0E0,0E0,0E0,0E0,0E0,0E0,0E0,0E0,0E0,0E0,0E0,0E0,0E0,0E0,0E0,0E0,0E0,0E0,0E0,0E0,0E0,0E0],"parents":[2147483647,0,0,1,1,2,2,3,3,4,4,5,5,6,6,7,7,8,8,9,9,10,10,11,11,12,12,13,13,14,14,15,15,16,16,17,17,18,18,19,19,20,20,21,21,22,22,23,23,24,24,25,25,26,26,27,27,28,28,29,29,30,30,31,31,32,32,33,33,34,34,35,35,36,36,37,37,38,38,39,39,40,40,41,41,42,42,43,43,44,44,46,46,47,47,48,48,49,49,50,50,51,51,52,52,53,53,54,54,55,55,56,56,57,57,58,58,59,59,60,60,61,61,62,62],"right_children":[2,4,6,8,10,12,14,16,18,20,22,24,26,28,30,32,34,36,38,40,42,44,46,48,50,52,54,56,58,60,62,64,66,68,70,72,74,76,78,80,82,84,86,88,90,-1,92,94,96,98,100,102,104,106,108,110,112,114,116,118,120,122,124,-1,-1,-1,-1,-1,-1,-1,-1,-1,-1,-1,-1,-1,-1,-1,-1,-1,-1,-1,-1,-1,-1,-1,-1,-1,-1,-1,-1,-1,-1,-1,-1,-1,-1,-1,-1,-1,-1,-1,-1,-1,-1,-1,-1,-1,-1,-1,-1,-1,-1,-1,-1,-1,-1,-1,-1,-1,-1,-1,-1,-1,-1],"split_conditions":[1.7E1,1.23E2,1.4E2,2E0,1.02E2,1.45E2,2E0,1.06E2,1.44E2,2E0,1.47E2,1E0,9.1E1,1E0,2E0,1.5E1,1.09E2,1.1E1,1.3E1,2E0,1E0,1.32E2,1E0,1.04E2,2E1,3E0,1.27E2,1.51E2,1.57E2,1.49E2,1.8E1,9.2E1,1.57E2,3E0,3E0,1E0,1E0,3E0,3E0,3E0,1E0,9.6E1,1.32E2,1.11E2,2E0,-3.0419935E-2,3E0,1.04E2,2E0,3E0,2.4E1,3E0,3E0,1E0,3E0,3E0,3E0,3E0,3E0,3E0,1.58E2,1.44E2,1.65E2,-4.2598557E-2,3.362598E-3,-7.329309E-3,-5.99063E-2,-5.484156E-3,2.2750312E-2,-4.560367E-3,1.3659947E-2,2.1225177E-2,-2.7202353E-2,3.785424E-3,1.8920248E-2,1.1309793E-2,-2.7587632E-2,2.1717092E-2,3.7704397E-2,3.5460074E-2,-8.504083E-3,-3.6279913E-2,3.4091424E-2,2.9946405E-2,3.657557E-3,-1.0487398E-3,-4.5453552E-2,1.4640423E-2,2.9891813E-2,2.628382E-3,2.0490285E-2,-1.7750701E-2,7.0756E-3,-1.4625201E-2,-2.058147E-3,-1.112995E-2,-7.021197E-3,6.3235434E-3,-4.5681605E-3,-5.902412E-3,-4.741515E-2,-2.0565001E-2,6.9660763E-3,6.460643E-3,3.1522926E-2,-3.0374562E-2,6.7024636E-3,1.8665653E-3,-2.107881E-2,5.3953277E-3,-1.2659038E-2,4.471655E-2,-2.7436087E-2,3.641593E-3,-1.314859E-2,-6.0646184E-2,-1.3880128E-2,-2.732361E-4,2.1960674E-2,-3.6248393E-2,1.2274881E-2,-8.365961E-3,3.8443424E-2,9.757741E-3,-4.0094055E-2],"split_indices":[1,0,11,13,11,0,4,0,11,17,0,24,11,3,16,1,0,1,1,10,20,11,3,0,1,17,11,11,11,11,1,0,11,5,17,22,21,17,17,16,20,11,0,11,5,0,5,11,13,9,1,7,5,20,13,2,8,7,8,10,11,11,11,0,0,0,0,0,0,0,0,0,0,0,0,0,0,0,0,0,0,0,0,0,0,0,0,0,0,0,0,0,0,0,0,0,0,0,0,0,0,0,0,0,0,0,0,0,0,0,0,0,0,0,0,0,0,0,0,0,0,0,0,0,0],"split_type":[0,0,0,0,0,0,0,0,0,0,0,0,0,0,0,0,0,0,0,0,0,0,0,0,0,0,0,0,0,0,0,0,0,0,0,0,0,0,0,0,0,0,0,0,0,0,0,0,0,0,0,0,0,0,0,0,0,0,0,0,0,0,0,0,0,0,0,0,0,0,0,0,0,0,0,0,0,0,0,0,0,0,0,0,0,0,0,0,0,0,0,0,0,0,0,0,0,0,0,0,0,0,0,0,0,0,0,0,0,0,0,0,0,0,0,0,0,0,0,0,0,0,0,0,0],"sum_hessian":[5.493E3,1.83E3,3.663E3,1.336E3,4.94E2,3.073E3,5.9E2,4.39E2,8.97E2,1.3E2,3.64E2,2.833E3,2.4E2,2.28E2,3.62E2,1.47E2,2.92E2,6.04E2,2.93E2,3.1E1,9.9E1,3.54E2,1E1,2.362E3,4.71E2,6.3E1,1.77E2,1.11E2,1.17E2,1.03E2,2.59E2,1.01E2,4.6E1,8E1,2.12E2,6E1,5.44E2,1.34E2,1.59E2,1.1E1,2E1,9.4E1,5E0,2.01E2,1.53E2,5E0,5E0,5.86E2,1.776E3,2.34E2,2.37E2,3.5E1,2.8E1,1.32E2,4.5E1,1E2,1.1E1,1.14E2,3E0,7.5E1,2.8E1,5.1E1,2.08E2,3E0,9.8E1,3.9E1,7E0,2.8E1,5.2E1,1.41E2,7.1E1,5.6E1,4E0,5.09E2,3.5E1,1.11E2,2.3E1,1.14E2,4.5E1,6E0,5E0,1.8E1,2E0,3.4E1,6E1,2E0,3E0,6.5E1,1.36E2,3.8E1,1.15E2,3E0,2E0,8.4E1,5.02E2,6.67E2,1.109E3,1.63E2,7.1E1,2.33E2,4E0,2.5E1,1E1,1.8E1,1E1,1.22E2,1E1,3E1,1.5E1,7.6E1,2.4E1,9E0,2E0,6.1E1,5.3E1,2E0,1E0,5E1,2.5E1,1.6E1,1.2E1,1.2E1,3.9E1,2.07E2,1E0],"tree_param":{"num_deleted":"0","num_feature":"25","num_nodes":"125","size_leaf_vector":"1"}},{"base_weights":[-8.005092E-3,1.8657102E-1,-1.04815885E-1,2.0787282E-2,2.1345305E-1,-1.6021799E-1,3.9364412E-2,1.6475865E-1,-1.1054061E-1,1.8669403E-1,3.3683345E-1,-1.854706E-1,-9.91285E-2,-2.3044853E-2,1.3212538E-1,3.673406E-2,4.2949134E-1,-2.4704704E-1,1.0531926E-1,1.1680096E-1,2.1357182E-1,3.7335783E-1,-6.831647E-2,-2.2031082E-1,-1.1996869E-1,-6.595017E-2,-2.6325038E-1,-7.2289765E-2,6.3402705E-2,2.3472287E-1,-2.9282657E-2,4.0408415E-1,-1.1694071E-1,1.5120512E-1,7.971018E-1,-3.90268E-1,3.3097826E-2,5.1364936E-2,2.9454522E-2,1.4216009E-1,-1.8016836E-1,1.4656301E-1,2.677249E-1,4.0942794E-1,-3.0546881E-2,2.0038189E-1,-6.307609E-1,-2.3785017E-1,-1.2443255E-1,-4.833493E-2,-2.1539333E-1,-1.7479347E-1,-6.8696323E-3,-1.841828E-1,-4.2077985E-1,-1.7309135E-2,-2.090959E-1,2.575209E-1,5.810611E-3,2.8894573E-1,4.415429E-2,-1.2418572E-1,2.2589561E-1,-1.1877834E-2,4.238409E-2,1.0372757E-2,-2.3543118E-2,1.9865284E-2,-1.5155377E-2,4.518154E-2,-2.2684038E-2,-8.304845E-3,-3.4746837E-2,2.5917003E-2,-1.6995834E-2,3.4145345E-3,-4.6837937E-2,1.185458E-2,7.298773E-4,1.510659E-2,-1.736804E-2,-8.001577E-4,9.478575E-3,8.077594E-3,1.8288394E-2,2.7197782E-2,1.4777593E-2,-5.2140113E-2,1.2616611E-2,2.9947583E-2,-2.2728398E-2,-1.5968372E-3,-6.108005E-2,-1.399891E-2,-1.0045068E-2,1.8372418E-2,-8.715749E-3,-9.812051E-3,7.5782253E-4,-1.5001138E-2,-4.439344E-3,-1.614262E-2,2.4597428E-3,3.398273E-3,-3.9792173E-3,-1.3821675E-2,3.8590492E-3,-2.9012138E-2,-5.771052E-3,1.4509532E-2,-3.3396676E-3,-1.7684285E-2,-1.7729938E-3,-4.744907E-3,2.5368875E-2,-1.1077697E-2,4.0198686E-3,7.5676525E-3,1.829438E-2,8.148702E-3,-2.0750046E-2,-1.856416E-2,-5.588023E-4,2.318611E-2,-3.145435E-2],"categories":[],"categories_nodes":[],"categories_segments":[],"categories_sizes":[],"default_left":[0,0,0,0,0,0,0,0,0,0,0,0,0,0,0,0,0,0,0,0,0,0,0,0,0,0,0,0,0,0,0,0,0,0,0,0,0,0,0,0,0,0,0,0,0,0,0,0,0,0,0,0,0,0,0,0,0,0,0,0,0,0,0,0,0,0,0,0,0,0,0,0,0,0,0,0,0,0,0,0,0,0,0,0,0,0,0,0,0,0,0,0,0,0,0,0,0,0,0,0,0,0,0,0,0,0,0,0,0,0,0,0,0,0,0,0,0,0,0,0,0,0,0,0,0],"id":14,"left_children":[1,3,5,7,9,11,13,15,17,19,21,23,25,27,29,31,33,35,37,39,41,43,45,47,49,51,53,55,57,59,61,63,65,67,69,71,73,-1,75,77,79,81,83,85,87,89,91,93,95,97,99,101,103,105,107,109,111,113,115,117,119,121,123,-1,-1,-1,-1,-1,-1,-1,-1,-1,-1,-1,-1,-1,-1,-1,-1,-1,-1,-1,-1,-1,-1,-1,-1,-1,-1,-1,-1,-1,-1,-1,-1,-1,-1,-1,-1,-1,-1,-1,-1,-1,-1,-1,-1,-1,-1,-1,-1,-1,-1,-1,-1,-1,-1,-1,-1,-1,-1,-1,-1,-1,-1],"loss_changes":[1.0398132E2,8.168983E0,2.9449677E1,4.877429E0,5.1469345E0,4.089737E0,5.9311275E0,4.152975E0,4.003964E0,2.4153175E0,4.1688995E0,4.270767E0,4.2354107E0,2.6141872E0,6.829617E0,4.789259E0,3.9715104E0,3.3430948E0,3.6768649E0,2.759324E0,3.3608856E0,3.7567139E0,3.7534628E0,2.0354614E0,4.4737587E0,4.1850686E0,1.5541677E0,2.93736E0,2.491571E0,2.5912027E0,3.927022E0,7.317132E0,6.9863243E0,2.8037846E0,2.6751184E0,3.6409588E0,5.425262E0,0E0,1.9401728E0,4.0532894E0,2.4434195E0,2.9465494E0,5.3226357E0,3.454628E0,6.5627418E0,4.7099986E0,2.7914603E0,1.5579224E0,4.7750044E0,3.5339012E0,2.9841738E0,7.6103177E0,2.3072107E0,2.167214E0,2.0268435E0,4.279971E0,2.7993293E0,4.538915E0,2.9516127E0,2.0196018E0,3.1773663E0,3.2909303E0,9.238577E0,0E0,0E0,0E0,0E0,0E0,0E0,0E0,0E0,0E0,0E0,0E0,0E0,0E0,0E0,0E0,0E0,0E0,0E0,0E0,0E0,0E0,0E0,0E0,0E0,0E0,0E0,0E0,0E0,0E0,0E0,0E0,0E0,0E0,0E0,0E0,0E0,0E0,0E0,0E0,0E0,0E0,0E0,0E0,0E0,0E0,0E0,0E0,0E0,0E0,0E0,0E0,0E0,0E0,0E0,0E0,0E0,0E0,0E0,0E0,0E0,0E0,0E0],"parents":[2147483647,0,0,1,1,2,2,3,3,4,4,5,5,6,6,7,7,8,8,9,9,10,10,11,11,12,12,13,13,14,14,15,15,16,16,17,17,18,18,19,19,20,20,21,21,22,22,23,23,24,24,25,25,26,26,27,27,28,28,29,29,30,30,31,31,32,32,33,33,34,34,35,35,36,36,38,38,39,39,40,40,41,41,42,42,43,43,44,44,45,45,46,46,47,47,48,48,49,49,50,50,51,51,52,52,53,53,54,54,55,55,56,56,57,57,58,58,59,59,60,