{"learner":{"attributes":{"scikit_learn":"{\"_estimator_type\": \"regressor\"}"},"feature_names":["timeDuration","nMovements","movementsDifficulty","robotSpeech","acrobaticMovements","movementsRepetition","movementsTransitionsDuration","humanMovements","balance","speed","bodyPartsCombination","musicBPM","sameStartEndPositionPlace","headMovement","armsMovement","handsMovement","legsMovement","feetMovement","musicGenre_electronic","musicGenre_folk","musicGenre_indie","musicGenre_latin","musicGenre_pop","musicGenre_rap","musicGenre_rock"],"feature_types":["int","int","int","int","int","int","int","int","int","int","int","int","int","int","int","int","int","int","int","int","int","int","int","int","int"],"gradient_booster":{"model":{"gbtree_model_param":{"num_parallel_tree":"1","num_trees":"500"},"iteration_indptr":[0,1,2,3,4,5,6,7,8,9,10,11,12,13,14,15,16,17,18,19,20,21,22,23,24,25,26,27,28,29,30,31,32,33,34,35,36,37,38,39,40,41,42,43,44,45,46,47,48,49,50,51,52,53,54,55,56,57,58,59,60,61,62,63,64,65,66,67,68,69,70,71,72,73,74,75,76,77,78,79,80,81,82,83,84,85,86,87,88,89,90,91,92,93,94,95,96,97,98,99,100,101,102,103,104,105,106,107,108,109,110,111,112,113,114,115,116,117,118,119,120,121,122,123,124,125,126,127,128,129,130,131,132,133,134,135,136,137,138,139,140,141,142,143,144,145,146,147,148,149,150,151,152,153,154,155,156,157,158,159,160,161,162,163,164,165,166,167,168,169,170,171,172,173,174,175,176,177,178,179,180,181,182,183,184,185,186,187,188,189,190,191,192,193,194,195,196,197,198,199,200,201,202,203,204,205,206,207,208,209,210,211,212,213,214,215,216,217,218,219,220,221,222,223,224,225,226,227,228,229,230,231,232,233,234,235,236,237,238,239,240,241,242,243,244,245,246,247,248,249,250,251,252,253,254,255,256,257,258,259,260,261,262,263,264,265,266,267,268,269,270,271,272,273,274,275,276,277,278,279,280,281,282,283,284,285,286,287,288,289,290,291,292,293,294,295,296,297,298,299,300,301,302,303,304,305,306,307,308,309,310,311,312,313,314,315,316,317,318,319,320,321,322,323,324,325,326,327,328,329,330,331,332,333,334,335,336,337,338,339,340,341,342,343,344,345,346,347,348,349,350,351,352,353,354,355,356,357,358,359,360,361,362,363,364,365,366,367,368,369,370,371,372,373,374,375,376,377,378,379,380,381,382,383,384,385,386,387,388,389,390,391,392,393,394,395,396,397,398,399,400,401,402,403,404,405,406,407,408,409,410,411,412,413,414,415,416,417,418,419,420,421,422,423,424,425,426,427,428,429,430,431,432,433,434,435,436,437,438,439,440,441,442,443,444,445,446,447,448,449,450,451,452,453,454,455,456,457,458,459,460,461,462,463,464,465,466,467,468,469,470,471,472,473,474,475,476,477,478,479,480,481,482,483,484,485,486,487,488,489,490,491,492,493,494,495,496,497,498,499,500],"tree_info":[0,0,0,0,0,0,0,0,0,0,0,0,0,0,0,0,0,0,0,0,0,0,0,0,0,0,0,0,0,0,0,0,0,0,0,0,0,0,0,0,0,0,0,0,0,0,0,0,0,0,0,0,0,0,0,0,0,0,0,0,0,0,0,0,0,0,0,0,0,0,0,0,0,0,0,0,0,0,0,0,0,0,0,0,0,0,0,0,0,0,0,0,0,0,0,0,0,0,0,0,0,0,0,0,0,0,0,0,0,0,0,0,0,0,0,0,0,0,0,0,0,0,0,0,0,0,0,0,0,0,0,0,0,0,0,0,0,0,0,0,0,0,0,0,0,0,0,0,0,0,0,0,0,0,0,0,0,0,0,0,0,0,0,0,0,0,0,0,0,0,0,0,0,0,0,0,0,0,0,0,0,0,0,0,0,0,0,0,0,0,0,0,0,0,0,0,0,0,0,0,0,0,0,0,0,0,0,0,0,0,0,0,0,0,0,0,0,0,0,0,0,0,0,0,0,0,0,0,0,0,0,0,0,0,0,0,0,0,0,0,0,0,0,0,0,0,0,0,0,0,0,0,0,0,0,0,0,0,0,0,0,0,0,0,0,0,0,0,0,0,0,0,0,0,0,0,0,0,0,0,0,0,0,0,0,0,0,0,0,0,0,0,0,0,0,0,0,0,0,0,0,0,0,0,0,0,0,0,0,0,0,0,0,0,0,0,0,0,0,0,0,0,0,0,0,0,0,0,0,0,0,0,0,0,0,0,0,0,0,0,0,0,0,0,0,0,0,0,0,0,0,0,0,0,0,0,0,0,0,0,0,0,0,0,0,0,0,0,0,0,0,0,0,0,0,0,0,0,0,0,0,0,0,0,0,0,0,0,0,0,0,0,0,0,0,0,0,0,0,0,0,0,0,0,0,0,0,0,0,0,0,0,0,0,0,0,0,0,0,0,0,0,0,0,0,0,0,0,0,0,0,0,0,0,0,0,0,0,0,0,0,0,0,0,0,0,0,0,0,0,0,0,0,0,0,0,0,0,0,0,0,0,0,0,0,0,0,0,0,0,0,0,0,0,0,0,0,0,0,0,0,0,0,0,0,0,0,0,0,0,0,0,0,0,0,0,0,0,0,0],"trees":[{"base_weights":[-7.3879478E-3,2.6698412E-2,-3.130321E-1,-1.5561132E-1,4.417143E-2,-5.107278E-1,3.3512115E-2,-6.0155816E-2,-3.7543052E-1,-1.4348751E-1,6.157798E-2,5.0910845E-2,-5.91918E-1,-6.731896E-2,8.5238713E-1,8.0693257E-1,-1.2806934E-1,-4.9950147E-1,-5.0076433E-2,5.956526E-1,-2.2951709E-1,1.8586643E-2,1.3862804E-1,6.4966595E-1,-2.7012223E-1,-7.14649E-1,-2.6051083E-1,-2.3032941E-1,4.5360544E-1,1.0655894E0,-4.28092E-3,1.9398029E-1,1.024666E0,-3.7961254E-1,5.2166164E-2,-1.0972936E0,-4.152727E-1,-8.2456636E-1,2.673112E-1,7.1158284E-1,-5.3567436E-2,-2.7114463E-1,1.0084938E-1,-1.2651653E-2,1.6915144E-1,1.4476019E-1,-8.729093E-1,5.4226227E-2,-2.558525E-1,7.574306E-2,-6.7080706E-1,-8.152064E-1,-4.5922264E-1,1.6677853E-1,-3.4835124E-1,-6.043474E-1,-7.531869E-2,1.6677853E-1,5.863226E-1,5.313549E-1,1.3572518E0,-1.6513363E-2,3.348664E-2,6.331714E-2,2.0540709E-2,-1.5297638E-2,-3.8387198E-2,-3.5011396E-3,1.5118316E-2,-7.9459295E-2,-2.112596E-2,-3.663444E-2,-1.301751E-2,-6.0932256E-2,8.486638E-3,-2.276086E-3,4.0183965E-2,2.0862896E-2,5.931679E-2,-1.09521495E-2,-2.4898453E-2,1.3923883E-2,-4.612596E-2,-2.421793E-3,3.621572E-3,-3.665436E-4,2.5934055E-2,2.0228378E-3,9.1533875E-3,2.2324426E-2,-5.4682255E-2,8.486638E-3,-3.690077E-2,-1.8872416E-2,1.7862592E-2,-5.0319225E-2,2.0986637E-2,-4.64075E-2,-2.3513317E-2,1.9364733E-4,-3.183304E-2,3.4132313E-2,-2.6015272E-2,-6.626832E-3,-2.7424728E-2,-8.141703E-3,-4.3137103E-2,2.2862896E-2,-1.2711271E-2,-3.690077E-2,1.8137401E-2,3.1884078E-2,-3.5674335E-3,4.554071E-2,-2.02341E-2,7.5183965E-2,-2.675575E-3],"categories":[],"categories_nodes":[],"categories_segments":[],"categories_sizes":[],"default_left":[0,0,0,0,0,0,0,0,0,0,0,0,0,0,0,0,0,0,0,0,0,0,0,0,0,0,0,0,0,0,0,0,0,0,0,0,0,0,0,0,0,0,0,0,0,0,0,0,0,0,0,0,0,0,0,0,0,0,0,0,0,0,0,0,0,0,0,0,0,0,0,0,0,0,0,0,0,0,0,0,0,0,0,0,0,0,0,0,0,0,0,0,0,0,0,0,0,0,0,0,0,0,0,0,0,0,0,0,0,0,0,0,0,0,0,0,0],"id":0,"left_children":[1,3,5,7,9,11,13,15,17,19,21,23,25,27,29,31,33,35,37,39,41,43,45,47,49,51,53,55,57,59,-1,61,63,65,67,69,71,73,75,77,-1,79,81,83,85,87,89,-1,91,93,95,97,99,101,103,105,107,109,111,113,115,-1,-1,-1,-1,-1,-1,-1,-1,-1,-1,-1,-1,-1,-1,-1,-1,-1,-1,-1,-1,-1,-1,-1,-1,-1,-1,-1,-1,-1,-1,-1,-1,-1,-1,-1,-1,-1,-1,-1,-1,-1,-1,-1,-1,-1,-1,-1,-1,-1,-1,-1,-1,-1,-1,-1,-1],"loss_changes":[5.6902668E1,1.5660426E1,3.7560764E1,9.000085E0,1.4659065E1,1.5944374E1,1.6570992E1,1.782834E1,5.2226944E0,2.4363705E1,1.3595173E1,8.8253975E0,1.2219391E1,1.5304463E1,4.490899E0,2.737358E0,1.2714168E1,4.2773457E0,9.315516E0,8.492592E0,4.730648E0,1.240027E1,9.244631E0,6.5778384E0,4.2082987E0,5.3277054E0,3.2108922E0,7.8973036E0,1.5390882E0,2.0835075E0,0E0,1.9670753E0,1.8534298E0,3.110098E0,5.0349307E0,2.979619E0,3.9399366E0,4.5169983E0,4.5670123E0,4.8147907E0,0E0,3.483574E0,7.3462906E0,6.6529827E0,2.7947472E1,5.834179E0,3.1094446E0,0E0,1.3564737E0,2.3036587E0,5.545861E0,5.719002E0,5.3435698E0,5.6718507E0,2.9508753E0,4.422902E0,9.453836E0,2.927393E0,1.0250397E0,3.2100933E0,2.352787E0,0E0,0E0,0E0,0E0,0E0,0E0,0E0,0E0,0E0,0E0,0E0,0E0,0E0,0E0,0E0,0E0,0E0,0E0,0E0,0E0,0E0,0E0,0E0,0E0,0E0,0E0,0E0,0E0,0E0,0E0,0E0,0E0,0E0,0E0,0E0,0E0,0E0,0E0,0E0,0E0,0E0,0E0,0E0,0E0,0E0,0E0,0E0,0E0,0E0,0E0,0E0,0E0,0E0,0E0,0E0,0E0],"parents":[2147483647,0,0,1,1,2,2,3,3,4,4,5,5,6,6,7,7,8,8,9,9,10,10,11,11,12,12,13,13,14,14,15,15,16,16,17,17,18,18,19,19,20,20,21,21,22,22,23,23,24,24,25,25,26,26,27,27,28,28,29,29,31,31,32,32,33,33,34,34,35,35,36,36,37,37,38,38,39,39,41,41,42,42,43,43,44,44,45,45,46,46,48,48,49,49,50,50,51,51,52,52,53,53,54,54,55,55,56,56,57,57,58,58,59,59,60,60],"right_children":[2,4,6,8,10,12,14,16,18,20,22,24,26,28,30,32,34,36,38,40,42,44,46,48,50,52,54,56,58,60,-1,62,64,66,68,70,72,74,76,78,-1,80,82,84,86,88,90,-1,92,94,96,98,100,102,104,106,108,110,112,114,116,-1,-1,-1,-1,-1,-1,-1,-1,-1,-1,-1,-1,-1,-1,-1,-1,-1,-1,-1,-1,-1,-1,-1,-1,-1,-1,-1,-1,-1,-1,-1,-1,-1,-1,-1,-1,-1,-1,-1,-1,-1,-1,-1,-1,-1,-1,-1,-1,-1,-1,-1,-1,-1,-1,-1,-1],"split_conditions":[1.4E2,9.4E1,2E0,3E0,1.2E1,1.7E1,1.4E2,1E2,3E0,1.14E2,3E0,2E0,1.35E2,3E0,1.58E2,2E1,2E0,1.04E2,2E0,1.32E2,1.63E2,1.42E2,1.63E2,1.05E2,2E0,3E0,1.39E2,2E0,2E1,2E0,-4.28092E-3,3E0,9.8E1,1.35E2,3E0,2E1,8.5E1,1.24E2,9E1,1.07E2,-5.3567436E-2,1.19E2,1E0,3E0,1.18E2,2E0,2E0,5.4226227E-2,1.5E1,2E0,1E0,3E0,2E0,2E0,2E0,9.3E1,2E0,1.41E2,1.104E3,2E0,1.52E2,-1.6513363E-2,3.348664E-2,6.331714E-2,2.0540709E-2,-1.5297638E-2,-3.8387198E-2,-3.5011396E-3,1.5118316E-2,-7.9459295E-2,-2.112596E-2,-3.663444E-2,-1.301751E-2,-6.0932256E-2,8.486638E-3,-2.276086E-3,4.0183965E-2,2.0862896E-2,5.931679E-2,-1.09521495E-2,-2.4898453E-2,1.3923883E-2,-4.612596E-2,-2.421793E-3,3.621572E-3,-3.665436E-4,2.5934055E-2,2.0228378E-3,9.1533875E-3,2.2324426E-2,-5.4682255E-2,8.486638E-3,-3.690077E-2,-1.8872416E-2,1.7862592E-2,-5.0319225E-2,2.0986637E-2,-4.64075E-2,-2.3513317E-2,1.9364733E-4,-3.183304E-2,3.4132313E-2,-2.6015272E-2,-6.626832E-3,-2.7424728E-2,-8.141703E-3,-4.3137103E-2,2.2862896E-2,-1.2711271E-2,-3.690077E-2,1.8137401E-2,3.1884078E-2,-3.5674335E-3,4.554071E-2,-2.02341E-2,7.5183965E-2,-2.675575E-3],"split_indices":[0,11,6,4,1,1,11,0,7,11,10,4,11,6,0,1,15,0,5,0,11,11,11,11,7,5,11,2,1,16,0,6,0,0,2,1,11,0,11,11,0,0,23,8,0,16,8,0,1,16,18,4,2,2,10,11,8,0,0,7,0,0,0,0,0,0,0,0,0,0,0,0,0,0,0,0,0,0,0,0,0,0,0,0,0,0,0,0,0,0,0,0,0,0,0,0,0,0,0,0,0,0,0,0,0,0,0,0,0,0,0,0,0,0,0,0,0],"split_type":[0,0,0,0,0,0,0,0,0,0,0,0,0,0,0,0,0,0,0,0,0,0,0,0,0,0,0,0,0,0,0,0,0,0,0,0,0,0,0,0,0,0,0,0,0,0,0,0,0,0,0,0,0,0,0,0,0,0,0,0,0,0,0,0,0,0,0,0,0,0,0,0,0,0,0,0,0,0,0,0,0,0,0,0,0,0,0,0,0,0,0,0,0,0,0,0,0,0,0,0,0,0,0,0,0,0,0,0,0,0,0,0,0,0,0,0,0],"sum_hessian":[5.46E3,4.913E3,5.47E2,4.29E2,4.484E3,3.48E2,1.99E2,3E2,1.29E2,3.8E2,4.104E3,4.4E1,3.04E2,1.78E2,2.1E1,2.1E1,2.79E2,9.3E1,3.6E1,3.9E1,3.41E2,2.635E3,1.469E3,1.5E1,2.9E1,2.21E2,8.3E1,1.36E2,4.2E1,1.7E1,4E0,6E0,1.5E1,1.16E2,1.63E2,1E1,8.3E1,1E1,2.6E1,3.7E1,2E0,3.03E2,3.8E1,2.183E3,4.52E2,1.461E3,8E0,1E1,5E0,1.6E1,1.3E1,1.57E2,6.4E1,1.4E1,6.9E1,3.9E1,9.7E1,1.4E1,2.8E1,7E0,1E1,3E0,3E0,1E1,5E0,9.9E1,1.7E1,1.1E2,5.3E1,5E0,5E0,2.6E1,5.7E1,7E0,3E0,1.7E1,9E0,2.4E1,1.3E1,2.48E2,5.5E1,3.3E1,5E0,1.537E3,6.46E2,3.01E2,1.51E2,3.93E2,1.068E3,1E0,7E0,3E0,2E0,6E0,1E1,1E1,3E0,1.17E2,4E1,1.8E1,4.6E1,8E0,6E0,3.4E1,3.5E1,1.5E1,2.4E1,2.4E1,7.3E1,2E0,1.2E1,2.6E1,2E0,5E0,2E0,9E0,1E0],"tree_param":{"num_deleted":"0","num_feature":"25","num_nodes":"117","size_leaf_vector":"1"}},{"base_weights":[-9.676964E-3,-8.3842754E-2,4.6755087E-2,4.21648E-2,-1.9685929E-1,5.165187E-2,-6.129372E-1,1.5991892E-1,-7.9292186E-2,-5.2203447E-1,-1.1609973E-1,2.4261815E-2,1.6046733E-1,8.683884E-2,-8.121438E-1,-6.2307006E-1,1.750405E-1,-2.0820823E-1,5.226573E-2,-2.3442578E-1,-6.872445E-1,-1.9093281E-1,8.516588E-2,1.081471E-1,-2.283957E-2,-4.436303E-1,1.8655133E-1,4.7333587E-2,-2.7446207E-1,-2.502763E-1,-1.0089947E0,1.1671195E-1,-1.0624758E0,2.1671875E-1,-8.093775E-2,-2.8343397E-1,7.955267E-3,-2.2963999E-1,1.5012378E-1,-3.782698E-1,3.023261E-1,-8.081547E-1,-4.6094313E-1,-1.376412E-1,-3.995684E-1,5.7096496E-2,8.990717E-1,4.9212852E-1,3.1929556E-2,-1.7956583E-1,4.8067663E-2,-2.2722045E-1,-7.885398E-2,2.5807133E-1,-3.5654593E-2,-3.9996207E-3,-2.630852E-2,2.1766318E-2,-4.744621E-1,-5.7974553E-1,-7.065806E-2,-1.9846285E-2,2.9572282E-2,-6.9438204E-2,2.238133E-2,9.720648E-3,5.361514E-2,1.9882433E-3,-2.4609733E-2,-1.7739354E-2,-5.735479E-3,8.006964E-3,-5.4601766E-2,-2.1038724E-3,-3.0962272E-2,-3.0077163E-3,1.7644633E-2,-2.5087858E-2,1.8168217E-2,-9.565669E-3,3.6180254E-2,-5.1512092E-2,-3.2281727E-2,-2.5532408E-2,3.0198155E-2,-4.37511E-3,-1.4858398E-2,-2.750198E-2,1.1842451E-2,7.144307E-3,-1.3205113E-2,5.745026E-2,-2.7509904E-2,1.47800995E-2,5.0522346E-2,5.5551957E-3,-3.1516799E-3,-4.4005057E-3,-1.4236524E-2,-1.2934298E-3,1.19223725E-2,-2.2491649E-2,5.357956E-3,9.413194E-3,2.4753826E-2,1.5429963E-2,-1.5033689E-2,-3.598329E-2,-3.5552185E-3,-2.6664138E-3,-3.2366484E-2],"categories":[],"categories_nodes":[],"categories_segments":[],"categories_sizes":[],"default_left":[0,0,0,0,0,0,0,0,0,0,0,0,0,0,0,0,0,0,0,0,0,0,0,0,0,0,0,0,0,0,0,0,0,0,0,0,0,0,0,0,0,0,0,0,0,0,0,0,0,0,0,0,0,0,0,0,0,0,0,0,0,0,0,0,0,0,0,0,0,0,0,0,0,0,0,0,0,0,0,0,0,0,0,0,0,0,0,0,0,0,0,0,0,0,0,0,0,0,0,0,0,0,0,0,0,0,0,0,0,0,0],"id":1,"left_children":[1,3,5,7,9,11,13,15,17,19,21,23,25,27,29,31,33,35,37,39,41,43,45,47,49,51,53,-1,55,57,59,61,63,65,67,69,71,73,75,77,79,81,83,85,87,89,91,93,95,97,99,101,-1,103,105,-1,-1,-1,107,109,-1,-1,-1,-1,-1,-1,-1,-1,-1,-1,-1,-1,-1,-1,-1,-1,-1,-1,-1,-1,-1,-1,-1,-1,-1,-1,-1,-1,-1,-1,-1,-1,-1,-1,-1,-1,-1,-1,-1,-1,-1,-1,-1,-1,-1,-1,-1,-1,-1,-1,-1],"loss_changes":[2.292696E1,3.37166E1,1.0081345E1,1.6030987E1,3.2713127E1,9.202751E0,3.2767258E0,6.846037E0,9.372763E0,1.1622818E1,1.5092648E1,9.757768E0,9.868038E0,2.123776E0,1.738347E0,3.6997128E0,5.9813614E0,4.539089E0,7.5932417E0,7.217546E0,3.9233398E0,8.061523E0,6.1627336E0,2.5972599E1,1.758944E1,6.019185E0,9.480932E0,0E0,2.0265847E-1,1.1287601E0,1.4360723E0,1.4539653E0,4.0707464E0,8.9711685E0,3.9411156E0,2.4513779E0,1.2395149E1,5.1622963E0,8.71935E0,6.867841E0,4.2976346E0,2.980301E0,3.32549E0,4.6371307E0,1.4303122E1,7.312394E0,3.89217E0,1.46752205E1,5.5858393E0,4.721754E0,1.5348972E1,1.7602564E0,0E0,7.3684654E0,1.3412934E1,0E0,0E0,0E0,4.4335246E-1,2.500987E-1,0E0,0E0,0E0,0E0,0E0,0E0,0E0,0E0,0E0,0E0,0E0,0E0,0E0,0E0,0E0,0E0,0E0,0E0,0E0,0E0,0E0,0E0,0E0,0E0,0E0,0E0,0E0,0E0,0E0,0E0,0E0,0E0,0E0,0E0,0E0,0E0,0E0,0E0,0E0,0E0,0E0,0E0,0E0,0E0,0E0,0E0,0E0,0E0,0E0,0E0,0E0],"parents":[2147483647,0,0,1,1,2,2,3,3,4,4,5,5,6,6,7,7,8,8,9,9,10,10,11,11,12,12,13,13,14,14,15,15,16,16,17,17,18,18,19,19,20,20,21,21,22,22,23,23,24,24,25,25,26,26,28,28,29,29,30,30,31,31,32,32,33,33,34,34,35,35,36,36,37,37,38,38,39,39,40,40,41,41,42,42,43,43,44,44,45,45,46,46,47,47,48,48,49,49,50,50,51,51,53,53,54,54,58,58,59,59],"right_children":[2,4,6,8,10,12,14,16,18,20,22,24,26,28,30,32,34,36,38,40,42,44,46,48,50,52,54,-1,56,58,60,62,64,66,68,70,72,74,76,78,80,82,84,86,88,90,92,94,96,98,100,102,-1,104,106,-1,-1,-1,108,110,-1,-1,-1,-1,-1,-1,-1,-1,-1,-1,-1,-1,-1,-1,-1,-1,-1,-1,-1,-1,-1,-1,-1,-1,-1,-1,-1,-1,-1,-1,-1,-1,-1,-1,-1,-1,-1,-1,-1,-1,-1,-1,-1,-1,-1,-1,-1,-1,-1,-1,-1],"split_conditions":[2E0,1.8E1,1.63E2,1.28E2,1E2,1.39E2,2E0,8.7E1,1.48E2,2E0,3E0,1.11E2,1.3E1,2E0,2E0,2E0,1E0,3E0,2E0,3E0,3E0,1E0,1.47E2,1.5E1,1.7E1,1.46E2,1.54E2,4.7333587E-2,3E0,1E0,1E0,2E0,1E0,1.27E2,1.16E2,3E0,1.46E2,3E0,1.2E1,3E0,2.1E1,2E0,2.3E1,3E0,1.36E2,1E0,1E0,3E0,1E0,3E0,3E0,1.43E2,-7.885398E-2,1.49E2,1.7E1,-3.9996207E-3,-2.630852E-2,2.1766318E-2,3E0,2E0,-7.065806E-2,-1.9846285E-2,2.9572282E-2,-6.9438204E-2,2.238133E-2,9.720648E-3,5.361514E-2,1.9882433E-3,-2.4609733E-2,-1.7739354E-2,-5.735479E-3,8.006964E-3,-5.4601766E-2,-2.1038724E-3,-3.0962272E-2,-3.0077163E-3,1.7644633E-2,-2.5087858E-2,1.8168217E-2,-9.565669E-3,3.6180254E-2,-5.1512092E-2,-3.2281727E-2,-2.5532408E-2,3.0198155E-2,-4.37511E-3,-1.4858398E-2,-2.750198E-2,1.1842451E-2,7.144307E-3,-1.3205113E-2,5.745026E-2,-2.7509904E-2,1.47800995E-2,5.0522346E-2,5.5551957E-3,-3.1516799E-3,-4.4005057E-3,-1.4236524E-2,-1.2934298E-3,1.19223725E-2,-2.2491649E-2,5.357956E-3,9.413194E-3,2.4753826E-2,1.5429963E-2,-1.5033689E-2,-3.598329E-2,-3.5552185E-3,-2.6664138E-3,-3.2366484E-2],"split_indices":[6,1,11,11,11,11,4,11,11,4,15,11,1,8,13,5,19,17,15,7,7,19,11,1,1,11,11,0,15,3,3,4,22,11,11,4,11,13,1,5,1,16,1,16,11,24,19,2,3,6,6,11,0,11,1,0,0,0,4,5,0,0,0,0,0,0,0,0,0,0,0,0,0,0,0,0,0,0,0,0,0,0,0,0,0,0,0,0,0,0,0,0,0,0,0,0,0,0,0,0,0,0,0,0,0,0,0,0,0,0,0],"split_type":[0,0,0,0,0,0,0,0,0,0,0,0,0,0,0,0,0,0,0,0,0,0,0,0,0,0,0,0,0,0,0,0,0,0,0,0,0,0,0,0,0,0,0,0,0,0,0,0,0,0,0,0,0,0,0,0,0,0,0,0,0,0,0,0,0,0,0,0,0,0,0,0,0,0,0,0,0,0,0,0,0,0,0,0,0,0,0,0,0,0,0,0,0,0,0,0,0,0,0,0,0,0,0,0,0,0,0,0,0,0,0],"sum_hessian":[5.476E3,2.366E3,3.11E3,1.119E3,1.247E3,3.088E3,2.2E1,5.68E2,5.51E2,2.47E2,1E3,2.468E3,6.2E2,5E0,1.7E1,1E1,5.58E2,2.78E2,2.73E2,9.1E1,1.56E2,7.29E2,2.71E2,8.87E2,1.581E3,2.5E1,5.95E2,1E0,4E0,5E0,1.2E1,4E0,6E0,4.8E2,7.8E1,2.06E2,7.2E1,7E1,2.03E2,7.2E1,1.9E1,1E2,5.6E1,5.82E2,1.47E2,2.63E2,8E0,1.46E2,7.41E2,4.92E2,1.089E3,2.2E1,3E0,4.5E2,1.45E2,3E0,1E0,1E0,4E0,7E0,5E0,2E0,2E0,5E0,1E0,4.69E2,1.1E1,6.1E1,1.7E1,1.44E2,6.2E1,6.4E1,8E0,4.8E1,2.2E1,1E2,1.03E2,6.2E1,1E1,9E0,1E1,4E1,6E1,5.4E1,2E0,4.44E2,1.38E2,1.19E2,2.8E1,2.08E2,5.5E1,7E0,1E0,1.07E2,3.9E1,4.04E2,3.37E2,2.64E2,2.28E2,7.85E2,3.04E2,1.3E1,9E0,3.49E2,1.01E2,6.3E1,8.2E1,2E0,2E0,1E0,6E0],"tree_param":{"num_deleted":"0","num_feature":"25","num_nodes":"111","size_leaf_vector":"1"}},{"base_weights":[-3.1369259E-3,2.6586682E-2,-2.7810225E-1,-4.735149E-2,6.0311913E-2,-4.9182233E-1,9.296516E-2,-4.047733E-2,-9.2387074E-1,8.615221E-2,-6.464209E-2,-1.0635061E-1,-6.028091E-1,-1.3525857E-2,9.3582714E-1,6.7220904E-2,-8.711219E-2,-1.0814035E0,-3.3845443E-1,-8.413033E-1,9.009484E-2,-3.8442144E-1,1.3218799E-1,2.2246851E-1,-4.3244278E-1,-7.0204717E-1,-2.697621E-1,-1.6980374E-1,5.1815706E-1,1.1289394E0,2.327044E-1,1.853136E-1,-4.2689103E-1,-1.4641754E-1,1.8066484E-1,-3.9771104E-1,-6.0996413E-2,-3.726464E-2,2.2051519E-2,-7.3637985E-2,-3.4148005E-1,-1.1857815E-1,1.0481185E-1,-2.500631E-1,-5.4290956E-1,2.827046E-1,-2.5878439E-2,4.1586673E-1,-9.1053283E-1,-7.417007E-1,5.8471754E-2,-6.083022E-1,-9.9013937E-1,6.4364594E-1,-3.977167E-1,1.9060515E-1,-2.4484807E-1,6.982006E-1,2.59315E-1,6.329251E-1,1.499516E0,4.5950573E-2,-4.4179657E-3,2.7688256E-2,1.9305631E-3,-2.8034061E-2,-4.697397E-3,-4.3831985E-3,-1.5446874E-2,1.0679928E-2,-5.56768E-2,-2.6857251E-2,-2.971077E-3,-3.6798455E-2,-4.36611E-3,7.3029863E-4,-2.1281905E-2,8.336427E-3,2.2339933E-3,-1.0648874E-2,-5.376355E-2,-1.813304E-2,-3.9374065E-2,2.8090883E-2,5.973199E-3,-1.2833468E-2,8.355533E-3,3.768754E-2,-1.3319999E-2,-5.365326E-2,-2.4467767E-3,-5.0391853E-2,-9.307913E-3,3.8463663E-2,-1.6727688E-2,-1.3278863E-2,-3.918905E-2,-7.101631E-2,-3.7577987E-2,4.488016E-2,-3.9408565E-3,-1.1409953E-2,-3.414813E-2,-1.0812878E-2,5.156814E-2,-2.9335244E-2,-6.797012E-3,4.801326E-2,1.889763E-2,-2.2210408E-2,2.8203536E-2,-1.857414E-2,5.9852142E-2,2.0209497E-2,7.9295404E-2],"categories":[],"categories_nodes":[],"categories_segments":[],"categories_sizes":[],"default_left":[0,0,0,0,0,0,0,0,0,0,0,0,0,0,0,0,0,0,0,0,0,0,0,0,0,0,0,0,0,0,0,0,0,0,0,0,0,0,0,0,0,0,0,0,0,0,0,0,0,0,0,0,0,0,0,0,0,0,0,0,0,0,0,0,0,0,0,0,0,0,0,0,0,0,0,0,0,0,0,0,0,0,0,0,0,0,0,0,0,0,0,0,0,0,0,0,0,0,0,0,0,0,0,0,0,0,0,0,0,0,0,0,0,0,0],"id":2,"left_children":[1,3,5,7,9,11,13,15,17,19,21,23,25,27,29,31,33,35,37,39,41,43,45,47,49,51,53,55,57,59,61,63,65,67,69,71,-1,-1,-1,-1,73,75,77,79,81,83,85,87,89,91,93,95,97,99,101,103,105,107,109,111,113,-1,-1,-1,-1,-1,-1,-1,-1,-1,-1,-1,-1,-1,-1,-1,-1,-1,-1,-1,-1,-1,-1,-1,-1,-1,-1,-1,-1,-1,-1,-1,-1,-1,-1,-1,-1,-1,-1,-1,-1,-1,-1,-1,-1,-1,-1,-1,-1,-1,-1,-1,-1,-1,-1],"loss_changes":[4.4738014E1,1.232115E1,4.2394352E1,9.28982E0,1.0961053E1,1.4439072E1,1.7605076E1,7.7254257E0,7.4066067E-1,1.0358202E1,3.6683174E1,8.352556E0,8.503014E0,1.4628785E1,2.7244873E0,2.7212328E1,1.7066349E1,3.6719608E-1,1.5971943E0,3.284481E0,8.614418E0,4.5915527E0,8.596091E0,8.924358E0,5.964317E0,4.8531494E0,7.502223E0,3.7250125E0,1.6830597E0,2.1757107E0,1.403293E0,2.0302431E1,3.9563313E0,8.366161E0,8.549305E0,1.0958919E-1,0E0,0E0,0E0,0E0,7.378334E-1,7.571886E0,9.73609E0,3.504601E0,4.16687E0,8.361961E0,7.9264946E0,8.038719E0,7.877135E-1,3.3607817E0,4.7271724E0,9.113693E0,3.8589668E0,1.5385439E0,2.5036297E0,8.43279E0,4.1273327E0,1.5673552E0,4.1098127E0,5.544121E0,2.1063805E-1,0E0,0E0,0E0,0E0,0E0,0E0,0E0,0E0,0E0,0E0,0E0,0E0,0E0,0E0,0E0,0E0,0E0,0E0,0E0,0E0,0E0,0E0,0E0,0E0,0E0,0E0,0E0,0E0,0E0,0E0,0E0,0E0,0E0,0E0,0E0,0E0,0E0,0E0,0E0,0E0,0E0,0E0,0E0,0E0,0E0,0E0,0E0,0E0,0E0,0E0,0E0,0E0,0E0,0E0],"parents":[2147483647,0,0,1,1,2,2,3,3,4,4,5,5,6,6,7,7,8,8,9,9,10,10,11,11,12,12,13,13,14,14,15,15,16,16,17,17,18,18,19,19,20,20,21,21,22,22,23,23,24,24,25,25,26,26,27,27,28,28,29,29,30,30,31,31,32,32,33,33,34,34,35,35,40,40,41,41,42,42,43,43,44,44,45,45,46,46,47,47,48,48,49,49,50,50,51,51,52,52,53,53,54,54,55,55,56,56,57,57,58,58,59,59,60,60],"right_children":[2,4,6,8,10,12,14,16,18,20,22,24,26,28,30,32,34,36,38,40,42,44,46,48,50,52,54,56,58,60,62,64,66,68,70,72,-1,-1,-1,-1,74,76,78,80,82,84,86,88,90,92,94,96,98,100,102,104,106,108,110,112,114,-1,-1,-1,-1,-1,-1,-1,-1,-1,-1,-1,-1,-1,-1,-1,-1,-1,-1,-1,-1,-1,-1,-1,-1,-1,-1,-1,-1,-1,-1,-1,-1,-1,-1,-1,-1,-1,-1,-1,-1,-1,-1,-1,-1,-1,-1,-1,-1,-1,-1,-1,-1,-1,-1],"split_conditions":[1.4E2,2E0,2E0,1.66E2,3E0,1.8E1,1.38E2,1.7E1,3E0,7.9E1,1.7E1,1.09E2,1.36E2,3E0,1.55E2,3E0,3E0,2E0,3E0,3E0,9.1E1,1E0,1.12E2,1E0,3E0,1.54E2,1.39E2,8.9E1,9.6E1,2E0,2E0,1.18E2,1.11E2,1.24E2,1.47E2,9.8E1,-6.0996413E-2,-3.726464E-2,2.2051519E-2,-7.3637985E-2,2E0,1.29E2,1E0,1.45E2,2E0,2E0,1.21E2,1E0,2E0,3E0,2E0,2E0,2E0,1.51E2,1.43E2,1.5E2,2E0,1.58E2,2E0,1.9E1,1.41E2,4.5950573E-2,-4.4179657E-3,2.7688256E-2,1.9305631E-3,-2.8034061E-2,-4.697397E-3,-4.3831985E-3,-1.5446874E-2,1.0679928E-2,-5.56768E-2,-2.6857251E-2,-2.971077E-3,-3.6798455E-2,-4.36611E-3,7.3029863E-4,-2.1281905E-2,8.336427E-3,2.2339933E-3,-1.0648874E-2,-5.376355E-2,-1.813304E-2,-3.9374065E-2,2.8090883E-2,5.973199E-3,-1.2833468E-2,8.355533E-3,3.768754E-2,-1.3319999E-2,-5.365326E-2,-2.4467767E-3,-5.0391853E-2,-9.307913E-3,3.8463663E-2,-1.6727688E-2,-1.3278863E-2,-3.918905E-2,-7.101631E-2,-3.7577987E-2,4.488016E-2,-3.9408565E-3,-1.1409953E-2,-3.414813E-2,-1.0812878E-2,5.156814E-2,-2.9335244E-2,-6.797012E-3,4.801326E-2,1.889763E-2,-2.2210408E-2,2.8203536E-2,-1.857414E-2,5.9852142E-2,2.0209497E-2,7.9295404E-2],"split_indices":[0,16,6,11,6,1,11,1,15,0,1,11,11,6,0,6,6,2,2,16,11,12,0,20,13,0,11,11,11,13,8,11,0,0,11,0,0,0,0,0,13,0,3,11,10,8,11,12,10,15,8,2,13,0,11,0,2,0,5,1,0,0,0,0,0,0,0,0,0,0,0,0,0,0,0,0,0,0,0,0,0,0,0,0,0,0,0,0,0,0,0,0,0,0,0,0,0,0,0,0,0,0,0,0,0,0,0,0,0,0,0,0,0,0,0],"split_type":[0,0,0,0,0,0,0,0,0,0,0,0,0,0,0,0,0,0,0,0,0,0,0,0,0,0,0,0,0,0,0,0,0,0,0,0,0,0,0,0,0,0,0,0,0,0,0,0,0,0,0,0,0,0,0,0,0,0,0,0,0,0,0,0,0,0,0,0,0,0,0,0,0,0,0,0,0,0,0,0,0,0,0,0,0,0,0,0,0,0,0,0,0,0,0,0,0,0,0,0,0,0,0,0,0,0,0,0,0,0,0,0,0,0,0],"sum_hessian":[5.472E3,4.939E3,5.33E2,1.547E3,3.392E3,3.38E2,1.95E2,1.536E3,1.1E1,2.811E3,5.81E2,7.6E1,2.62E2,1.74E2,2.1E1,4.64E2,1.072E3,8E0,3E0,1.1E1,2.8E3,2.21E2,3.6E2,3.8E1,3.8E1,2.01E2,6.1E1,1.35E2,3.9E1,1.6E1,5E0,3.75E2,8.9E1,8.78E2,1.94E2,2E0,6E0,2E0,1E0,4E0,7E0,1.84E2,2.616E3,1.21E2,1E2,1.84E2,1.76E2,3.3E1,5E0,2.3E1,1.5E1,1.54E2,4.7E1,7E0,5.4E1,2.3E1,1.12E2,2.2E1,1.7E1,8E0,8E0,1E0,4E0,1.06E2,2.69E2,6.3E1,2.6E1,6.46E2,2.32E2,1.9E2,4E0,1E0,1E0,2E0,5E0,1.29E2,5.5E1,1.288E3,1.328E3,1.17E2,4E0,5.9E1,4.1E1,6.7E1,1.17E2,8E1,9.6E1,2.2E1,1.1E1,4E0,1E0,1.5E1,8E0,5E0,1E1,5.3E1,1.01E2,1.5E1,3.2E1,5E0,2E0,3.5E1,1.9E1,1.6E1,7E0,2.6E1,8.6E1,1.1E1,1.1E1,5E0,1.2E1,3E0,5E0,1E0,7E0],"tree_param":{"num_deleted":"0","num_feature":"25","num_nodes":"115","size_leaf_vector":"1"}},{"base_weights":[-9.49341E-3,1.5298366E-2,-3.376066E-1,-1.1368709E-2,1.4036119E-1,-5.182749E-1,2.1417018E-3,1.0601446E-2,-1.2030222E-1,4.892083E-2,4.9012795E-1,-3.1020126E-1,-6.422035E-1,-1.3131227E-1,4.7360763E-1,3.470788E-2,-8.981623E-2,2.0734592E-1,-2.7368018E-1,-3.7378663E-1,7.195075E-2,6.1397815E-1,1.9906393E-1,-5.570672E-1,-7.194321E-2,-6.6259825E-1,3.127959E-2,-5.100051E-1,7.91463E-2,2.398309E-1,7.608672E-1,-2.5120914E-2,6.513026E-2,-2.4399967E-1,-1.978053E-2,3.4885913E-1,1.5551456E-2,-4.4274127E-1,-9.1109544E-2,-5.9945464E-1,1.4630967E-1,2.7397162E-1,-1.2133255E-3,6.3491356E-1,-5.2167337E-2,7.663809E-1,-4.102028E-2,-1.5863548E-1,-7.212917E-1,4.167811E-1,-1.7495692E-1,-7.090116E-1,-5.0421674E-2,-9.8622106E-2,-6.3427496E-1,-1.8325485E-1,3.709553E-1,-6.542006E-3,4.87607E-1,4.845913E-2,3.563021E-1,-1.5156673E-2,-1.8297702E-5,1.5426884E-2,2.5621671E-3,-1.042341E-2,-7.145845E-2,1.4447342E-2,-3.9249114E-3,3.2119762E-2,1.1910341E-2,6.301331E-3,-3.539912E-2,-2.7936721E-2,-1.0667032E-3,-2.9508784E-2,-2.454945E-3,-5.959655E-2,-1.3495673E-2,4.486155E-2,-1.7065246E-2,2.4197133E-2,7.108415E-3,1.4575408E-3,-3.841218E-2,3.2883566E-2,2.938348E-3,4.4208836E-2,-2.7958816E-2,9.88763E-3,-6.1451234E-2,8.459346E-3,-3.3928346E-2,-1.6337661E-2,-4.5185428E-2,3.5195764E-2,-1.9606285E-2,-3.576615E-2,-1.3386513E-3,-4.2231437E-2,-2.4040818E-2,1.22830225E-2,-5.1027745E-2,-3.6163893E-2,7.3975786E-3,-4.6148147E-2,-1.0398476E-2,1.6761925E-2,-2.3903685E-2,4.8707224E-2,3.3172516E-3,-6.0416264E-3,3.1812083E-2,-4.811889E-3,2.3302881E-2],"categories":[],"categories_nodes":[],"categories_segments":[],"categories_sizes":[],"default_left":[0,0,0,0,0,0,0,0,0,0,0,0,0,0,0,0,0,0,0,0,0,0,0,0,0,0,0,0,0,0,0,0,0,0,0,0,0,0,0,0,0,0,0,0,0,0,0,0,0,0,0,0,0,0,0,0,0,0,0,0,0,0,0,0,0,0,0,0,0,0,0,0,0,0,0,0,0,0,0,0,0,0,0,0,0,0,0,0,0,0,0,0,0,0,0,0,0,0,0,0,0,0,0,0,0,0,0,0,0,0,0,0,0,0,0],"id":3,"left_children":[1,3,5,7,9,11,13,15,17,19,21,23,25,27,29,31,33,35,37,39,41,43,45,47,49,51,-1,53,55,57,59,61,63,65,67,69,71,73,75,77,79,81,83,85,-1,87,89,91,93,95,97,99,101,103,105,107,109,-1,111,-1,113,-1,-1,-1,-1,-1,-1,-1,-1,-1,-1,-1,-1,-1,-1,-1,-1,-1,-1,-1,-1,-1,-1,-1,-1,-1,-1,-1,-1,-1,-1,-1,-1,-1,-1,-1,-1,-1,-1,-1,-1,-1,-1,-1,-1,-1,-1,-1,-1,-1,-1,-1,-1,-1,-1],"loss_changes":[4.469615E1,1.7040415E1,2.369447E1,1.0081797E1,2.869658E1,6.2989273E0,8.556255E0,8.490134E0,3.5586327E1,6.9678907E0,6.5827637E0,5.606431E0,4.473961E0,8.488476E0,1.832159E0,5.1489763E0,7.32725E0,6.128542E0,1.4836872E1,4.430362E0,1.0006846E1,5.173023E0,7.795056E0,2.9608936E0,2.590184E0,4.368294E0,0E0,1.8801012E0,5.3513794E0,1.7169801E0,7.5028086E-1,6.565498E0,6.3220253E0,8.629554E0,8.506474E0,4.069436E0,7.8426795E0,1.2208172E1,4.8561225E0,4.7546616E0,4.700152E0,4.912678E0,1.162092E1,1.6527748E0,0E0,3.148878E0,1.1873235E1,2.6714823E0,2.0797348E0,2.3664064E0,3.343938E0,4.0502777E0,3.6975791E0,1.6472468E0,3.37706E0,5.8161483E0,5.998711E0,0E0,1.0716655E0,0E0,3.4286493E-1,0E0,0E0,0E0,0E0,0E0,0E0,0E0,0E0,0E0,0E0,0E0,0E0,0E0,0E0,0E0,0E0,0E0,0E0,0E0,0E0,0E0,0E0,0E0,0E0,0E0,0E0,0E0,0E0,0E0,0E0,0E0,0E0,0E0,0E0,0E0,0E0,0E0,0E0,0E0,0E0,0E0,0E0,0E0,0E0,0E0,0E0,0E0,0E0,0E0,0E0,0E0,0E0,0E0,0E0],"parents":[2147483647,0,0,1,1,2,2,3,3,4,4,5,5,6,6,7,7,8,8,9,9,10,10,11,11,12,12,13,13,14,14,15,15,16,16,17,17,18,18,19,19,20,20,21,21,22,22,23,23,24,24,25,25,27,27,28,28,29,29,30,30,31,31,32,32,33,33,34,34,35,35,36,36,37,37,38,38,39,39,40,40,41,41,42,42,43,43,45,45,46,46,47,47,48,48,49,49,50,50,51,51,52,52,53,53,54,54,55,55,56,56,58,58,60,60],"right_children":[2,4,6,8,10,12,14,16,18,20,22,24,26,28,30,32,34,36,38,40,42,44,46,48,50,52,-1,54,56,58,60,62,64,66,68,70,72,74,76,78,80,82,84,86,-1,88,90,92,94,96,98,100,102,104,106,108,110,-1,112,-1,114,-1,-1,-1,-1,-1,-1,-1,-1,-1,-1,-1,-1,-1,-1,-1,-1,-1,-1,-1,-1,-1,-1,-1,-1,-1,-1,-1,-1,-1,-1,-1,-1,-1,-1,-1,-1,-1,-1,-1,-1,-1,-1,-1,-1,-1,-1,-1,-1,-1,-1,-1,-1,-1,-1],"split_conditions":[1.43E2,1.42E2,2E0,1.3E2,1.23E2,1.47E2,3E0,1E0,1.8E1,9.4E1,3E0,1E0,2.3E1,2E0,2.1E1,2E0,2E0,3E0,2E0,3E0,2E0,2.3E1,1.26E2,2E0,1.6E1,1E0,3.127959E-2,8.7E1,1.5E2,2E0,3E0,1.2E1,9.3E1,1.41E2,1.06E2,1.32E2,1.19E2,1.33E2,8.5E1,2E0,2E0,1.49E2,1.66E2,2.2E1,-5.2167337E-2,2.1E1,3E0,3E0,2E0,1.01E2,1.03E2,1.26E2,1.65E2,8.1E1,1.55E2,2E0,9.2E1,-6.542006E-3,8.5E1,4.845913E-2,2E0,-1.5156673E-2,-1.8297702E-5,1.5426884E-2,2.5621671E-3,-1.042341E-2,-7.145845E-2,1.4447342E-2,-3.9249114E-3,3.2119762E-2,1.1910341E-2,6.301331E-3,-3.539912E-2,-2.7936721E-2,-1.0667032E-3,-2.9508784E-2,-2.454945E-3,-5.959655E-2,-1.3495673E-2,4.486155E-2,-1.7065246E-2,2.4197133E-2,7.108415E-3,1.4575408E-3,-3.841218E-2,3.2883566E-2,2.938348E-3,4.4208836E-2,-2.7958816E-2,9.88763E-3,-6.1451234E-2,8.459346E-3,-3.3928346E-2,-1.6337661E-2,-4.5185428E-2,3.5195764E-2,-1.9606285E-2,-3.576615E-2,-1.3386513E-3,-4.2231437E-2,-2.4040818E-2,1.22830225E-2,-5.1027745E-2,-3.6163893E-2,7.3975786E-3,-4.6148147E-2,-1.0398476E-2,1.6761925E-2,-2.3903685E-2,4.8707224E-2,3.3172516E-3,-6.0416264E-3,3.1812083E-2,-4.811889E-3,2.3302881E-2],"split_indices":[0,11,6,0,0,0,6,19,1,0,10,3,1,2,1,5,6,9,6,14,17,1,0,17,1,20,0,11,0,10,14,1,0,11,11,0,11,11,11,17,10,11,11,1,0,1,14,9,2,11,11,11,0,11,0,9,11,0,11,0,10,0,0,0,0,0,0,0,0,0,0,0,0,0,0,0,0,0,0,0,0,0,0,0,0,0,0,0,0,0,0,0,0,0,0,0,0,0,0,0,0,0,0,0,0,0,0,0,0,0,0,0,0,0,0],"split_type":[0,0,0,0,0,0,0,0,0,0,0,0,0,0,0,0,0,0,0,0,0,0,0,0,0,0,0,0,0,0,0,0,0,0,0,0,0,0,0,0,0,0,0,0,0,0,0,0,0,0,0,0,0,0,0,0,0,0,0,0,0,0,0,0,0,0,0,0,0,0,0,0,0,0,0,0,0,0,0,0,0,0,0,0,0,0,0,0,0,0,0,0,0,0,0,0,0,0,0,0,0,0,0,0,0,0,0,0,0,0,0,0,0,0,0],"sum_hessian":[5.493E3,5.108E3,3.85E2,4.211E3,8.97E2,2.51E2,1.34E2,3.505E3,7.06E2,7.12E2,1.85E2,9.5E1,1.56E2,1.05E2,2.9E1,2.827E3,6.78E2,2.25E2,4.81E2,3.6E1,6.76E2,1.29E2,5.6E1,4.6E1,4.9E1,1.54E2,2E0,3.7E1,6.8E1,1.7E1,1.2E1,9.53E2,1.874E3,2.11E2,4.67E2,1.29E2,9.6E1,2.49E2,2.32E2,2.5E1,1.1E1,1.79E2,4.97E2,1.28E2,1E0,1.6E1,4E1,1.4E1,3.2E1,8E0,4.1E1,1.43E2,1.1E1,9E0,2.8E1,3.6E1,3.2E1,7E0,1E1,7E0,5E0,7.7E1,8.76E2,1E2,1.774E3,2.06E2,5E0,7.4E1,3.93E2,3.4E1,9.5E1,8.4E1,1.2E1,1.95E2,5.4E1,1.7E1,2.15E2,8E0,1.7E1,4E0,7E0,6.8E1,1.11E2,4.79E2,1.8E1,1.23E2,5E0,1.5E1,1E0,3.4E1,6E0,9E0,5E0,1.1E1,2.1E1,6E0,2E0,8E0,3.3E1,8.8E1,5.5E1,9E0,2E0,2E0,7E0,1.6E1,1.2E1,1.3E1,2.3E1,1E1,2.2E1,2E0,8E0,1E0,4E0],"tree_param":{"num_deleted":"0","num_feature":"25","num_nodes":"115","size_leaf_vector":"1"}},{"base_weights":[2.7581744E-4,3.655986E-2,-1.9505784E-1,-4.563554E-2,7.2102815E-2,-2.3849602E-1,2.824547E-1,-1.2577958E-1,9.071882E-3,3.5249826E-2,1.4475733E-1,-1.6707431E-1,-4.195149E-1,4.143348E-1,-8.115028E-2,-2.0445679E-1,4.828762E-2,-5.102995E-1,2.1213489E-2,3.492386E-1,2.3997204E-2,8.59564E-2,2.9416898E-1,-3.1900066E-1,-8.446446E-2,-6.246946E-1,5.434342E-2,2.0623289E-1,5.794456E-1,-3.3401138E-1,4.3616483E-1,-1.7123002E-1,-4.4329843E-1,1.0086825E0,2.8085203E-3,-1.7633286E-1,-6.022525E-2,9.207631E-2,-4.6131574E-2,5.266082E-1,-1.9470157E-2,-5.5900406E-2,6.590074E-2,1.2634258E-1,-1.9971472E-1,4.4886288E-1,7.554105E-2,-4.3231192E-1,-6.1646596E-2,1.4745685E-1,-1.5358011E-1,-7.197182E-1,-3.8388392E-1,-3.233778E-1,3.268327E-1,2.9276326E-1,-3.2124233E-1,6.345432E-1,-5.4790736E-3,-6.649851E-1,-2.65795E-3,5.3851825E-1,-4.4488967E-3,-3.4015146E-3,-1.2349159E-2,1.5575349E-3,-3.3333495E-2,-4.7769668E-3,6.963398E-2,7.2848806E-3,-9.2265E-3,-2.4905171E-2,2.512374E-2,7.986625E-3,-2.7084472E-3,5.363742E-3,-6.5466203E-3,1.3579997E-2,3.8537625E-2,-1.7208494E-2,1.3011731E-2,-6.963613E-4,-1.7291348E-2,4.7114515E-3,-3.9677634E-3,5.5188774E-3,3.3965472E-2,-2.9417519E-2,-8.458712E-4,2.9668255E-2,9.623364E-3,-3.3638284E-2,8.299119E-3,-1.6119365E-2,-3.6183164E-2,4.882474E-4,-3.1206613E-2,2.5818024E-2,-4.251003E-3,-1.3134009E-2,1.4674378E-3,-3.0945111E-2,-4.7833588E-2,5.7793125E-3,-3.030071E-2,5.522243E-4,-2.9789308E-2,4.3311834E-2,4.6180487E-3,2.433634E-3,1.906276E-2,-5.12753E-2,1.2767379E-2,4.0650215E-2,1.8990776E-2,-4.809168E-3,-5.3377032E-2,-5.781748E-3,1.9704526E-2,3.315382E-2,-2.1068098E-3],"categories":[],"categories_nodes":[],"categories_segments":[],"categories_sizes":[],"default_left":[0,0,0,0,0,0,0,0,0,0,0,0,0,0,0,0,0,0,0,0,0,0,0,0,0,0,0,0,0,0,0,0,0,0,0,0,0,0,0,0,0,0,0,0,0,0,0,0,0,0,0,0,0,0,0,0,0,0,0,0,0,0,0,0,0,0,0,0,0,0,0,0,0,0,0,0,0,0,0,0,0,0,0,0,0,0,0,0,0,0,0,0,0,0,0,0,0,0,0,0,0,0,0,0,0,0,0,0,0,0,0,0,0,0,0,0,0,0,0,0,0],"id":4,"left_children":[1,3,5,7,9,11,13,15,17,19,21,23,25,27,29,31,33,35,37,39,41,43,45,47,49,51,53,55,57,59,61,63,65,67,69,71,-1,73,75,77,79,81,83,85,87,89,91,93,95,97,99,101,103,105,107,109,111,113,-1,115,117,119,-1,-1,-1,-1,-1,-1,-1,-1,-1,-1,-1,-1,-1,-1,-1,-1,-1,-1,-1,-1,-1,-1,-1,-1,-1,-1,-1,-1,-1,-1,-1,-1,-1,-1,-1,-1,-1,-1,-1,-1,-1,-1,-1,-1,-1,-1,-1,-1,-1,-1,-1,-1,-1,-1,-1,-1,-1,-1,-1],"loss_changes":[3.8818253E1,1.3497549E1,1.7864235E1,6.117482E0,8.62995E0,1.0104778E1,3.486186E0,7.7613125E0,5.2448072E0,7.5561924E0,9.507034E0,7.076704E0,2.1618137E1,1.7015724E0,2.7618613E0,3.0191097E0,7.7281537E0,4.192593E0,3.8793235E0,4.8496857E0,6.927333E0,9.02422E0,1.031514E1,5.776411E0,5.921464E0,3.2705307E0,7.1045895E0,1.2351134E0,1.1704826E0,1.5336024E0,4.241674E-1,2.6724892E0,5.001753E0,3.5252E0,4.577553E0,3.3081686E0,0E0,3.9268332E0,5.4387956E0,2.9036045E0,2.3600664E0,8.659611E0,5.5913334E0,5.963463E0,6.881076E0,6.5176964E0,8.774432E0,4.1863823E0,2.4965088E0,7.3336344E0,5.6756525E0,2.0356712E0,5.173629E0,2.648463E0,4.978993E0,4.566443E-1,1.8861458E0,9.1860104E-1,0E0,1.5001404E0,4.041583E-1,4.6189082E-1,0E0,0E0,0E0,0E0,0E0,0E0,0E0,0E0,0E0,0E0,0E0,0E0,0E0,0E0,0E0,0E0,0E0,0E0,0E0,0E0,0E0,0E0,0E0,0E0,0E0,0E0,0E0,0E0,0E0,0E0,0E0,0E0,0E0,0E0,0E0,0E0,0E0,0E0,0E0,0E0,0E0,0E0,0E0,0E0,0E0,0E0,0E0,0E0,0E0,0E0,0E0,0E0,0E0,0E0,0E0,0E0,0E0,0E0,0E0],"parents":[2147483647,0,0,1,1,2,2,3,3,4,4,5,5,6,6,7,7,8,8,9,9,10,10,11,11,12,12,13,13,14,14,15,15,16,16,17,17,18,18,19,19,20,20,21,21,22,22,23,23,24,24,25,25,26,26,27,27,28,28,29,29,30,30,31,31,32,32,33,33,34,34,35,35,37,37,38,38,39,39,40,40,41,41,42,42,43,43,44,44,45,45,46,46,47,47,48,48,49,49,50,50,51,51,52,52,53,53,54,54,55,55,56,56,57,57,59,59,60,60,61,61],"right_children":[2,4,6,8,10,12,14,16,18,20,22,24,26,28,30,32,34,36,38,40,42,44,46,48,50,52,54,56,58,60,62,64,66,68,70,72,-1,74,76,78,80,82,84,86,88,90,92,94,96,98,100,102,104,106,108,110,112,114,-1,116,118,120,-1,-1,-1,-1,-1,-1,-1,-1,-1,-1,-1,-1,-1,-1,-1,-1,-1,-1,-1,-1,-1,-1,-1,-1,-1,-1,-1,-1,-1,-1,-1,-1,-1,-1,-1,-1,-1,-1,-1,-1,-1,-1,-1,-1,-1,-1,-1,-1,-1,-1,-1,-1,-1,-1,-1,-1,-1,-1,-1],"split_conditions":[1.34E2,1.06E2,3E0,2E0,3E0,1.47E2,3E0,3E0,8.3E1,1.07E2,3E0,2E0,2E0,1.41E2,3E0,1.04E2,8.7E1,1E0,1E2,3E0,2E0,1E0,3E0,3E0,2E0,3E0,2E0,1.4E2,1.104E3,1.39E2,1.58E2,1E0,2E0,8E1,1E0,3E0,-6.022525E-2,3E0,2E0,3E0,1E0,1.3E2,3E0,1.33E2,2E0,3E0,1.1E2,3E0,1E0,2E0,3E0,3E0,2E0,2E0,2E0,2E0,2E0,3E0,-5.4790736E-3,3E0,1.61E2,1E0,-4.4488967E-3,-3.4015146E-3,-1.2349159E-2,1.5575349E-3,-3.3333495E-2,-4.7769668E-3,6.963398E-2,7.2848806E-3,-9.2265E-3,-2.4905171E-2,2.512374E-2,7.986625E-3,-2.7084472E-3,5.363742E-3,-6.5466203E-3,1.3579997E-2,3.8537625E-2,-1.7208494E-2,1.3011731E-2,-6.963613E-4,-1.7291348E-2,4.7114515E-3,-3.9677634E-3,5.5188774E-3,3.3965472E-2,-2.9417519E-2,-8.458712E-4,2.9668255E-2,9.623364E-3,-3.3638284E-2,8.299119E-3,-1.6119365E-2,-3.6183164E-2,4.882474E-4,-3.1206613E-2,2.5818024E-2,-4.251003E-3,-1.3134009E-2,1.4674378E-3,-3.0945111E-2,-4.7833588E-2,5.7793125E-3,-3.030071E-2,5.522243E-4,-2.9789308E-2,4.3311834E-2,4.6180487E-3,2.433634E-3,1.906276E-2,-5.12753E-2,1.2767379E-2,4.0650215E-2,1.8990776E-2,-4.809168E-3,-5.3377032E-2,-5.781748E-3,1.9704526E-2,3.315382E-2,-2.1068098E-3],"split_indices":[0,0,6,4,8,0,4,10,0,0,17,17,6,0,14,0,0,19,0,4,16,19,7,14,10,7,2,0,0,0,0,12,2,0,12,8,0,10,2,7,12,0,6,0,13,14,0,7,20,13,13,14,14,14,10,14,2,14,0,9,0,21,0,0,0,0,0,0,0,0,0,0,0,0,0,0,0,0,0,0,0,0,0,0,0,0,0,0,0,0,0,0,0,0,0,0,0,0,0,0,0,0,0,0,0,0,0,0,0,0,0,0,0,0,0,0,0,0,0,0,0],"split_type":[0,0,0,0,0,0,0,0,0,0,0,0,0,0,0,0,0,0,0,0,0,0,0,0,0,0,0,0,0,0,0,0,0,0,0,0,0,0,0,0,0,0,0,0,0,0,0,0,0,0,0,0,0,0,0,0,0,0,0,0,0,0,0,0,0,0,0,0,0,0,0,0,0,0,0,0,0,0,0,0,0,0,0,0,0,0,0,0,0,0,0,0,0,0,0,0,0,0,0,0,0,0,0,0,0,0,0,0,0,0,0,0,0,0,0,0,0,0,0,0,0],"sum_hessian":[5.475E3,4.618E3,8.57E2,1.394E3,3.224E3,7.86E2,7.1E1,5.65E2,8.29E2,2.14E3,1.084E3,5.65E2,2.21E2,5.2E1,1.9E1,3.89E2,1.76E2,1.8E1,8.11E2,7.3E1,2.067E3,7.79E2,3.05E2,1.98E2,3.67E2,1.54E2,6.7E1,2.4E1,2.8E1,1.3E1,6E0,3.43E2,4.6E1,7E0,1.69E2,1.3E1,5E0,3.95E2,4.16E2,4.9E1,2.4E1,7.11E2,1.356E3,6.83E2,9.6E1,1.78E2,1.27E2,1.37E2,6.1E1,8.4E1,2.83E2,1.09E2,4.5E1,2.8E1,3.9E1,2.1E1,3E0,2.6E1,2E0,6E0,7E0,5E0,1E0,1.46E2,1.97E2,1.5E1,3.1E1,2E0,5E0,9.6E1,7.3E1,9E0,4E0,2.7E2,1.25E2,1.48E2,2.68E2,2.5E1,2.4E1,1.1E1,1.3E1,6.22E2,8.9E1,1.135E3,2.21E2,6.65E2,1.8E1,3E1,6.6E1,1.13E2,6.5E1,1.3E1,1.14E2,1.01E2,3.6E1,5.5E1,6E0,3.2E1,5.2E1,1.77E2,1.06E2,7.9E1,3E1,1.4E1,3.1E1,1.3E1,1.5E1,1.1E1,2.8E1,6E0,1.5E1,1E0,2E0,1.4E1,1.2E1,3E0,3E0,6E0,1E0,4E0,1E0],"tree_param":{"num_deleted":"0","num_feature":"25","num_nodes":"121","size_leaf_vector":"1"}},{"base_weights":[3.3205764E-3,3.0071974E-2,-2.3537162E-1,-1.1083627E-1,4.3659247E-2,-4.083211E-1,6.335701E-2,-2.326405E-1,1.1069811E-1,1.7900613E-1,2.4067525E-2,-2.2194551E-1,-6.219203E-1,-2.220979E-3,1.1127899E0,-4.1147447E-1,-1.0809831E-1,6.409122E-1,6.1722722E-2,3.271739E-1,3.278918E-2,-1.45117E-1,5.1617183E-2,1.9366108E-1,-3.111037E-1,-6.8433076E-1,-1.9081984E-1,-1.0371202E-1,3.7656805E-1,1.2200935E0,-1.6887486E-3,-5.223099E-1,-1.1987365E-2,-1.1934902E-2,-5.850547E-1,-4.064034E-1,8.68279E-1,-1.9189481E-1,1.6554834E-1,1.4648132E-1,4.1915253E-1,2.57132E-1,-1.7822279E-1,1.0761431E0,-1.9784129E-1,5.5198446E-2,-5.544063E-1,4.0079173E-1,-8.3974737E-1,-3.9955857E-1,-1.5814897E-2,-8.6321896E-1,-5.5421495E-1,-6.421971E-1,2.3884428E-1,-1.8116431E-1,3.2014257E-1,-2.7224803E-1,4.540684E-1,1.4220436E0,2.0754544E-1,-3.1454805E-2,-4.5078252E-3,-3.5940908E-2,9.526756E-3,4.155641E-3,-2.2623947E-2,-8.991882E-3,-4.0009215E-2,-2.6602883E-2,-3.8773715E-3,1.5553924E-2,5.7111975E-2,-1.5169488E-2,3.4692295E-2,2.4479842E-2,2.4123793E-3,3.2149773E-2,4.1307747E-5,3.6613725E-2,1.6448392E-2,1.638815E-2,-2.2904553E-2,-1.7102523E-2,5.3996365E-3,6.8477504E-2,8.282523E-4,-1.4556122E-2,1.0822845E-3,1.4758082E-3,7.990851E-3,-5.0582953E-2,-8.263311E-3,2.9486155E-2,-3.1201169E-2,-1.0609686E-3,-4.9960453E-2,-2.2697639E-2,2.2354187E-3,1.0708855E-2,-2.8945148E-2,2.1341534E-3,-4.5670394E-2,-1.4440841E-2,-3.7165355E-2,-8.622732E-3,-5.0245333E-2,-7.3784846E-3,3.249266E-2,-1.7542103E-2,-8.1900676E-4,5.6957076E-3,6.614031E-2,-4.9993422E-2,7.981208E-3,2.5530145E-2,-6.9996E-3,1.886996E-2,7.527246E-2,1.8053323E-2,-2.4874152E-3],"categories":[],"categories_nodes":[],"categories_segments":[],"categories_sizes":[],"default_left":[0,0,0,0,0,0,0,0,0,0,0,0,0,0,0,0,0,0,0,0,0,0,0,0,0,0,0,0,0,0,0,0,0,0,0,0,0,0,0,0,0,0,0,0,0,0,0,0,0,0,0,0,0,0,0,0,0,0,0,0,0,0,0,0,0,0,0,0,0,0,0,0,0,0,0,0,0,0,0,0,0,0,0,0,0,0,0,0,0,0,0,0,0,0,0,0,0,0,0,0,0,0,0,0,0,0,0,0,0,0,0,0,0,0,0,0,0,0,0,0,0],"id":5,"left_children":[1,3,5,7,9,11,13,15,17,19,21,23,25,27,29,31,33,35,37,39,41,43,45,47,49,51,53,55,57,59,-1,61,63,65,67,69,71,73,75,77,79,81,83,85,87,89,91,93,95,97,99,101,103,105,107,109,111,113,115,117,119,-1,-1,-1,-1,-1,-1,-1,-1,-1,-1,-1,-1,-1,-1,-1,-1,-1,-1,-1,-1,-1,-1,-1,-1,-1,-1,-1,-1,-1,-1,-1,-1,-1,-1,-1,-1,-1,-1,-1,-1,-1,-1,-1,-1,-1,-1,-1,-1,-1,-1,-1,-1,-1,-1,-1,-1,-1,-1,-1,-1],"loss_changes":[3.510096E1,9.468502E0,2.8648262E1,1.1763717E1,1.1952111E1,1.3835159E1,1.404169E1,6.214059E0,3.9853945E0,1.2338116E1,1.8371737E1,7.063593E0,4.2549667E0,7.458688E0,1.5175753E0,5.0856304E0,7.6525984E0,3.4484935E0,3.7972436E0,4.642023E0,1.3679464E1,3.5756214E1,7.385847E0,7.6142836E0,4.0683603E0,2.826805E0,4.420078E0,5.08076E0,2.1852407E0,1.9541874E0,0E0,4.096607E0,3.8588374E0,5.8997865E0,2.2969751E0,8.270675E-2,1.3238344E0,4.358242E0,3.853514E0,7.014494E0,5.0397606E0,7.222514E0,7.0235534E0,7.1277275E0,1.0857521E1,9.049945E0,3.3915143E0,5.9829726E0,7.619405E-1,2.9201622E0,4.9157004E0,2.6760254E0,4.0510197E0,1.70088E0,2.0017335E0,3.6290803E0,4.8119783E0,1.730798E0,1.3141222E0,2.1600723E-1,1.3646244E-1,0E0,0E0,0E0,0E0,0E0,0E0,0E0,0E0,0E0,0E0,0E0,0E0,0E0,0E0,0E0,0E0,0E0,0E0,0E0,0E0,0E0,0E0,0E0,0E0,0E0,0E0,0E0,0E0,0E0,0E0,0E0,0E0,0E0,0E0,0E0,0E0,0E0,0E0,0E0,0E0,0E0,0E0,0E0,0E0,0E0,0E0,0E0,0E0,0E0,0E0,0E0,0E0,0E0,0E0,0E0,0E0,0E0,0E0,0E0,0E0],"parents":[2147483647,0,0,1,1,2,2,3,3,4,4,5,5,6,6,7,7,8,8,9,9,10,10,11,11,12,12,13,13,14,14,15,15,16,16,17,17,18,18,19,19,20,20,21,21,22,22,23,23,24,24,25,25,26,26,27,27,28,28,29,29,31,31,32,32,33,33,34,34,35,35,36,36,37,37,38,38,39,39,40,40,41,41,42,42,43,43,44,44,45,45,46,46,47,47,48,48,49,49,50,50,51,51,52,52,53,53,54,54,55,55,56,56,57,57,58,58,59,59,60,60],"right_children":[2,4,6,8,10,12,14,16,18,20,22,24,26,28,30,32,34,36,38,40,42,44,46,48,50,52,54,56,58,60,-1,62,64,66,68,70,72,74,76,78,80,82,84,86,88,90,92,94,96,98,100,102,104,106,108,110,112,114,116,118,120,-1,-1,-1,-1,-1,-1,-1,-1,-1,-1,-1,-1,-1,-1,-1,-1,-1,-1,-1,-1,-1,-1,-1,-1,-1,-1,-1,-1,-1,-1,-1,-1,-1,-1,-1,-1,-1,-1,-1,-1,-1,-1,-1,-1,-1,-1,-1,-1,-1,-1,-1,-1,-1,-1,-1,-1,-1,-1,-1,-1],"split_conditions":[1.4E2,9.4E1,2E0,3E0,1.06E2,1.47E2,1.41E2,2E0,9.9E1,1.7E1,1.3E1,1.7E1,1.41E2,3E0,1.58E2,3E0,1E0,8.8E1,2E0,2E0,1E0,1.14E2,1.63E2,1.4E2,3E0,2E0,2E0,1E0,1.41E2,3E0,-1.6887486E-3,3E0,1.05E2,1.35E2,2E0,8.7E1,2E1,9.3E1,2E0,2E0,9.8E1,1.36E2,3E0,1.31E2,1.5E2,1.42E2,2E0,1E0,1.6E1,1.46E2,1E0,8.8E1,2E0,1.48E2,1.53E2,1.46E2,1.33E2,2E0,1E0,1.41E2,1.41E2,-3.1454805E-2,-4.5078252E-3,-3.5940908E-2,9.526756E-3,4.155641E-3,-2.2623947E-2,-8.991882E-3,-4.0009215E-2,-2.6602883E-2,-3.8773715E-3,1.5553924E-2,5.7111975E-2,-1.5169488E-2,3.4692295E-2,2.4479842E-2,2.4123793E-3,3.2149773E-2,4.1307747E-5,3.6613725E-2,1.6448392E-2,1.638815E-2,-2.2904553E-2,-1.7102523E-2,5.3996365E-3,6.8477504E-2,8.282523E-4,-1.4556122E-2,1.0822845E-3,1.4758082E-3,7.990851E-3,-5.0582953E-2,-8.263311E-3,2.9486155E-2,-3.1201169E-2,-1.0609686E-3,-4.9960453E-2,-2.2697639E-2,2.2354187E-3,1.0708855E-2,-2.8945148E-2,2.1341534E-3,-4.5670394E-2,-1.4440841E-2,-3.7165355E-2,-8.622732E-3,-5.0245333E-2,-7.3784846E-3,3.249266E-2,-1.7542103E-2,-8.1900676E-4,5.6957076E-3,6.614031E-2,-4.9993422E-2,7.981208E-3,2.5530145E-2,-6.9996E-3,1.886996E-2,7.527246E-2,1.8053323E-2,-2.4874152E-3],"split_indices":[0,11,6,7,11,0,11,13,0,1,1,1,11,6,0,15,24,0,15,17,3,11,11,11,13,15,17,19,0,7,0,5,0,0,9,0,1,11,8,10,11,0,10,0,11,11,16,20,1,0,12,11,10,11,0,0,11,7,20,0,0,0,0,0,0,0,0,0,0,0,0,0,0,0,0,0,0,0,0,0,0,0,0,0,0,0,0,0,0,0,0,0,0,0,0,0,0,0,0,0,0,0,0,0,0,0,0,0,0,0,0,0,0,0,0,0,0,0,0,0,0],"split_type":[0,0,0,0,0,0,0,0,0,0,0,0,0,0,0,0,0,0,0,0,0,0,0,0,0,0,0,0,0,0,0,0,0,0,0,0,0,0,0,0,0,0,0,0,0,0,0,0,0,0,0,0,0,0,0,0,0,0,0,0,0,0,0,0,0,0,0,0,0,0,0,0,0,0,0,0,0,0,0,0,0,0,0,0,0,0,0,0,0,0,0,0,0,0,0,0,0,0,0,0,0,0,0,0,0,0,0,0,0,0,0,0,0,0,0,0,0,0,0,0,0],"sum_hessian":[5.495E3,4.942E3,5.53E2,4.34E2,4.508E3,3.5E2,2.03E2,2.8E2,1.54E2,5.69E2,3.939E3,1.88E2,1.62E2,1.92E2,1.1E1,1.14E2,1.66E2,1.2E1,1.42E2,2.82E2,2.87E2,5.51E2,3.388E3,3.3E1,1.55E2,1.41E2,2.1E1,1.52E2,4E1,1E1,1E0,8.9E1,2.5E1,1.39E2,2.7E1,2E0,1E1,4.1E1,1.01E2,9.6E1,1.86E2,1.39E2,1.48E2,2.2E1,5.29E2,3.369E3,1.9E1,2.8E1,5E0,1.19E2,3.6E1,5.7E1,8.4E1,1E1,1.1E1,1.29E2,2.3E1,4E0,3.6E1,8E0,2E0,7.1E1,1.8E1,5E0,2E1,1.15E2,2.4E1,1E1,1.7E1,1E0,1E0,4E0,6E0,3.7E1,4E0,2.6E1,7.5E1,2.1E1,7.5E1,4E1,1.46E2,1.27E2,1.2E1,9.4E1,5.4E1,1.7E1,5E0,3.71E2,1.58E2,2.706E3,6.63E2,8E0,1.1E1,2.4E1,4E0,1E0,4E0,1.06E2,1.3E1,2.6E1,1E1,3E0,5.4E1,3.6E1,4.8E1,5E0,5E0,6E0,5E0,6.3E1,6.6E1,2E1,3E0,1E0,3E0,3.3E1,3E0,1E0,7E0,1E0,1E0],"tree_param":{"num_deleted":"0","num_feature":"25","num_nodes":"121","size_leaf_vector":"1"}},{"base_weights":[-4.290751E-4,1.7855203E-2,-2.3934881E-1,-5.079451E-2,4.9235616E-2,-3.9423454E-1,6.402221E-2,-1.164618E-1,9.830847E-2,-7.6110214E-1,5.2493617E-2,-2.1484289E-1,-5.0164795E-1,2.5426617E-3,1.0166374E0,-5.5339646E-1,-9.65286E-2,4.2618072E-4,2.8082764E-1,-6.5973096E-2,-3.042954E-1,-1.1317878E-1,6.908625E-2,-4.3392867E-1,-1.26914475E-2,-7.422681E-1,-3.3350256E-1,-1.46132E-1,4.7821683E-1,1.1757299E0,-2.4252296E-3,-8.2887214E-1,1.7482111E-1,-1.4733076E-1,3.724466E-2,2.3607557E-1,-1.27077E-1,6.197831E-1,1.3035275E-1,-5.700457E-1,-3.8206298E-3,-8.733005E-4,-2.4065478E-1,-6.8395934E-3,1.086648E-1,-2.0010398E-1,-7.1389717E-1,4.2474905E-1,-3.227237E-1,-8.076957E-1,3.5719555E-2,-6.374864E-2,-5.511567E-1,2.3997362E-1,-3.6173788E-1,-7.1266177E-3,5.5246794E-1,6.913309E-2,-1.6465307E-3,-5.6697693E-2,-1.978578E-2,-2.9430095E-2,3.3217262E-2,-9.902917E-3,-1.0151652E-3,-9.838604E-3,8.583347E-3,-5.2924417E-3,2.61841E-2,-1.2363457E-2,6.388069E-3,8.524454E-3,4.5932196E-2,-1.8538432E-3,1.5655983E-2,-2.476597E-3,-3.6351983E-2,1.7059317E-2,-7.1695433E-3,-2.121468E-2,1.8272583E-5,7.2648623E-3,-3.9023848E-3,2.9886316E-3,1.4163556E-2,-1.8584734E-2,2.3120629E-2,-4.6107367E-2,-1.3011112E-2,6.202032E-3,5.2570205E-2,-2.7105093E-3,-3.716763E-2,-4.257923E-2,1.55027155E-2,-2.3101622E-2,1.1383822E-2,-1.655701E-2,1.2243868E-2,-3.6921185E-2,-1.0262256E-2,2.2088027E-2,-1.9602543E-2,6.1348564E-4,-3.5637673E-2,3.8591687E-2,1.2842801E-2],"categories":[],"categories_nodes":[],"categories_segments":[],"categories_sizes":[],"default_left":[0,0,0,0,0,0,0,0,0,0,0,0,0,0,0,0,0,0,0,0,0,0,0,0,0,0,0,0,0,0,0,0,0,0,0,0,0,0,0,0,0,0,0,0,0,0,0,0,0,0,0,0,0,0,0,0,0,0,0,0,0,0,0,0,0,0,0,0,0,0,0,0,0,0,0,0,0,0,0,0,0,0,0,0,0,0,0,0,0,0,0,0,0,0,0,0,0,0,0,0,0,0,0,0,0,0,0],"id":6,"left_children":[1,3,5,7,9,11,13,15,17,19,21,23,25,27,29,31,33,35,37,-1,39,41,43,45,47,49,51,53,55,57,-1,59,61,63,65,67,69,71,73,75,-1,77,79,81,83,85,87,89,91,93,95,97,99,101,103,-1,105,-1,-1,-1,-1,-1,-1,-1,-1,-1,-1,-1,-1,-1,-1,-1,-1,-1,-1,-1,-1,-1,-1,-1,-1,-1,-1,-1,-1,-1,-1,-1,-1,-1,-1,-1,-1,-1,-1,-1,-1,-1,-1,-1,-1,-1,-1,-1,-1,-1,-1],"loss_changes":[2.384304E1,1.0924581E1,1.825652E1,1.5589231E1,9.22744E0,4.8443756E0,7.7281737E0,9.570584E0,8.700328E0,3.1693687E0,9.5384E0,4.3347664E0,6.225918E0,8.90997E0,1.4126759E0,9.774004E0,7.1956244E0,9.584641E0,8.589937E0,0E0,5.0148076E-1,4.5237255E0,9.472613E0,2.9339333E0,7.1893516E0,3.3374748E0,5.6013174E0,8.078485E0,1.4614835E0,1.7963047E0,0E0,4.176462E0,5.6230297E0,4.9383698E0,9.219242E0,1.1069473E1,6.371912E0,6.825754E0,3.6530802E0,2.9085827E-1,0E0,8.287589E0,6.5507355E0,1.17222185E1,1.7671488E1,3.241281E0,1.744072E0,4.015274E0,3.4609833E0,3.207447E0,6.7847544E-1,3.712144E0,3.2816658E0,4.6368923E0,8.14826E0,0E0,1.5526228E0,0E0,0E0,0E0,0E0,0E0,0E0,0E0,0E0,0E0,0E0,0E0,0E0,0E0,0E0,0E0,0E0,0E0,0E0,0E0,0E0,0E0,0E0,0E0,0E0,0E0,0E0,0E0,0E0,0E0,0E0,0E0,0E0,0E0,0E0,0E0,0E0,0E0,0E0,0E0,0E0,0E0,0E0,0E0,0E0,0E0,0E0,0E0,0E0,0E0,0E0],"parents":[2147483647,0,0,1,1,2,2,3,3,4,4,5,5,6,6,7,7,8,8,9,9,10,10,11,11,12,12,13,13,14,14,15,15,16,16,17,17,18,18,20,20,21,21,22,22,23,23,24,24,25,25,26,26,27,27,28,28,29,29,31,31,32,32,33,33,34,34,35,35,36,36,37,37,38,38,39,39,41,41,42,42,43,43,44,44,45,45,46,46,47,47,48,48,49,49,50,50,51,51,52,52,53,53,54,54,56,56],"right_children":[2,4,6,8,10,12,14,16,18,20,22,24,26,28,30,32,34,36,38,-1,40,42,44,46,48,50,52,54,56,58,-1,60,62,64,66,68,70,72,74,76,-1,78,80,82,84,86,88,90,92,94,96,98,100,102,104,-1,106,-1,-1,-1,-1,-1,-1,-1,-1,-1,-1,-1,-1,-1,-1,-1,-1,-1,-1,-1,-1,-1,-1,-1,-1,-1,-1,-1,-1,-1,-1,-1,-1,-1,-1,-1,-1,-1,-1,-1,-1,-1,-1,-1,-1,-1,-1,-1,-1,-1,-1],"split_conditions":[1.43E2,2E0,2E0,3E0,7.9E1,1.47E2,1.41E2,9.2E1,3E0,3E0,9.4E1,1E0,2E0,3E0,3E0,1E0,3E0,2E0,1.11E2,-6.5973096E-2,2E0,1E0,1.08E2,1.19E2,2E0,1E0,3E0,2E0,8.5E1,1.58E2,-2.4252296E-3,1E0,2E0,3E0,2E0,1.2E2,3E0,9.4E1,1E0,1E0,-3.8206298E-3,2E0,1E0,1.2E2,1.4E2,1.01E2,3E0,3E0,3E0,1.47E2,2E0,1.23E2,3E0,3E0,9.7E1,-7.1266177E-3,1.58E2,6.913309E-2,-1.6465307E-3,-5.6697693E-2,-1.978578E-2,-2.9430095E-2,3.3217262E-2,-9.902917E-3,-1.0151652E-3,-9.838604E-3,8.583347E-3,-5.2924417E-3,2.61841E-2,-1.2363457E-2,6.388069E-3,8.524454E-3,4.5932196E-2,-1.8538432E-3,1.5655983E-2,-2.476597E-3,-3.6351983E-2,1.7059317E-2,-7.1695433E-3,-2.121468E-2,1.8272583E-5,7.2648623E-3,-3.9023848E-3,2.9886316E-3,1.4163556E-2,-1.8584734E-2,2.3120629E-2,-4.6107367E-2,-1.3011112E-2,6.202032E-3,5.2570205E-2,-2.7105093E-3,-3.716763E-2,-4.257923E-2,1.55027155E-2,-2.3101622E-2,1.1383822E-2,-1.655701E-2,1.2243868E-2,-3.6921185E-2,-1.0262256E-2,2.2088027E-2,-1.9602543E-2,6.1348564E-4,-3.5637673E-2,3.8591687E-2,1.2842801E-2],"split_indices":[0,16,6,8,0,0,11,0,2,16,11,3,13,6,7,12,5,13,11,0,5,12,0,11,7,22,13,17,11,0,0,3,6,13,6,11,5,11,3,3,0,10,3,11,11,11,8,15,8,11,7,11,8,14,11,0,0,0,0,0,0,0,0,0,0,0,0,0,0,0,0,0,0,0,0,0,0,0,0,0,0,0,0,0,0,0,0,0,0,0,0,0,0,0,0,0,0,0,0,0,0,0,0,0,0,0,0],"split_type":[0,0,0,0,0,0,0,0,0,0,0,0,0,0,0,0,0,0,0,0,0,0,0,0,0,0,0,0,0,0,0,0,0,0,0,0,0,0,0,0,0,0,0,0,0,0,0,0,0,0,0,0,0,0,0,0,0,0,0,0,0,0,0,0,0,0,0,0,0,0,0,0,0,0,0,0,0,0,0,0,0,0,0,0,0,0,0,0,0,0,0,0,0,0,0,0,0,0,0,0,0,0,0,0,0,0,0],"sum_hessian":[5.456E3,5.069E3,3.87E2,1.59E3,3.479E3,2.56E2,1.31E2,1.104E3,4.86E2,1.3E1,3.466E3,9.7E1,1.59E2,1.24E2,7E0,4.7E1,1.057E3,3.17E2,1.69E2,5E0,8E0,3.15E2,3.151E3,4.6E1,5.1E1,6.4E1,9.5E1,9.5E1,2.9E1,6E0,1E0,3.4E1,1.3E1,7.66E2,2.91E2,1.11E2,2.06E2,5.1E1,1.18E2,3E0,5E0,1.68E2,1.47E2,1.08E3,2.071E3,2.6E1,2E1,2.1E1,3E1,5.9E1,5E0,4.3E1,5.2E1,3.4E1,6.1E1,3E0,2.6E1,5E0,1E0,1.9E1,1.5E1,5E0,8E0,5.47E2,2.19E2,1.06E2,1.85E2,5.1E1,6E1,1.4E2,6.6E1,2.1E1,3E1,6.2E1,5.6E1,1E0,2E0,4.9E1,1.19E2,8.3E1,6.4E1,3.44E2,7.36E2,1.619E3,4.52E2,2.1E1,5E0,1.3E1,7E0,1.5E1,6E0,1.9E1,1.1E1,5.7E1,2E0,1E0,4E0,2.3E1,2E1,3.3E1,1.9E1,2.6E1,8E0,3E1,3.1E1,1.4E1,1.2E1],"tree_param":{"num_deleted":"0","num_feature":"25","num_nodes":"107","size_leaf_vector":"1"}},{"base_weights":[-7.056416E-3,1.9457847E-2,-2.541958E-1,-1.2848786E-1,3.2002293E-2,-4.2736208E-1,4.7491632E-2,-5.776215E-3,-2.7612516E-1,5.2136313E-2,-6.000457E-2,1.0907152E-1,-4.9124593E-1,-7.494455E-2,4.7215626E-1,-1.02117E-1,3.2952976E-1,-7.03552E-1,-1.502324E-1,1.6664505E-2,1.13354154E-1,-1.2471472E-1,8.456379E-2,5.927873E-1,-2.4767959E-1,-5.985791E-1,-2.2523232E-1,-1.7385158E-1,4.1486484E-1,6.3438314E-1,2.6427048E-1,-3.7736383E-1,-1.5304575E-2,-3.4547303E-2,3.8891885E-1,-2.4691752E-1,-9.1426796E-1,-3.4693092E-1,2.9662583E-2,-7.9694465E-2,3.5898928E-2,5.9260305E-2,2.4039014E-1,-2.0553043E-1,2.7390698E-2,-5.739497E-2,3.864933E-1,8.8073575E-1,-4.9124175E-1,2.9367003E-1,-8.1572646E-1,-6.860154E-1,-3.5981104E-1,-1.8729368E-1,-6.251877E-2,-3.0916614E-2,-4.9924377E-1,2.3688048E-1,6.6727936E-2,-7.0264935E-3,7.112175E-1,-4.2093858E-1,3.585524E-1,2.035175E-2,-2.5052521E-2,-7.187155E-3,1.6504092E-2,-9.275675E-4,2.749998E-2,-2.3328822E-2,2.0943692E-2,-2.9807342E-2,-6.977296E-2,2.3928357E-2,-2.1872843E-2,1.9225601E-2,-4.673054E-3,1.99563E-2,-8.6319735E-3,9.039867E-3,3.5707455E-4,-3.1121466E-3,9.222237E-3,2.1879878E-2,7.858601E-3,-4.0881988E-2,-8.1485E-3,-8.234209E-3,1.3576919E-2,2.6360587E-3,-1.7920373E-2,4.2640064E-3,3.5820674E-2,-6.323445E-3,5.376805E-2,7.720828E-4,-3.326417E-2,-1.3600998E-2,3.6829714E-2,-2.0204226E-3,-4.917648E-2,-3.484322E-2,2.516079E-2,3.9644605E-3,-3.174541E-2,-1.2746512E-2,1.2833947E-2,-9.224078E-3,2.7632043E-2,-9.920751E-3,-3.7382435E-2,-2.404879E-4,3.950012E-2,4.0567677E-2,1.0424218E-2,1.7247904E-2,-4.8818298E-2,-8.1572775E-3,2.542741E-2],"categories":[],"categories_nodes":[],"categories_segments":[],"categories_sizes":[],"default_left":[0,0,0,0,0,0,0,0,0,0,0,0,0,0,0,0,0,0,0,0,0,0,0,0,0,0,0,0,0,0,0,0,0,0,0,0,0,0,0,0,0,0,0,0,0,0,0,0,0,0,0,0,0,0,0,0,0,0,0,0,0,0,0,0,0,0,0,0,0,0,0,0,0,0,0,0,0,0,0,0,0,0,0,0,0,0,0,0,0,0,0,0,0,0,0,0,0,0,0,0,0,0,0,0,0,0,0,0,0,0,0,0,0,0,0,0,0,0,0],"id":7,"left_children":[1,3,5,7,9,11,13,15,17,19,21,23,25,27,29,31,33,35,37,39,41,43,45,47,49,51,53,55,57,59,61,63,65,-1,67,69,71,73,75,77,79,81,83,85,87,89,91,93,95,97,99,101,103,105,-1,107,109,111,-1,-1,113,115,117,-1,-1,-1,-1,-1,-1,-1,-1,-1,-1,-1,-1,-1,-1,-1,-1,-1,-1,-1,-1,-1,-1,-1,-1,-1,-1,-1,-1,-1,-1,-1,-1,-1,-1,-1,-1,-1,-1,-1,-1,-1,-1,-1,-1,-1,-1,-1,-1,-1,-1,-1,-1,-1,-1,-1,-1],"loss_changes":[3.6182507E1,9.25947E0,2.7969818E1,7.0639625E0,8.520779E0,1.1705189E1,1.0226272E1,6.9466295E0,9.418665E0,8.191209E0,7.7378087E0,6.5317693E0,8.545013E0,7.4843006E0,1.3162365E0,3.9846644E0,3.1777678E0,3.6230564E0,4.8934317E0,4.432509E0,9.496414E0,7.0246515E0,1.0994737E1,5.426965E0,7.004818E0,4.262596E0,3.2272472E0,5.9378343E0,3.939839E0,1.5289059E0,1.5075879E0,4.0847287E0,5.725645E0,0E0,3.0294409E0,2.2428946E0,3.3011837E0,5.1414638E0,3.2253335E0,1.7781487E1,8.303354E0,1.4795906E1,6.7090607E0,9.584012E0,9.376752E0,5.8195047E0,8.08776E0,2.6843567E0,3.630091E-1,3.2070622E0,1.391365E0,2.3762894E0,7.2980556E0,2.6779385E0,0E0,8.167209E0,2.7660217E0,3.0785358E0,0E0,0E0,9.383631E-1,1.6130052E0,1.5697649E0,0E0,0E0,0E0,0E0,0E0,0E0,0E0,0E0,0E0,0E0,0E0,0E0,0E0,0E0,0E0,0E0,0E0,0E0,0E0,0E0,0E0,0E0,0E0,0E0,0E0,0E0,0E0,0E0,0E0,0E0,0E0,0E0,0E0,0E0,0E0,0E0,0E0,0E0,0E0,0E0,0E0,0E0,0E0,0E0,0E0,0E0,0E0,0E0,0E0,0E0,0E0,0E0,0E0,0E0,0E0,0E0],"parents":[2147483647,0,0,1,1,2,2,3,3,4,4,5,5,6,6,7,7,8,8,9,9,10,10,11,11,12,12,13,13,14,14,15,15,16,16,17,17,18,18,19,19,20,20,21,21,22,22,23,23,24,24,25,25,26,26,27,27,28,28,29,29,30,30,31,31,32,32,34,34,35,35,36,36,37,37,38,38,39,39,40,40,41,41,42,42,43,43,44,44,45,45,46,46,47,47,48,48,49,49,50,50,51,51,52,52,53,53,55,55,56,56,57,57,60,60,61,61,62,62],"right_children":[2,4,6,8,10,12,14,16,18,20,22,24,26,28,30,32,34,36,38,40,42,44,46,48,50,52,54,56,58,60,62,64,66,-1,68,70,72,74,76,78,80,82,84,86,88,90,92,94,96,98,100,102,104,106,-1,108,110,112,-1,-1,114,116,118,-1,-1,-1,-1,-1,-1,-1,-1,-1,-1,-1,-1,-1,-1,-1,-1,-1,-1,-1,-1,-1,-1,-1,-1,-1,-1,-1,-1,-1,-1,-1,-1,-1,-1,-1,-1,-1,-1,-1,-1,-1,-1,-1,-1,-1,-1,-1,-1,-1,-1,-1,-1,-1,-1,-1,-1],"split_conditions":[1.4E2,9.2E1,2E0,1.25E2,1E0,1.7E1,3E0,2.1E1,8.5E1,3E0,3E0,2E0,1.34E2,1.33E2,3E0,2E0,8.7E1,2E0,2E0,1.4E1,3E0,3E0,1.32E2,1.09E2,1.44E2,3E0,1.65E2,1.01E2,2E1,8.5E1,1.41E2,8.4E1,3E0,-3.4547303E-2,8.4E1,3E0,3E0,1.6E1,1.9E1,1.13E2,1.6E1,1.13E2,2E0,1.1E1,2E0,3E0,1.9E1,1.4E1,2E0,1.6E1,2E0,2.4E1,2E0,1.56E2,-6.251877E-2,1.5E2,2E0,1E0,6.6727936E-2,-7.0264935E-3,1.59E2,1.9E1,2E0,2.035175E-2,-2.5052521E-2,-7.187155E-3,1.6504092E-2,-9.275675E-4,2.749998E-2,-2.3328822E-2,2.0943692E-2,-2.9807342E-2,-6.977296E-2,2.3928357E-2,-2.1872843E-2,1.9225601E-2,-4.673054E-3,1.99563E-2,-8.6319735E-3,9.039867E-3,3.5707455E-4,-3.1121466E-3,9.222237E-3,2.1879878E-2,7.858601E-3,-4.0881988E-2,-8.1485E-3,-8.234209E-3,1.3576919E-2,2.6360587E-3,-1.7920373E-2,4.2640064E-3,3.5820674E-2,-6.323445E-3,5.376805E-2,7.720828E-4,-3.326417E-2,-1.3600998E-2,3.6829714E-2,-2.0204226E-3,-4.917648E-2,-3.484322E-2,2.516079E-2,3.9644605E-3,-3.174541E-2,-1.2746512E-2,1.2833947E-2,-9.224078E-3,2.7632043E-2,-9.920751E-3,-3.7382435E-2,-2.404879E-4,3.950012E-2,4.0567677E-2,1.0424218E-2,1.7247904E-2,-4.8818298E-2,-8.1572775E-3,2.542741E-2],"split_indices":[0,11,6,0,19,1,6,1,11,8,10,4,11,11,14,9,0,5,2,1,2,5,11,11,0,16,0,11,1,11,0,11,5,0,11,2,4,1,1,11,1,0,13,1,9,9,1,1,2,1,2,1,14,0,0,0,14,19,0,0,0,1,10,0,0,0,0,0,0,0,0,0,0,0,0,0,0,0,0,0,0,0,0,0,0,0,0,0,0,0,0,0,0,0,0,0,0,0,0,0,0,0,0,0,0,0,0,0,0,0,0,0,0,0,0,0,0,0,0],"split_type":[0,0,0,0,0,0,0,0,0,0,0,0,0,0,0,0,0,0,0,0,0,0,0,0,0,0,0,0,0,0,0,0,0,0,0,0,0,0,0,0,0,0,0,0,0,0,0,0,0,0,0,0,0,0,0,0,0,0,0,0,0,0,0,0,0,0,0,0,0,0,0,0,0,0,0,0,0,0,0,0,0,0,0,0,0,0,0,0,0,0,0,0,0,0,0,0,0,0,0,0,0,0,0,0,0,0,0,0,0,0,0,0,0,0,0,0,0,0,0],"sum_hessian":[5.52E3,4.986E3,5.34E2,3.89E2,4.597E3,3.39E2,1.95E2,2.13E2,1.76E2,3.772E3,8.25E2,3.6E1,3.03E2,1.52E2,4.3E1,1.66E2,4.7E1,3.9E1,1.37E2,2.389E3,1.383E3,5.7E2,2.55E2,1.5E1,2.1E1,2.15E2,8.8E1,1.27E2,2.5E1,2.3E1,2E1,3.9E1,1.27E2,2E0,4.5E1,1.3E1,2.6E1,6.5E1,7.2E1,3.97E2,1.992E3,9.71E2,4.12E2,3.72E2,1.98E2,1.74E2,8.1E1,1.2E1,3E0,1.1E1,1E1,1.56E2,5.9E1,8.6E1,2E0,8.9E1,3.8E1,2.2E1,3E0,2E0,2.1E1,2E0,1.8E1,5E0,3.4E1,9.3E1,3.4E1,1.3E1,3.2E1,1E1,3E0,1.7E1,9E0,6E0,5.9E1,1.8E1,5.4E1,6.4E1,3.33E2,3.29E2,1.663E3,4.93E2,4.78E2,1.21E2,2.91E2,2.3E1,3.49E2,1.11E2,8.7E1,1.28E2,4.6E1,4.3E1,3.8E1,2E0,1E1,1E0,2E0,5E0,6E0,2E0,8E0,1.55E2,1E0,2.3E1,3.6E1,7.5E1,1.1E1,7.1E1,1.8E1,1.8E1,2E1,1.6E1,6E0,1.7E1,4E0,1E0,1E0,4E0,1.4E1],"tree_param":{"num_deleted":"0","num_feature":"25","num_nodes":"119","size_leaf_vector":"1"}},{"base_weights":[1.3780117E-3,2.8368153E-2,-2.3944084E-1,-3.099096E-1,3.584538E-2,-3.9814207E-1,4.1254096E-2,-7.514484E-2,-9.3875474E-1,5.9558833E-3,9.273232E-2,-2.394111E-1,-5.805779E-1,4.496064E-3,8.249259E-1,-1.8427706E-1,4.9308622E-1,-6.7132616E-1,-1.3153355E0,-1.4491726E-2,9.992505E-2,3.8165145E-2,2.217424E-1,-1.6268453E-1,-7.423682E-1,-8.160296E-1,-4.3689394E-1,-7.777025E-2,2.9328018E-1,9.4480217E-1,-3.3521056E-3,1.1416543E-1,-3.5350463E-1,6.826931E-1,-3.6650124E-1,-8.4894216E-1,2.0696944E-1,-7.2254084E-2,-4.4683815E-4,4.8403677E-2,-6.2978E-2,2.6377881E-2,3.88768E-1,7.607933E-2,-1.7973392E-1,1.6691451E-1,4.8055282E-1,-2.5817603E-1,7.25435E-2,-8.913504E-1,3.2364223E-2,-4.1038775E-1,-9.634279E-1,-6.144238E-1,-2.1697524E-1,-1.3652168E-1,2.3881112E-1,-2.8142756E-1,3.5944065E-1,1.0889131E0,-1.5993536E-3,2.982281E-2,-7.3940284E-3,-8.7310895E-3,-4.290082E-2,-3.238972E-3,4.2799797E-2,-2.493372E-2,-2.5538744E-3,-1.5557027E-2,-4.5177333E-2,-2.4937106E-2,3.04227E-2,4.1791417E-2,9.064618E-4,-1.0726754E-2,-7.7548146E-4,-1.2242615E-2,4.5759813E-3,-9.746744E-3,2.7653683E-2,2.417051E-2,2.7955389E-3,-1.5685653E-2,5.4090642E-3,4.0957495E-3,1.4321598E-2,4.4106983E-2,1.5996978E-2,8.825497E-4,-2.0723416E-2,1.2947741E-2,-3.92362E-2,-4.8823476E-2,2.453177E-2,-2.5728313E-2,4.1439207E-3,-5.1535595E-2,1.4984505E-2,-3.598478E-2,-5.4384796E-3,-4.2772364E-2,-1.3222259E-3,8.299026E-4,-1.44950375E-2,2.228456E-3,3.5208736E-2,6.2096952E-3,-4.7597837E-2,2.1086102E-2,-7.4208453E-3,2.2582216E-2,6.267458E-2],"categories":[],"categories_nodes":[],"categories_segments":[],"categories_sizes":[],"default_left":[0,0,0,0,0,0,0,0,0,0,0,0,0,0,0,0,0,0,0,0,0,0,0,0,0,0,0,0,0,0,0,0,0,0,0,0,0,0,0,0,0,0,0,0,0,0,0,0,0,0,0,0,0,0,0,0,0,0,0,0,0,0,0,0,0,0,0,0,0,0,0,0,0,0,0,0,0,0,0,0,0,0,0,0,0,0,0,0,0,0,0,0,0,0,0,0,0,0,0,0,0,0,0,0,0,0,0,0,0,0,0,0,0],"id":8,"left_children":[1,3,5,7,9,11,13,15,17,19,21,23,25,27,29,31,33,35,37,39,41,43,45,47,49,51,53,55,57,59,-1,61,63,65,67,69,71,-1,-1,73,75,77,79,81,83,85,87,89,91,93,-1,95,97,99,101,103,105,107,109,111,-1,-1,-1,-1,-1,-1,-1,-1,-1,-1,-1,-1,-1,-1,-1,-1,-1,-1,-1,-1,-1,-1,-1,-1,-1,-1,-1,-1,-1,-1,-1,-1,-1,-1,-1,-1,-1,-1,-1,-1,-1,-1,-1,-1,-1,-1,-1,-1,-1,-1,-1,-1,-1],"loss_changes":[3.5729332E1,1.2513835E1,2.4695261E1,1.5725941E1,8.223906E0,1.0112213E1,5.7863445E0,4.9898376E0,2.0375252E0,6.096271E0,1.1719703E1,7.2499523E0,5.1917076E0,4.607949E0,1.0256734E0,3.4241729E0,2.3689961E0,3.1396933E0,1.8515892E0,7.950211E0,1.2034855E1,9.696112E0,6.9438534E0,3.76993E0,5.7527943E0,3.2518616E0,3.9270687E0,2.8411436E0,1.7361434E0,1.1609597E0,0E0,3.2477632E0,3.7308564E0,1.4803805E0,9.960058E-2,1.8873215E-1,1.4367908E0,0E0,0E0,2.7041933E1,1.0586487E1,8.026197E0,1.1136965E1,8.180031E0,6.7459235E0,4.141697E0,5.264784E0,5.137362E0,8.033623E0,3.184658E0,0E0,9.676254E-1,4.0483513E0,2.9558926E0,5.8165092E0,3.0109382E0,2.138051E0,1.4781324E0,1.2961626E0,1.6803265E-1,0E0,0E0,0E0,0E0,0E0,0E0,0E0,0E0,0E0,0E0,0E0,0E0,0E0,0E0,0E0,0E0,0E0,0E0,0E0,0E0,0E0,0E0,0E0,0E0,0E0,0E0,0E0,0E0,0E0,0E0,0E0,0E0,0E0,0E0,0E0,0E0,0E0,0E0,0E0,0E0,0E0,0E0,0E0,0E0,0E0,0E0,0E0,0E0,0E0,0E0,0E0,0E0,0E0],"parents":[2147483647,0,0,1,1,2,2,3,3,4,4,5,5,6,6,7,7,8,8,9,9,10,10,11,11,12,12,13,13,14,14,15,15,16,16,17,17,18,18,19,19,20,20,21,21,22,22,23,23,24,24,25,25,26,26,27,27,28,28,29,29,31,31,32,32,33,33,34,34,35,35,36,36,39,39,40,40,41,41,42,42,43,43,44,44,45,45,46,46,47,47,48,48,49,49,51,51,52,52,53,53,54,54,55,55,56,56,57,57,58,58,59,59],"right_children":[2,4,6,8,10,12,14,16,18,20,22,24,26,28,30,32,34,36,38,40,42,44,46,48,50,52,54,56,58,60,-1,62,64,66,68,70,72,-1,-1,74,76,78,80,82,84,86,88,90,92,94,-1,96,98,100,102,104,106,108,110,112,-1,-1,-1,-1,-1,-1,-1,-1,-1,-1,-1,-1,-1,-1,-1,-1,-1,-1,-1,-1,-1,-1,-1,-1,-1,-1,-1,-1,-1,-1,-1,-1,-1,-1,-1,-1,-1,-1,-1,-1,-1,-1,-1,-1,-1,-1,-1,-1,-1,-1,-1,-1,-1],"split_conditions":[1.4E2,8.6E1,2E0,1.3E2,3E0,1.47E2,1.41E2,2.2E1,1E0,1.42E2,1.22E2,2.1E1,2E0,3E0,3E0,2E0,1.24E2,3E0,1E0,1.17E2,1.24E2,1E0,1.36E2,3E0,1.46E2,1.9E1,2E1,1E0,1.41E2,1.58E2,-3.3521056E-3,2E0,3E0,8.1E1,2E0,1.32E2,1.33E2,-7.2254084E-2,-4.4683815E-4,1.3E1,1.22E2,1.2E1,2E0,9.1E1,1.35E2,3E0,2E0,2E0,1E0,2.4E1,3.2364223E-2,1E0,1.43E2,1.6E2,9.4E1,2E0,1.25E2,3E0,1.109E3,1.41E2,-1.5993536E-3,2.982281E-2,-7.3940284E-3,-8.7310895E-3,-4.290082E-2,-3.238972E-3,4.2799797E-2,-2.493372E-2,-2.5538744E-3,-1.5557027E-2,-4.5177333E-2,-2.4937106E-2,3.04227E-2,4.1791417E-2,9.064618E-4,-1.0726754E-2,-7.7548146E-4,-1.2242615E-2,4.5759813E-3,-9.746744E-3,2.7653683E-2,2.417051E-2,2.7955389E-3,-1.5685653E-2,5.4090642E-3,4.0957495E-3,1.4321598E-2,4.4106983E-2,1.5996978E-2,8.825497E-4,-2.0723416E-2,1.2947741E-2,-3.92362E-2,-4.8823476E-2,2.453177E-2,-2.5728313E-2,4.1439207E-3,-5.1535595E-2,1.4984505E-2,-3.598478E-2,-5.4384796E-3,-4.2772364E-2,-1.3222259E-3,8.299026E-4,-1.44950375E-2,2.228456E-3,3.5208736E-2,6.2096952E-3,-4.7597837E-2,2.1086102E-2,-7.4208453E-3,2.2582216E-2,6.267458E-2],"split_indices":[0,11,6,0,8,0,11,1,3,11,0,1,13,6,9,17,0,6,23,11,0,19,11,13,0,1,1,19,0,0,0,15,8,11,4,0,0,0,0,1,11,1,5,0,11,5,5,10,19,1,0,22,11,0,11,13,11,10,0,0,0,0,0,0,0,0,0,0,0,0,0,0,0,0,0,0,0,0,0,0,0,0,0,0,0,0,0,0,0,0,0,0,0,0,0,0,0,0,0,0,0,0,0,0,0,0,0,0,0,0,0,0,0],"split_type":[0,0,0,0,0,0,0,0,0,0,0,0,0,0,0,0,0,0,0,0,0,0,0,0,0,0,0,0,0,0,0,0,0,0,0,0,0,0,0,0,0,0,0,0,0,0,0,0,0,0,0,0,0,0,0,0,0,0,0,0,0,0,0,0,0,0,0,0,0,0,0,0,0,0,0,0,0,0,0,0,0,0,0,0,0,0,0,0,0,0,0,0,0,0,0,0,0,0,0,0,0,0,0,0,0,0,0,0,0,0,0,0,0],"sum_hessian":[5.495E3,4.942E3,5.53E2,1.06E2,4.836E3,3.53E2,2E2,7.8E1,2.8E1,3.171E3,1.665E3,1.9E2,1.63E2,1.92E2,8E0,6.6E1,1.2E1,1.8E1,1E1,2.605E3,5.66E2,1.171E3,4.94E2,1.66E2,2.4E1,6E1,1.03E2,1.5E2,4.2E1,7E0,1E0,2.4E1,4.2E1,1E1,2E0,1.5E1,3E0,9E0,1E0,1.134E3,1.471E3,4.52E2,1.14E2,9.98E2,1.73E2,4.09E2,8.5E1,1.18E2,4.8E1,2.2E1,2E0,1.7E1,4.3E1,5.6E1,4.7E1,1.27E2,2.3E1,4E0,3.8E1,6E0,1E0,8E0,1.6E1,3.2E1,1E1,2E0,8E0,1E0,1E0,2E0,1.3E1,1E0,2E0,4.1E1,1.093E3,3.5E2,1.121E3,8.7E1,3.65E2,2.5E1,8.9E1,4.6E1,9.52E2,1.18E2,5.5E1,2.4E2,1.69E2,2.3E1,6.2E1,4.3E1,7.5E1,4E1,8E0,2.1E1,1E0,1.4E1,3E0,4.1E1,2E0,4.6E1,1E1,1E1,3.7E1,6.4E1,6.3E1,1.7E1,6E0,3E0,1E0,3.4E1,4E0,2E0,4E0],"tree_param":{"num_deleted":"0","num_feature":"25","num_nodes":"113","size_leaf_vector":"1"}},{"base_weights":[5.9436876E-3,3.2421984E-2,-2.4166189E-1,-4.1358575E-2,6.576745E-2,-4.040591E-1,4.4197492E-2,-3.8081575E-2,-6.500186E-2,-5.1144104E-2,9.329941E-2,-2.5708777E-1,-5.757619E-1,-9.342293E-3,9.357541E-1,-1.0892122E-1,2.027803E-3,-3.794074E-1,3.5605833E-2,3.0722382E-2,1.6028337E-1,-3.4625235E-1,-7.461202E-2,-7.2561485E-1,-3.8129094E-1,-2.6985234E-1,1.1577727E-1,1.035567E0,-1.5593708E-3,-1.654242E-1,1.5585952E-1,3.9963204E-2,-1.5087949E-1,-4.20147E-1,2.4668323E-1,2.982927E-1,-3.9907236E-2,1.04348764E-1,-6.360541E-2,1.2646008E-2,2.5395745E-1,-1.5711522E-1,-4.9473682E-1,-3.2849747E-1,1.0581051E-1,-4.4499516E-1,-9.059359E-1,-4.7628683E-1,2.3631299E-1,-6.7905766E-1,-1.5074077E-2,5.924238E-1,4.539435E-2,1.2295395E0,1.7311795E-1,-1.0503627E-2,8.101382E-3,2.4023285E-2,-1.862809E-3,7.607871E-3,-8.4235327E-4,-8.797746E-3,5.5149954E-2,-1.5742369E-2,-3.4697805E-2,-1.3666272E-2,3.586776E-2,6.6221803E-3,3.743839E-2,-7.675895E-3,1.1197969E-2,1.807831E-2,4.0111984E-3,8.103529E-3,-9.942499E-3,3.9695366E-3,-1.7323231E-2,8.144823E-3,1.941343E-2,2.4185868E-2,-1.3699904E-2,-3.2715872E-2,1.5940702E-3,2.3323666E-2,-2.9515618E-2,2.7330747E-2,-1.0979206E-2,-3.3087622E-2,-5.2987615E-4,-3.7686437E-2,-6.326159E-2,-1.9152854E-2,-4.326175E-2,-2.1702701E-2,2.928104E-2,-4.292402E-2,-1.3806542E-3,3.148599E-2,-9.049312E-3,4.7087055E-2,4.383564E-4,-1.2012905E-3,2.6156722E-2,1.6492063E-2,6.5547384E-2,1.6252149E-2,-3.2683015E-3],"categories":[],"categories_nodes":[],"categories_segments":[],"categories_sizes":[],"default_left":[0,0,0,0,0,0,0,0,0,0,0,0,0,0,0,0,0,0,0,0,0,0,0,0,0,0,0,0,0,0,0,0,0,0,0,0,0,0,0,0,0,0,0,0,0,0,0,0,0,0,0,0,0,0,0,0,0,0,0,0,0,0,0,0,0,0,0,0,0,0,0,0,0,0,0,0,0,0,0,0,0,0,0,0,0,0,0,0,0,0,0,0,0,0,0,0,0,0,0,0,0,0,0,0,0,0,0],"id":9,"left_children":[1,3,5,7,9,11,13,15,-1,17,19,21,23,25,27,29,31,33,35,37,39,41,43,45,47,49,51,53,-1,55,57,59,61,63,65,67,69,71,73,75,77,79,81,83,85,87,89,91,93,95,97,99,101,103,105,-1,-1,-1,-1,-1,-1,-1,-1,-1,-1,-1,-1,-1,-1,-1,-1,-1,-1,-1,-1,-1,-1,-1,-1,-1,-1,-1,-1,-1,-1,-1,-1,-1,-1,-1,-1,-1,-1,-1,-1,-1,-1,-1,-1,-1,-1,-1,-1,-1,-1,-1,-1],"loss_changes":[3.6171688E1,1.2264594E1,2.4761194E1,6.3520107E0,1.1054927E1,8.432011E0,9.269089E0,4.4014473E0,0E0,1.8665829E1,1.164369E1,2.9841862E0,4.269493E0,6.028705E0,1.0939417E0,8.403885E0,5.7486234E0,3.5980587E0,1.0306939E1,9.9935665E0,1.8556374E1,3.4046745E0,2.874771E0,3.9992065E0,4.2194405E0,6.2451606E0,4.1665792E0,1.4600592E0,0E0,6.788562E0,6.2238684E0,5.063348E0,6.388064E0,3.5008354E0,2.3988533E0,8.567292E0,1.214552E1,4.984892E0,1.9291264E1,1.2539188E1,9.977993E0,4.3270693E0,5.8194866E0,5.686879E0,5.427138E0,3.3827047E0,1.8901024E0,1.8805199E0,2.595836E0,2.664627E0,4.179178E0,3.2538447E0,3.6606956E0,1.535368E-1,1.2994179E-1,0E0,0E0,0E0,0E0,0E0,0E0,0E0,0E0,0E0,0E0,0E0,0E0,0E0,0E0,0E0,0E0,0E0,0E0,0E0,0E0,0E0,0E0,0E0,0E0,0E0,0E0,0E0,0E0,0E0,0E0,0E0,0E0,0E0,0E0,0E0,0E0,0E0,0E0,0E0,0E0,0E0,0E0,0E0,0E0,0E0,0E0,0E0,0E0,0E0,0E0,0E0,0E0],"parents":[2147483647,0,0,1,1,2,2,3,3,4,4,5,5,6,6,7,7,9,9,10,10,11,11,12,12,13,13,14,14,15,15,16,16,17,17,18,18,19,19,20,20,21,21,22,22,23,23,24,24,25,25,26,26,27,27,29,29,30,30,31,31,32,32,33,33,34,34,35,35,36,36,37,37,38,38,39,39,40,40,41,41,42,42,43,43,44,44,45,45,46,46,47,47,48,48,49,49,50,50,51,51,52,52,53,53,54,54],"right_children":[2,4,6,8,10,12,14,16,-1,18,20,22,24,26,28,30,32,34,36,38,40,42,44,46,48,50,52,54,-1,56,58,60,62,64,66,68,70,72,74,76,78,80,82,84,86,88,90,92,94,96,98,100,102,104,106,-1,-1,-1,-1,-1,-1,-1,-1,-1,-1,-1,-1,-1,-1,-1,-1,-1,-1,-1,-1,-1,-1,-1,-1,-1,-1,-1,-1,-1,-1,-1,-1,-1,-1,-1,-1,-1,-1,-1,-1,-1,-1,-1,-1,-1,-1,-1,-1,-1,-1,-1,-1],"split_conditions":[1.4E2,2E0,2E0,1.69E2,1.4E1,1.47E2,1.41E2,2E0,-6.500186E-2,1.06E2,1.22E2,3E0,1E0,2E0,1.58E2,3E0,1E0,1E0,1.11E2,1.16E2,1.08E2,1.9E1,1.03E2,2E0,1E0,2E0,8.8E1,3E0,-1.5593708E-3,1.46E2,2E0,1.17E2,2.3E1,3E0,1.42E2,3E0,1.5E2,9.2E1,1.8E1,1.55E2,1.4E2,1.04E2,3E0,2E0,1.25E2,2E1,3E0,1E0,1.48E2,1.55E2,1.9E1,3E0,2.2E1,1.41E2,1.41E2,-1.0503627E-2,8.101382E-3,2.4023285E-2,-1.862809E-3,7.607871E-3,-8.4235327E-4,-8.797746E-3,5.5149954E-2,-1.5742369E-2,-3.4697805E-2,-1.3666272E-2,3.586776E-2,6.6221803E-3,3.743839E-2,-7.675895E-3,1.1197969E-2,1.807831E-2,4.0111984E-3,8.103529E-3,-9.942499E-3,3.9695366E-3,-1.7323231E-2,8.144823E-3,1.941343E-2,2.4185868E-2,-1.3699904E-2,-3.2715872E-2,1.5940702E-3,2.3323666E-2,-2.9515618E-2,2.7330747E-2,-1.0979206E-2,-3.3087622E-2,-5.2987615E-4,-3.7686437E-2,-6.326159E-2,-1.9152854E-2,-4.326175E-2,-2.1702701E-2,2.928104E-2,-4.292402E-2,-1.3806542E-3,3.148599E-2,-9.049312E-3,4.7087055E-2,4.383564E-4,-1.2012905E-3,2.6156722E-2,1.6492063E-2,6.5547384E-2,1.6252149E-2,-3.2683015E-3],"split_indices":[0,16,6,11,1,0,11,17,0,0,11,5,12,2,0,6,19,22,11,0,0,1,11,4,20,7,11,7,0,11,2,11,1,17,11,2,11,0,1,11,11,11,4,4,11,1,13,21,0,0,1,10,1,0,0,0,0,0,0,0,0,0,0,0,0,0,0,0,0,0,0,0,0,0,0,0,0,0,0,0,0,0,0,0,0,0,0,0,0,0,0,0,0,0,0,0,0,0,0,0,0,0,0,0,0,0,0],"split_type":[0,0,0,0,0,0,0,0,0,0,0,0,0,0,0,0,0,0,0,0,0,0,0,0,0,0,0,0,0,0,0,0,0,0,0,0,0,0,0,0,0,0,0,0,0,0,0,0,0,0,0,0,0,0,0,0,0,0,0,0,0,0,0,0,0,0,0,0,0,0,0,0,0,0,0,0,0,0,0,0,0,0,0,0,0,0,0,0,0,0,0,0,0,0,0,0,0,0,0,0,0,0,0,0,0,0,0],"sum_hessian":[5.515E3,4.983E3,5.32E2,1.551E3,3.432E3,3.39E2,1.93E2,1.548E3,3E0,6.54E2,2.778E3,1.84E2,1.55E2,1.83E2,1E1,5.59E2,9.89E2,1.36E2,5.18E2,1.437E3,1.341E3,1.23E2,6.1E1,8.6E1,6.9E1,5.9E1,1.24E2,9E0,1E0,4.61E2,9.8E1,7.93E2,1.96E2,1.28E2,8E0,1.15E2,4.03E2,8.07E2,6.3E2,5.21E2,8.2E2,5.5E1,6.8E1,2.5E1,3.6E1,3.5E1,5.1E1,6E1,9E0,2.2E1,3.7E1,1.5E1,1.09E2,7E0,2E0,4.06E2,5.5E1,3.6E1,6.2E1,2.66E2,5.27E2,1.93E2,3E0,9.4E1,3.4E1,4E0,4E0,8.5E1,3E1,2.82E2,1.21E2,6.8E1,7.39E2,2.36E2,3.94E2,4.4E2,8.1E1,4.9E2,3.3E2,8E0,4.7E1,5.2E1,1.6E1,6E0,1.9E1,1.5E1,2.1E1,2.3E1,1.2E1,3.8E1,1.3E1,5E1,1E1,3E0,6E0,1.7E1,5E0,7E0,3E1,9E0,6E0,9.6E1,1.3E1,1E0,6E0,1E0,1E0],"tree_param":{"num_deleted":"0","num_feature":"25","num_nodes":"107","size_leaf_vector":"1"}},{"base_weights":[-1.0719316E-2,7.900355E-3,-1.829926E-1,-2.3538636E-2,6.851722E-2,-5.0752826E-2,-2.4439298E-1,-8.102658E-2,6.354264E-3,-7.244021E-2,1.1783684E-1,-1.0569811E-1,5.203986E-1,-3.2934245E-1,-5.981106E-2,-4.1986158E-1,-6.7550026E-2,4.1501302E-2,-6.5103725E-2,-2.400766E-1,1.3234316E-1,1.5025099E-1,-7.1240045E-2,-7.1819164E-2,-9.3505543E-1,-2.9649992E-2,6.422842E-1,-5.1216054E-1,-2.319874E-1,-1.4083886E-1,4.5035088E-1,-6.487882E-1,2.8427613E-1,-4.717511E-2,-3.0118665E-1,1.3693437E-1,1.7562887E-4,9.4447374E-2,-1.9070624E-1,3.771314E-1,-3.1072834E-1,2.0712121E-1,-2.573669E-1,1.6645177E-1,-1.0826074E-1,-5.1073164E-1,7.258866E-2,4.811626E-2,-3.4402353E-1,-5.4305047E-2,-4.4956985E-3,7.3377454E-1,2.3011476E-1,-7.1278644E-1,-3.1798667E-1,-2.6860145E-1,4.243644E-1,-1.9696295E-1,7.967383E-2,6.955499E-1,-4.5913363E-1,1.759924E-2,-4.0216338E-2,5.829378E-2,-9.602906E-3,-4.2064603E-2,-2.152505E-3,-7.4356496E-3,-3.946452E-2,-4.2390864E-2,7.880584E-3,1.2786775E-2,-6.815643E-4,-8.844794E-3,1.1065624E-2,-1.0771646E-2,1.6751386E-2,3.06205E-2,-5.0559193E-2,-2.0441934E-2,2.9304174E-3,2.31741E-3,2.3005847E-2,-2.1952644E-2,2.2711672E-2,1.3805063E-2,6.285352E-3,-1.3489445E-2,1.5527396E-2,-7.7322735E-3,-5.1813472E-2,1.0665058E-3,5.144043E-2,7.938077E-3,-1.8826732E-2,-3.9123255E-3,-4.187325E-2,4.4900414E-2,1.1093176E-2,1.68715E-2,4.0933173E-3,1.8226901E-4,-4.0619608E-2,-3.820686E-2,-9.909464E-4,-2.829892E-2,-9.929075E-3,-1.1573571E-2,3.9543044E-2,-6.670244E-3,-1.9699827E-2,1.7159995E-2,-1.2226241E-2,9.277861E-3,4.9555033E-2,-1.9537867E-3,-2.9306386E-2],"categories":[],"categories_nodes":[],"categories_segments":[],"categories_sizes":[],"default_left":[0,0,0,0,0,0,0,0,0,0,0,0,0,0,0,0,0,0,0,0,0,0,0,0,0,0,0,0,0,0,0,0,0,0,0,0,0,0,0,0,0,0,0,0,0,0,0,0,0,0,0,0,0,0,0,0,0,0,0,0,0,0,0,0,0,0,0,0,0,0,0,0,0,0,0,0,0,0,0,0,0,0,0,0,0,0,0,0,0,0,0,0,0,0,0,0,0,0,0,0,0,0,0,0,0,0,0,0,0,0,0,0,0,0,0,0,0],"id":10,"left_children":[1,3,5,7,9,11,13,15,17,19,21,23,25,27,29,31,33,35,37,39,41,43,45,47,49,-1,51,53,55,57,59,61,63,65,67,69,71,73,75,77,79,81,83,85,87,89,91,93,95,-1,-1,97,99,101,103,105,107,109,111,113,115,-1,-1,-1,-1,-1,-1,-1,-1,-1,-1,-1,-1,-1,-1,-1,-1,-1,-1,-1,-1,-1,-1,-1,-1,-1,-1,-1,-1,-1,-1,-1,-1,-1,-1,-1,-1,-1,-1,-1,-1,-1,-1,-1,-1,-1,-1,-1,-1,-1,-1,-1,-1,-1,-1,-1,-1],"loss_changes":[1.739665E1,9.330176E0,4.2828503E0,5.5408974E0,1.1632223E1,5.3585763E0,5.640831E0,5.0082984E0,5.332183E0,1.4930622E1,7.6042423E0,4.2879963E0,2.416483E0,4.277357E0,4.8172164E0,6.954662E0,5.041257E0,5.612054E0,1.4046024E1,1.0539216E1,5.7650914E0,4.449024E0,1.1541568E1,4.9135947E0,6.6827345E-1,0E0,3.590808E-1,3.084629E0,4.031152E0,1.2533003E0,3.887426E0,5.2641897E0,4.843212E0,3.1674562E0,6.2085733E0,8.8892975E0,3.5108078E0,1.0676161E1,5.168041E0,8.785282E0,7.8146477E0,6.6900296E0,4.3366423E0,4.415062E0,4.3456945E0,8.260898E0,6.742049E0,4.993269E0,5.9671607E0,0E0,0E0,7.255683E-1,3.6013097E-2,2.928751E0,5.9711018E0,3.1150665E0,2.3463154E0,9.4928503E-1,1.8780515E0,1.775568E0,1.9047594E-1,0E0,0E0,0E0,0E0,0E0,0E0,0E0,0E0,0E0,0E0,0E0,0E0,0E0,0E0,0E0,0E0,0E0,0E0,0E0,0E0,0E0,0E0,0E0,0E0,0E0,0E0,0E0,0E0,0E0,0E0,0E0,0E0,0E0,0E0,0E0,0E0,0E0,0E0,0E0,0E0,0E0,0E0,0E0,0E0,0E0,0E0,0E0,0E0,0E0,0E0,0E0,0E0,0E0,0E0,0E0,0E0],"parents":[2147483647,0,0,1,1,2,2,3,3,4,4,5,5,6,6,7,7,8,8,9,9,10,10,11,11,12,12,13,13,14,14,15,15,16,16,17,17,18,18,19,19,20,20,21,21,22,22,23,23,24,24,26,26,27,27,28,28,29,29,30,30,31,31,32,32,33,33,34,34,35,35,36,36,37,37,38,38,39,39,40,40,41,41,42,42,43,43,44,44,45,45,46,46,47,47,48,48,51,51,52,52,53,53,54,54,55,55,56,56,57,57,58,58,59,59,60,60],"right_children":[2,4,6,8,10,12,14,16,18,20,22,24,26,28,30,32,34,36,38,40,42,44,46,48,50,-1,52,54,56,58,60,62,64,66,68,70,72,74,76,78,80,82,84,86,88,90,92,94,96,-1,-1,98,100,102,104,106,108,110,112,114,116,-1,-1,-1,-1,-1,-1,-1,-1,-1,-1,-1,-1,-1,-1,-1,-1,-1,-1,-1,-1,-1,-1,-1,-1,-1,-1,-1,-1,-1,-1,-1,-1,-1,-1,-1,-1,-1,-1,-1,-1,-1,-1,-1,-1,-1,-1,-1,-1,-1,-1,-1,-1,-1,-1,-1,-1],"split_conditions":[1.4E2,3E0,1.9E1,2E0,1.05E2,1E0,3E0,9.1E1,1.19E2,1.9E1,1E0,1.65E2,1.41E2,2E0,1E0,3E0,2.2E1,2E0,1.8E1,9.1E1,1E0,2.2E1,1.12E2,3E0,3E0,-2.9649992E-2,1E0,2E0,1E0,3E0,3E0,8.1E1,1.9E1,9E0,1.28E2,8.4E1,9.1E1,1.22E2,1.39E2,1E0,3E0,3E0,1.01E2,2E0,3E0,3E0,1.37E2,3E0,1.8E1,-5.4305047E-2,-4.4956985E-3,3E0,1.42E2,1.41E2,2E0,1.41E2,2E1,3E0,2.1E1,3E0,1.45E2,1.759924E-2,-4.0216338E-2,5.829378E-2,-9.602906E-3,-4.2064603E-2,-2.152505E-3,-7.4356496E-3,-3.946452E-2,-4.2390864E-2,7.880584E-3,1.2786775E-2,-6.815643E-4,-8.844794E-3,1.1065624E-2,-1.0771646E-2,1.6751386E-2,3.06205E-2,-5.0559193E-2,-2.0441934E-2,2.9304174E-3,2.31741E-3,2.3005847E-2,-2.1952644E-2,2.2711672E-2,1.3805063E-2,6.285352E-3,-1.3489445E-2,1.5527396E-2,-7.7322735E-3,-5.1813472E-2,1.0665058E-3,5.144043E-2,7.938077E-3,-1.8826732E-2,-3.9123255E-3,-4.187325E-2,4.4900414E-2,1.1093176E-2,1.68715E-2,4.0933173E-3,1.8226901E-4,-4.0619608E-2,-3.820686E-2,-9.909464E-4,-2.829892E-2,-9.929075E-3,-1.1573571E-2,3.9543044E-2,-6.670244E-3,-1.9699827E-2,1.7159995E-2,-1.2226241E-2,9.277861E-3,4.9555033E-2,-1.9537867E-3,-2.9306386E-2],"split_indices":[0,8,1,16,0,22,16,0,0,1,19,0,0,14,19,7,1,7,1,0,24,1,0,14,17,0,12,7,20,15,15,0,1,1,0,0,0,0,0,19,2,15,0,13,10,15,0,10,1,0,0,17,0,0,15,0,1,5,1,17,0,0,0,0,0,0,0,0,0,0,0,0,0,0,0,0,0,0,0,0,0,0,0,0,0,0,0,0,0,0,0,0,0,0,0,0,0,0,0,0,0,0,0,0,0,0,0,0,0,0,0,0,0,0,0,0,0],"split_type":[0,0,0,0,0,0,0,0,0,0,0,0,0,0,0,0,0,0,0,0,0,0,0,0,0,0,0,0,0,0,0,0,0,0,0,0,0,0,0,0,0,0,0,0,0,0,0,0,0,0,0,0,0,0,0,0,0,0,0,0,0,0,0,0,0,0,0,0,0,0,0,0,0,0,0,0,0,0,0,0,0,0,0,0,0,0,0,0,0,0,0,0,0,0,0,0,0,0,0,0,0,0,0,0,0,0,0,0,0,0,0,0,0,0,0,0,0],"sum_hessian":[5.422E3,4.894E3,5.28E2,3.223E3,1.671E3,1.68E2,3.6E2,1.102E3,2.121E3,4.33E2,1.238E3,1.54E2,1.4E1,2.46E2,1.14E2,4.1E1,1.061E3,1.422E3,6.99E2,2.38E2,1.95E2,1.057E3,1.81E2,1.49E2,5E0,1E0,1.3E1,8.4E1,1.62E2,9.9E1,1.5E1,3.1E1,1E1,9.77E2,8.4E1,4.29E2,9.93E2,3.08E2,3.91E2,2.4E1,2.14E2,1.64E2,3.1E1,9.95E2,6.2E1,4.4E1,1.37E2,1.04E2,4.5E1,4E0,1E0,1E1,3E0,4E1,4.4E1,1.54E2,8E0,7.9E1,2E1,1.2E1,3E0,4E0,2.7E1,3E0,7E0,4E0,9.73E2,6.5E1,1.9E1,8E0,4.21E2,5E1,9.43E2,9.8E1,2.1E2,3.74E2,1.7E1,2.1E1,3E0,1.69E2,4.5E1,1.01E2,6.3E1,2.5E1,6E0,2.68E2,7.27E2,4.5E1,1.7E1,2.7E1,1.7E1,1.31E2,6E0,8.3E1,2.1E1,3E1,1.5E1,7E0,3E0,1E0,2E0,5E0,3.5E1,1.7E1,2.7E1,2.8E1,1.26E2,3E0,5E0,6.1E1,1.8E1,1.1E1,9E0,5E0,7E0,1E0,2E0],"tree_param":{"num_deleted":"0","num_feature":"25","num_nodes":"117","size_leaf_vector":"1"}},{"base_weights":[-1.7749348E-3,-1.5664881E-1,9.990316E-3,4.7643197E-1,-2.1950932E-1,-8.789696E-3,1.1847807E-1,-4.030061E-2,5.7858044E-1,-3.2830518E-1,3.7474398E-2,1.0962425E-2,-9.224073E-2,1.3804995E-1,-4.2882216E-1,9.387412E-1,2.9753894E-1,-2.5013617E-1,-5.612746E-1,-4.2443493E-1,1.6502187E-1,-4.7888994E-2,3.7470378E-2,-8.443667E-2,-6.62065E-1,2.3273405E-1,4.2983435E-2,-6.881613E-1,-6.8913005E-2,1.0283403E0,-5.651194E-3,5.466708E-1,-5.5919087E-1,-1.5744881E-1,-4.7378948E-1,-1.1333858E-2,-7.099807E-1,-7.993583E-1,2.475968E-1,2.4721143E-1,-9.3094605E-1,-1.0894599E-1,1.10370815E-1,-9.699942E-2,5.8612898E-2,-1.05974495E-1,2.9537335E-1,4.337256E-1,-1.350192E0,-4.105113E-1,2.6180688E-1,-1.998318E-2,3.411427E-1,1.5907156E-1,-9.1322553E-1,-5.5216527E-1,7.180732E-1,2.841003E-2,5.8485676E-2,3.6729302E-2,-6.8299536E-4,4.1904747E-2,-5.5901803E-2,3.2441657E-2,-1.003249E-2,-1.1414374E-2,-7.0636295E-2,1.5642758E-2,-3.2872256E-2,-5.019931E-2,-2.5818262E-2,-4.6090093E-2,2.2871304E-2,-5.1494677E-2,2.680099E-2,2.9677615E-2,3.6321995E-3,1.1872324E-2,-7.87252E-2,5.0605466E-3,-9.415152E-3,1.491879E-3,2.1402698E-2,-4.077329E-3,-5.3792693E-2,2.1147751E-3,1.2831628E-2,-4.903864E-3,-3.822927E-2,-4.570881E-3,2.3946153E-2,3.9723482E-2,-3.579684E-3,-7.7522986E-2,-3.7146152E-3,6.823306E-3,-4.2555057E-2,8.803664E-3,2.3696467E-2,1.0176929E-2,-4.9213916E-3,3.280435E-2,-3.79847E-3,-3.254807E-3,2.0789368E-2,-2.3495333E-2,-6.391133E-2,-3.585115E-2,-1.9197306E-3,5.7549555E-2,-2.5339961E-2],"categories":[],"categories_nodes":[],"categories_segments":[],"categories_sizes":[],"default_left":[0,0,0,0,0,0,0,0,0,0,0,0,0,0,0,0,0,0,0,0,0,0,0,0,0,0,0,0,0,0,0,0,0,0,0,0,0,0,0,0,0,0,0,0,0,0,0,0,0,0,0,0,0,0,0,0,0,0,0,0,0,0,0,0,0,0,0,0,0,0,0,0,0,0,0,0,0,0,0,0,0,0,0,0,0,0,0,0,0,0,0,0,0,0,0,0,0,0,0,0,0,0,0,0,0,0,0,0,0,0,0],"id":11,"left_children":[1,3,5,7,9,11,13,-1,15,17,19,21,23,25,27,29,31,33,35,37,39,41,43,45,47,49,51,53,55,57,-1,59,61,63,65,67,69,71,73,75,77,79,81,83,85,87,89,91,93,95,97,99,101,103,105,107,109,-1,-1,-1,-1,-1,-1,-1,-1,-1,-1,-1,-1,-1,-1,-1,-1,-1,-1,-1,-1,-1,-1,-1,-1,-1,-1,-1,-1,-1,-1,-1,-1,-1,-1,-1,-1,-1,-1,-1,-1,-1,-1,-1,-1,-1,-1,-1,-1,-1,-1,-1,-1,-1,-1],"loss_changes":[9.910308E0,1.5386162E1,1.0300104E1,5.0513344E0,9.797871E0,7.1053333E0,8.050124E0,0E0,3.0609512E0,4.33951E0,6.256154E0,5.4400616E0,3.6128259E0,6.479925E0,2.3793797E0,1.4355488E0,4.574467E0,3.7811508E0,4.980505E0,5.993008E0,7.706541E0,1.0476912E1,6.840331E0,6.6982327E0,8.880085E0,6.8585167E0,6.78426E0,3.005495E0,4.960249E0,1.8103695E-1,0E0,1.6947494E0,4.8413525E0,4.7628675E0,1.2125072E1,3.1381552E0,2.2139301E0,2.7299347E0,3.8681614E0,4.67275E0,4.88543E0,1.3060807E1,7.713612E0,4.8585E0,6.703507E0,3.9403334E0,3.167578E0,9.683337E-1,1.6734657E0,3.972029E0,6.2089195E0,5.262726E0,8.32597E0,2.5725567E-1,1.341095E0,6.500628E-1,3.2346673E0,0E0,0E0,0E0,0E0,0E0,0E0,0E0,0E0,0E0,0E0,0E0,0E0,0E0,0E0,0E0,0E0,0E0,0E0,0E0,0E0,0E0,0E0,0E0,0E0,0E0,0E0,0E0,0E0,0E0,0E0,0E0,0E0,0E0,0E0,0E0,0E0,0E0,0E0,0E0,0E0,0E0,0E0,0E0,0E0,0E0,0E0,0E0,0E0,0E0,0E0,0E0,0E0,0E0,0E0],"parents":[2147483647,0,0,1,1,2,2,3,3,4,4,5,5,6,6,8,8,9,9,10,10,11,11,12,12,13,13,14,14,15,15,16,16,17,17,18,18,19,19,20,20,21,21,22,22,23,23,24,24,25,25,26,26,27,27,28,28,29,29,31,31,32,32,33,33,34,34,35,35,36,36,37,37,38,38,39,39,40,40,41,41,42,42,43,43,44,44,45,45,46,46,47,47,48,48,49,49,50,50,51,51,52,52,53,53,54,54,55,55,56,56],"right_children":[2,4,6,8,10,12,14,-1,16,18,20,22,24,26,28,30,32,34,36,38,40,42,44,46,48,50,52,54,56,58,-1,60,62,64,66,68,70,72,74,76,78,80,82,84,86,88,90,92,94,96,98,100,102,104,106,108,110,-1,-1,-1,-1,-1,-1,-1,-1,-1,-1,-1,-1,-1,-1,-1,-1,-1,-1,-1,-1,-1,-1,-1,-1,-1,-1,-1,-1,-1,-1,-1,-1,-1,-1,-1,-1,-1,-1,-1,-1,-1,-1,-1,-1,-1,-1,-1,-1,-1,-1,-1,-1,-1,-1],"split_conditions":[1.2E1,1.12E2,1.42E2,9.4E1,1.56E2,1E0,1.63E2,-4.030061E-2,2E0,3E0,2E0,2E0,1.41E2,1E0,3E0,1E0,3E0,3E0,1E1,3E0,1E0,3E0,9.5E1,1.39E2,2E0,1.3E1,1E0,2E0,1.65E2,2E0,-5.651194E-3,3E0,2E0,1.19E2,1.44E2,3E0,2E0,1E0,2E0,3E0,1E0,1.8E1,1E0,2.3E1,1E0,1.38E2,2E0,2E0,2.1E1,2E0,3E0,2E0,1.5E2,1.7E1,1E0,3E0,1.7E1,2.841003E-2,5.8485676E-2,3.6729302E-2,-6.8299536E-4,4.1904747E-2,-5.5901803E-2,3.2441657E-2,-1.003249E-2,-1.1414374E-2,-7.0636295E-2,1.5642758E-2,-3.2872256E-2,-5.019931E-2,-2.5818262E-2,-4.6090093E-2,2.2871304E-2,-5.1494677E-2,2.680099E-2,2.9677615E-2,3.6321995E-3,1.1872324E-2,-7.87252E-2,5.0605466E-3,-9.415152E-3,1.491879E-3,2.1402698E-2,-4.077329E-3,-5.3792693E-2,2.1147751E-3,1.2831628E-2,-4.903864E-3,-3.822927E-2,-4.570881E-3,2.3946153E-2,3.9723482E-2,-3.579684E-3,-7.7522986E-2,-3.7146152E-3,6.823306E-3,-4.2555057E-2,8.803664E-3,2.3696467E-2,1.0176929E-2,-4.9213916E-3,3.280435E-2,-3.79847E-3,-3.254807E-3,2.0789368E-2,-2.3495333E-2,-6.391133E-2,-3.585115E-2,-1.9197306E-3,5.7549555E-2,-2.5339961E-2],"split_indices":[1,11,11,11,11,19,11,0,14,10,13,10,11,12,5,19,7,17,1,14,20,15,11,11,7,1,18,13,11,7,0,17,5,11,11,14,13,22,9,13,3,1,18,1,20,11,16,14,1,13,15,5,11,1,3,17,1,0,0,0,0,0,0,0,0,0,0,0,0,0,0,0,0,0,0,0,0,0,0,0,0,0,0,0,0,0,0,0,0,0,0,0,0,0,0,0,0,0,0,0,0,0,0,0,0,0,0,0,0,0,0],"split_type":[0,0,0,0,0,0,0,0,0,0,0,0,0,0,0,0,0,0,0,0,0,0,0,0,0,0,0,0,0,0,0,0,0,0,0,0,0,0,0,0,0,0,0,0,0,0,0,0,0,0,0,0,0,0,0,0,0,0,0,0,0,0,0,0,0,0,0,0,0,0,0,0,0,0,0,0,0,0,0,0,0,0,0,0,0,0,0,0,0,0,0,0,0,0,0,0,0,0,0,0,0,0,0,0,0,0,0,0,0,0,0],"sum_hessian":[5.437E3,3.83E2,5.054E3,3.4E1,3.49E2,4.309E3,7.45E2,2E0,3.2E1,2.45E2,1.04E2,3.485E3,8.24E2,7.2E2,2.5E1,1.3E1,1.9E1,1.85E2,6E1,2.2E1,8.2E1,1.082E3,2.403E3,8.14E2,1E1,3.6E2,3.6E2,1.4E1,1.1E1,1.2E1,1E0,1.5E1,4E0,1.32E2,5.3E1,1.3E1,4.7E1,1.4E1,8E0,7.7E1,5E0,7.81E2,3.01E2,3.26E2,2.077E3,7.71E2,4.3E1,4E0,6E0,1.5E1,3.45E2,2.98E2,6.2E1,3E0,1.1E1,7E0,4E0,4E0,8E0,1.1E1,4E0,1E0,3E0,6E0,1.26E2,4.3E1,1E1,9E0,4E0,1.7E1,3E1,1.3E1,1E0,1E0,7E0,2.5E1,5.2E1,2E0,3E0,2.14E2,5.67E2,2.41E2,6E1,3.22E2,4E0,1.92E3,1.57E2,7.63E2,8E0,1.4E1,2.9E1,2E0,2E0,5E0,1E0,7E0,8E0,2.47E2,9.8E1,7.7E1,2.21E2,3.5E1,2.7E1,2E0,1E0,6E0,5E0,5E0,2E0,3E0,1E0],"tree_param":{"num_deleted":"0","num_feature":"25","num_nodes":"111","size_leaf_vector":"1"}},{"base_weights":[9.536544E-3,2.0162541E-2,-2.1099074E-1,2.1562656E-2,-1.0274034E0,-4.3154255E-1,1.4588629E-1,-3.412422E-2,4.7038358E-2,-6.0398377E-2,-3.839952E-1,-5.1432586E-1,-2.4027435E-1,4.5748448E-1,-1.4413334E-1,-7.501823E-2,6.0074702E-2,-2.279026E-1,5.523911E-2,-2.5864935E-2,-2.9347062E-3,-5.883575E-1,-2.4500646E-1,-6.18403E-1,-2.0068415E-2,7.911926E-1,1.8098983E-1,-5.775528E-1,4.5344472E-1,5.777657E-2,-1.1355942E-1,7.0104575E-1,3.7295945E-2,-3.888123E-1,5.024979E-2,2.1434868E-2,1.324265E-1,-6.524191E-2,-6.1369777E-1,-8.0605364E-1,-6.444198E-2,-5.30931E-2,-2.396689E-1,-2.874682E-1,2.6529813E-1,1.086949E0,2.760786E-1,4.2847288E-1,-1.1848983E-1,-6.6929626E-1,1.5023661E-2,2.5685802E-1,9.348662E-1,1.9994326E-2,-4.7722254E-3,-7.7734324E-3,6.052104E-3,4.9275E-2,7.694844E-3,3.0099193E-3,-2.0065648E-2,-2.4915056E-2,-7.757999E-4,1.2550584E-2,-1.6309148E-2,2.3799122E-3,-1.0152755E-2,5.1674354E-3,2.6207924E-2,6.278679E-3,-2.0712597E-2,-4.466682E-2,-2.52798E-2,-4.9930617E-2,3.9184988E-3,1.275556E-2,-2.0475313E-2,-4.1231558E-2,1.0619985E-2,3.0671162E-4,-4.1338086E-2,2.3939637E-2,-3.8796922E-3,-6.0459496E-3,5.9884068E-2,2.4700137E-2,-5.9913606E-3,3.191446E-2,-5.9408834E-3,-2.7707024E-2,1.1152968E-2,-1.5495195E-2,-4.0590465E-2,-7.943011E-3,1.7763978E-2,1.9620856E-2,-1.4090669E-2,5.7396777E-2,-3.2620132E-3],"categories":[],"categories_nodes":[],"categories_segments":[],"categories_sizes":[],"default_left":[0,0,0,0,0,0,0,0,0,0,0,0,0,0,0,0,0,0,0,0,0,0,0,0,0,0,0,0,0,0,0,0,0,0,0,0,0,0,0,0,0,0,0,0,0,0,0,0,0,0,0,0,0,0,0,0,0,0,0,0,0,0,0,0,0,0,0,0,0,0,0,0,0,0,0,0,0,0,0,0,0,0,0,0,0,0,0,0,0,0,0,0,0,0,0,0,0,0,0],"id":12,"left_children":[1,3,5,7,9,11,13,15,17,-1,19,21,23,25,27,29,31,33,35,-1,-1,37,39,41,43,45,47,49,51,53,55,57,59,61,63,65,67,69,71,73,75,-1,77,79,81,83,85,87,89,91,93,95,97,-1,-1,-1,-1,-1,-1,-1,-1,-1,-1,-1,-1,-1,-1,-1,-1,-1,-1,-1,-1,-1,-1,-1,-1,-1,-1,-1,-1,-1,-1,-1,-1,-1,-1,-1,-1,-1,-1,-1,-1,-1,-1,-1,-1,-1,-1],"loss_changes":[1.2845661E1,7.691592E0,1.9897842E1,7.411278E0,3.4938145E-1,2.3464966E0,8.831789E0,6.3220673E0,8.093515E0,0E0,9.972891E-2,2.0091705E0,4.067632E0,4.1934233E0,1.3470987E1,5.8616333E0,7.230315E0,4.6743097E0,9.080001E0,0E0,0E0,1.0734558E0,2.480686E0,2.768659E0,2.5180874E0,2.89923E0,2.0519056E0,1.6410055E0,1.8419752E0,1.3562128E1,8.739771E0,2.494194E0,4.855907E0,2.689805E0,3.029236E0,1.4235079E1,1.2019974E1,3.850017E-1,1.9666882E0,1.1000822E0,2.3097975E0,0E0,3.0840251E0,2.6968157E0,1.2084408E0,1.8835726E0,8.3569187E-1,1.7982974E0,2.0579555E0,1.0800877E0,3.5226482E-1,1.3519592E0,1.3534441E0,0E0,0E0,0E0,0E0,0E0,0E0,0E0,0E0,0E0,0E0,0E0,0E0,0E0,0E0,0E0,0E0,0E0,0E0,0E0,0E0,0E0,0E0,0E0,0E0,0E0,0E0,0E0,0E0,0E0,0E0,0E0,0E0,0E0,0E0,0E0,0E0,0E0,0E0,0E0,0E0,0E0,0E0,0E0,0E0,0E0,0E0],"parents":[2147483647,0,0,1,1,2,2,3,3,4,4,5,5,6,6,7,7,8,8,10,10,11,11,12,12,13,13,14,14,15,15,16,16,17,17,18,18,21,21,22,22,23,23,24,24,25,25,26,26,27,27,28,28,29,29,30,30,31,31,32,32,33,33,34,34,35,35,36,36,37,37,38,38,39,39,40,40,42,42,43,43,44,44,45,45,46,46,47,47,48,48,49,49,50,50,51,51,52,52],"right_children":[2,4,6,8,10,12,14,16,18,-1,20,22,24,26,28,30,32,34,36,-1,-1,38,40,42,44,46,48,50,52,54,56,58,60,62,64,66,68,70,72,74,76,-1,78,80,82,84,86,88,90,92,94,96,98,-1,-1,-1,-1,-1,-1,-1,-1,-1,-1,-1,-1,-1,-1,-1,-1,-1,-1,-1,-1,-1,-1,-1,-1,-1,-1,-1,-1,-1,-1,-1,-1,-1,-1,-1,-1,-1,-1,-1,-1,-1,-1,-1,-1,-1,-1],"split_conditions":[1.47E2,1.69E2,2E0,2E0,1.2E1,3E0,9.6E1,3E0,8.7E1,-6.0398377E-2,1.12E2,1E0,2E0,2E0,1.28E2,1.6E1,9.1E1,3E0,1.22E2,-2.5864935E-2,-2.9347062E-3,8.8E1,9.4E1,1.12E2,1E0,3E0,1E0,3E0,1.41E2,1.18E2,3E0,1.21E2,1.41E2,3E0,3E0,1.19E2,1.49E2,3E0,1.14E2,3E0,1E0,-5.30931E-2,2E0,3E0,3E0,8.1E1,3E0,3E0,2E0,2E0,2E1,3E0,3E0,1.9994326E-2,-4.7722254E-3,-7.7734324E-3,6.052104E-3,4.9275E-2,7.694844E-3,3.0099193E-3,-2.0065648E-2,-2.4915056E-2,-7.757999E-4,1.2550584E-2,-1.6309148E-2,2.3799122E-3,-1.0152755E-2,5.1674354E-3,2.6207924E-2,6.278679E-3,-2.0712597E-2,-4.466682E-2,-2.52798E-2,-4.9930617E-2,3.9184988E-3,1.275556E-2,-2.0475313E-2,-4.1231558E-2,1.0619985E-2,3.0671162E-4,-4.1338086E-2,2.3939637E-2,-3.8796922E-3,-6.0459496E-3,5.9884068E-2,2.4700137E-2,-5.9913606E-3,3.191446E-2,-5.9408834E-3,-2.7707024E-2,1.1152968E-2,-1.5495195E-2,-4.0590465E-2,-7.943011E-3,1.7763978E-2,1.9620856E-2,-1.4090669E-2,5.7396777E-2,-3.2620132E-3],"split_indices":[0,11,6,16,1,7,11,8,11,0,0,19,13,8,11,1,0,14,0,0,0,11,11,11,12,7,3,6,11,11,6,11,0,5,5,0,11,4,11,5,3,0,10,4,5,11,15,10,7,14,1,14,7,0,0,0,0,0,0,0,0,0,0,0,0,0,0,0,0,0,0,0,0,0,0,0,0,0,0,0,0,0,0,0,0,0,0,0,0,0,0,0,0,0,0,0,0,0,0],"split_type":[0,0,0,0,0,0,0,0,0,0,0,0,0,0,0,0,0,0,0,0,0,0,0,0,0,0,0,0,0,0,0,0,0,0,0,0,0,0,0,0,0,0,0,0,0,0,0,0,0,0,0,0,0,0,0,0,0,0,0,0,0,0,0,0,0,0,0,0,0,0,0,0,0,0,0,0,0,0,0,0,0,0,0,0,0,0,0,0,0,0,0,0,0,0,0,0,0,0,0],"sum_hessian":[5.479E3,5.228E3,2.51E2,5.222E3,6E0,1.55E2,9.6E1,1.639E3,3.583E3,4E0,2E0,1.07E2,4.8E1,4.6E1,5E1,1.143E3,4.96E2,1.03E2,3.48E3,1E0,1E0,8.3E1,2.4E1,1.7E1,3.1E1,2E1,2.6E1,2.9E1,2.1E1,2.57E2,8.86E2,1.6E1,4.8E2,6.5E1,3.8E1,2.421E3,1.059E3,4E0,7.9E1,5E0,1.9E1,7E0,1E1,1.6E1,1.5E1,1.2E1,8E0,1.4E1,1.2E1,2.5E1,4E0,1.6E1,5E0,7.9E1,1.78E2,7.52E2,1.34E2,1E1,6E0,4.57E2,2.3E1,5E1,1.5E1,2.5E1,1.3E1,2.169E3,2.52E2,9.87E2,7.2E1,3E0,1E0,2E1,5.9E1,4E0,1E0,1E1,9E0,4E0,6E0,1.1E1,5E0,9E0,6E0,1E0,1.1E1,5E0,3E0,1E1,4E0,5E0,7E0,8E0,1.7E1,3E0,1E0,1.3E1,3E0,4E0,1E0],"tree_param":{"num_deleted":"0","num_feature":"25","num_nodes":"99","size_leaf_vector":"1"}},{"base_weights":[-8.253795E-3,5.6988834E-3,-1.9818866E-1,-1.4076051E-2,9.95513E-2,1.5419588E-2,-2.5875148E-1,1.4930013E-2,-1.06536895E-1,2.746938E-2,3.6009902E-1,2.6105306E-1,-2.4856314E-1,-1.1591773E-1,-3.4522745E-1,-1.0812581E-1,3.2423083E-2,-3.6605757E-1,-4.3993834E-2,5.6777474E-2,-3.712045E-1,1.12189904E-1,5.236922E-1,-3.752731E-2,4.8947522E-1,-3.6448774E-1,4.884117E-1,1.2548603E-1,-3.5105267E-1,-4.2165375E-1,4.06443E-2,4.3467484E-2,-2.5040874E-1,1.8289213E-1,1.8673327E-2,-1.4994553E-1,-5.076406E-1,-2.8340387E-1,-8.188962E-3,2.51359E-1,-1.0201721E-2,-2.6838303E-2,-8.5197526E-1,-7.6707053E-1,2.0968136E-1,5.648152E-1,-1.9734032E-1,3.1562945E-1,-5.042333E-1,2.4823475E-1,5.3717285E-2,-6.7709E-1,-1.0895805E-1,5.9666783E-2,-1.6238415E-1,3.4215096E-1,-3.9169535E-1,-6.8658644E-1,-8.622246E-2,-5.798812E-1,-3.2595903E-1,-3.2657614E-1,4.5411786E-1,-1.7115045E-3,3.1299926E-2,-1.0387976E-2,-4.3544255E-2,6.183995E-3,4.946652E-2,-5.4573466E-4,4.7591156E-3,8.168484E-3,-1.6746787E-2,-8.153309E-3,-2.9467368E-2,-1.0919276E-2,-4.428708E-2,-8.4725795E-3,2.7471776E-3,-2.4542492E-2,1.5860016E-2,-4.6133925E-3,1.2920119E-2,-2.6753673E-2,1.5673809E-2,2.1593828E-2,-5.519709E-2,-4.987636E-2,2.1153146E-2,2.8687123E-2,-6.707433E-4,4.7109213E-2,2.1839706E-2,-7.357221E-2,3.0329509E-2,-1.4714333E-2,2.7581668E-2,-9.469307E-3,-4.2522285E-2,-3.361346E-3,2.4188649E-2,-4.4801865E-2,1.0188061E-2,1.07569555E-2,-2.4348943E-2,5.1649096E-3,-1.4268883E-2,4.7249664E-3,5.37828E-2,-3.8250607E-2,2.1011038E-2,-1.926223E-2,-5.1754512E-2,2.1376645E-3,-3.3686947E-2,-4.002585E-2,-1.8806297E-2,-2.5241746E-2,1.8124919E-3,-2.431107E-2,-1.4525669E-3,4.446728E-2,-1.7347407E-2],"categories":[],"categories_nodes":[],"categories_segments":[],"categories_sizes":[],"default_left":[0,0,0,0,0,0,0,0,0,0,0,0,0,0,0,0,0,0,0,0,0,0,0,0,0,0,0,0,0,0,0,0,0,0,0,0,0,0,0,0,0,0,0,0,0,0,0,0,0,0,0,0,0,0,0,0,0,0,0,0,0,0,0,0,0,0,0,0,0,0,0,0,0,0,0,0,0,0,0,0,0,0,0,0,0,0,0,0,0,0,0,0,0,0,0,0,0,0,0,0,0,0,0,0,0,0,0,0,0,0,0,0,0,0,0,0,0,0,0,0,0,0,0],"id":13,"left_children":[1,3,5,7,9,11,13,15,17,19,21,23,25,27,29,31,33,35,37,39,41,43,45,47,49,51,53,55,57,59,61,63,65,67,69,71,73,75,77,79,81,83,85,87,89,91,93,95,97,99,-1,101,103,-1,105,107,109,111,113,115,117,119,121,-1,-1,-1,-1,-1,-1,-1,-1,-1,-1,-1,-1,-1,-1,-1,-1,-1,-1,-1,-1,-1,-1,-1,-1,-1,-1,-1,-1,-1,-1,-1,-1,-1,-1,-1,-1,-1,-1,-1,-1,-1,-1,-1,-1,-1,-1,-1,-1,-1,-1,-1,-1,-1,-1,-1,-1,-1,-1,-1,-1],"loss_changes":[1.456078E1,9.501883E0,4.8681946E0,1.1343452E1,1.6723782E1,5.511699E0,3.5790272E0,6.9349556E0,1.6377426E1,8.188452E0,7.7686024E0,3.019273E0,3.6807945E0,6.4014482E0,5.384453E0,8.66011E0,5.830919E0,5.921049E0,6.9838967E0,8.500024E0,7.924072E0,6.8470306E0,3.5509815E0,3.455558E0,3.2606707E0,2.801875E0,2.9463482E0,6.4091024E0,5.005792E0,2.1124973E0,4.8552184E0,8.847371E0,5.296874E0,1.114688E1,5.852832E0,4.633578E0,3.2260742E0,3.9578466E0,7.237759E0,8.316656E0,1.0736885E1,5.1835666E0,6.9465218E0,2.61621E0,5.774364E0,4.9026947E0,8.062601E0,1.8896495E0,8.1997323E-1,1.4442848E0,0E0,3.2683372E0,2.677593E0,0E0,1.6018781E-1,7.164499E0,5.4742064E0,2.2267075E0,2.5293918E0,2.2164211E0,6.302972E0,7.933476E-1,5.538249E0,0E0,0E0,0E0,0E0,0E0,0E0,0E0,0E0,0E0,0E0,0E0,0E0,0E0,0E0,0E0,0E0,0E0,0E0,0E0,0E0,0E0,0E0,0E0,0E0,0E0,0E0,0E0,0E0,0E0,0E0,0E0,0E0,0E0,0E0,0E0,0E0,0E0,0E0,0E0,0E0,0E0,0E0,0E0,0E0,0E0,0E0,0E0,0E0,0E0,0E0,0E0,0E0,0E0,0E0,0E0,0E0,0E0,0E0,0E0,0E0],"parents":[2147483647,0,0,1,1,2,2,3,3,4,4,5,5,6,6,7,7,8,8,9,9,10,10,11,11,12,12,13,13,14,14,15,15,16,16,17,17,18,18,19,19,20,20,21,21,22,22,23,23,24,24,25,25,26,26,27,27,28,28,29,29,30,30,31,31,32,32,33,33,34,34,35,35,36,36,37,37,38,38,39,39,40,40,41,41,42,42,43,43,44,44,45,45,46,46,47,47,48,48,49,49,51,51,52,52,54,54,55,55,56,56,57,57,58,58,59,59,60,60,61,61,62,62],"right_children":[2,4,6,8,10,12,14,16,18,20,22,24,26,28,30,32,34,36,38,40,42,44,46,48,50,52,54,56,58,60,62,64,66,68,70,72,74,76,78,80,82,84,86,88,90,92,94,96,98,100,-1,102,104,-1,106,108,110,112,114,116,118,120,122,-1,-1,-1,-1,-1,-1,-1,-1,-1,-1,-1,-1,-1,-1,-1,-1,-1,-1,-1,-1,-1,-1,-1,-1,-1,-1,-1,-1,-1,-1,-1,-1,-1,-1,-1,-1,-1,-1,-1,-1,-1,-1,-1,-1,-1,-1,-1,-1,-1,-1,-1,-1,-1,-1,-1,-1,-1,-1,-1,-1],"split_conditions":[1.43E2,1.42E2,9.2E1,1.3E2,1.23E2,1E0,2E0,9.1E1,1.3E1,1E0,1.47E2,2E0,1.58E2,1.51E2,1.39E2,1.25E2,9.5E1,2E0,9.9E1,2E0,3E0,1.24E2,2.1E1,2E0,9E1,2E0,1.6E2,1.39E2,2E0,2E0,1.9E1,2.2E1,2.2E1,2.2E1,3E0,1.2E1,2E0,1.41E2,2E0,9.4E1,1E0,2E0,9.8E1,2E1,1.29E2,2E0,2E0,2E0,2.1E1,1.5E2,5.3717285E-2,3E0,3E0,5.9666783E-2,3E0,1.28E2,1.48E2,2E0,1.094E3,1.49E2,3E0,3E0,3E0,-1.7115045E-3,3.1299926E-2,-1.0387976E-2,-4.3544255E-2,6.183995E-3,4.946652E-2,-5.4573466E-4,4.7591156E-3,8.168484E-3,-1.6746787E-2,-8.153309E-3,-2.9467368E-2,-1.0919276E-2,-4.428708E-2,-8.4725795E-3,2.7471776E-3,-2.4542492E-2,1.5860016E-2,-4.6133925E-3,1.2920119E-2,-2.6753673E-2,1.5673809E-2,2.1593828E-2,-5.519709E-2,-4.987636E-2,2.1153146E-2,2.8687123E-2,-6.707433E-4,4.7109213E-2,2.1839706E-2,-7.357221E-2,3.0329509E-2,-1.4714333E-2,2.7581668E-2,-9.469307E-3,-4.2522285E-2,-3.361346E-3,2.4188649E-2,-4.4801865E-2,1.0188061E-2,1.07569555E-2,-2.4348943E-2,5.1649096E-3,-1.4268883E-2,4.7249664E-3,5.37828E-2,-3.8250607E-2,2.1011038E-2,-1.926223E-2,-5.1754512E-2,2.1376645E-3,-3.3686947E-2,-4.002585E-2,-1.8806297E-2,-2.5241746E-2,1.8124919E-3,-2.431107E-2,-1.4525669E-3,4.446728E-2,-1.7347407E-2],"split_indices":[0,11,11,11,0,3,8,11,1,20,11,16,0,0,11,0,0,10,0,17,5,0,1,13,11,5,0,11,7,7,1,1,1,1,17,1,8,11,10,0,18,5,0,1,0,7,13,5,1,0,0,7,7,0,4,11,0,13,0,0,2,10,16,0,0,0,0,0,0,0,0,0,0,0,0,0,0,0,0,0,0,0,0,0,0,0,0,0,0,0,0,0,0,0,0,0,0,0,0,0,0,0,0,0,0,0,0,0,0,0,0,0,0,0,0,0,0,0,0,0,0,0,0],"split_type":[0,0,0,0,0,0,0,0,0,0,0,0,0,0,0,0,0,0,0,0,0,0,0,0,0,0,0,0,0,0,0,0,0,0,0,0,0,0,0,0,0,0,0,0,0,0,0,0,0,0,0,0,0,0,0,0,0,0,0,0,0,0,0,0,0,0,0,0,0,0,0,0,0,0,0,0,0,0,0,0,0,0,0,0,0,0,0,0,0,0,0,0,0,0,0,0,0,0,0,0,0,0,0,0,0,0,0,0,0,0,0,0,0,0,0,0,0,0,0,0,0,0,0],"sum_hessian":[5.493E3,5.118E3,3.75E2,4.228E3,8.9E2,8.3E1,2.92E2,3.219E3,1.009E3,6.98E2,1.92E2,4.3E1,4E1,1.11E2,1.81E2,4E2,2.819E3,1.95E2,8.14E2,6.51E2,4.7E1,7.7E1,1.15E2,1.9E1,2.4E1,3.5E1,5E0,5.5E1,5.6E1,1.51E2,3E1,1.94E2,2.06E2,2.35E2,2.584E3,7.8E1,1.17E2,1.05E2,7.09E2,1.66E2,4.85E2,2.8E1,1.9E1,7E0,7E1,1.09E2,6E0,1.1E1,8E0,1.8E1,6E0,1.5E1,2E1,2E0,3E0,3.9E1,1.6E1,2.4E1,3.2E1,5.5E1,9.6E1,1.6E1,1.4E1,1.72E2,2.2E1,1.94E2,1.2E1,2.2E2,1.5E1,1.864E3,7.2E2,2.9E1,4.9E1,2.3E1,9.4E1,9.6E1,9E0,1.99E2,5.1E2,1.3E1,1.53E2,3.72E2,1.13E2,1.1E1,1.7E1,3E0,1.6E1,6E0,1E0,2.6E1,4.4E1,2.6E1,8.3E1,2E0,4E0,3E0,8E0,5E0,3E0,8E0,1E1,1.2E1,3E0,1.1E1,9E0,1E0,2E0,3E1,9E0,1.1E1,5E0,1.4E1,1E1,2.7E1,5E0,2.5E1,3E1,6.4E1,3.2E1,1E1,6E0,9E0,5E0],"tree_param":{"num_deleted":"0","num_feature":"25","num_nodes":"123","size_leaf_vector":"1"}},{"base_weights":[-2.0934641E-3,-3.3370793E-2,5.9653424E-2,-9.6186765E-2,-1.3540183E-3,-6.267844E-1,6.7472346E-2,6.2092744E-2,-1.4192167E-1,-2.1269305E-2,9.758962E-2,-7.459462E-2,-3.9971682E-1,2.0065827E-2,1.7685555E-1,4.1836113E-1,-8.144275E-2,-1.2575735E-1,-7.177568E-1,3.2309167E-2,-1.03660695E-1,1.1347992E-2,2.095909E-1,-5.816275E-1,1.8957639E-1,-2.7238972E-2,1.4129435E-1,1.6345456E-2,2.495045E-1,6.883506E-1,2.6783156E-1,-9.679695E-1,-2.4422733E-2,-7.806301E-2,-2.5263616E-1,-8.48428E-1,5.668647E-1,6.58953E-2,-1.18222974E-1,4.6153564E-2,-1.9515577E-1,9.150628E-2,-7.543151E-1,2.792068E-1,-4.208612E-1,-7.6572406E-1,-2.0854469E-1,2.7987797E-2,-2.145374E-3,-6.762712E-2,9.3346536E-2,3.2476875E-1,3.2365426E-2,6.1012495E-2,-1.0579985E0,1.4372565E-1,4.8494428E-1,5.189068E-3,5.3024825E-2,-6.9680177E-3,2.161163E-2,-1.892326E-2,-6.674888E-2,-1.2714855E-2,7.985469E-3,-1.0063772E-2,4.3384437E-3,8.473548E-3,-1.49627095E-2,-2.3386767E-2,-6.27908E-2,4.4350784E-2,-1.8359304E-3,-4.366921E-4,7.1867057E-3,-1.4783355E-2,5.2382215E-3,-3.443329E-5,1.9679297E-2,-9.11116E-3,-6.093946E-2,1.1816061E-2,-6.871415E-3,7.7862623E-3,-4.8259884E-2,1.5257952E-2,-1.6581409E-2,-8.243633E-3,-6.378015E-2,-5.500321E-3,-4.686784E-2,8.8040205E-3,-3.2593165E-2,1.0904038E-3,-1.3720832E-2,3.1407943E-4,1.71414E-2,1.0260892E-3,2.2472706E-2,4.8522917E-3,-3.2096453E-2,1.0726362E-2,-1.2085044E-2,2.1365762E-2,-6.88385E-2,1.4890338E-2,2.9341462E-3,1.9854873E-2,4.152624E-2],"categories":[],"categories_nodes":[],"categories_segments":[],"categories_sizes":[],"default_left":[0,0,0,0,0,0,0,0,0,0,0,0,0,0,0,0,0,0,0,0,0,0,0,0,0,0,0,0,0,0,0,0,0,0,0,0,0,0,0,0,0,0,0,0,0,0,0,0,0,0,0,0,0,0,0,0,0,0,0,0,0,0,0,0,0,0,0,0,0,0,0,0,0,0,0,0,0,0,0,0,0,0,0,0,0,0,0,0,0,0,0,0,0,0,0,0,0,0,0,0,0,0,0,0,0,0,0,0,0],"id":14,"left_children":[1,3,5,7,9,11,13,15,17,19,21,-1,23,25,27,29,31,33,35,37,39,41,43,45,47,49,51,53,55,57,59,61,63,65,67,69,71,73,75,77,79,81,83,85,87,89,91,-1,-1,93,95,97,99,101,103,105,107,-1,-1,-1,-1,-1,-1,-1,-1,-1,-1,-1,-1,-1,-1,-1,-1,-1,-1,-1,-1,-1,-1,-1,-1,-1,-1,-1,-1,-1,-1,-1,-1,-1,-1,-1,-1,-1,-1,-1,-1,-1,-1,-1,-1,-1,-1,-1,-1,-1,-1,-1,-1],"loss_changes":[1.0660712E1,7.3687773E0,1.00038185E1,8.963329E0,4.7864275E0,3.528863E0,9.516989E0,1.4250203E1,8.8454E0,8.9292755E0,3.9289052E0,0E0,2.0398397E0,7.3557224E0,6.4677143E0,3.0669498E0,1.0035765E1,5.638338E0,4.845381E0,6.206192E0,1.0933698E1,1.4246475E1,7.8859496E0,8.01878E-1,4.5432156E-1,4.5015306E0,7.184329E0,8.414423E0,9.443838E0,5.981201E0,3.6082027E0,2.090992E0,7.998138E0,1.3848122E1,5.068556E0,3.1347637E0,6.1228335E-1,5.8277254E0,8.894164E0,4.9314466E0,6.33082E0,6.994638E0,4.372363E0,2.637601E0,3.728162E0,9.097676E-1,1.137849E0,0E0,0E0,1.2804012E1,5.03714E0,5.0740843E0,9.962593E0,7.8589725E0,3.9026442E0,3.454945E0,3.2524605E0,0E0,0E0,0E0,0E0,0E0,0E0,0E0,0E0,0E0,0E0,0E0,0E0,0E0,0E0,0E0,0E0,0E0,0E0,0E0,0E0,0E0,0E0,0E0,0E0,0E0,0E0,0E0,0E0,0E0,0E0,0E0,0E0,0E0,0E0,0E0,0E0,0E0,0E0,0E0,0E0,0E0,0E0,0E0,0E0,0E0,0E0,0E0,0E0,0E0,0E0,0E0,0E0],"parents":[2147483647,0,0,1,1,2,2,3,3,4,4,5,5,6,6,7,7,8,8,9,9,10,10,12,12,13,13,14,14,15,15,16,16,17,17,18,18,19,19,20,20,21,21,22,22,23,23,24,24,25,25,26,26,27,27,28,28,29,29,30,30,31,31,32,32,33,33,34,34,35,35,36,36,37,37,38,38,39,39,40,40,41,41,42,42,43,43,44,44,45,45,46,46,49,49,50,50,51,51,52,52,53,53,54,54,55,55,56,56],"right_children":[2,4,6,8,10,12,14,16,18,20,22,-1,24,26,28,30,32,34,36,38,40,42,44,46,48,50,52,54,56,58,60,62,64,66,68,70,72,74,76,78,80,82,84,86,88,90,92,-1,-1,94,96,98,100,102,104,106,108,-1,-1,-1,-1,-1,-1,-1,-1,-1,-1,-1,-1,-1,-1,-1,-1,-1,-1,-1,-1,-1,-1,-1,-1,-1,-1,-1,-1,-1,-1,-1,-1,-1,-1,-1,-1,-1,-1,-1,-1,-1,-1,-1,-1,-1,-1,-1,-1,-1,-1,-1,-1],"split_conditions":[3E0,2E0,8.3E1,1.6E1,1.42E2,2E0,3E0,1.19E2,1.51E2,3E0,3E0,-7.459462E-2,3E0,3E0,2E0,1.02E2,1.22E2,3E0,1E0,1E0,2E0,1E0,1E0,3E0,3E0,1.37E2,2E0,1.55E2,1.32E2,9.4E1,2E0,1.4E1,1.3E1,2E0,9.1E1,3E0,1.7E1,2E0,1.27E2,1E0,1.41E2,3E0,1.44E2,1.66E2,3E0,2E0,3E0,2.7987797E-2,-2.145374E-3,1.26E2,1.8E1,2E0,1E0,3E0,9E0,1.09E2,1E0,5.189068E-3,5.3024825E-2,-6.9680177E-3,2.161163E-2,-1.892326E-2,-6.674888E-2,-1.2714855E-2,7.985469E-3,-1.0063772E-2,4.3384437E-3,8.473548E-3,-1.49627095E-2,-2.3386767E-2,-6.27908E-2,4.4350784E-2,-1.8359304E-3,-4.366921E-4,7.1867057E-3,-1.4783355E-2,5.2382215E-3,-3.443329E-5,1.9679297E-2,-9.11116E-3,-6.093946E-2,1.1816061E-2,-6.871415E-3,7.7862623E-3,-4.8259884E-2,1.5257952E-2,-1.6581409E-2,-8.243633E-3,-6.378015E-2,-5.500321E-3,-4.686784E-2,8.8040205E-3,-3.2593165E-2,1.0904038E-3,-1.3720832E-2,3.1407943E-4,1.71414E-2,1.0260892E-3,2.2472706E-2,4.8522917E-3,-3.2096453E-2,1.0726362E-2,-1.2085044E-2,2.1365762E-2,-6.88385E-2,1.4890338E-2,2.9341462E-3,1.9854873E-2,4.152624E-2],"split_indices":[8,16,11,1,11,9,2,11,11,14,14,0,15,17,9,11,11,9,20,18,17,20,24,2,9,11,14,11,11,11,10,1,1,9,11,2,1,8,11,18,11,2,11,11,10,2,9,0,0,11,1,15,23,10,1,11,18,0,0,0,0,0,0,0,0,0,0,0,0,0,0,0,0,0,0,0,0,0,0,0,0,0,0,0,0,0,0,0,0,0,0,0,0,0,0,0,0,0,0,0,0,0,0,0,0,0,0,0,0],"split_type":[0,0,0,0,0,0,0,0,0,0,0,0,0,0,0,0,0,0,0,0,0,0,0,0,0,0,0,0,0,0,0,0,0,0,0,0,0,0,0,0,0,0,0,0,0,0,0,0,0,0,0,0,0,0,0,0,0,0,0,0,0,0,0,0,0,0,0,0,0,0,0,0,0,0,0,0,0,0,0,0,0,0,0,0,0,0,0,0,0,0,0,0,0,0,0,0,0,0,0,0,0,0,0,0,0,0,0,0,0],"sum_hessian":[5.518E3,3.663E3,1.855E3,1.236E3,2.427E3,2E1,1.835E3,2.77E2,9.59E2,2.021E3,4.06E2,3E0,1.7E1,1.281E3,5.54E2,7.9E1,1.98E2,9.34E2,2.5E1,1.225E3,7.96E2,2.3E2,1.76E2,1.3E1,4E0,9.22E2,3.59E2,1.73E2,3.81E2,2.7E1,5.2E1,1.1E1,1.87E2,6.8E2,2.54E2,2.3E1,2E0,1.002E3,2.23E2,3.02E2,4.94E2,2.09E2,2.1E1,1.59E2,1.7E1,8E0,5E0,1E0,3E0,6.91E2,2.31E2,1.33E2,2.26E2,1.67E2,6E0,2.64E2,1.17E2,1.1E1,1.6E1,1.5E1,3.7E1,5E0,6E0,8.3E1,1.04E2,3.89E2,2.91E2,2.5E1,2.29E2,1.3E1,1E1,1E0,1E0,5.12E2,4.9E2,1.24E2,9.9E1,2.67E2,3.5E1,4.89E2,5E0,1.28E2,8.1E1,4E0,1.7E1,1.53E2,6E0,1.4E1,3E0,2E0,6E0,3E0,2E0,4.83E2,2.08E2,1.72E2,5.9E1,3.9E1,9.4E1,2.07E2,1.9E1,1.11E2,5.6E1,1E0,5E0,9.3E1,1.71E2,9.5E1,2.2E1],"tree_param":{"num_deleted":"0","num_feature":"25","num_nodes":"109","size_leaf_vector":"1"}},{"base_weights":[-3.4863856E-3,1.09510105E-2,-1.9242868E-1,-5.5802125E-2,3.5802368E-2,-3.1647816E-1,3.975479E-2,-3.3189288E-1,-1.536341E-2,4.107027E-3,2.0325872E-1,-8.871709E-2,-4.5753014E-1,-2.0533841E-2,1.0069396E0,-3.7690097E-1,3.7749207E-1,8.732734E-3,-2.5728923E-1,-8.29807E-2,5.187115E-2,3.1474017E-2,2.7698302E-1,-3.1284055E-1,1.07479066E-1,-5.396347E-1,-1.7887945E-1,1.9663137E-1,-1.6504739E-1,3.7644252E-1,5.7718247E-2,-6.8095917E-1,-3.0482224E-1,-4.5242023E-2,5.962094E-1,-2.5901668E-2,1.4128147E-1,2.6675588E-1,-3.5702318E-1,-6.7307186E-1,-7.201686E-2,1.2406843E-1,-8.27474E-3,7.753746E-2,-6.121985E-1,1.667185E-1,3.6523724E-1,-2.9540079E-2,-7.138707E-1,3.068958E-1,-3.3286786E-1,-6.290233E-1,-3.0457598E-1,-3.7312666E-1,5.719075E-1,-1.5110657E-1,5.242075E-1,-2.791573E-1,1.7982922E-1,3.136769E-2,-3.134501E-3,-6.487329E-2,-2.4054948E-2,-9.898025E-3,-2.5826067E-2,3.7790064E-2,8.393562E-3,-2.808139E-3,1.8106995E-2,-1.1156915E-2,1.4286773E-2,-1.5420357E-2,4.3809317E-2,-1.2969826E-2,-4.0226873E-2,-4.787788E-4,-5.1480126E-2,-4.8177782E-3,6.4023547E-3,3.5146305E-3,1.260367E-2,-5.5422736E-3,6.6847885E-3,-7.3917094E-3,1.2085043E-2,1.9549012E-2,-4.9501684E-2,1.1664621E-2,-3.315491E-2,7.913868E-3,2.1198777E-2,-1.3842291E-2,3.7596326E-2,-4.6201527E-2,-5.2259644E-3,6.0353377E-3,3.4236535E-2,-4.0254313E-3,-5.6645405E-2,-3.2368705E-2,2.3269845E-2,-3.3076085E-2,3.4645312E-3,-2.4010204E-2,1.2915063E-2,5.668143E-2,4.07455E-4,-1.4830149E-2,3.616372E-2,3.886975E-2,9.587217E-3,-1.702659E-2,3.2493737E-2,-2.4399208E-2,2.504455E-2],"categories":[],"categories_nodes":[],"categories_segments":[],"categories_sizes":[],"default_left":[0,0,0,0,0,0,0,0,0,0,0,0,0,0,0,0,0,0,0,0,0,0,0,0,0,0,0,0,0,0,0,0,0,0,0,0,0,0,0,0,0,0,0,0,0,0,0,0,0,0,0,0,0,0,0,0,0,0,0,0,0,0,0,0,0,0,0,0,0,0,0,0,0,0,0,0,0,0,0,0,0,0,0,0,0,0,0,0,0,0,0,0,0,0,0,0,0,0,0,0,0,0,0,0,0,0,0,0,0,0,0,0,0,0,0],"id":15,"left_children":[1,3,5,7,9,11,13,15,17,19,21,23,25,27,29,31,33,35,37,39,41,43,45,47,49,51,53,55,57,59,-1,61,63,-1,65,67,69,71,73,75,77,79,81,83,85,87,89,91,93,95,97,99,101,103,105,107,109,111,113,-1,-1,-1,-1,-1,-1,-1,-1,-1,-1,-1,-1,-1,-1,-1,-1,-1,-1,-1,-1,-1,-1,-1,-1,-1,-1,-1,-1,-1,-1,-1,-1,-1,-1,-1,-1,-1,-1,-1,-1,-1,-1,-1,-1,-1,-1,-1,-1,-1,-1,-1,-1,-1,-1,-1,-1],"loss_changes":[1.4909723E1,8.425922E0,1.1187853E1,1.5379934E1,1.9642542E1,8.087326E0,7.9508696E0,5.761614E0,7.015111E0,1.2953354E1,7.450796E0,4.3428955E0,3.472519E0,4.0809016E0,3.090582E-1,3.4305077E0,3.6246257E0,5.030526E0,5.792132E0,7.0875683E0,8.733532E0,5.325128E0,3.9484043E0,5.205065E0,4.75622E0,2.3298035E0,5.6094093E0,6.0025644E0,3.1198E0,3.698787E-1,0E0,3.1954594E0,2.9744139E0,0E0,5.567157E-1,1.0224629E1,1.201347E1,6.579615E0,3.8107233E0,4.7212763E0,5.2906566E0,6.2738686E0,1.6003916E1,6.21436E0,4.9355183E0,1.0374863E1,2.7045689E0,5.6194806E0,2.336584E0,2.5202513E0,3.3410497E0,2.0284653E0,4.71659E0,2.1523871E0,2.5241618E0,3.5222266E0,2.1236782E0,3.5854158E0,4.5326133E0,0E0,0E0,0E0,0E0,0E0,0E0,0E0,0E0,0E0,0E0,0E0,0E0,0E0,0E0,0E0,0E0,0E0,0E0,0E0,0E0,0E0,0E0,0E0,0E0,0E0,0E0,0E0,0E0,0E0,0E0,0E0,0E0,0E0,0E0,0E0,0E0,0E0,0E0,0E0,0E0,0E0,0E0,0E0,0E0,0E0,0E0,0E0,0E0,0E0,0E0,0E0,0E0,0E0,0E0,0E0,0E0],"parents":[2147483647,0,0,1,1,2,2,3,3,4,4,5,5,6,6,7,7,8,8,9,9,10,10,11,11,12,12,13,13,14,14,15,15,16,16,17,17,18,18,19,19,20,20,21,21,22,22,23,23,24,24,25,25,26,26,27,27,28,28,29,29,31,31,32,32,34,34,35,35,36,36,37,37,38,38,39,39,40,40,41,41,42,42,43,43,44,44,45,45,46,46,47,47,48,48,49,49,50,50,51,51,52,52,53,53,54,54,55,55,56,56,57,57,58,58],"right_children":[2,4,6,8,10,12,14,16,18,20,22,24,26,28,30,32,34,36,38,40,42,44,46,48,50,52,54,56,58,60,-1,62,64,-1,66,68,70,72,74,76,78,80,82,84,