{"learner":{"attributes":{"scikit_learn":"{\"_estimator_type\": \"regressor\"}"},"feature_names":["timeDuration","nMovements","movementsDifficulty","robotSpeech","acrobaticMovements","movementsRepetition","movementsTransitionsDuration","humanMovements","balance","speed","bodyPartsCombination","musicBPM","sameStartEndPositionPlace","headMovement","armsMovement","handsMovement","legsMovement","feetMovement","musicGenre_electronic","musicGenre_folk","musicGenre_indie","musicGenre_latin","musicGenre_pop","musicGenre_rap","musicGenre_rock"],"feature_types":["int","int","int","int","int","int","int","int","int","int","int","int","int","int","int","int","int","int","int","int","int","int","int","int","int"],"gradient_booster":{"model":{"gbtree_model_param":{"num_parallel_tree":"1","num_trees":"500"},"iteration_indptr":[0,1,2,3,4,5,6,7,8,9,10,11,12,13,14,15,16,17,18,19,20,21,22,23,24,25,26,27,28,29,30,31,32,33,34,35,36,37,38,39,40,41,42,43,44,45,46,47,48,49,50,51,52,53,54,55,56,57,58,59,60,61,62,63,64,65,66,67,68,69,70,71,72,73,74,75,76,77,78,79,80,81,82,83,84,85,86,87,88,89,90,91,92,93,94,95,96,97,98,99,100,101,102,103,104,105,106,107,108,109,110,111,112,113,114,115,116,117,118,119,120,121,122,123,124,125,126,127,128,129,130,131,132,133,134,135,136,137,138,139,140,141,142,143,144,145,146,147,148,149,150,151,152,153,154,155,156,157,158,159,160,161,162,163,164,165,166,167,168,169,170,171,172,173,174,175,176,177,178,179,180,181,182,183,184,185,186,187,188,189,190,191,192,193,194,195,196,197,198,199,200,201,202,203,204,205,206,207,208,209,210,211,212,213,214,215,216,217,218,219,220,221,222,223,224,225,226,227,228,229,230,231,232,233,234,235,236,237,238,239,240,241,242,243,244,245,246,247,248,249,250,251,252,253,254,255,256,257,258,259,260,261,262,263,264,265,266,267,268,269,270,271,272,273,274,275,276,277,278,279,280,281,282,283,284,285,286,287,288,289,290,291,292,293,294,295,296,297,298,299,300,301,302,303,304,305,306,307,308,309,310,311,312,313,314,315,316,317,318,319,320,321,322,323,324,325,326,327,328,329,330,331,332,333,334,335,336,337,338,339,340,341,342,343,344,345,346,347,348,349,350,351,352,353,354,355,356,357,358,359,360,361,362,363,364,365,366,367,368,369,370,371,372,373,374,375,376,377,378,379,380,381,382,383,384,385,386,387,388,389,390,391,392,393,394,395,396,397,398,399,400,401,402,403,404,405,406,407,408,409,410,411,412,413,414,415,416,417,418,419,420,421,422,423,424,425,426,427,428,429,430,431,432,433,434,435,436,437,438,439,440,441,442,443,444,445,446,447,448,449,450,451,452,453,454,455,456,457,458,459,460,461,462,463,464,465,466,467,468,469,470,471,472,473,474,475,476,477,478,479,480,481,482,483,484,485,486,487,488,489,490,491,492,493,494,495,496,497,498,499,500],"tree_info":[0,0,0,0,0,0,0,0,0,0,0,0,0,0,0,0,0,0,0,0,0,0,0,0,0,0,0,0,0,0,0,0,0,0,0,0,0,0,0,0,0,0,0,0,0,0,0,0,0,0,0,0,0,0,0,0,0,0,0,0,0,0,0,0,0,0,0,0,0,0,0,0,0,0,0,0,0,0,0,0,0,0,0,0,0,0,0,0,0,0,0,0,0,0,0,0,0,0,0,0,0,0,0,0,0,0,0,0,0,0,0,0,0,0,0,0,0,0,0,0,0,0,0,0,0,0,0,0,0,0,0,0,0,0,0,0,0,0,0,0,0,0,0,0,0,0,0,0,0,0,0,0,0,0,0,0,0,0,0,0,0,0,0,0,0,0,0,0,0,0,0,0,0,0,0,0,0,0,0,0,0,0,0,0,0,0,0,0,0,0,0,0,0,0,0,0,0,0,0,0,0,0,0,0,0,0,0,0,0,0,0,0,0,0,0,0,0,0,0,0,0,0,0,0,0,0,0,0,0,0,0,0,0,0,0,0,0,0,0,0,0,0,0,0,0,0,0,0,0,0,0,0,0,0,0,0,0,0,0,0,0,0,0,0,0,0,0,0,0,0,0,0,0,0,0,0,0,0,0,0,0,0,0,0,0,0,0,0,0,0,0,0,0,0,0,0,0,0,0,0,0,0,0,0,0,0,0,0,0,0,0,0,0,0,0,0,0,0,0,0,0,0,0,0,0,0,0,0,0,0,0,0,0,0,0,0,0,0,0,0,0,0,0,0,0,0,0,0,0,0,0,0,0,0,0,0,0,0,0,0,0,0,0,0,0,0,0,0,0,0,0,0,0,0,0,0,0,0,0,0,0,0,0,0,0,0,0,0,0,0,0,0,0,0,0,0,0,0,0,0,0,0,0,0,0,0,0,0,0,0,0,0,0,0,0,0,0,0,0,0,0,0,0,0,0,0,0,0,0,0,0,0,0,0,0,0,0,0,0,0,0,0,0,0,0,0,0,0,0,0,0,0,0,0,0,0,0,0,0,0,0,0,0,0,0,0,0,0,0,0,0,0,0,0,0,0,0,0,0,0,0,0,0,0,0,0,0,0,0,0,0,0,0,0,0,0,0,0,0,0],"trees":[{"base_weights":[7.839347E-3,-1.9971298E-1,4.9823225E-2,4.8599396E-2,-2.6109895E-1,5.6902636E-2,-5.184308E-1,1.6608767E-1,-1.4343293E-1,-1.9400659E-1,-4.1687107E-1,1.8336333E-1,3.745252E-2,-8.577103E-1,4.489697E-2,2.1043041E-1,-6.671534E-1,-1.9754498E-1,5.995327E-1,-3.3920538E-1,-1.1000484E-1,-2.799916E-1,-6.284843E-1,3.1916637E-3,3.2576492E-1,6.1291058E-2,-7.283761E-2,-6.557364E-1,-1.5719292E0,5.709279E-1,-1.8804762E-1,-7.504381E-1,2.4470441E-1,3.3294392E-1,-6.2521905E-2,-7.900404E-2,-5.6304765E-1,-1.4603138E-5,3.7478097E-2,-4.6674514E-1,-3.5661597E-2,-2.4800079E-1,-5.2083764E-2,-7.1485317E-1,-1.2802938E-1,-4.9209964E-1,-8.934204E-1,1.6756263E-1,-1.1822737E-1,1.32757E-1,3.8018736E-1,8.88043E-2,9.335247E-3,-2.993866E-1,5.5978283E-2,-4.1722646E-1,-1.5004867E0,2.4985397E-2,-2.0004869E0,6.661799E-1,-1.4603138E-5,-3.5768527E-1,3.3313863E-2,-1.4603138E-5,-5.0019473E-2,2.0939007E-2,-2.855725E-5,-1.4603138E-5,2.4985397E-2,-2.0023366E-2,-2.1562444E-3,1.24780955E-2,-3.84885E-2,-6.877556E-2,-2.026707E-2,1.0947116E-2,-3.238043E-2,-2.4387432E-2,-4.2659994E-3,-7.287035E-3,2.6983318E-3,-6.925773E-2,-1.5245328E-2,-2.8066596E-3,-3.079619E-2,-1.5245962E-2,-5.359855E-2,-5.2028038E-2,1.24780955E-2,1.071873E-2,-2.8596465E-2,-8.600427E-3,2.1401452E-2,-2.9132601E-3,2.7055344E-2,1.4377738E-2,2.8542569E-2,7.4021816E-3,3.1933372E-3,-3.202398E-3,4.524929E-3,3.179163E-2,-1.7041532E-2,9.038302E-3,-2.0290895E-3,-2.7380884E-5,-5.5581518E-2,-3.3352803E-2,-8.75219E-2,-2.5014604E-2,-1.1002337E-1,3.9976638E-2,-1.4603138E-5,-2.780374E-2,-2.4338564E-5],"categories":[],"categories_nodes":[],"categories_segments":[],"categories_sizes":[],"default_left":[0,0,0,0,0,0,0,0,0,0,0,0,0,0,0,0,0,0,0,0,0,0,0,0,0,0,0,0,0,0,0,0,0,0,0,0,0,0,0,0,0,0,0,0,0,0,0,0,0,0,0,0,0,0,0,0,0,0,0,0,0,0,0,0,0,0,0,0,0,0,0,0,0,0,0,0,0,0,0,0,0,0,0,0,0,0,0,0,0,0,0,0,0,0,0,0,0,0,0,0,0,0,0,0,0,0,0,0,0,0,0,0,0,0,0],"id":0,"left_children":[1,3,5,7,9,11,13,15,17,19,21,23,25,27,29,31,33,35,37,39,41,43,45,47,49,51,53,55,57,59,61,63,65,67,-1,69,71,-1,-1,73,75,77,79,81,83,85,87,89,91,93,95,97,99,101,103,105,107,-1,109,111,-1,113,-1,-1,-1,-1,-1,-1,-1,-1,-1,-1,-1,-1,-1,-1,-1,-1,-1,-1,-1,-1,-1,-1,-1,-1,-1,-1,-1,-1,-1,-1,-1,-1,-1,-1,-1,-1,-1,-1,-1,-1,-1,-1,-1,-1,-1,-1,-1,-1,-1,-1,-1,-1,-1],"loss_changes":[4.759629E1,1.4020908E1,1.8305557E1,4.152585E0,7.6215973E0,1.1032156E1,1.0741539E1,4.3524837E0,2.9326725E0,6.268509E0,6.2254066E0,1.5341688E1,1.02345085E1,4.0181065E0,2.8031547E0,3.7733111E0,3.9163744E0,2.8151004E0,4.5017505E-1,7.3002834E0,2.616739E0,8.895702E0,2.6678047E0,5.308618E0,3.4578476E0,4.5734835E0,2.0211472E1,5.216918E0,7.214367E0,3.8106346E-1,2.5571282E0,7.497077E-1,4.5260696E0,1.6686127E-1,0E0,5.7095516E-1,2.8798575E0,0E0,0E0,6.864065E0,9.022622E0,3.7416143E0,2.3221042E0,9.195229E0,3.5433562E0,6.0770264E0,4.968693E0,4.034336E0,4.5685043E0,5.8818197E0,4.4278946E0,3.0810223E0,6.611028E0,9.945293E0,5.333222E0,6.943633E0,8.226204E-2,0E0,6.991825E-1,5.334892E-1,0E0,9.918313E-1,0E0,0E0,0E0,0E0,0E0,0E0,0E0,0E0,0E0,0E0,0E0,0E0,0E0,0E0,0E0,0E0,0E0,0E0,0E0,0E0,0E0,0E0,0E0,0E0,0E0,0E0,0E0,0E0,0E0,0E0,0E0,0E0,0E0,0E0,0E0,0E0,0E0,0E0,0E0,0E0,0E0,0E0,0E0,0E0,0E0,0E0,0E0,0E0,0E0,0E0,0E0,0E0,0E0],"parents":[2147483647,0,0,1,1,2,2,3,3,4,4,5,5,6,6,7,7,8,8,9,9,10,10,11,11,12,12,13,13,14,14,15,15,16,16,17,17,18,18,19,19,20,20,21,21,22,22,23,23,24,24,25,25,26,26,27,27,28,28,29,29,30,30,31,31,32,32,33,33,35,35,36,36,39,39,40,40,41,41,42,42,43,43,44,44,45,45,46,46,47,47,48,48,49,49,50,50,51,51,52,52,53,53,54,54,55,55,56,56,58,58,59,59,61,61],"right_children":[2,4,6,8,10,12,14,16,18,20,22,24,26,28,30,32,34,36,38,40,42,44,46,48,50,52,54,56,58,60,62,64,66,68,-1,70,72,-1,-1,74,76,78,80,82,84,86,88,90,92,94,96,98,100,102,104,106,108,-1,110,112,-1,114,-1,-1,-1,-1,-1,-1,-1,-1,-1,-1,-1,-1,-1,-1,-1,-1,-1,-1,-1,-1,-1,-1,-1,-1,-1,-1,-1,-1,-1,-1,-1,-1,-1,-1,-1,-1,-1,-1,-1,-1,-1,-1,-1,-1,-1,-1,-1,-1,-1,-1,-1,-1,-1],"split_conditions":[1E2,1.6E1,1.56E2,1.33E2,3E0,1.3E1,1.29E2,1E0,1E0,2E0,3E0,2E0,1.42E2,3E0,2E0,1.03E2,3E0,2E0,1E0,3E0,2E0,1.15E2,3E0,1.13E2,2E0,3E0,1.6E1,1E0,2E0,1E0,3E0,2E0,1.5E1,1.09E2,-6.2521905E-2,1.34E2,2E0,-1.4603138E-5,3.7478097E-2,8.2E1,3E0,2E0,1.32E2,2E0,9.7E1,3E0,9.8E1,1E0,1.67E2,3E0,3E0,1.16E2,1.22E2,9.4E1,1.08E2,1E0,1.6E2,2.4985397E-2,2E0,3E0,-1.4603138E-5,3E0,3.3313863E-2,-1.4603138E-5,-5.0019473E-2,2.0939007E-2,-2.855725E-5,-1.4603138E-5,2.4985397E-2,-2.0023366E-2,-2.1562444E-3,1.24780955E-2,-3.84885E-2,-6.877556E-2,-2.026707E-2,1.0947116E-2,-3.238043E-2,-2.4387432E-2,-4.2659994E-3,-7.287035E-3,2.6983318E-3,-6.925773E-2,-1.5245328E-2,-2.8066596E-3,-3.079619E-2,-1.5245962E-2,-5.359855E-2,-5.2028038E-2,1.24780955E-2,1.071873E-2,-2.8596465E-2,-8.600427E-3,2.1401452E-2,-2.9132601E-3,2.7055344E-2,1.4377738E-2,2.8542569E-2,7.4021816E-3,3.1933372E-3,-3.202398E-3,4.524929E-3,3.179163E-2,-1.7041532E-2,9.038302E-3,-2.0290895E-3,-2.7380884E-5,-5.5581518E-2,-3.3352803E-2,-8.75219E-2,-2.5014604E-2,-1.1002337E-1,3.9976638E-2,-1.4603138E-5,-2.780374E-2,-2.4338564E-5],"split_indices":[11,1,0,0,4,1,11,23,24,16,10,6,11,15,7,0,14,4,3,2,5,0,2,0,14,16,1,18,8,3,2,2,1,0,0,0,9,0,0,11,14,15,0,16,11,6,11,20,11,2,16,11,11,0,0,19,0,0,5,14,0,8,0,0,0,0,0,0,0,0,0,0,0,0,0,0,0,0,0,0,0,0,0,0,0,0,0,0,0,0,0,0,0,0,0,0,0,0,0,0,0,0,0,0,0,0,0,0,0,0,0,0,0,0,0],"split_type":[0,0,0,0,0,0,0,0,0,0,0,0,0,0,0,0,0,0,0,0,0,0,0,0,0,0,0,0,0,0,0,0,0,0,0,0,0,0,0,0,0,0,0,0,0,0,0,0,0,0,0,0,0,0,0,0,0,0,0,0,0,0,0,0,0,0,0,0,0,0,0,0,0,0,0,0,0,0,0,0,0,0,0,0,0,0,0,0,0,0,0,0,0,0,0,0,0,0,0,0,0,0,0,0,0,0,0,0,0,0,0,0,0,0,0],"sum_hessian":[5.46E3,9.18E2,4.542E3,1.82E2,7.36E2,4.487E3,5.5E1,1.13E2,6.9E1,5.16E2,2.2E2,5.97E2,3.89E3,3.4E1,2.1E1,1.08E2,5E0,6.5E1,4E0,1.88E2,3.28E2,1.35E2,8.5E1,2.64E2,3.33E2,3.199E3,6.91E2,2.8E1,6E0,6E0,1.5E1,3E0,1.05E2,2E0,3E0,5E1,1.5E1,1E0,3E0,1.32E2,5.6E1,9.6E1,2.32E2,3.4E1,1.01E2,5.8E1,2.7E1,1.12E2,1.52E2,7.4E1,2.59E2,2.091E3,1.108E3,2.5E2,4.41E2,2.3E1,5E0,1E0,5E0,5E0,1E0,1.3E1,2E0,1E0,2E0,6.1E1,4.4E1,1E0,1E0,4E0,4.6E1,3E0,1.2E1,7E0,1.25E2,4E1,1.6E1,3.8E1,5.8E1,1.23E2,1.09E2,1.2E1,2.2E1,8.9E1,1.2E1,4.5E1,1.3E1,2.4E1,3E0,1.06E2,6E0,1.39E2,1.3E1,5.1E1,2.3E1,1.76E2,8.3E1,6.18E2,1.473E3,5.82E2,5.26E2,1E1,2.4E2,1.92E2,2.49E2,1.5E1,8E0,2E0,3E0,1E0,4E0,4E0,1E0,8E0,5E0],"tree_param":{"num_deleted":"0","num_feature":"25","num_nodes":"115","size_leaf_vector":"1"}},{"base_weights":[5.5459645E-3,-2.3862079E-1,4.155096E-2,-3.5031536E-1,-1.8333167E-1,1.823812E-1,2.1340504E-2,9.5451355E-2,-3.905267E-1,-2.387566E-1,-5.8792286E-2,-2.6694752E-2,3.5174388E-1,3.6889594E-2,-8.805248E-2,2.5510997E-1,-7.3451556E-2,-4.769877E-1,-1.4552845E-1,-6.2952556E-2,-3.2516703E-1,-2.9726508E-1,6.719643E-2,-2.6673135E-1,1.2861362E-1,1.6731624E-1,4.1279298E-1,1.975521E-2,1.12832E-1,-3.6091745E-1,7.145549E-2,-1.7690413E-1,4.220367E-1,-3.794681E-1,-6.9053286E-1,2.6266402E-1,-3.565369E-1,-2.7816105E-1,2.1633658E-1,-1.0787426E0,-2.8773406E-1,-2.0090161E-1,-9.8650765E-1,-9.75751E-2,2.1772712E-1,-1.13725975E-1,-7.8476113E-1,5.074931E-2,3.9450604E-1,-7.648743E-2,4.3741247E-1,5.87115E-1,2.828166E-1,-1.0908216E-1,2.9494438E-2,5.670405E-3,2.405697E-1,1.3704503E-1,-5.2327114E-1,1.0105308E-1,-4.4553915E-1,1.6719071E-2,-2.5807112E-2,-1.00569725E-2,3.457106E-2,-6.2059797E-2,-1.7185379E-2,-2.481923E-2,-5.632899E-2,2.1819087E-2,-6.114743E-3,-4.8737726E-3,-4.917768E-2,-3.0250618E-2,-2.0481925E-3,1.6587852E-2,-7.878557E-3,-7.6995105E-2,-1.013875E-4,-8.848238E-3,-3.0626157E-2,-1.3099253E-2,2.5298554E-2,4.9207214E-4,-5.9387293E-2,-3.0098343E-2,4.6279137E-3,1.637776E-2,-1.6559947E-2,1.8160334E-2,-1.0374392E-2,-6.218461E-2,5.9155966E-3,4.7494913E-3,-2.4039386E-2,-4.6965233E-3,3.163564E-2,1.517562E-2,-1.7053092E-2,2.6422193E-2,-2.5699053E-2,3.476179E-2,1.8028567E-2,-6.661483E-3,1.8567042E-2,7.3507574E-4,-1.7581314E-2,4.9320622E-3,-1.08624925E-4,9.841357E-3,-3.533424E-3,1.9644005E-2,7.855962E-3,2.541528E-2,-7.687392E-4,-4.4434823E-2,-1.8533204E-2,-6.201899E-3,9.092112E-3,4.843675E-3,-4.9935777E-2],"categories":[],"categories_nodes":[],"categories_segments":[],"categories_sizes":[],"default_left":[0,0,0,0,0,0,0,0,0,0,0,0,0,0,0,0,0,0,0,0,0,0,0,0,0,0,0,0,0,0,0,0,0,0,0,0,0,0,0,0,0,0,0,0,0,0,0,0,0,0,0,0,0,0,0,0,0,0,0,0,0,0,0,0,0,0,0,0,0,0,0,0,0,0,0,0,0,0,0,0,0,0,0,0,0,0,0,0,0,0,0,0,0,0,0,0,0,0,0,0,0,0,0,0,0,0,0,0,0,0,0,0,0,0,0,0,0,0,0,0,0],"id":1,"left_children":[1,3,5,7,9,11,13,15,17,19,21,23,25,27,29,31,-1,33,35,37,39,41,43,45,47,49,51,53,55,57,59,61,63,65,67,69,71,73,75,77,79,81,83,85,87,89,91,93,95,97,99,101,103,105,107,109,111,113,115,117,119,-1,-1,-1,-1,-1,-1,-1,-1,-1,-1,-1,-1,-1,-1,-1,-1,-1,-1,-1,-1,-1,-1,-1,-1,-1,-1,-1,-1,-1,-1,-1,-1,-1,-1,-1,-1,-1,-1,-1,-1,-1,-1,-1,-1,-1,-1,-1,-1,-1,-1,-1,-1,-1,-1,-1,-1,-1,-1,-1,-1],"loss_changes":[4.8159443E1,4.283325E0,1.3584073E1,4.1958504E0,3.2508879E0,2.1219778E1,7.1064615E0,5.3704267E0,4.44252E0,4.9470863E0,4.4365726E0,1.0062543E1,3.657711E0,4.756356E0,2.2658342E1,1.4448395E0,0E0,3.0074654E0,5.0031767E0,6.611664E0,5.867285E0,3.1891174E0,2.4271526E0,8.312454E0,3.3753574E0,5.5648947E0,5.453079E0,3.7487252E0,9.211047E0,1.5594149E1,5.0793133E0,1.2132736E0,2.489307E0,2.9631348E0,3.5043545E0,1.3908507E0,6.0766907E0,4.7819653E0,2.1237915E0,4.9622517E0,7.446703E0,2.1187558E0,1.2147102E0,4.5630975E0,3.183148E0,3.7869625E0,1.0093902E1,3.0556505E0,4.3643394E0,4.627737E0,3.735877E0,2.3211937E0,5.3530197E0,6.3100004E0,6.078732E0,5.369428E0,3.840355E0,2.7240138E0,7.7567368E0,5.6962495E0,5.4976463E0,0E0,0E0,0E0,0E0,0E0,0E0,0E0,0E0,0E0,0E0,0E0,0E0,0E0,0E0,0E0,0E0,0E0,0E0,0E0,0E0,0E0,0E0,0E0,0E0,0E0,0E0,0E0,0E0,0E0,0E0,0E0,0E0,0E0,0E0,0E0,0E0,0E0,0E0,0E0,0E0,0E0,0E0,0E0,0E0,0E0,0E0,0E0,0E0,0E0,0E0,0E0,0E0,0E0,0E0,0E0,0E0,0E0,0E0,0E0,0E0],"parents":[2147483647,0,0,1,1,2,2,3,3,4,4,5,5,6,6,7,7,8,8,9,9,10,10,11,11,12,12,13,13,14,14,15,15,17,17,18,18,19,19,20,20,21,21,22,22,23,23,24,24,25,25,26,26,27,27,28,28,29,29,30,30,31,31,32,32,33,33,34,34,35,35,36,36,37,37,38,38,39,39,40,40,41,41,42,42,43,43,44,44,45,45,46,46,47,47,48,48,49,49,50,50,51,51,52,52,53,53,54,54,55,55,56,56,57,57,58,58,59,59,60,60],"right_children":[2,4,6,8,10,12,14,16,18,20,22,24,26,28,30,32,-1,34,36,38,40,42,44,46,48,50,52,54,56,58,60,62,64,66,68,70,72,74,76,78,80,82,84,86,88,90,92,94,96,98,100,102,104,106,108,110,112,114,116,118,120,-1,-1,-1,-1,-1,-1,-1,-1,-1,-1,-1,-1,-1,-1,-1,-1,-1,-1,-1,-1,-1,-1,-1,-1,-1,-1,-1,-1,-1,-1,-1,-1,-1,-1,-1,-1,-1,-1,-1,-1,-1,-1,-1,-1,-1,-1,-1,-1,-1,-1,-1,-1,-1,-1,-1,-1,-1,-1,-1,-1],"split_conditions":[9.6E1,2E0,1.3E1,1.6E1,3E0,2E0,1.46E2,1E0,3E0,2E0,2E0,1.47E2,2E0,3E0,1.6E1,2E0,-7.3451556E-2,3E0,8.5E1,3E0,8.2E1,1E0,9E1,3E0,1.65E2,1.29E2,1.27E2,1E2,1E0,2E0,3E0,2E0,2E0,8.2E1,2.1E1,3E0,1E0,2E0,3E0,3E0,9.2E1,1E0,8.4E1,2E0,1E0,2E0,3E0,1E0,2E0,2E0,1.44E2,1E0,2E0,1.8E1,1.18E2,2E0,2E0,2E0,1.5E1,2E0,3E0,1.6719071E-2,-2.5807112E-2,-1.00569725E-2,3.457106E-2,-6.2059797E-2,-1.7185379E-2,-2.481923E-2,-5.632899E-2,2.1819087E-2,-6.114743E-3,-4.8737726E-3,-4.917768E-2,-3.0250618E-2,-2.0481925E-3,1.6587852E-2,-7.878557E-3,-7.6995105E-2,-1.013875E-4,-8.848238E-3,-3.0626157E-2,-1.3099253E-2,2.5298554E-2,4.9207214E-4,-5.9387293E-2,-3.0098343E-2,4.6279137E-3,1.637776E-2,-1.6559947E-2,1.8160334E-2,-1.0374392E-2,-6.218461E-2,5.9155966E-3,4.7494913E-3,-2.4039386E-2,-4.6965233E-3,3.163564E-2,1.517562E-2,-1.7053092E-2,2.6422193E-2,-2.5699053E-2,3.476179E-2,1.8028567E-2,-6.661483E-3,1.8567042E-2,7.3507574E-4,-1.7581314E-2,4.9320622E-3,-1.08624925E-4,9.841357E-3,-3.533424E-3,1.9644005E-2,7.855962E-3,2.541528E-2,-7.687392E-4,-4.4434823E-2,-1.8533204E-2,-6.201899E-3,9.092112E-3,4.843675E-3,-4.9935777E-2],"split_indices":[11,7,1,1,17,6,11,23,13,8,16,11,2,6,1,17,0,4,11,7,11,23,11,7,11,11,11,11,3,7,6,5,5,11,1,17,19,13,15,15,11,22,11,5,24,5,16,20,4,7,11,22,15,1,11,15,16,15,1,6,4,0,0,0,0,0,0,0,0,0,0,0,0,0,0,0,0,0,0,0,0,0,0,0,0,0,0,0,0,0,0,0,0,0,0,0,0,0,0,0,0,0,0,0,0,0,0,0,0,0,0,0,0,0,0,0,0,0,0,0,0],"split_type":[0,0,0,0,0,0,0,0,0,0,0,0,0,0,0,0,0,0,0,0,0,0,0,0,0,0,0,0,0,0,0,0,0,0,0,0,0,0,0,0,0,0,0,0,0,0,0,0,0,0,0,0,0,0,0,0,0,0,0,0,0,0,0,0,0,0,0,0,0,0,0,0,0,0,0,0,0,0,0,0,0,0,0,0,0,0,0,0,0,0,0,0,0,0,0,0,0,0,0,0,0,0,0,0,0,0,0,0,0,0,0,0,0,0,0,0,0,0,0,0,0],"sum_hessian":[5.476E3,7.03E2,4.773E3,2.31E2,4.72E2,5.98E2,4.175E3,1.9E1,2.12E2,3.26E2,1.46E2,2.68E2,3.3E2,3.656E3,5.19E2,1.8E1,1E0,1.56E2,5.6E1,1.08E2,2.18E2,5E1,9.6E1,1.05E2,1.63E2,8.3E1,2.47E2,2.984E3,6.72E2,1.91E2,3.28E2,5E0,1.3E1,1.09E2,4.7E1,1.9E1,3.7E1,6.1E1,4.7E1,9E0,2.09E2,4.5E1,5E0,4.6E1,5E1,8.2E1,2.3E1,1.27E2,3.6E1,4.4E1,3.9E1,1.04E2,1.43E2,2.09E2,2.775E3,3.66E2,3.06E2,4.7E1,1.44E2,3.11E2,1.7E1,2E0,3E0,4E0,9E0,3E0,1.06E2,3.4E1,1.3E1,1.3E1,6E0,2.7E1,1E1,2.5E1,3.6E1,3.6E1,1.1E1,6E0,3E0,1.57E2,5.2E1,4.2E1,3E0,1E0,4E0,1.2E1,3.4E1,4.2E1,8E0,1.3E1,6.9E1,1.5E1,8E0,1.18E2,9E0,1.2E1,2.4E1,1.8E1,2.6E1,3.6E1,3E0,6.9E1,3.5E1,2.5E1,1.18E2,1.39E2,7E1,8.71E2,1.904E3,1.04E2,2.62E2,1.07E2,1.99E2,1.3E1,3.4E1,4.1E1,1.03E2,8.2E1,2.29E2,9E0,8E0],"tree_param":{"num_deleted":"0","num_feature":"25","num_nodes":"121","size_leaf_vector":"1"}},{"base_weights":[-2.5400883E-3,-2.0818655E-1,3.900521E-2,2.8159358E-2,-2.825069E-1,4.0964518E-2,-1.751766E0,-2.1570358E-2,3.2254958E-1,-3.1580573E-1,9.152143E-2,1.8760344E-1,1.9026855E-2,-1.1205673E-5,-1.0947976E-1,-6.522816E-2,3.1478137E-1,-3.06611E-1,7.1537644E-1,-4.7640738E-1,-2.5661233E-1,-1.8477516E-1,2.2047427E-1,4.085823E-2,3.122092E-1,4.2000443E-2,-8.197018E-2,-2.8275574E-2,-4.7232634E-1,3.5851162E-2,1.1912674E-1,-1.1415238E0,3.5790002E-1,4.6998757E-1,8.11356E-1,-8.1066394E-1,-3.366575E-1,-3.4400183E-1,-3.361493E-2,-6.0511655E-1,3.4950602E-1,4.002275E-1,-1.0579627E-1,-1.4169574E-1,2.1276475E-1,4.429047E-1,2.2615871E-1,4.82504E-2,-1.5185463E-1,-2.5007954E-1,7.875652E-2,-2.8329028E-2,-5.191075E-4,-7.8846095E-3,-6.0974438E-2,-2.5402302E-2,1.514697E-2,-8.558475E-2,-3.9382776E-5,2.4441155E-2,-1.1623065E-3,3.155524E-2,-4.4546925E-4,4.367447E-2,1.5654087E-2,-5.1184453E-2,-6.280811E-3,-7.656641E-4,-2.2715678E-2,1.00803245E-2,-2.007649E-2,5.796687E-3,-7.640283E-3,-9.8403074E-2,-4.17832E-3,7.607252E-4,2.57058E-2,4.773772E-3,3.2731194E-2,1.37442E-2,-2.36626E-2,-1.594699E-2,2.153314E-3,2.2367446E-2,6.4037717E-3,3.459683E-2,1.429939E-2,-1.5458636E-2,1.3304772E-2,4.6039247E-3,1.1695885E-3,-1.5830338E-2,6.4809406E-3,3.0099286E-3,-1.9015772E-2,-3.786916E-3,7.2712204E-3],"categories":[],"categories_nodes":[],"categories_segments":[],"categories_sizes":[],"default_left":[0,0,0,0,0,0,0,0,0,0,0,0,0,0,0,0,0,0,0,0,0,0,0,0,0,0,0,0,0,0,0,0,0,0,0,0,0,0,0,0,0,0,0,0,0,0,0,0,0,0,0,0,0,0,0,0,0,0,0,0,0,0,0,0,0,0,0,0,0,0,0,0,0,0,0,0,0,0,0,0,0,0,0,0,0,0,0,0,0,0,0,0,0,0,0,0,0],"id":2,"left_children":[1,3,5,7,9,11,13,15,17,19,21,23,25,-1,-1,27,29,31,33,35,37,39,41,43,45,47,49,51,53,-1,55,57,59,61,63,65,67,69,71,73,75,77,79,81,83,85,87,89,91,93,95,-1,-1,-1,-1,-1,-1,-1,-1,-1,-1,-1,-1,-1,-1,-1,-1,-1,-1,-1,-1,-1,-1,-1,-1,-1,-1,-1,-1,-1,-1,-1,-1,-1,-1,-1,-1,-1,-1,-1,-1,-1,-1,-1,-1,-1,-1],"loss_changes":[4.6767483E1,1.6168049E1,1.6050251E1,3.2423844E0,8.747189E0,1.4633393E1,3.8338919E0,2.810564E0,8.12818E0,5.9904633E0,2.1072335E0,1.0812143E1,9.189369E0,0E0,0E0,2.5289674E0,1.645994E0,7.621066E0,8.971977E-2,7.7616043E0,9.186602E0,4.478521E0,2.3882701E0,8.597493E0,3.498684E0,3.9159026E0,1.9852127E1,1.4967281E0,3.098856E0,0E0,1.9984236E0,3.9011416E0,4.105699E-1,6.228912E-1,1.2899971E-1,7.168026E0,4.6434383E0,1.0721386E1,2.4062407E0,7.6548214E0,4.8742747E-1,1.9532228E0,2.2283366E0,4.369216E0,2.7439208E0,4.725857E0,4.2512493E0,3.4036422E0,4.724746E0,1.4529846E1,3.8837557E0,0E0,0E0,0E0,0E0,0E0,0E0,0E0,0E0,0E0,0E0,0E0,0E0,0E0,0E0,0E0,0E0,0E0,0E0,0E0,0E0,0E0,0E0,0E0,0E0,0E0,0E0,0E0,0E0,0E0,0E0,0E0,0E0,0E0,0E0,0E0,0E0,0E0,0E0,0E0,0E0,0E0,0E0,0E0,0E0,0E0,0E0],"parents":[2147483647,0,0,1,1,2,2,3,3,4,4,5,5,6,6,7,7,8,8,9,9,10,10,11,11,12,12,15,15,16,16,17,17,18,18,19,19,20,20,21,21,22,22,23,23,24,24,25,25,26,26,27,27,28,28,30,30,31,31,32,32,33,33,34,34,35,35,36,36,37,37,38,38,39,39,40,40,41,41,42,42,43,43,44,44,45,45,46,46,47,47,48,48,49,49,50,50],"right_children":[2,4,6,8,10,12,14,16,18,20,22,24,26,-1,-1,28,30,32,34,36,38,40,42,44,46,48,50,52,54,-1,56,58,60,62,64,66,68,70,72,74,76,78,80,82,84,86,88,90,92,94,96,-1,-1,-1,-1,-1,-1,-1,-1,-1,-1,-1,-1,-1,-1,-1,-1,-1,-1,-1,-1,-1,-1,-1,-1,-1,-1,-1,-1,-1,-1,-1,-1,-1,-1,-1,-1,-1,-1,-1,-1,-1,-1,-1,-1,-1,-1],"split_conditions":[1E2,1.7E1,1.121E3,2E0,1.52E2,1.3E1,2E0,1E0,9.6E1,1.14E2,2E0,2E0,1.42E2,-1.1205673E-5,-1.0947976E-1,1.4E2,2E0,1E0,2E0,2E0,3E0,3E0,3E0,1.52E2,1.26E2,1.49E2,1.7E1,1.03E2,3E0,3.5851162E-2,1.16E2,3E0,3E0,1E0,1E0,3E0,1.02E2,1.19E2,2E0,2E0,2E0,2E0,2.1E1,3E0,2E0,1.19E2,1E1,2E0,1.29E2,2E0,2E0,-2.8329028E-2,-5.191075E-4,-7.8846095E-3,-6.0974438E-2,-2.5402302E-2,1.514697E-2,-8.558475E-2,-3.9382776E-5,2.4441155E-2,-1.1623065E-3,3.155524E-2,-4.4546925E-4,4.367447E-2,1.5654087E-2,-5.1184453E-2,-6.280811E-3,-7.656641E-4,-2.2715678E-2,1.00803245E-2,-2.007649E-2,5.796687E-3,-7.640283E-3,-9.8403074E-2,-4.17832E-3,7.607252E-4,2.57058E-2,4.773772E-3,3.2731194E-2,1.37442E-2,-2.36626E-2,-1.594699E-2,2.153314E-3,2.2367446E-2,6.4037717E-3,3.459683E-2,1.429939E-2,-1.5458636E-2,1.3304772E-2,4.6039247E-3,1.1695885E-3,-1.5830338E-2,6.4809406E-3,3.0099286E-3,-1.9015772E-2,-3.786916E-3,7.2712204E-3],"split_indices":[11,1,0,6,0,1,5,24,11,0,15,6,11,0,0,0,15,3,10,16,13,5,10,11,11,0,1,0,7,0,0,16,16,3,21,6,0,0,6,16,9,10,1,16,7,0,1,9,11,7,16,0,0,0,0,0,0,0,0,0,0,0,0,0,0,0,0,0,0,0,0,0,0,0,0,0,0,0,0,0,0,0,0,0,0,0,0,0,0,0,0,0,0,0,0,0,0],"split_type":[0,0,0,0,0,0,0,0,0,0,0,0,0,0,0,0,0,0,0,0,0,0,0,0,0,0,0,0,0,0,0,0,0,0,0,0,0,0,0,0,0,0,0,0,0,0,0,0,0,0,0,0,0,0,0,0,0,0,0,0,0,0,0,0,0,0,0,0,0,0,0,0,0,0,0,0,0,0,0,0,0,0,0,0,0,0,0,0,0,0,0,0,0,0,0,0,0],"sum_hessian":[5.472E3,9.19E2,4.553E3,2.2E2,6.99E2,4.549E3,4E0,1.89E2,3.1E1,6.42E2,5.7E1,5.91E2,3.958E3,1E0,3E0,1.68E2,2.1E1,1.2E1,1.9E1,1.71E2,4.71E2,1.8E1,3.9E1,2.72E2,3.19E2,3.225E3,7.33E2,1.55E2,1.3E1,6E0,1.5E1,5E0,7E0,7E0,1.2E1,4.9E1,1.22E2,3.38E2,1.33E2,1E1,8E0,2.5E1,1.4E1,1.32E2,1.4E2,1.25E2,1.94E2,3.125E3,1E2,3.58E2,3.75E2,4E0,1.51E2,1E1,3E0,3E0,1.2E1,3E0,2E0,5E0,2E0,5E0,2E0,1E1,2E0,3.7E1,1.2E1,3.3E1,8.9E1,3.2E1,3.06E2,5.9E1,7.4E1,2E0,8E0,3E0,5E0,1.2E1,1.3E1,7E0,7E0,6.7E1,6.5E1,3.6E1,1.04E2,4.7E1,7.8E1,1.3E1,1.81E2,1.13E3,1.995E3,6.3E1,3.7E1,1.06E2,2.52E2,1.13E2,2.62E2],"tree_param":{"num_deleted":"0","num_feature":"25","num_nodes":"97","size_leaf_vector":"1"}},{"base_weights":[-1.8027818E-2,-2.1523069E-1,2.1891369E-2,3.9240055E-2,-2.9564568E-1,4.6155345E-2,-7.248906E-2,6.300903E-2,-4.733401E-1,-3.3461282E-1,-2.9904025E-2,5.9118293E-2,-1.7802945E-1,-1.6210417E-1,5.9991684E-2,3.753109E-3,4.1268906E-1,1.7891912E-1,-9.379994E-1,-2.3334633E-1,-4.1962045E-1,-3.2039273E-1,1.4089805E-1,1.773985E-1,4.3706503E-2,-2.7768022E-1,2.1276326E-1,-2.8639355E-1,5.8358293E-2,1.0450361E-1,-1.0241638E0,7.929991E-2,-1.2935549E-1,1.1542639E-3,6.389755E-1,2.2889508E-2,-5.2461624E-3,7.601023E-4,-5.6584008E-2,-3.2707438E-1,-2.9758986E-2,-5.6999725E-1,-2.7979562E-1,-8.658551E-1,-2.1873536E-2,2.994803E-1,-8.040974E-2,-9.674693E-2,2.5950992E-1,1.0787412E-2,7.911074E-2,-2.3487213E-1,-1.1736739E0,4.9021605E-1,-1.03072956E-1,-1.0587088E-3,-3.7555683E-1,-5.4924533E-2,3.150441E-1,1.6601531E-1,-7.916159E-2,-1.5546443E0,3.0664245E-2,1.7026989E-2,-2.211804E-3,-3.782505E-3,-4.781514E-2,-4.768781E-2,2.1271532E-2,3.557403E-2,-4.523357E-4,-1.963377E-5,-3.3665498E-4,-4.7533885E-2,-1.307192E-2,1.6561402E-2,-7.5709955E-3,-2.6247913E-2,-8.154991E-2,-6.4421825E-2,-1.2116513E-2,-5.1938992E-2,2.5907934E-2,-2.088408E-2,1.5736178E-2,5.9377225E-3,2.6024137E-2,1.4483255E-2,-2.8887365E-2,-1.0548408E-2,1.1783513E-2,2.0668013E-2,9.343201E-3,1.0148911E-3,-2.1084704E-2,3.5835502E-3,1.7474566E-2,-6.887842E-3,-2.7333517E-2,2.6778192E-3,-1.0537428E-1,1.7100755E-2,4.1420802E-2,1.09078465E-2,-1.6770298E-2,1.4124842E-2,-1.3907288E-2,-5.250817E-2,-1.6882079E-2,5.1325066E-3,-1.7643696E-2,2.0146485E-2,-2.1652346E-2,4.308195E-3,1.4268412E-2,2.0706413E-2,-1.0237367E-2,-1.1966902E-2,-1.0420781E-1,1.19890375E-2,-2.5372958E-2],"categories":[],"categories_nodes":[],"categories_segments":[],"categories_sizes":[],"default_left":[0,0,0,0,0,0,0,0,0,0,0,0,0,0,0,0,0,0,0,0,0,0,0,0,0,0,0,0,0,0,0,0,0,0,0,0,0,0,0,0,0,0,0,0,0,0,0,0,0,0,0,0,0,0,0,0,0,0,0,0,0,0,0,0,0,0,0,0,0,0,0,0,0,0,0,0,0,0,0,0,0,0,0,0,0,0,0,0,0,0,0,0,0,0,0,0,0,0,0,0,0,0,0,0,0,0,0,0,0,0,0,0,0,0,0,0,0,0,0,0,0],"id":3,"left_children":[1,3,5,7,9,11,13,15,17,19,21,23,25,27,29,31,33,35,37,39,41,43,45,47,49,51,53,55,57,59,61,63,65,67,69,-1,71,-1,-1,73,75,77,79,81,83,85,87,89,91,93,95,97,99,101,103,105,107,109,111,113,115,117,119,-1,-1,-1,-1,-1,-1,-1,-1,-1,-1,-1,-1,-1,-1,-1,-1,-1,-1,-1,-1,-1,-1,-1,-1,-1,-1,-1,-1,-1,-1,-1,-1,-1,-1,-1,-1,-1,-1,-1,-1,-1,-1,-1,-1,-1,-1,-1,-1,-1,-1,-1,-1,-1,-1,-1,-1,-1,-1],"loss_changes":[4.3254463E1,1.8940125E1,1.0468847E1,2.7467465E0,7.269684E0,1.057709E1,1.1110304E1,4.432662E0,3.198609E0,5.1790543E0,4.560205E0,6.259411E0,7.808695E0,1.5306554E1,1.83485E1,1.8605486E0,2.886129E0,2.5919345E-1,1.1249046E0,5.3713465E0,6.8212852E0,5.5173144E0,2.0596194E0,8.939251E0,3.5456886E0,5.8229027E0,3.6433425E0,9.082174E0,5.8910785E0,4.1254535E0,8.44116E0,3.8232226E0,2.9032278E0,5.267508E0,9.4613457E-1,0E0,2.6223395E-5,0E0,0E0,7.651106E0,4.0027757E0,6.7418327E0,6.26307E0,3.4102154E0,3.1956947E0,1.2961795E0,4.768656E0,3.5428765E0,3.3316193E0,6.4989934E0,2.9239006E0,4.5575905E0,8.134883E0,8.1934357E-1,1.565817E0,6.835559E0,6.6026E0,6.6560693E0,4.2507663E0,2.5772386E0,5.7842073E0,6.4658813E0,7.9686195E-1,0E0,0E0,0E0,0E0,0E0,0E0,0E0,0E0,0E0,0E0,0E0,0E0,0E0,0E0,0E0,0E0,0E0,0E0,0E0,0E0,0E0,0E0,0E0,0E0,0E0,0E0,0E0,0E0,0E0,0E0,0E0,0E0,0E0,0E0,0E0,0E0,0E0,0E0,0E0,0E0,0E0,0E0,0E0,0E0,0E0,0E0,0E0,0E0,0E0,0E0,0E0,0E0,0E0,0E0,0E0,0E0,0E0,0E0],"parents":[2147483647,0,0,1,1,2,2,3,3,4,4,5,5,6,6,7,7,8,8,9,9,10,10,11,11,12,12,13,13,14,14,15,15,16,16,17,17,18,18,19,19,20,20,21,21,22,22,23,23,24,24,25,25,26,26,27,27,28,28,29,29,30,30,31,31,32,32,33,33,34,34,36,36,39,39,40,40,41,41,42,42,43,43,44,44,45,45,46,46,47,47,48,48,49,49,50,50,51,51,52,52,53,53,54,54,55,55,56,56,57,57,58,58,59,59,60,60,61,61,62,62],"right_children":[2,4,6,8,10,12,14,16,18,20,22,24,26,28,30,32,34,36,38,40,42,44,46,48,50,52,54,56,58,60,62,64,66,68,70,-1,72,-1,-1,74,76,78,80,82,84,86,88,90,92,94,96,98,100,102,104,106,108,110,112,114,116,118,120,-1,-1,-1,-1,-1,-1,-1,-1,-1,-1,-1,-1,-1,-1,-1,-1,-1,-1,-1,-1,-1,-1,-1,-1,-1,-1,-1,-1,-1,-1,-1,-1,-1,-1,-1,-1,-1,-1,-1,-1,-1,-1,-1,-1,-1,-1,-1,-1,-1,-1,-1,-1,-1,-1,-1,-1,-1,-1],"split_conditions":[1E2,1.7E1,1.42E2,1E0,1.48E2,1.43E2,1.53E2,2E0,3E0,1E0,2E0,1.3E1,1.35E2,1.8E1,1.29E2,3E0,2E0,1.1E1,1.03E2,3E0,2E0,2E0,3E0,2E0,1E0,1.121E3,2E0,2E0,3E0,3E0,3E0,1E0,3E0,1.1E1,1E0,2.2889508E-2,1.09E2,7.601023E-4,-5.6584008E-2,1.06E2,2E0,1.44E2,9.1E1,3E0,2.1E1,2E0,2.1E1,1.25E2,1.2E2,2.3E1,2.3E1,3E0,2E0,3E0,2E0,1E0,1.43E2,3E0,1E0,1.6E1,1.55E2,2E0,3E0,1.7026989E-2,-2.211804E-3,-3.782505E-3,-4.781514E-2,-4.768781E-2,2.1271532E-2,3.557403E-2,-4.523357E-4,-1.963377E-5,-3.3665498E-4,-4.7533885E-2,-1.307192E-2,1.6561402E-2,-7.5709955E-3,-2.6247913E-2,-8.154991E-2,-6.4421825E-2,-1.2116513E-2,-5.1938992E-2,2.5907934E-2,-2.088408E-2,1.5736178E-2,5.9377225E-3,2.6024137E-2,1.4483255E-2,-2.8887365E-2,-1.0548408E-2,1.1783513E-2,2.0668013E-2,9.343201E-3,1.0148911E-3,-2.1084704E-2,3.5835502E-3,1.7474566E-2,-6.887842E-3,-2.7333517E-2,2.6778192E-3,-1.0537428E-1,1.7100755E-2,4.1420802E-2,1.09078465E-2,-1.6770298E-2,1.4124842E-2,-1.3907288E-2,-5.250817E-2,-1.6882079E-2,5.1325066E-3,-1.7643696E-2,2.0146485E-2,-2.1652346E-2,4.308195E-3,1.4268412E-2,2.0706413E-2,-1.0237367E-2,-1.1966902E-2,-1.0420781E-1,1.19890375E-2,-2.5372958E-2],"split_indices":[11,1,11,23,0,0,11,6,14,12,15,1,11,1,0,7,2,1,0,2,6,7,10,6,12,0,14,5,15,2,5,3,5,1,21,0,0,0,0,0,9,0,0,2,1,10,1,0,11,1,1,15,6,9,15,12,11,5,20,1,11,7,17,0,0,0,0,0,0,0,0,0,0,0,0,0,0,0,0,0,0,0,0,0,0,0,0,0,0,0,0,0,0,0,0,0,0,0,0,0,0,0,0,0,0,0,0,0,0,0,0,0,0,0,0,0,0,0,0,0,0],"split_type":[0,0,0,0,0,0,0,0,0,0,0,0,0,0,0,0,0,0,0,0,0,0,0,0,0,0,0,0,0,0,0,0,0,0,0,0,0,0,0,0,0,0,0,0,0,0,0,0,0,0,0,0,0,0,0,0,0,0,0,0,0,0,0,0,0,0,0,0,0,0,0,0,0,0,0,0,0,0,0,0,0,0,0,0,0,0,0,0,0,0,0,0,0,0,0,0,0,0,0,0,0,0,0,0,0,0,0,0,0,0,0,0,0,0,0,0,0,0,0,0,0],"sum_hessian":[5.493E3,9.24E2,4.569E3,2.22E2,7.02E2,3.635E3,9.34E2,2.13E2,9E0,6.12E2,9E1,3.437E3,1.98E2,5.57E2,3.77E2,1.83E2,3E1,4E0,5E0,2.81E2,3.31E2,3.3E1,5.7E1,3.95E2,3.042E3,1.58E2,4E1,3.56E2,2.01E2,3.63E2,1.4E1,1.17E2,6.6E1,1.1E1,1.9E1,1E0,3E0,1E0,4E0,1.92E2,8.9E1,1.58E2,1.73E2,1.1E1,2.2E1,3.3E1,2.4E1,9.1E1,3.04E2,1.577E3,1.465E3,1.52E2,6E0,2.1E1,1.9E1,8.5E1,2.71E2,1.4E2,6.1E1,2.72E2,9.1E1,9E0,5E0,3.7E1,8E1,6.3E1,3E0,3E0,8E0,1.7E1,2E0,1E0,2E0,1.7E1,1.75E2,2.2E1,6.7E1,1.53E2,5E0,5E0,1.68E2,1E1,1E0,1E1,1.2E1,1.9E1,1.4E1,1.4E1,1E1,6.8E1,2.3E1,9.6E1,2.08E2,1.544E3,3.3E1,1.427E3,3.8E1,1.17E2,3.5E1,3E0,3E0,1.6E1,5E0,8E0,1.1E1,4.2E1,4.3E1,1.3E1,2.58E2,9.2E1,4.8E1,5.5E1,6E0,1.64E2,1.08E2,1.8E1,7.3E1,3E0,6E0,4E0,1E0],"tree_param":{"num_deleted":"0","num_feature":"25","num_nodes":"121","size_leaf_vector":"1"}},{"base_weights":[-6.5284874E-3,3.6623876E-3,-1.4359063E-1,-2.2198983E-2,5.402267E-2,-7.431065E-2,-3.0601686E-1,3.2008387E-2,-5.378618E-2,-2.569373E-2,1.0190578E-1,8.809926E-2,-1.6901048E-1,-2.0579788E-1,-8.2351714E-1,2.0097764E-2,2.5073817E-1,-6.072029E-1,-5.1150355E-2,1.3696127E-1,-7.9085074E-2,1.3582854E-1,-2.213854E-2,-9.819923E-2,2.653645E-1,-5.152323E-1,-5.045497E-2,-3.541075E-1,1.490591E-1,-4.615802E-1,-1.3263353E0,3.711444E-2,-2.2035687E-1,3.922198E-1,9.699967E-2,3.3118002E-2,-1.0073886E0,-2.3007492E-2,-1.0158438E-1,-2.9780013E-2,2.5612557E-1,4.0379727E-1,-1.0156765E-1,1.692214E-1,3.6571346E-2,-3.2598966E-1,2.962684E-2,-2.8043634E-1,2.613316E-1,5.055727E-1,-2.5935194E-2,-7.139753E-1,-5.2552156E-2,1.2897936E-1,-1.6864583E-1,-2.273224E-1,-6.270398E-1,4.530968E-1,-3.1941903E-1,-8.156546E-1,1.972549E-1,1.8198729E-3,-9.393539E-2,3.334547E-3,-1.7480713E-3,-3.0143932E-2,5.2509247E-3,2.3739591E-2,-8.257091E-3,1.9152559E-3,2.4914263E-2,-6.1468285E-4,-6.685191E-2,-3.4441766E-3,9.921389E-4,-2.4097979E-3,-8.414785E-3,-1.30454125E-2,1.6542789E-2,9.8047E-3,4.3847673E-2,1.347104E-2,4.0339656E-2,-1.7452898E-2,-1.1014919E-3,7.429946E-3,1.6677568E-2,7.7072084E-3,-7.0790136E-3,-4.5289844E-2,-2.3330883E-3,4.042564E-3,-2.3130432E-2,8.2716014E-4,-2.9850556E-2,3.1366467E-2,-1.1441603E-2,1.4432207E-2,3.371672E-2,2.9677242E-2,-8.975423E-3,-2.1976858E-2,-6.527468E-2,2.0636832E-2,-2.2655541E-2,-3.1972644E-3,1.660894E-2,-1.1451873E-3,-2.1884514E-2,-1.8898608E-2,-7.815577E-4,-3.9668396E-2,1.3909841E-2,3.0809475E-2,1.2106597E-3,-4.0435594E-2,7.2803074E-3,-4.7134656E-2,1.8403828E-3,5.4821372E-5,2.454722E-2],"categories":[],"categories_nodes":[],"categories_segments":[],"categories_sizes":[],"default_left":[0,0,0,0,0,0,0,0,0,0,0,0,0,0,0,0,0,0,0,0,0,0,0,0,0,0,0,0,0,0,0,0,0,0,0,0,0,0,0,0,0,0,0,0,0,0,0,0,0,0,0,0,0,0,0,0,0,0,0,0,0,0,0,0,0,0,0,0,0,0,0,0,0,0,0,0,0,0,0,0,0,0,0,0,0,0,0,0,0,0,0,0,0,0,0,0,0,0,0,0,0,0,0,0,0,0,0,0,0,0,0,0,0,0,0,0,0,0,0,0,0],"id":4,"left_children":[1,3,5,7,9,11,13,15,17,19,21,23,25,27,29,31,33,35,37,39,41,43,45,47,49,51,53,55,57,59,61,63,65,67,69,-1,71,73,75,77,79,81,83,85,87,89,91,93,95,97,99,101,103,105,107,109,111,113,115,117,119,-1,-1,-1,-1,-1,-1,-1,-1,-1,-1,-1,-1,-1,-1,-1,-1,-1,-1,-1,-1,-1,-1,-1,-1,-1,-1,-1,-1,-1,-1,-1,-1,-1,-1,-1,-1,-1,-1,-1,-1,-1,-1,-1,-1,-1,-1,-1,-1,-1,-1,-1,-1,-1,-1,-1,-1,-1,-1,-1,-1],"loss_changes":[7.649311E0,6.640763E0,4.2421036E0,5.770323E0,6.606147E0,4.121401E0,5.691079E0,3.2280235E0,3.0745363E0,5.6556716E0,4.551774E0,3.295459E0,6.910864E0,5.105139E0,2.6635828E0,4.8282475E0,1.3540301E0,5.747864E0,3.0067015E0,3.2066343E0,5.360667E0,2.807806E0,3.6745079E0,3.28376E0,3.5817127E0,3.9165192E0,2.7151039E0,2.210515E0,4.275343E0,2.9602115E0,5.337535E0,2.34939E0,9.77144E0,1.5971494E0,7.3461795E-1,0E0,2.6078224E0,2.6787872E0,2.6951532E0,5.7543344E0,3.331347E0,9.7400236E-1,9.224499E0,2.1023788E0,4.525168E0,5.4642487E0,5.0802994E0,3.1124115E0,3.1933327E0,8.304167E-1,2.3897998E0,4.2962427E0,2.7962718E0,2.0205526E0,3.0092294E0,1.5248711E0,3.3826056E0,1.2441399E0,2.848155E0,9.010625E-1,2.875101E-1,0E0,0E0,0E0,0E0,0E0,0E0,0E0,0E0,0E0,0E0,0E0,0E0,0E0,0E0,0E0,0E0,0E0,0E0,0E0,0E0,0E0,0E0,0E0,0E0,0E0,0E0,0E0,0E0,0E0,0E0,0E0,0E0,0E0,0E0,0E0,0E0,0E0,0E0,0E0,0E0,0E0,0E0,0E0,0E0,0E0,0E0,0E0,0E0,0E0,0E0,0E0,0E0,0E0,0E0,0E0,0E0,0E0,0E0,0E0,0E0],"parents":[2147483647,0,0,1,1,2,2,3,3,4,4,5,5,6,6,7,7,8,8,9,9,10,10,11,11,12,12,13,13,14,14,15,15,16,16,17,17,18,18,19,19,20,20,21,21,22,22,23,23,24,24,25,25,26,26,27,27,28,28,29,29,30,30,31,31,32,32,33,33,34,34,36,36,37,37,38,38,39,39,40,40,41,41,42,42,43,43,44,44,45,45,46,46,47,47,48,48,49,49,50,50,51,51,52,52,53,53,54,54,55,55,56,56,57,57,58,58,59,59,60,60],"right_children":[2,4,6,8,10,12,14,16,18,20,22,24,26,28,30,32,34,36,38,40,42,44,46,48,50,52,54,56,58,60,62,64,66,68,70,-1,72,74,76,78,80,82,84,86,88,90,92,94,96,98,100,102,104,106,108,110,112,114,116,118,120,-1,-1,-1,-1,-1,-1,-1,-1,-1,-1,-1,-1,-1,-1,-1,-1,-1,-1,-1,-1,-1,-1,-1,-1,-1,-1,-1,-1,-1,-1,-1,-1,-1,-1,-1,-1,-1,-1,-1,-1,-1,-1,-1,-1,-1,-1,-1,-1,-1,-1,-1,-1,-1,-1,-1,-1,-1,-1,-1,-1],"split_conditions":[1.43E2,3E0,3E0,2E0,2E0,2E0,1.58E2,1.4E2,8E1,2E0,1.23E2,2E0,1.45E2,1.51E2,3E0,1.33E2,2E0,7.5E1,3E0,1.14E2,9.4E1,3E0,1.25E2,1E0,3E0,3E0,2E0,3E0,3E0,3E0,2E0,3E0,1.36E2,2E0,1E0,3.3118002E-2,2E0,2E0,3E0,3E0,1E0,1E0,1.12E2,1E0,3E0,2E0,1E0,2E0,3E0,2E0,1.45E2,2E0,1.44E2,2E0,1.54E2,3E0,1E0,3E0,3E0,1.68E2,1.68E2,1.8198729E-3,-9.393539E-2,3.334547E-3,-1.7480713E-3,-3.0143932E-2,5.2509247E-3,2.3739591E-2,-8.257091E-3,1.9152559E-3,2.4914263E-2,-6.1468285E-4,-6.685191E-2,-3.4441766E-3,9.921389E-4,-2.4097979E-3,-8.414785E-3,-1.30454125E-2,1.6542789E-2,9.8047E-3,4.3847673E-2,1.347104E-2,4.0339656E-2,-1.7452898E-2,-1.1014919E-3,7.429946E-3,1.6677568E-2,7.7072084E-3,-7.0790136E-3,-4.5289844E-2,-2.3330883E-3,4.042564E-3,-2.3130432E-2,8.2716014E-4,-2.9850556E-2,3.1366467E-2,-1.1441603E-2,1.4432207E-2,3.371672E-2,2.9677242E-2,-8.975423E-3,-2.1976858E-2,-6.527468E-2,2.0636832E-2,-2.2655541E-2,-3.1972644E-3,1.660894E-2,-1.1451873E-3,-2.1884514E-2,-1.8898608E-2,-7.815577E-4,-3.9668396E-2,1.3909841E-2,3.0809475E-2,1.2106597E-3,-4.0435594E-2,7.2803074E-3,-4.7134656E-2,1.8403828E-3,5.4821372E-5,2.454722E-2],"split_indices":[0,8,14,9,6,2,0,0,0,10,0,13,0,0,16,0,10,0,10,0,0,9,0,12,13,7,9,10,13,8,13,2,0,8,18,0,17,10,14,9,21,19,0,23,16,16,21,4,10,17,0,6,0,8,0,8,24,7,8,0,0,0,0,0,0,0,0,0,0,0,0,0,0,0,0,0,0,0,0,0,0,0,0,0,0,0,0,0,0,0,0,0,0,0,0,0,0,0,0,0,0,0,0,0,0,0,0,0,0,0,0,0,0,0,0,0,0,0,0,0,0],"split_type":[0,0,0,0,0,0,0,0,0,0,0,0,0,0,0,0,0,0,0,0,0,0,0,0,0,0,0,0,0,0,0,0,0,0,0,0,0,0,0,0,0,0,0,0,0,0,0,0,0,0,0,0,0,0,0,0,0,0,0,0,0,0,0,0,0,0,0,0,0,0,0,0,0,0,0,0,0,0,0,0,0,0,0,0,0,0,0,0,0,0,0,0,0,0,0,0,0,0,0,0,0,0,0,0,0,0,0,0,0,0,0,0,0,0,0,0,0,0,0,0,0],"sum_hessian":[5.475E3,5.097E3,3.78E2,3.368E3,1.729E3,2.66E2,1.12E2,1.24E3,2.128E3,6.49E2,1.08E3,9.8E1,1.68E2,9.5E1,1.7E1,1.177E3,6.3E1,9E0,2.119E3,1.6E2,4.89E2,8.48E2,2.32E2,4.8E1,5E1,4.2E1,1.26E2,6.7E1,2.8E1,1.1E1,6E0,1.1E3,7.7E1,3.2E1,3.1E1,2E0,7E0,1.361E3,7.58E2,6.7E1,9.3E1,2.1E1,4.68E2,6.34E2,2.14E2,3.3E1,1.99E2,3.2E1,1.6E1,2.7E1,2.3E1,2.9E1,1.3E1,5E1,7.6E1,4.7E1,2E1,1.7E1,1.1E1,7E0,4E0,2E0,4E0,7.8E2,3.2E2,3.5E1,4.2E1,2.8E1,4E0,2.8E1,3E0,2E0,5E0,6.57E2,7.04E2,4.22E2,3.36E2,4.1E1,2.6E1,8.6E1,7E0,1.7E1,4E0,1.13E2,3.55E2,5.65E2,6.9E1,1.29E2,8.5E1,1E1,2.3E1,1.81E2,1.8E1,1.7E1,1.5E1,9E0,7E0,1.3E1,1.4E1,4E0,1.9E1,2.1E1,8E0,6E0,7E0,2.6E1,2.4E1,5E1,2.6E1,2.7E1,2E1,1.7E1,3E0,1.2E1,5E0,5E0,6E0,6E0,1E0,3E0,1E0],"tree_param":{"num_deleted":"0","num_feature":"25","num_nodes":"121","size_leaf_vector":"1"}},{"base_weights":[1.9142882E-3,-2.4356487E-1,3.403172E-2,-3.5403198E-1,-1.8905275E-1,1.6453119E-1,1.4950223E-2,-4.0400386E-1,2.7400416E-1,-3.2309592E-1,-1.2752448E-1,4.799314E-3,2.943577E-1,3.0355547E-2,-9.0049125E-2,-4.4890383E-1,5.9956975E-2,5.4641944E-1,-6.7984647E-1,-4.601753E-1,-6.790841E-2,-3.25723E-1,-6.671733E-2,-1.5567769E-1,1.2689315E-1,4.250476E-1,2.3625681E-1,7.913936E-2,-6.8098297E-3,-6.352797E-1,-8.016529E-3,-3.6758736E-1,-1.0051067E0,1.7860098E-1,-4.892478E-2,6.9424635E-1,4.024726E-2,1.6612053E-2,-6.923055E-2,-6.7707837E-1,-2.0030652E-1,5.9117556E-2,-7.10428E-1,-7.9729533E-1,-1.6831824E-1,3.299415E-2,-2.1609925E-1,-9.620252E-2,-1.11053E0,1.582149E-1,-5.7583845E-1,5.627652E-1,2.5265282E-1,2.7714998E-1,-3.5101354E-1,2.9122844E-1,5.7803176E-2,-3.991871E-3,-7.4355936E-1,-3.5972762E-1,-1.1599139E0,2.1100938E-1,-1.16467796E-1,-2.807845E-2,-9.731605E-3,-6.8235345E-2,-2.185578E-2,2.1104014E-2,-1.7021274E-3,1.0614356E-3,4.299236E-2,2.6078902E-3,1.128912E-4,-7.4436667E-4,1.9902706E-3,-4.4947874E-2,-1.3814367E-3,7.7330912E-3,-2.1683639E-2,-3.6925804E-2,8.265406E-3,-6.4718865E-2,-1.5002434E-2,-1.7896619E-2,-5.7403494E-2,-1.6639788E-2,1.1641785E-2,-1.1156495E-2,4.7498676E-3,-7.884885E-3,-4.011516E-2,7.5719575E-3,-7.987951E-3,-8.728933E-2,1.5920384E-2,9.325033E-3,-1.3246073E-2,-4.9912956E-2,1.6007107E-2,3.66051E-2,1.5836498E-2,1.612894E-2,-7.584671E-2,-1.9612939E-3,1.5677368E-2,-3.2765422E-2,3.6284912E-2,7.5600035E-3,2.2933446E-2,-1.9613847E-3,4.4987774E-3,-9.752417E-3,2.9445285E-4,2.9171824E-3,-6.181849E-2,-2.976312E-3,-3.417227E-2,-6.57725E-2,1.836614E-2,-1.8399721E-2,1.840334E-2,-1.5490556E-2,2.2104913E-3],"categories":[],"categories_nodes":[],"categories_segments":[],"categories_sizes":[],"default_left":[0,0,0,0,0,0,0,0,0,0,0,0,0,0,0,0,0,0,0,0,0,0,0,0,0,0,0,0,0,0,0,0,0,0,0,0,0,0,0,0,0,0,0,0,0,0,0,0,0,0,0,0,0,0,0,0,0,0,0,0,0,0,0,0,0,0,0,0,0,0,0,0,0,0,0,0,0,0,0,0,0,0,0,0,0,0,0,0,0,0,0,0,0,0,0,0,0,0,0,0,0,0,0,0,0,0,0,0,0,0,0,0,0,0,0,0,0,0,0,0,0,0,0],"id":5,"left_children":[1,3,5,7,9,11,13,15,17,19,21,23,25,27,29,31,33,35,37,39,41,43,45,47,49,51,53,55,57,59,61,63,65,67,-1,69,71,73,-1,75,77,79,81,83,85,87,89,91,93,95,97,99,101,103,105,107,109,111,113,115,117,119,121,-1,-1,-1,-1,-1,-1,-1,-1,-1,-1,-1,-1,-1,-1,-1,-1,-1,-1,-1,-1,-1,-1,-1,-1,-1,-1,-1,-1,-1,-1,-1,-1,-1,-1,-1,-1,-1,-1,-1,-1,-1,-1,-1,-1,-1,-1,-1,-1,-1,-1,-1,-1,-1,-1,-1,-1,-1,-1,-1,-1],"loss_changes":[4.333963E1,3.7629318E0,1.2102038E1,6.6699886E0,3.4887047E0,1.2855795E1,6.864377E0,4.068289E0,4.528977E0,4.6561966E0,3.533576E0,5.4862714E0,2.4964523E0,6.708894E0,2.4281496E1,7.6359673E0,2.3924716E0,9.4479465E-1,1.9863582E0,4.7682476E0,3.959599E0,4.987514E0,3.3883162E0,6.7647552E0,3.590821E0,2.3269634E0,5.8369503E0,7.223439E0,4.358981E0,9.846794E0,1.1260046E1,5.124525E0,3.8969593E0,8.945317E-1,0E0,1.0962691E0,1.6921354E-3,2.7843262E-3,0E0,6.7478294E0,3.4634151E0,3.5948305E0,1.52875E0,2.2090645E0,3.5744686E0,2.1968267E0,2.9888844E0,1.8342059E0,6.9100676E0,1.880624E0,2.968949E0,2.1429024E0,6.428856E0,2.5917149E0,5.717762E0,3.3538265E0,4.545623E0,3.9542334E0,3.2336245E0,4.623982E0,6.18417E0,1.441253E1,9.861602E0,0E0,0E0,0E0,0E0,0E0,0E0,0E0,0E0,0E0,0E0,0E0,0E0,0E0,0E0,0E0,0E0,0E0,0E0,0E0,0E0,0E0,0E0,0E0,0E0,0E0,0E0,0E0,0E0,0E0,0E0,0E0,0E0,0E0,0E0,0E0,0E0,0E0,0E0,0E0,0E0,0E0,0E0,0E0,0E0,0E0,0E0,0E0,0E0,0E0,0E0,0E0,0E0,0E0,0E0,0E0,0E0,0E0,0E0,0E0,0E0],"parents":[2147483647,0,0,1,1,2,2,3,3,4,4,5,5,6,6,7,7,8,8,9,9,10,10,11,11,12,12,13,13,14,14,15,15,16,16,17,17,18,18,19,19,20,20,21,21,22,22,23,23,24,24,25,25,26,26,27,27,28,28,29,29,30,30,31,31,32,32,33,33,35,35,36,36,37,37,39,39,40,40,41,41,42,42,43,43,44,44,45,45,46,46,47,47,48,48,49,49,50,50,51,51,52,52,53,53,54,54,55,55,56,56,57,57,58,58,59,59,60,60,61,61,62,62],"right_children":[2,4,6,8,10,12,14,16,18,20,22,24,26,28,30,32,34,36,38,40,42,44,46,48,50,52,54,56,58,60,62,64,66,68,-1,70,72,74,-1,76,78,80,82,84,86,88,90,92,94,96,98,100,102,104,106,108,110,112,114,116,118,120,122,-1,-1,-1,-1,-1,-1,-1,-1,-1,-1,-1,-1,-1,-1,-1,-1,-1,-1,-1,-1,-1,-1,-1,-1,-1,-1,-1,-1,-1,-1,-1,-1,-1,-1,-1,-1,-1,-1,-1,-1,-1,-1,-1,-1,-1,-1,-1,-1,-1,-1,-1,-1,-1,-1,-1,-1,-1,-1,-1,-1],"split_conditions":[9.5E1,2E0,1.3E1,1.5E2,2E0,2E0,1.46E2,2.2E1,1E0,3E0,1.12E2,1.5E2,1.2E2,1.9E1,1.5E1,2.1E1,9.2E1,3E0,1.59E2,3E0,1E0,2E0,3E0,1.46E2,1.22E2,3E0,1.19E2,9.8E1,1.117E3,3E0,1.03E2,2E0,1E0,1.2E2,-4.892478E-2,1.9E1,1.55E2,1.56E2,-6.923055E-2,3E0,1.24E2,1.02E2,2E1,3E0,3E0,8.5E1,1.51E2,1.31E2,3E0,1E0,3E0,3E0,1.3E2,1E1,1.32E2,1E0,1.08E2,1E2,2E0,1E0,1.6E2,2E0,1.7E1,-2.807845E-2,-9.731605E-3,-6.8235345E-2,-2.185578E-2,2.1104014E-2,-1.7021274E-3,1.0614356E-3,4.299236E-2,2.6078902E-3,1.128912E-4,-7.4436667E-4,1.9902706E-3,-4.4947874E-2,-1.3814367E-3,7.7330912E-3,-2.1683639E-2,-3.6925804E-2,8.265406E-3,-6.4718865E-2,-1.5002434E-2,-1.7896619E-2,-5.7403494E-2,-1.6639788E-2,1.1641785E-2,-1.1156495E-2,4.7498676E-3,-7.884885E-3,-4.011516E-2,7.5719575E-3,-7.987951E-3,-8.728933E-2,1.5920384E-2,9.325033E-3,-1.3246073E-2,-4.9912956E-2,1.6007107E-2,3.66051E-2,1.5836498E-2,1.612894E-2,-7.584671E-2,-1.9612939E-3,1.5677368E-2,-3.2765422E-2,3.6284912E-2,7.5600035E-3,2.2933446E-2,-1.9613847E-3,4.4987774E-3,-9.752417E-3,2.9445285E-4,2.9171824E-3,-6.181849E-2,-2.976312E-3,-3.417227E-2,-6.57725E-2,1.836614E-2,-1.8399721E-2,1.840334E-2,-1.5490556E-2,2.2104913E-3],"split_indices":[11,7,1,0,15,6,11,1,21,5,0,11,11,1,1,1,11,5,0,7,18,10,10,11,0,7,0,0,0,16,0,8,3,0,0,1,0,0,0,8,0,0,1,7,16,11,0,11,9,20,8,15,0,1,11,12,11,11,6,3,11,6,1,0,0,0,0,0,0,0,0,0,0,0,0,0,0,0,0,0,0,0,0,0,0,0,0,0,0,0,0,0,0,0,0,0,0,0,0,0,0,0,0,0,0,0,0,0,0,0,0,0,0,0,0,0,0,0,0,0,0,0,0],"split_type":[0,0,0,0,0,0,0,0,0,0,0,0,0,0,0,0,0,0,0,0,0,0,0,0,0,0,0,0,0,0,0,0,0,0,0,0,0,0,0,0,0,0,0,0,0,0,0,0,0,0,0,0,0,0,0,0,0,0,0,0,0,0,0,0,0,0,0,0,0,0,0,0,0,0,0,0,0,0,0,0,0,0,0,0,0,0,0,0,0,0,0,0,0,0,0,0,0,0,0,0,0,0,0,0,0,0,0,0,0,0,0,0,0,0,0,0,0,0,0,0,0,0,0],"sum_hessian":[5.495E3,6.35E2,4.86E3,2.08E2,4.27E2,6.19E2,4.241E3,1.93E2,1.5E1,1.33E2,2.94E2,2.78E2,3.41E2,3.699E3,5.42E2,1.76E2,1.7E1,1.2E1,3E0,8.6E1,4.7E1,6.8E1,2.26E2,1.2E2,1.58E2,1.03E2,2.38E2,1.599E3,2.1E3,7E1,4.72E2,1.55E2,2.1E1,1.6E1,1E0,9E0,3E0,2E0,1E0,4.6E1,4E1,4E1,7E0,1.6E1,5.2E1,1.36E2,9E1,1.14E2,6E0,1.52E2,6E0,5.6E1,4.7E1,2.23E2,1.5E1,1.45E2,1.454E3,2.093E3,7E0,4.7E1,2.3E1,1.56E2,3.16E2,7.2E1,8.3E1,1.2E1,9E0,7E0,9E0,2E0,7E0,2E0,1E0,1E0,1E0,3.4E1,1.2E1,1.6E1,2.4E1,4E0,3.6E1,2E0,5E0,8E0,8E0,3.7E1,1.5E1,2.6E1,1.1E2,8.3E1,7E0,2.3E1,9.1E1,4E0,2E0,1.43E2,9E0,4E0,2E0,3.2E1,2.4E1,4.6E1,1E0,2.3E1,2E2,1.2E1,3E0,8E1,6.5E1,3.62E2,1.092E3,1.02E2,1.991E3,3E0,4E0,2.5E1,2.2E1,2.1E1,2E0,3.3E1,1.23E2,1.43E2,1.73E2],"tree_param":{"num_deleted":"0","num_feature":"25","num_nodes":"123","size_leaf_vector":"1"}},{"base_weights":[2.3726856E-3,-1.9847895E-1,2.8534068E-2,-3.5796356E-1,-1.1595929E-1,1.1395428E-2,1.14319675E-1,-3.8766932E-1,1.7438965E-1,-1.9170044E-1,1.9633034E-2,1.4177461E-2,-6.088583E-1,1.2697393E-1,-4.4530392E-1,-3.5540017E-1,-7.979175E-1,4.8054522E-1,-3.503372E-1,-6.6339225E-2,-2.9671928E-1,-8.330646E-2,3.3626735E-1,-1.5358985E-2,7.210554E-2,-2.2005862E-2,-1.3396732E0,5.3941812E-2,2.5263503E-1,2.8849596E-1,-1.2111589E0,-1.7946689E-1,-4.7632274E-1,-1.3279246E0,-2.3442158E-1,6.372609E-1,6.9321E-3,-6.749979E-2,2.3707634E-1,-1.2941988E-1,5.2794176E-1,4.0162574E-2,-3.2561478E-1,-3.4460402E-1,2.7402466E-2,4.214784E-1,-6.8283245E-2,1.2711627E-2,-7.606011E-2,1.02494836E-1,-1.3321714E-1,1.633271E-1,-4.6883386E-2,-1.535829E0,8.3543063E-4,2.0181966E-1,-2.172374E-2,7.169239E-2,3.4653834E-1,4.8311034E-1,-3.2664108E-1,-7.421954E-2,2.4367416E-2,-1.5189737E-2,1.8562576E-2,-1.2815681E-2,-3.0485759E-2,1.9721747E-3,-7.811966E-2,-3.4973573E-2,9.225133E-3,1.0774374E-3,3.780468E-2,1.2456656E-3,-7.257581E-4,2.3135925E-2,3.8113992E-4,-1.1932268E-2,6.408762E-3,3.738819E-2,-4.7252506E-2,-6.5608494E-2,-1.36220995E-2,2.8707585E-4,-3.4764364E-2,1.0498436E-2,-2.8924884E-3,3.448138E-2,1.0974563E-2,2.6278407E-3,-3.3205382E-3,3.6340465E-5,-1.3290465E-2,1.7538567E-3,1.0728779E-2,-4.415597E-3,-4.32661E-2,-6.92513E-3,1.9381534E-2,-1.409698E-2,-9.904984E-2,2.1680666E-3,1.8274149E-2,7.6759243E-3,-5.24823E-3,-9.640413E-3,1.1174331E-2,2.0714445E-2,7.427548E-3,-9.217262E-4,3.2668218E-2,-9.011269E-4,-2.3596955E-2],"categories":[],"categories_nodes":[],"categories_segments":[],"categories_sizes":[],"default_left":[0,0,0,0,0,0,0,0,0,0,0,0,0,0,0,0,0,0,0,0,0,0,0,0,0,0,0,0,0,0,0,0,0,0,0,0,0,0,0,0,0,0,0,0,0,0,0,0,0,0,0,0,0,0,0,0,0,0,0,0,0,0,0,0,0,0,0,0,0,0,0,0,0,0,0,0,0,0,0,0,0,0,0,0,0,0,0,0,0,0,0,0,0,0,0,0,0,0,0,0,0,0,0,0,0,0,0,0,0,0,0,0,0],"id":6,"left_children":[1,3,5,7,9,11,13,15,17,19,21,23,25,27,29,31,33,35,37,39,41,43,45,47,49,51,53,55,57,59,61,63,65,67,69,71,73,-1,75,77,79,-1,81,83,85,87,-1,89,91,93,95,97,-1,99,-1,101,103,105,107,109,111,-1,-1,-1,-1,-1,-1,-1,-1,-1,-1,-1,-1,-1,-1,-1,-1,-1,-1,-1,-1,-1,-1,-1,-1,-1,-1,-1,-1,-1,-1,-1,-1,-1,-1,-1,-1,-1,-1,-1,-1,-1,-1,-1,-1,-1,-1,-1,-1,-1,-1,-1,-1],"loss_changes":[2.8679777E1,8.236521E0,7.098527E0,3.4517937E0,4.27605E0,6.955763E0,5.750168E0,2.4038086E0,2.0961297E0,3.4954472E0,4.91714E0,6.8604655E0,7.690368E0,7.208906E0,1.0465132E1,3.9566326E0,3.8699017E0,5.8936334E-1,3.2561169E0,4.6793046E0,4.870263E0,3.3072314E0,5.941464E0,4.5265727E0,8.462088E0,2.0198722E0,2.1541586E0,5.587824E0,4.885584E0,1.3549489E0,4.900194E0,5.5218854E0,3.1306477E0,2.3058605E0,1.6876197E0,4.2270732E-1,1.518564E-3,0E0,2.0357034E-1,3.181815E0,4.592227E0,0E0,7.091531E0,4.181243E0,1.2728454E0,1.79849E0,0E0,5.7318487E0,1.2239208E1,8.908821E0,5.6767635E0,7.3070264E-1,0E0,3.348816E0,0E0,4.366967E0,4.844515E0,4.0580573E0,2.487072E0,6.951647E-1,1.2601948E-1,0E0,0E0,0E0,0E0,0E0,0E0,0E0,0E0,0E0,0E0,0E0,0E0,0E0,0E0,0E0,0E0,0E0,0E0,0E0,0E0,0E0,0E0,0E0,0E0,0E0,0E0,0E0,0E0,0E0,0E0,0E0,0E0,0E0,0E0,0E0,0E0,0E0,0E0,0E0,0E0,0E0,0E0,0E0,0E0,0E0,0E0,0E0,0E0,0E0,0E0,0E0,0E0],"parents":[2147483647,0,0,1,1,2,2,3,3,4,4,5,5,6,6,7,7,8,8,9,9,10,10,11,11,12,12,13,13,14,14,15,15,16,16,17,17,18,18,19,19,20,20,21,21,22,22,23,23,24,24,25,25,26,26,27,27,28,28,29,29,30,30,31,31,32,32,33,33,34,34,35,35,36,36,38,38,39,39,40,40,42,42,43,43,44,44,45,45,47,47,48,48,49,49,50,50,51,51,53,53,55,55,56,56,57,57,58,58,59,59,60,60],"right_children":[2,4,6,8,10,12,14,16,18,20,22,24,26,28,30,32,34,36,38,40,42,44,46,48,50,52,54,56,58,60,62,64,66,68,70,72,74,-1,76,78,80,-1,82,84,86,88,-1,90,92,94,96,98,-1,100,-1,102,104,106,108,110,112,-1,-1,-1,-1,-1,-1,-1,-1,-1,-1,-1,-1,-1,-1,-1,-1,-1,-1,-1,-1,-1,-1,-1,-1,-1,-1,-1,-1,-1,-1,-1,-1,-1,-1,-1,-1,-1,-1,-1,-1,-1,-1,-1,-1,-1,-1,-1,-1,-1,-1,-1,-1],"split_conditions":[9.5E1,2E0,3E0,1.53E2,3E0,1.66E2,1.46E2,9.4E1,1.58E2,1E0,3E0,3E0,3E0,1.29E2,1.17E2,2E0,1.14E2,3E0,2E0,1E0,8.1E1,2E0,1.52E2,3E0,1.35E2,3E0,3E0,2E0,2E0,3E0,3E0,1.36E2,1.21E2,2E0,2E0,2E0,1.55E2,-6.749979E-2,2E0,3E0,3E0,4.0162574E-2,8.2E1,2E0,3E0,1E0,-6.8283245E-2,3E0,1.39E2,1.18E2,1E0,2E0,-4.6883386E-2,2E0,8.3543063E-4,1E0,2E0,2E0,3E0,9.4E1,1.05E2,-7.421954E-2,2.4367416E-2,-1.5189737E-2,1.8562576E-2,-1.2815681E-2,-3.0485759E-2,1.9721747E-3,-7.811966E-2,-3.4973573E-2,9.225133E-3,1.0774374E-3,3.780468E-2,1.2456656E-3,-7.257581E-4,2.3135925E-2,3.8113992E-4,-1.1932268E-2,6.408762E-3,3.738819E-2,-4.7252506E-2,-6.5608494E-2,-1.36220995E-2,2.8707585E-4,-3.4764364E-2,1.0498436E-2,-2.8924884E-3,3.448138E-2,1.0974563E-2,2.6278407E-3,-3.3205382E-3,3.6340465E-5,-1.3290465E-2,1.7538567E-3,1.0728779E-2,-4.415597E-3,-4.32661E-2,-6.92513E-3,1.9381534E-2,-1.409698E-2,-9.904984E-2,2.1680666E-3,1.8274149E-2,7.6759243E-3,-5.24823E-3,-9.640413E-3,1.1174331E-2,2.0714445E-2,7.427548E-3,-9.217262E-4,3.2668218E-2,-9.011269E-4,-2.3596955E-2],"split_indices":[11,7,6,0,16,0,11,11,0,12,5,8,4,11,0,4,0,16,15,22,11,15,0,5,0,17,7,16,7,15,15,0,0,10,13,4,0,0,2,2,6,0,11,6,7,3,0,14,11,0,20,4,0,15,0,3,5,13,14,0,0,0,0,0,0,0,0,0,0,0,0,0,0,0,0,0,0,0,0,0,0,0,0,0,0,0,0,0,0,0,0,0,0,0,0,0,0,0,0,0,0,0,0,0,0,0,0,0,0,0,0,0,0],"split_type":[0,0,0,0,0,0,0,0,0,0,0,0,0,0,0,0,0,0,0,0,0,0,0,0,0,0,0,0,0,0,0,0,0,0,0,0,0,0,0,0,0,0,0,0,0,0,0,0,0,0,0,0,0,0,0,0,0,0,0,0,0,0,0,0,0,0,0,0,0,0,0,0,0,0,0,0,0,0,0,0,0,0,0,0,0,0,0,0,0,0,0,0,0,0,0,0,0,0,0,0,0,0,0,0,0,0,0,0,0,0,0,0,0],"sum_hessian":[5.456E3,6.28E2,4.828E3,2.13E2,4.15E2,4.025E3,8.03E2,2.02E2,1.1E1,2.66E2,1.49E2,4.008E3,1.7E1,7.86E2,1.7E1,1.89E2,1.3E1,7E0,4E0,1.22E2,1.44E2,1.13E2,3.6E1,2.655E3,1.353E3,1E1,7E0,4.98E2,2.88E2,9E0,8E0,7.8E1,1.11E2,6E0,7E0,5E0,2E0,1E0,3E0,1.11E2,1.1E1,3E0,1.41E2,3.3E1,8E1,3.5E1,1E0,1.816E3,8.39E2,1.179E3,1.74E2,9E0,1E0,6E0,1E0,1.68E2,3.3E2,9.9E1,1.89E2,7E0,2E0,7E0,1E0,6.4E1,1.4E1,4.3E1,6.8E1,1E0,5E0,3E0,4E0,1E0,4E0,1E0,1E0,1E0,2E0,7.8E1,3.3E1,1E1,1E0,6E0,1.35E2,1.7E1,1.6E1,2.5E1,5.5E1,1.4E1,2.1E1,1.208E3,6.08E2,5.98E2,2.41E2,7.37E2,4.42E2,1.65E2,9E0,4E0,5E0,2E0,4E0,8.6E1,8.2E1,1.06E2,2.24E2,3.6E1,6.3E1,1.4E2,4.9E1,2E0,5E0,1E0,1E0],"tree_param":{"num_deleted":"0","num_feature":"25","num_nodes":"113","size_leaf_vector":"1"}},{"base_weights":[4.78197E-3,-1.8064389E-1,3.139107E-2,2.7034674E-2,-2.1208207E-1,1.6367148E-1,1.18668275E-2,9.169781E-2,-4.1169438E-1,-1.4924093E-1,-3.4967244E-1,1.3996957E-2,2.881382E-1,1.3662856E-2,-1.0682154E0,-5.4410053E-3,2.5701517E-1,-9.0964466E-1,7.393364E-2,-1.2357159E-2,-2.777516E-1,-5.639473E-1,-1.9923636E-1,-4.99898E-2,4.1560614E-1,-1.9604212E-1,3.2731193E-1,4.2597655E-2,-3.9880686E-2,4.8196197E-2,-9.587865E-2,-2.762037E-1,1.5882248E-1,5.9165835E-1,6.011065E-2,-5.4331888E-2,-6.169796E-4,-2.0517593E-2,2.2303987E-1,-1.0825238E-1,2.1639907E-1,-3.6254838E-1,4.876405E-2,-9.526424E-1,-4.2019132E-1,-1.9714577E-2,-5.483126E-1,-1.5629868E-1,4.220113E-2,-1.3456453E-1,6.099603E-1,3.257421E-1,-9.3717897E-1,4.2187777E-1,2.1560688E-1,5.50004E-2,-9.239999E-2,-1.7264454E-2,-2.7979735E-1,7.7750683E-3,4.2364895E-3,-2.8662367E-2,1.2050884E-2,1.4348191E-2,-1.0738633E-2,3.274682E-2,-1.0280609E-3,-1.4390456E-2,9.763559E-3,2.6868302E-2,2.6350713E-3,6.527713E-3,-1.2949506E-2,2.1913534E-2,-3.550479E-3,-5.4427147E-2,-1.5998868E-2,1.3971353E-2,-1.7379418E-2,-6.198574E-2,-3.8093885E-3,-1.1365976E-2,-4.0206097E-2,-1.4559743E-2,6.0924734E-3,1.538992E-5,-4.0076695E-2,1.3867615E-3,-1.843173E-2,2.4522154E-2,-9.7288034E-4,8.711466E-3,-5.0804563E-2,3.1694315E-2,-1.4991403E-3,3.1015232E-2,-2.3179264E-3,8.189197E-3,-7.948492E-2,1.8989751E-2,3.4290187E-2,1.6701138E-2,-7.113377E-3,-3.8814747E-3,3.2662053E-3,-1.2984589E-2,2.146975E-3,3.2515258E-3,-3.4970127E-3,-4.8501473E-2,-8.215333E-3,1.6450882E-6,5.8148504E-4],"categories":[],"categories_nodes":[],"categories_segments":[],"categories_sizes":[],"default_left":[0,0,0,0,0,0,0,0,0,0,0,0,0,0,0,0,0,0,0,0,0,0,0,0,0,0,0,0,0,0,0,0,0,0,0,0,0,0,0,0,0,0,0,0,0,0,0,0,0,0,0,0,0,0,0,0,0,0,0,0,0,0,0,0,0,0,0,0,0,0,0,0,0,0,0,0,0,0,0,0,0,0,0,0,0,0,0,0,0,0,0,0,0,0,0,0,0,0,0,0,0,0,0,0,0,0,0,0,0,0,0,0,0],"id":7,"left_children":[1,3,5,7,9,11,13,15,17,19,21,23,25,27,29,31,33,35,37,39,41,43,45,47,49,51,53,55,57,59,-1,61,63,65,67,-1,-1,-1,69,71,73,75,77,79,81,83,85,87,89,91,93,95,97,99,101,103,105,107,109,111,-1,-1,-1,-1,-1,-1,-1,-1,-1,-1,-1,-1,-1,-1,-1,-1,-1,-1,-1,-1,-1,-1,-1,-1,-1,-1,-1,-1,-1,-1,-1,-1,-1,-1,-1,-1,-1,-1,-1,-1,-1,-1,-1,-1,-1,-1,-1,-1,-1,-1,-1,-1,-1],"loss_changes":[2.7246367E1,4.5303555E0,1.2469792E1,2.6477544E0,5.1529083E0,1.1564888E1,8.17946E0,1.3021557E0,2.9690769E0,7.2968435E0,5.9477596E0,7.2932167E0,6.494028E0,6.513287E0,6.7300496E0,2.356641E0,1.9412175E0,9.394927E-1,5.9699476E-1,4.454625E0,5.9427967E0,3.902258E0,7.0078707E0,2.4077713E0,4.2522697E0,1.0359829E1,3.225975E0,4.5743594E0,7.9985356E0,5.248137E-3,0E0,3.2109084E0,1.6414404E0,4.3960714E-1,9.9670106E-1,0E0,0E0,0E0,2.9293102E-1,5.1814075E0,3.85719E0,4.9057636E0,4.2111983E0,4.937666E0,4.112071E0,2.9178705E0,5.279298E0,4.4650035E0,3.657763E0,3.171343E0,4.6303177E-1,1.7824668E0,8.162764E0,1.6165752E0,6.2347116E0,3.4281526E0,5.218624E0,5.8524003E0,9.964469E0,8.914697E-5,0E0,0E0,0E0,0E0,0E0,0E0,0E0,0E0,0E0,0E0,0E0,0E0,0E0,0E0,0E0,0E0,0E0,0E0,0E0,0E0,0E0,0E0,0E0,0E0,0E0,0E0,0E0,0E0,0E0,0E0,0E0,0E0,0E0,0E0,0E0,0E0,0E0,0E0,0E0,0E0,0E0,0E0,0E0,0E0,0E0,0E0,0E0,0E0,0E0,0E0,0E0,0E0,0E0],"parents":[2147483647,0,0,1,1,2,2,3,3,4,4,5,5,6,6,7,7,8,8,9,9,10,10,11,11,12,12,13,13,14,14,15,15,16,16,17,17,18,18,19,19,20,20,21,21,22,22,23,23,24,24,25,25,26,26,27,27,28,28,29,29,31,31,32,32,33,33,34,34,38,38,39,39,40,40,41,41,42,42,43,43,44,44,45,45,46,46,47,47,48,48,49,49,50,50,51,51,52,52,53,53,54,54,55,55,56,56,57,57,58,58,59,59],"right_children":[2,4,6,8,10,12,14,16,18,20,22,24,26,28,30,32,34,36,38,40,42,44,46,48,50,52,54,56,58,60,-1,62,64,66,68,-1,-1,-1,70,72,74,76,78,80,82,84,86,88,90,92,94,96,98,100,102,104,106,108,110,112,-1,-1,-1,-1,-1,-1,-1,-1,-1,-1,-1,-1,-1,-1,-1,-1,-1,-1,-1,-1,-1,-1,-1,-1,-1,-1,-1,-1,-1,-1,-1,-1,-1,-1,-1,-1,-1,-1,-1,-1,-1,-1,-1,-1,-1,-1,-1,-1,-1,-1,-1,-1,-1],"split_conditions":[9.6E1,1.7E1,1.3E1,1.4E2,3E0,2E0,1.121E3,3E0,2E0,1E0,1.22E2,1.65E2,1E1,3E0,2E0,2E0,1.4E1,1.45E2,1.4E1,3E0,2.1E1,2E0,2.1E1,3E0,2E0,3E0,2E0,1E0,1.5E2,1.125E3,-9.587865E-2,1.3E2,3E0,1E0,1.09E2,-5.4331888E-2,-6.169796E-4,-2.0517593E-2,1.5E1,8.8E1,3E0,8.2E1,2.2E1,1E0,9.1E1,2E0,2E0,1E0,2E0,1.69E2,1.22E2,1.08E2,1.26E2,3E0,1.19E2,1.03E2,2E0,2E0,1.5E1,1.123E3,4.2364895E-3,-2.8662367E-2,1.2050884E-2,1.4348191E-2,-1.0738633E-2,3.274682E-2,-1.0280609E-3,-1.4390456E-2,9.763559E-3,2.6868302E-2,2.6350713E-3,6.527713E-3,-1.2949506E-2,2.1913534E-2,-3.550479E-3,-5.4427147E-2,-1.5998868E-2,1.3971353E-2,-1.7379418E-2,-6.198574E-2,-3.8093885E-3,-1.1365976E-2,-4.0206097E-2,-1.4559743E-2,6.0924734E-3,1.538992E-5,-4.0076695E-2,1.3867615E-3,-1.843173E-2,2.4522154E-2,-9.7288034E-4,8.711466E-3,-5.0804563E-2,3.1694315E-2,-1.4991403E-3,3.1015232E-2,-2.3179264E-3,8.189197E-3,-7.948492E-2,1.8989751E-2,3.4290187E-2,1.6701138E-2,-7.113377E-3,-3.8814747E-3,3.2662053E-3,-1.2984589E-2,2.146975E-3,3.2515258E-3,-3.4970127E-3,-4.8501473E-2,-8.215333E-3,1.6450882E-6,5.8148504E-4],"split_indices":[11,1,1,0,4,6,0,9,14,12,0,11,1,16,6,13,1,0,1,2,1,16,1,16,5,8,4,20,11,0,0,0,15,21,0,0,0,0,1,11,9,11,1,19,11,2,13,12,14,11,0,0,11,9,0,11,9,4,1,0,0,0,0,0,0,0,0,0,0,0,0,0,0,0,0,0,0,0,0,0,0,0,0,0,0,0,0,0,0,0,0,0,0,0,0,0,0,0,0,0,0,0,0,0,0,0,0,0,0,0,0,0,0],"split_type":[0,0,0,0,0,0,0,0,0,0,0,0,0,0,0,0,0,0,0,0,0,0,0,0,0,0,0,0,0,0,0,0,0,0,0,0,0,0,0,0,0,0,0,0,0,0,0,0,0,0,0,0,0,0,0,0,0,0,0,0,0,0,0,0,0,0,0,0,0,0,0,0,0,0,0,0,0,0,0,0,0,0,0,0,0,0,0,0,0,0,0,0,0,0,0,0,0,0,0,0,0,0,0,0,0,0,0,0,0,0,0,0,0],"sum_hessian":[5.52E3,6.92E2,4.828E3,9.1E1,6.01E2,6.2E2,4.208E3,8E1,1.1E1,4.14E2,1.87E2,2.82E2,3.38E2,4.202E3,6E0,5.1E1,2.9E1,5E0,6E0,2.01E2,2.13E2,7.6E1,1.11E2,2.44E2,3.8E1,2.5E1,3.13E2,2.728E3,1.474E3,3E0,3E0,1.9E1,3.2E1,1E1,1.9E1,4E0,1E0,1E0,5E0,1.42E2,5.9E1,1.69E2,4.4E1,1.9E1,5.7E1,7.4E1,3.7E1,1.13E2,1.31E2,1E1,2.8E1,1.5E1,1E1,1.68E2,1.45E2,2.499E3,2.29E2,1.348E3,1.26E2,2E0,1E0,1.2E1,7E0,2.4E1,8E0,9E0,1E0,5E0,1.4E1,1E0,4E0,5.5E1,8.7E1,3.3E1,2.6E1,8E0,1.61E2,2.8E1,1.6E1,1.4E1,5E0,3.9E1,1.8E1,2.5E1,4.9E1,1.2E1,2.5E1,6.1E1,5.2E1,1.5E1,1.16E2,8E0,2E0,2.7E1,1E0,8E0,7E0,4E0,6E0,1.47E2,2.1E1,1.09E2,3.6E1,1.8E2,2.319E3,1.02E2,1.27E2,5.26E2,8.22E2,1.7E1,1.09E2,1E0,1E0],"tree_param":{"num_deleted":"0","num_feature":"25","num_nodes":"113","size_leaf_vector":"1"}},{"base_weights":[-6.405358E-3,-1.3286948E-1,1.7765338E-2,1.5841955E-1,-1.6053249E-1,1.9376926E-2,-1.4719957E0,3.0545524E-1,-3.7849787E-1,-1.04538485E-1,-3.0736113E-1,1.7049795E-1,5.9583997E-3,5.6694745E-4,-9.228321E-2,-2.0994699E-1,4.2304265E-1,-6.438299E-2,-9.4364464E-1,-2.273211E-1,-5.8967944E-2,-4.1152593E-1,-8.46355E-2,2.2369403E-2,3.1539026E-1,2.454413E-2,-1.0330277E-1,-5.8962643E-1,1.4548495E-1,-4.0013462E-1,5.033219E-1,3.2584938E-1,-3.896703E-1,-6.5904304E-2,2.3214055E-2,9.926148E-2,-2.9842553E-1,2.4092607E-1,-8.712384E-2,-6.909785E-1,-2.3952252E-1,-4.0332785E-1,3.0422297E-1,-3.073869E-1,1.4828822E-1,4.3316594E-1,2.1592267E-1,2.9654985E-2,-2.4700269E-1,-3.1086382E-1,2.2041291E-2,1.0321736E-3,-4.4996113E-2,2.4755677E-2,-1.2025744E-2,-6.2103994E-2,2.875944E-2,2.6699234E-2,-2.1912588E-2,3.312966E-2,-4.0853917E-4,-9.860111E-4,-4.3818187E-2,2.2961587E-2,-1.8955218E-2,-3.416213E-2,-8.289955E-3,2.1393768E-2,-9.210396E-3,-1.1350847E-2,-3.8170101E-4,-2.7339963E-2,-6.569707E-2,-1.976983E-2,1.346053E-3,-2.0925535E-3,-5.3582627E-2,1.8921355E-2,-2.8198028E-2,1.2633959E-2,-3.187531E-2,9.237359E-3,-2.7499551E-2,3.0791087E-2,1.2240837E-2,1.833383E-2,1.1042139E-3,2.0203548E-3,-4.0341015E-3,-1.9929236E-2,1.3053822E-2,-3.7202183E-2,-1.0699103E-2,1.2536399E-2,-1.033798E-2],"categories":[],"categories_nodes":[],"categories_segments":[],"categories_sizes":[],"default_left":[0,0,0,0,0,0,0,0,0,0,0,0,0,0,0,0,0,0,0,0,0,0,0,0,0,0,0,0,0,0,0,0,0,0,0,0,0,0,0,0,0,0,0,0,0,0,0,0,0,0,0,0,0,0,0,0,0,0,0,0,0,0,0,0,0,0,0,0,0,0,0,0,0,0,0,0,0,0,0,0,0,0,0,0,0,0,0,0,0,0,0,0,0,0,0],"id":8,"left_children":[1,3,5,7,9,11,13,15,17,19,21,23,25,-1,-1,27,29,31,33,35,37,39,41,43,45,47,49,51,53,55,57,59,61,-1,-1,63,65,67,69,71,73,75,77,79,81,83,85,87,89,91,93,-1,-1,-1,-1,-1,-1,-1,-1,-1,-1,-1,-1,-1,-1,-1,-1,-1,-1,-1,-1,-1,-1,-1,-1,-1,-1,-1,-1,-1,-1,-1,-1,-1,-1,-1,-1,-1,-1,-1,-1,-1,-1,-1,-1],"loss_changes":[1.6802126E1,7.1325264E0,1.11086E1,6.194457E0,6.5944157E0,9.349269E0,2.792305E0,3.7857103E0,2.9571025E0,3.2598286E0,5.11561E0,8.062916E0,8.604574E0,0E0,0E0,1.7051842E0,3.505597E0,1.6502256E0,3.7750773E0,3.6986141E0,3.6349301E0,7.092579E0,9.045389E0,7.8102937E0,2.1322918E0,5.0326815E0,1.6033043E1,1.1547627E0,1.0637783E0,4.820275E0,1.5620985E0,6.802891E-1,1.2430836E0,0E0,0E0,5.1678233E0,6.521516E0,3.0195227E0,4.357338E0,4.401182E0,3.956151E0,9.618505E0,2.3393703E0,9.775291E0,3.5639715E0,2.8079014E0,3.0602016E0,4.2207556E0,5.2641087E0,9.577185E0,2.0196472E1,0E0,0E0,0E0,0E0,0E0,0E0,0E0,0E0,0E0,0E0,0E0,0E0,0E0,0E0,0E0,0E0,0E0,0E0,0E0,0E0,0E0,0E0,0E0,0E0,0E0,0E0,0E0,0E0,0E0,0E0,0E0,0E0,0E0,0E0,0E0,0E0,0E0,0E0,0E0,0E0,0E0,0E0,0E0,0E0],"parents":[2147483647,0,0,1,1,2,2,3,3,4,4,5,5,6,6,7,7,8,8,9,9,10,10,11,11,12,12,15,15,16,16,17,17,18,18,19,19,20,20,21,21,22,22,23,23,24,24,25,25,26,26,27,27,28,28,29,29,30,30,31,31,32,32,35,35,36,36,37,37,38,38,39,39,40,40,41,41,42,42,43,43,44,44,45,45,46,46,47,47,48,48,49,49,50,50],"right_children":[2,4,6,8,10,12,14,16,18,20,22,24,26,-1,-1,28,30,32,34,36,38,40,42,44,46,48,50,52,54,56,58,60,62,-1,-1,64,66,68,70,72,74,76,78,80,82,84,86,88,90,92,94,-1,-1,-1,-1,-1,-1,-1,-1,-1,-1,-1,-1,-1,-1,-1,-1,-1,-1,-1,-1,-1,-1,-1,-1,-1,-1,-1,-1,-1,-1,-1,-1,-1,-1,-1,-1,-1,-1,-1,-1,-1,-1,-1,-1],"split_conditions":[9.9E1,1.5E1,1.121E3,1.33E2,3E0,1.2E1,2E0,1.12E2,1E0,1.14E2,3E0,2E0,1.45E2,5.6694745E-4,-9.228321E-2,3E0,1.1E1,3E0,1.45E2,1E2,1.19E2,1.22E2,3E0,1.47E2,2E0,1.54E2,2E0,2E0,1.06E2,1.25E2,1E0,9.3E1,1.43E2,-6.5904304E-2,2.3214055E-2,3E0,2E0,3E0,2E0,1.19E2,3E0,9.1E1,1.63E2,2E0,1.22E2,1E0,1.1E2,2.2E1,1E0,1.02E2,1.12E2,1.0321736E-3,-4.4996113E-2,2.4755677E-2,-1.2025744E-2,-6.2103994E-2,2.875944E-2,2.6699234E-2,-2.1912588E-2,3.312966E-2,-4.0853917E-4,-9.860111E-4,-4.3818187E-2,2.2961587E-2,-1.8955218E-2,-3.416213E-2,-8.289955E-3,2.1393768E-2,-9.210396E-3,-1.1350847E-2,-3.8170101E-4,-2.7339963E-2,-6.569707E-2,-1.976983E-2,1.346053E-3,-2.0925535E-3,-5.3582627E-2,1.8921355E-2,-2.8198028E-2,1.2633959E-2,-3.187531E-2,9.237359E-3,-2.7499551E-2,3.0791087E-2,1.2240837E-2,1.833383E-2,1.1042139E-3,2.0203548E-3,-4.0341015E-3,-1.9929236E-2,1.3053822E-2,-3.7202183E-2,-1.0699103E-2,1.2536399E-2,-1.033798E-2],"split_indices":[11,1,0,0,4,1,5,0,3,0,15,6,11,0,0,9,1,8,0,0,0,0,8,11,4,0,6,13,0,0,23,11,0,0,0,17,13,9,5,0,13,11,0,8,0,18,0,1,24,0,0,0,0,0,0,0,0,0,0,0,0,0,0,0,0,0,0,0,0,0,0,0,0,0,0,0,0,0,0,0,0,0,0,0,0,0,0,0,0,0,0,0,0,0,0],"split_type":[0,0,0,0,0,0,0,0,0,0,0,0,0,0,0,0,0,0,0,0,0,0,0,0,0,0,0,0,0,0,0,0,0,0,0,0,0,0,0,0,0,0,0,0,0,0,0,0,0,0,0,0,0,0,0,0,0,0,0,0,0,0,0,0,0,0,0,0,0,0,0,0,0,0,0,0,0,0,0,0,0,0,0,0,0,0,0,0,0,0,0,0,0,0,0],"sum_hessian":[5.495E3,8.81E2,4.614E3,7.6E1,8.05E2,4.61E3,4E0,6E1,1.6E1,5.84E2,2.21E2,3.75E2,4.235E3,1E0,3E0,1.1E1,4.9E1,1.1E1,5E0,1.57E2,4.27E2,1.5E2,7.1E1,1.86E2,1.89E2,3.62E3,6.15E2,5E0,6E0,4E0,4.5E1,5E0,6E0,4E0,1E0,2.8E1,1.29E2,3.6E1,3.91E2,5.6E1,9.4E1,3.9E1,3.2E1,5.1E1,1.35E2,8.5E1,1.04E2,3.554E3,6.6E1,2.31E2,3.84E2,2E0,3E0,3E0,3E0,2E0,2E0,4.4E1,1E0,2E0,3E0,4E0,2E0,1.6E1,1.2E1,3.2E1,9.7E1,2.5E1,1.1E1,1.41E2,2.5E2,4.7E1,9E0,5.9E1,3.5E1,2.6E1,1.3E1,3E1,2E0,1.9E1,3.2E1,1.29E2,6E0,4.2E1,4.3E1,5.8E1,4.6E1,3.239E3,3.15E2,5.1E1,1.5E1,4.1E1,1.9E2,1.92E2,1.92E2],"tree_param":{"num_deleted":"0","num_feature":"25","num_nodes":"95","size_leaf_vector":"1"}},{"base_weights":[9.722335E-3,-1.6073453E-1,3.3925127E-2,-3.1695652E-1,-1.04114465E-1,1.6990486E-1,2.2045277E-2,-7.2979885E-1,-1.8399236E-1,-1.6053385E-1,1.4106956E-1,4.6032274E-1,1.2949683E-1,3.9043173E-2,-6.0663544E-2,-9.1611284E-1,-8.757396E-2,-9.62681E-2,-4.9951488E-1,-1.3368458E-1,-5.3743887E-1,6.341205E-1,6.8954304E-2,2.9944986E-1,6.6252863E-1,1.7665657E-1,-1.7780623E-1,1.10695675E-1,1.3849405E-2,-1.8773293E-1,1.8918736E-2,-2.9695258E-1,-1.1271324E0,-6.990871E-1,5.385348E-1,-1.641549E-1,3.1282654E-1,-1.4922009E0,-7.071087E-2,-2.1505071E-1,1.6868511E-2,-5.201708E-2,-8.199213E-1,3.8707633E-2,-4.402669E-2,-7.1010745E-1,1.1678373E-1,-1.1776808E-1,4.7222543E-1,-3.9630295E-3,7.0574176E-1,3.877195E-1,1.403728E-1,9.9047475E-2,-5.7644296E-1,1.5783815E-2,1.9634867E-1,-1.8607743E-1,2.72037E-2,5.3392905E-1,-2.1788315E-1,2.5517734E-2,-7.640536E-2,-4.3352835E-2,2.2328144E-2,-5.9252597E-2,6.573373E-3,-6.559573E-2,1.7552262E-2,3.760835E-2,3.7090182E-3,4.0308926E-3,-1.2636271E-2,2.1021102E-2,-1.4678061E-2,-2.82112E-2,-8.383668E-2,-2.7621904E-2,1.2201085E-2,-1.263988E-2,7.5466195E-3,-1.1881494E-3,1.0876301E-2,2.2969756E-2,-1.50610525E-2,-1.863516E-2,-7.0278056E-2,2.5714637E-4,-3.5591484E-3,2.7939076E-2,-5.8351256E-2,7.545061E-3,-4.0459935E-2,-5.245347E-2,6.488913E-3,6.274247E-3,3.246396E-2,1.4440839E-2,3.6890127E-2,2.6898623E-2,-1.6844189E-2,-2.7589051E-2,8.106716E-3,1.478719E-2,-3.357315E-2,-2.9179284E-3,-6.407571E-2,3.4910652E-3,-7.7411695E-3,2.952669E-2,9.026706E-3,-1.3464156E-2,2.1053595E-2,-4.070248E-5,7.0301294E-3,2.9497564E-2,-2.0578862E-3,-5.0239045E-2,-8.642969E-3,2.5909094E-3,-1.2793876E-2],"categories":[],"categories_nodes":[],"categories_segments":[],"categories_sizes":[],"default_left":[0,0,0,0,0,0,0,0,0,0,0,0,0,0,0,0,0,0,0,0,0,0,0,0,0,0,0,0,0,0,0,0,0,0,0,0,0,0,0,0,0,0,0,0,0,0,0,0,0,0,0,0,0,0,0,0,0,0,0,0,0,0,0,0,0,0,0,0,0,0,0,0,0,0,0,0,0,0,0,0,0,0,0,0,0,0,0,0,0,0,0,0,0,0,0,0,0,0,0,0,0,0,0,0,0,0,0,0,0,0,0,0,0,0,0,0,0,0,0,0,0],"id":9,"left_children":[1,3,5,7,9,11,13,15,17,19,21,23,25,27,29,31,33,35,37,39,41,43,45,47,49,51,53,55,57,59,61,63,65,67,69,71,73,75,77,79,81,83,85,-1,87,89,91,93,95,-1,97,99,101,103,105,107,109,111,113,115,117,119,-1,-1,-1,-1,-1,-1,-1,-1,-1,-1,-1,-1,-1,-1,-1,-1,-1,-1,-1,-1,-1,-1,-1,-1,-1,-1,-1,-1,-1,-1,-1,-1,-1,-1,-1,-1,-1,-1,-1,-1,-1,-1,-1,-1,-1,-1,-1,-1,-1,-1,-1,-1,-1,-1,-1,-1,-1,-1,-1],"loss_changes":[2.276189E1,6.034876E0,7.8003435E0,9.856291E0,7.008378E0,4.4936514E0,6.250081E0,5.184614E0,3.7992902E0,4.0873184E0,3.3341422E0,1.3304892E0,4.9877887E0,6.654227E0,7.668805E0,4.107563E0,4.588094E0,3.106286E0,1.2664518E1,4.7198477E0,3.6596742E0,1.1736317E0,3.2129438E0,2.0739954E0,6.9703865E-1,2.220049E0,5.133841E0,7.7930784E0,7.291169E0,6.4697475E0,4.8065133E0,4.626007E0,1.9782314E0,4.321841E0,5.3941023E-1,2.0799406E0,1.167333E0,5.951252E-1,3.4703424E0,3.4918365E0,1.1139791E0,1.5402848E0,3.9285917E0,0E0,4.371879E-3,3.5510006E0,2.6494842E0,2.2110085E0,1.146359E0,0E0,4.088211E-2,4.862808E0,3.9303536E0,4.4421654E0,6.865654E0,4.2147584E0,3.0352516E0,8.752013E0,8.130523E0,4.1089296E-1,9.781895E0,3.4620423E0,0E0,0E0,0E0,0E0,0E0,0E0,0E0,0E0,0E0,0E0,0E0,0E0,0E0,0E0,0E0,0E0,0E0,0E0,0E0,0E0,0E0,0E0,0E0,0E0,0E0,0E0,0E0,0E0,0E0,0E0,0E0,0E0,0E0,0E0,0E0,0E0,0E0,0E0,0E0,0E0,0E0,0E0,0E0,0E0,0E0,0E0,0E0,0E0,0E0,0E0,0E0,0E0,0E0,0E0,0E0,0E0,0E0,0E0,0E0],"parents":[2147483647,0,0,1,1,2,2,3,3,4,4,5,5,6,6,7,7,8,8,9,9,10,10,11,11,12,12,13,13,14,14,15,15,16,16,17,17,18,18,19,19,20,20,21,21,22,22,23,23,24,24,25,25,26,26,27,27,28,28,29,29,30,30,31,31,32,32,33,33,34,34,35,35,36,36,37,37,38,38,39,39,40,40,41,41,42,42,44,44,45,45,46,46,47,47,48,48,50,50,51,51,52,52,53,53,54,54,55,55,56,56,57,57,58,58,59,59,60,60,61,61],"right_children":[2,4,6,8,10,12,14,16,18,20,22,24,26,28,30,32,34,36,38,40,42,44,46,48,50,52,54,56,58,60,62,64,66,68,70,72,74,76,78,80,82,84,86,-1,88,90,92,94,96,-1,98,100,102,104,106,108,110,112,114,116,118,120,-1,-1,-1,-1,-1,-1,-1,-1,-1,-1,-1,-1,-1,-1,-1,-1,-1,-1,-1,-1,-1,-1,-1,-1,-1,-1,-1,-1,-1,-1,-1,-1,-1,-1,-1,-1,-1,-1,-1,-1,-1,-1,-1,-1,-1,-1,-1,-1,-1,-1,-1,-1,-1,-1,-1,-1,-1,-1,-1],"split_conditions":[9.6E1,1.15E2,1.2E1,2E0,9.3E1,1.2E2,1.42E2,3E0,9.3E1,9.2E1,1.19E2,3E0,1.21E2,1.7E1,1.6E1,2E0,3E0,9.1E1,2E0,3E0,1.28E2,1E0,1.2E2,2E0,1.08E2,1.04E2,3E0,2E0,1.01E2,9.4E1,1.66E2,2E0,1E0,2.1E1,3E0,2E0,1E0,1.07E2,1.06E2,1.51E2,1E0,2E0,3E0,3.8707633E-2,1.16E2,2E0,1.63E2,1.05E2,1.16E2,-3.9630295E-3,9.7E1,1E0,1.05E2,3E0,1.39E2,3E0,1.02E2,1E0,1E0,1.6E2,9.8E1,1E0,-7.640536E-2,-4.3352835E-2,2.2328144E-2,-5.9252597E-2,6.573373E-3,-6.559573E-2,1.7552262E-2,3.760835E-2,3.7090182E-3,4.0308926E-3,-1.2636271E-2,2.1021102E-2,-1.4678061E-2,-2.82112E-2,-8.383668E-2,-2.7621904E-2,1.2201085E-2,-1.263988E-2,7.5466195E-3,-1.1881494E-3,1.0876301E-2,2.2969756E-2,-1.50610525E-2,-1.863516E-2,-7.0278056E-2,2.5714637E-4,-3.5591484E-3,2.7939076E-2,-5.8351256E-2,7.545061E-3,-4.0459935E-2,-5.245347E-2,6.488913E-3,6.274247E-3,3.246396E-2,1.4440839E-2,3.6890127E-2,2.6898623E-2,-1.6844189E-2,-2.7589051E-2,8.106716E-3,1.478719E-2,-3.357315E-2,-2.9179284E-3,-6.407571E-2,3.4910652E-3,-7.7411695E-3,2.952669E-2,9.026706E-3,-1.3464156E-2,2.1053595E-2,-4.070248E-5,7.0301294E-3,2.9497564E-2,-2.0578862E-3,-5.0239045E-2,-8.642969E-3,2.5909094E-3,-1.2793876E-2],"split_indices":[11,0,1,16,11,11,11,6,11,11,0,16,0,1,1,4,2,11,7,7,0,18,0,5,0,0,13,6,11,0,11,17,21,1,17,6,21,0,0,0,24,10,4,0,0,2,0,11,0,0,11,24,0,17,11,2,11,21,24,11,0,20,0,0,0,0,0,0,0,0,0,0,0,0,0,0,0,0,0,0,0,0,0,0,0,0,0,0,0,0,0,0,0,0,0,0,0,0,0,0,0,0,0,0,0,0,0,0,0,0,0,0,0,0,0,0,0,0,0,0,0],"split_type":[0,0,0,0,0,0,0,0,0,0,0,0,0,0,0,0,0,0,0,0,0,0,0,0,0,0,0,0,0,0,0,0,0,0,0,0,0,0,0,0,0,0,0,0,0,0,0,0,0,0,0,0,0,0,0,0,0,0,0,0,0,0,0,0,0,0,0,0,0,0,0,0,0,0,0,0,0,0,0,0,0,0,0,0,0,0,0,0,0,0,0,0,0,0,0,0,0,0,0,0,0,0,0,0,0,0,0,0,0,0,0,0,0,0,0,0,0,0,0,0,0],"sum_hessian":[5.515E3,6.85E2,4.83E3,1.81E2,5.04E2,3.87E2,4.443E3,4.3E1,1.38E2,4.1E2,9.4E1,4.6E1,3.41E2,3.686E3,7.57E2,3.3E1,1E1,1.09E2,2.9E1,3.84E2,2.6E1,1.1E1,8.3E1,2.7E1,1.9E1,2.96E2,4.5E1,9.58E2,2.728E3,2.91E2,4.66E2,9E0,2.4E1,5E0,5E0,9.4E1,1.5E1,8E0,2.1E1,2.49E2,1.35E2,1E1,1.6E1,9E0,2E0,4E0,7.9E1,8E0,1.9E1,1E0,1.8E1,4.2E1,2.54E2,2.7E1,1.8E1,4.55E2,5.03E2,1.7E2,2.558E3,1.1E1,2.8E2,4.65E2,1E0,5E0,4E0,2.3E1,1E0,3E0,2E0,3E0,2E0,2.5E1,6.9E1,1.3E1,2E0,2E0,6E0,8E0,1.3E1,2.26E2,2.3E1,1.13E2,2.2E1,3E0,7E0,1E1,6E0,1E0,1E0,1E0,3E0,7.7E1,2E0,1E0,7E0,7E0,1.2E1,2E0,1.6E1,3.5E1,7E0,7E0,2.47E2,2.2E1,5E0,1.1E1,7E0,3.46E2,1.09E2,1.8E1,4.85E2,1.5E2,2E1,2.052E3,5.06E2,1E1,1E0,1.4E1,2.66E2,4.26E2,3.9E1],"tree_param":{"num_deleted":"0","num_feature":"25","num_nodes":"121","size_leaf_vector":"1"}},{"base_weights":[-3.0874945E-3,1.3396607E-1,-2.0517604E-2,2.0037948E-1,-3.0385401E-2,-1.8611E-2,-7.8160876E-1,2.5772545E-1,9.1537476E-2,6.0525745E-2,-4.4421798E-1,-3.2234732E-2,4.2044237E-2,-1.0714755E0,6.5993726E-2,2.2234322E-1,4.752045E-1,2.121164E-1,-2.7578133E-1,-6.480411E-2,4.1843173E-1,-1.1499228E0,-1.1807592E-1,-9.2477305E-3,-7.005933E-2,-5.6614224E-2,8.882845E-2,-2.110244E-1,-1.4665303E0,3.4945013E-4,4.166615E-3,3.1058875E-1,7.287656E-2,3.5920566E-1,4.109778E-2,-4.0270805E-2,2.97692E-1,-8.453532E-2,-1.5021032E-1,-1.1002228E0,6.264313E-2,8.0465175E-2,5.205433E-1,-2.775632E-1,-1.4841394E0,-4.664555E-1,3.8146305E-1,1.9476553E-2,-7.884985E-2,2.0301414E-1,-8.954214E-2,-2.5260377E-1,6.8738945E-2,1.362357E-1,-3.1327665E-2,-2.1644682E-2,7.2298846E-3,-2.822496E-2,-8.882105E-2,1.7542167E-2,-2.9531404E-2,-2.6647527E-2,8.460417E-3,6.9159977E-3,2.9279787E-2,1.704466E-2,-1.0992991E-2,2.3677634E-2,9.751231E-3,-1.6611833E-2,2.6420569E-2,-7.993795E-2,1.4826948E-2,-8.440141E-3,1.694931E-2,-7.3924935E-3,2.299501E-2,1.16195595E-2,3.008324E-2,1.5590541E-2,-5.1142134E-2,-9.592011E-2,-1.3282756E-2,-4.058489E-2,6.457526E-3,2.9209614E-2,-1.4315128E-2,2.2685442E-3,-2.320674E-3,-9.70221E-3,-1.3525536E-3,-8.0922025E-4,1.7912192E-2,-3.6723812E-3,-1.7209802E-2,-8.972186E-3,-4.5069095E-2,5.3239153E-3,-2.2480778E-2,9.870283E-3,4.9463817E-4,-1.7804578E-2,4.6010483E-3,-1.155138E-5,5.5379275E-4],"categories":[],"categories_nodes":[],"categories_segments":[],"categories_sizes":[],"default_left":[0,0,0,0,0,0,0,0,0,0,0,0,0,0,0,0,0,0,0,0,0,0,0,0,0,0,0,0,0,0,0,0,0,0,0,0,0,0,0,0,0,0,0,0,0,0,0,0,0,0,0,0,0,0,0,0,0,0,0,0,0,0,0,0,0,0,0,0,0,0,0,0,0,0,0,0,0,0,0,0,0,0,0,0,0,0,0,0,0,0,0,0,0,0,0,0,0,0,0,0,0,0,0,0,0],"id":10,"left_children":[1,3,5,7,9,11,13,15,17,19,21,23,25,27,29,31,33,35,37,39,41,43,45,47,49,51,53,55,57,-1,-1,59,61,63,-1,65,67,-1,69,71,73,75,77,79,81,83,85,87,89,91,93,95,97,99,101,-1,103,-1,-1,-1,-1,-1,-1,-1,-1,-1,-1,-1,-1,-1,-1,-1,-1,-1,-1,-1,-1,-1,-1,-1,-1,-1,-1,-1,-1,-1,-1,-1,-1,-1,-1,-1,-1,-1,-1,-1,-1,-1,-1,-1,-1,-1,-1,-1,-1],"loss_changes":[1.2957529E1,6.6861553E0,6.968148E0,2.6977673E0,6.6859794E0,3.9686656E0,3.019013E0,2.0873852E0,6.7907157E0,6.5761366E0,7.229343E0,3.4085603E0,4.071424E0,2.749854E0,3.5098214E-3,3.2352362E0,1.2734356E0,2.4957795E0,6.497634E0,1.4452701E1,1.2695045E0,2.5036278E0,4.180606E0,4.8797574E0,7.9027724E0,6.99465E0,3.4106379E0,1.9682541E-1,6.743994E-1,0E0,0E0,5.8303213E0,5.5176973E0,1.4691968E0,0E0,2.1285343E0,1.4603887E0,0E0,4.62253E0,8.830127E0,6.325154E0,9.3430346E-1,5.3806305E-1,2.0759268E0,3.1943626E0,2.983628E0,1.5210118E0,2.9503813E0,4.2491693E0,3.3743849E0,5.647089E0,5.106827E0,3.4517264E0,3.313528E0,6.8428288E0,0E0,8.864216E-5,0E0,0E0,0E0,0E0,0E0,0E0,0E0,0E0,0E0,0E0,0E0,0E0,0E0,0E0,0E0,0E0,0E0,0E0,0E0,0E0,0E0,0E0,0E0,0E0,0E0,0E0,0E0,0E0,0E0,0E0,0E0,0E0,0E0,0E0,0E0,0E0,0E0,0E0,0E0,0E0,0E0,0E0,0E0,0E0,0E0,0E0,0E0,0E0],"parents":[2147483647,0,0,1,1,2,2,3,3,4,4,5,5,6,6,7,7,8,8,9,9,10,10,11,11,12,12,13,13,14,14,15,15,16,16,17,17,18,18,19,19,20,20,21,21,22,22,23,23,24,24,25,25,26,26,27,27,28,28,31,31,32,32,33,33,35,35,36,36,38,38,39,39,40,40,41,41,42,42,43,43,44,44,45,45,46,46,47,47,48,48,49,49,50,50,51,51,52,52,53,53,54,54,56,56],"right_children":[2,4,6,8,10,12,14,16,18,20,22,24,26,28,30,32,34,36,38,40,42,44,46,48,50,52,54,56,58,-1,-1,60,62,64,-1,66,68,-1,70,72,74,76,78,80,82,84,86,88,90,92,94,96,98,100,102,-1,104,-1,-1,-1,-1,-1,-1,-1,-1,-1,-1,-1,-1,-1,-1,-1,-1,-1,-1,-1,-1,-1,-1,-1,-1,-1,-1,-1,-1,-1,-1,-1,-1,-1,-1,-1,-1,-1,-1,-1,-1,-1,-1,-1,-1,-1,-1,-1,-1],"split_conditions":[1.3E1,1.2E2,1.117E3,3E0,3E0,1E0,3E0,1.16E2,3E0,1.24E2,2E0,3E0,2E0,2E0,1.119E3,1.11E2,1E0,2E0,9.8E1,2E0,2E0,3E0,3E0,3E0,9.6E1,2E0,3E0,1.122E3,1.121E3,3.4945013E-4,4.166615E-3,1E0,2E0,3E0,4.109778E-2,2E0,3E0,-8.453532E-2,1E0,3E0,1.22E2,1.31E2,2E0,1.28E2,1.25E2,3E0,1E0,3E0,2E0,2E0,1.44E2,2.2E1,1.44E2,3E0,2E0,-2.1644682E-2,1.123E3,-2.822496E-2,-8.882105E-2,1.7542167E-2,-2.9531404E-2,-2.6647527E-2,8.460417E-3,6.9159977E-3,2.9279787E-2,1.704466E-2,-1.0992991E-2,2.3677634E-2,9.751231E-3,-1.6611833E-2,2.6420569E-2,-7.993795E-2,1.4826948E-2,-8.440141E-3,1.694931E-2,-7.3924935E-3,2.299501E-2,1.16195595E-2,3.008324E-2,1.5590541E-2,-5.1142134E-2,-9.592011E-2,-1.3282756E-2,-4.058489E-2,6.457526E-3,2.9209614E-2,-1.4315128E-2,2.2685442E-3,-2.320674E-3,-9.70221E-3,-1.3525536E-3,-8.0922025E-4,1.7912192E-2,-3.6723812E-3,-1.7209802E-2,-8.972186E-3,-4.5069095E-2,5.3239153E-3,-2.2480778E-2,9.870283E-3,4.9463817E-4,-1.7804578E-2,4.6010483E-3,-1.155138E-5,5.5379275E-4],"split_indices":[1,0,0,10,17,24,7,0,15,0,16,14,17,5,0,0,24,17,0,10,14,13,14,17,0,10,5,0,0,0,0,20,16,5,0,8,7,0,19,16,0,0,2,0,0,13,23,16,5,15,0,1,0,15,10,0,0,0,0,0,0,0,0,0,0,0,0,0,0,0,0,0,0,0,0,0,0,0,0,0,0,0,0,0,0,0,0,0,0,0,0,0,0,0,0,0,0,0,0,0,0,0,0,0,0],"split_type":[0,0,0,0,0,0,0,0,0,0,0,0,0,0,0,0,0,0,0,0,0,0,0,0,0,0,0,0,0,0,0,0,0,0,0,0,0,0,0,0,0,0,0,0,0,0,0,0,0,0,0,0,0,0,0,0,0,0,0,0,0,0,0,0,0,0,0,0,0,0,0,0,0,0,0,0,0,0,0,0,0,0,0,0,0,0,0,0,0,0,0,0,0,0,0,0,0,0,0,0,0,0,0,0,0],"sum_hessian":[5.422E3,6.11E2,4.811E3,4.35E2,1.76E2,4.8E3,1.1E1,2.84E2,1.51E2,1.45E2,3.1E1,3.92E3,8.8E2,8E0,3E0,2.46E2,3.8E1,1.14E2,3.7E1,1.08E2,3.7E1,9E0,2.2E1,2.439E3,1.481E3,2.83E2,5.97E2,3E0,5E0,1E0,2E0,1.54E2,9.2E1,3E1,8E0,2.9E1,8.5E1,2E0,3.5E1,1.1E1,9.7E1,9E0,2.8E1,3E0,6E0,1.3E1,9E0,1.727E3,7.12E2,9.8E1,1.383E3,1.1E2,1.73E2,4.28E2,1.69E2,1E0,2E0,2E0,3E0,1.48E2,6E0,1.2E1,8E1,1.6E1,1.4E1,9E0,2E1,3E1,5.5E1,2.8E1,7E0,8E0,3E0,5.3E1,4.4E1,6E0,3E0,7E0,2.1E1,2E0,1E0,4E0,2E0,8E0,5E0,7E0,2E0,1.24E3,4.87E2,2.2E2,4.92E2,4.1E1,5.7E1,1.302E3,8.1E1,1E2,1E1,1.62E2,1.1E1,2.88E2,1.4E2,4.6E1,1.23E2,1E0,1E0],"tree_param":{"num_deleted":"0","num_feature":"25","num_nodes":"105","size_leaf_vector":"1"}},{"base_weights":[-1.3755967E-3,-1.3959157E-1,2.6432738E-2,6.5643474E-2,-1.9198018E-1,1.2012728E-1,1.2528644E-2,2.731766E-1,-7.3915705E-2,-2.0374818E-1,2.8221354E-1,3.311141E-1,7.2205305E-2,3.1705115E-2,-7.397045E-2,3.4779286E-1,-5.0135165E-1,-3.6156226E-2,-5.4219134E-2,-1.1954717E-1,-2.8188768E-1,5.4404414E-1,6.613547E-2,6.074969E-1,2.6139647E-1,1.462798E-1,-5.01505E-2,1.5131586E-2,9.978474E-2,-2.7904633E-1,4.0071614E-2,1.3987666E-1,5.041418E-1,2.3355764E-1,-5.5546153E-2,-7.5220734E-2,3.1871128E-1,5.8832485E-2,-2.0401324E-1,-4.1181806E-1,-1.9900273E-1,3.6287904E-4,6.196912E-1,6.815374E-4,8.41209E-2,7.105714E-1,3.5117942E-1,1.34497145E-2,3.341242E-1,-3.422235E-4,2.3457016E-1,-3.30578E-1,2.668043E-2,4.6702977E-2,-5.9329547E-2,-2.3489967E-1,1.3465609E-1,6.521072E-2,-4.1672924E-1,9.900001E-2,-9.300696E-2,-1.8524174E-2,1.667506E-2,3.4796562E-2,1.5330568E-2,2.2288179E-2,7.117232E-4,-1.8277762E-2,-1.3541159E-3,-8.837114E-3,3.1353828E-2,-3.4300946E-3,1.479275E-2,7.358236E-4,-1.4346644E-2,-1.3377438E-2,-3.929884E-2,-1.2199522E-2,5.7508457E-3,4.0706404E-2,1.3516575E-2,5.3484063E-3,1.7265826E-3,3.8526136E-2,-1.7198802E-3,-4.302514E-3,2.1296686E-2,8.302289E-3,-7.596179E-2,3.5537116E-2,1.2448718E-2,-1.1157672E-2,9.662673E-3,1.2599428E-2,-2.2318678E-2,-8.3272485E-3,-7.0634685E-2,-1.8342822E-4,2.3947543E-2,4.285471E-3,-1.2139478E-3,3.351922E-3,-6.2249727E-3,-1.0220182E-4,-3.6863502E-2,8.045427E-3,-6.0319416E-3,2.3063278E-2,-5.0209896E-3,-2.2395069E-2,2.8874924E-2,-3.3041154E-4,9.611132E-3,-1.2370104E-2,1.2264906E-2],"categories":[],"categories_nodes":[],"categories_segments":[],"categories_sizes":[],"default_left":[0,0,0,0,0,0,0,0,0,0,0,0,0,0,0,0,0,0,0,0,0,0,0,0,0,0,0,0,0,0,0,0,0,0,0,0,0,0,0,0,0,0,0,0,0,0,0,0,0,0,0,0,0,0,0,0,0,0,0,0,0,0,0,0,0,0,0,0,0,0,0,0,0,0,0,0,0,0,0,0,0,0,0,0,0,0,0,0,0,0,0,0,0,0,0,0,0,0,0,0,0,0,0,0,0,0,0,0,0,0,0,0,0,0,0],"id":11,"left_children":[1,3,5,7,9,11,13,15,17,19,21,23,25,27,29,31,33,35,-1,37,39,41,43,45,47,49,51,53,55,57,59,61,63,65,-1,67,69,71,73,75,77,-1,79,-1,81,83,85,87,89,91,93,95,97,99,101,103,105,107,109,111,113,-1,-1,-1,-1,-1,-1,-1,-1,-1,-1,-1,-1,-1,-1,-1,-1,-1,-1,-1,-1,-1,-1,-1,-1,-1,-1,-1,-1,-1,-1,-1,-1,-1,-1,-1,-1,-1,-1,-1,-1,-1,-1,-1,-1,-1,-1,-1,-1,-1,-1,-1,-1,-1,-1],"loss_changes":[2.0904947E1,9.807657E0,5.897291E0,5.4073386E0,4.108803E0,5.890971E0,6.544445E0,4.508797E0,4.2341204E0,4.631113E0,9.823848E-1,1.9222288E0,4.339662E0,3.6418347E0,1.6756472E1,2.1724977E0,3.3953226E0,1.5350106E0,0E0,5.1799936E0,3.8703728E0,3.203528E-1,9.240888E-3,3.0527735E-1,1.582375E0,3.8577828E0,3.9085562E0,6.1102567E0,7.4076357E0,1.2161144E1,3.6244187E0,3.186922E0,1.2641058E0,1.7982152E-1,0E0,1.3737481E0,1.791418E0,3.3730302E0,4.2301397E0,7.4548187E0,3.2207708E0,0E0,2.554145E-1,0E0,5.3700246E-3,6.517701E-1,2.9812992E-1,5.16378E0,2.003734E0,4.9174128E0,2.3186169E0,6.6873293E0,1.9645687E0,5.055054E0,6.3825364E0,7.017279E0,3.859723E0,4.900629E0,5.930231E0,3.1516943E0,7.477724E0,0E0,0E0,0E0,0E0,0E0,0E0,0E0,0E0,0E0,0E0,0E0,0E0,0E0,0E0,0E0,0E0,0E0,0E0,0E0,0E0,0E0,0E0,0E0,0E0,0E0,0E0,0E0,0E0,0E0,0E0,0E0,0E0,0E0,0E0,0E0,0E0,0E0,0E0,0E0,0E0,0E0,0E0,0E0,0E0,0E0,0E0,0E0,0E0,0E0,0E0,0E0,0E0,0E0,0E0],"parents":[2147483647,0,0,1,1,2,2,3,3,4,4,5,5,6,6,7,7,8,8,9,9,10,10,11,11,12,12,13,13,14,14,15,15,16,16,17,17,19,19,20,20,21,21,22,22,23,23,24,24,25,25,26,26,27,27,28,28,29,29,30,30,31,31,32,32,33,33,35,35,36,36,37,37,38,38,39,39,40,40,42,42,44,44,45,45,46,46,47,47,48,48,49,49,50,50,51,51,52,52,53,53,54,54,55,55,56,56,57,57,58,58,59,59,60,60],"right_children":[2,4,6,8,10,12,14,16,18,20,22,24,26,28,30,32,34,36,-1,38,40,42,44,46,48,50,52,54,56,58,60,62,64,66,-1,68,70,72,74,76,78,-1,80,-1,82,84,86,88,90,92,94,96,98,100,102,104,106,108,110,112,114,-1,-1,-1,-1,-1,-1,-1,-1,-1,-1,-1,-1,-1,-1,-1,-1,-1,-1,-1,-1,-1,-1,-1,-1,-1,-1,-1,-1,-1,-1,-1,-1,-1,-1,-1,-1,-1,-1,-1,-1,-1,-1,-1,-1,-1,-1,-1,-1,-1,-1,-1,-1,-1,-1],"split_conditions":[1E2,1.6E1,1.3E1,3E0,2.3E1,1.23E2,1.42E2,1E0,1E0,1E0,2E0,2E0,3E0,1E0,1.6E1,9.5E1,2E0,1E0,-5.4219134E-2,2E0,2E0,1E0,3E0,1E0,2E0,1.33E2,2E0,3E0,1.09E2,2E0,3E0,2E0,1.4E1,1.4E1,-5.5546153E-2,3E0,9.3E1,3E0,2E0,9.2E1,1E0,3.6287904E-4,3E0,6.815374E-4,2E0,1E0,2E0,1E0,2E0,3E0,1.69E2,1E0,1.65E2,3E0,2E0,3E0,2.2E1,2E0,1.61E2,1.8E1,3E0,-1.8524174E-2,1.667506E-2,3.4796562E-2,1.5330568E-2,2.2288179E-2,7.117232E-4,-1.8277762E-2,-1.3541159E-3,-8.837114E-3,3.1353828E-2,-3.4300946E-3,1.479275E-2,7.358236E-4,-1.4346644E-2,-1.3377438E-2,-3.929884E-2,-1.2199522E-2,5.7508457E-3,4.0706404E-2,1.3516575E-2,5.3484063E-3,1.7265826E-3,3.8526136E-2,-1.7198802E-3,-4.302514E-3,2.1296686E-2,8.302289E-3,-7.596179E-2,3.5537116E-2,1.2448718E-2,-1.1157672E-2,9.662673E-3,1.2599428E-2,-2.2318678E-2,-8.3272485E-3,-7.0634685E-2,-1.8342822E-4,2.3947543E-2,4.285471E-3,-1.2139478E-3,3.351922E-3,-6.2249727E-3,-1.0220182E-4,-3.6863502E-2,8.045427E-3,-6.0319416E-3,2.3063278E-2,-5.0209896E-3,-2.2395069E-2,2.8874924E-2,-3.3041154E-4,9.611132E-3,-1.2370104E-2,1.2264906E-2],"split_indices":[11,1,1,14,1,11,11,22,23,12,16,15,10,24,1,11,5,19,0,17,16,12,16,3,14,11,14,17,11,7,14,17,1,1,0,13,11,5,9,11,21,0,9,0,17,21,10,22,10,7,11,24,11,16,13,16,1,15,11,1,9,0,0,0,0,0,0,0,0,0,0,0,0,0,0,0,0,0,0,0,0,0,0,0,0,0,0,0,0,0,0,0,0,0,0,0,0,0,0,0,0,0,0,0,0,0,0,0,0,0,0,0,0,0,0],"split_type":[0,0,0,0,0,0,0,0,0,0,0,0,0,0,0,0,0,0,0,0,0,0,0,0,0,0,0,0,0,0,0,0,0,0,0,0,0,0,0,0,0,0,0,0,0,0,0,0,0,0,0,0,0,0,0,0,0,0,0,0,0,0,0,0,0,0,0,0,0,0,0,0,0,0,0,0,0,0,0,0,0,0,0,0,0,0,0,0,0,0,0,0,0,0,0,0,0,0,0,0,0,0,0,0,0,0,0,0,0,0,0,0,0,0,0],"sum_hessian":[5.437E3,9.1E2,4.527E3,1.85E2,7.25E2,5.84E2,3.943E3,7.4E1,1.11E2,7.08E2,1.7E1,1.07E2,4.77E2,3.228E3,7.15E2,6.8E1,6E0,1.08E2,3E0,3.42E2,3.66E2,7E0,1E1,2E1,8.7E1,2.97E2,1.8E2,2.597E3,6.31E2,2.55E2,4.6E2,3E1,3.8E1,3E0,3E0,9.8E1,1E1,1.1E2,2.32E2,1.41E2,2.25E2,1E0,6E0,3E0,7E0,1.3E1,7E0,2E1,6.7E1,1.12E2,1.85E2,3.8E1,1.42E2,1.824E3,7.73E2,5.9E1,5.72E2,7.3E1,1.82E2,3.19E2,1.41E2,8E0,2.2E1,1.8E1,2E1,1E0,2E0,1.3E1,8.5E1,4E0,6E0,7.2E1,3.8E1,6.4E1,1.68E2,1.03E2,3.8E1,1.97E2,2.8E1,3E0,3E0,4E0,3E0,1.2E1,1E0,1E0,6E0,1.9E1,1E0,1.1E1,5.6E1,5.2E1,6E1,1.81E2,4E0,3.4E1,4E0,1.34E2,8E0,1.177E3,6.47E2,2.63E2,5.1E2,4.1E1,1.8E1,5.19E2,5.3E1,2.1E1,5.2E1,1.77E2,5E0,1.5E2,1.69E2,9.7E1,4.4E1],"tree_param":{"num_deleted":"0","num_feature":"25","num_nodes":"115","size_leaf_vector":"1"}},{"base_weights":[8.799665E-5,-1.13426454E-1,2.3104733E-2,4.806581E-2,-1.6157874E-1,2.4558982E-2,-1.0840368E0,-1.29589485E-2,3.8132083E-1,-2.420189E-1,-1.3783156E-2,8.846968E-2,4.990058E-3,1.1244893E-1,-8.5519604E-2,1.603249E-1,-7.147437E-2,5.540134E-2,6.4984256E-1,-1.5529628E-1,-4.4598114E-1,2.361079E-2,-2.9128537E-1,2.888776E-1,7.060631E-2,-1.4830691E-2,8.665236E-2,-1.1839867E-4,8.552069E-3,2.7712315E-1,-8.528454E-1,-2.4794936E-2,-5.996685E-1,-5.9553033E-1,4.054185E-1,3.446259E-2,2.2304566E-1,-2.1823804E-1,5.3792365E-2,-6.126481E-1,-1.863568E-1,-3.192719E-2,2.322621E-1,4.0216342E-1,-5.617287E-1,1.6483116E-1,5.190715E-1,1.1577603E-1,-1.2998662E-2,-6.415209E-2,2.0949325E-2,1.3179104E-1,-3.154879E-2,4.6063806E-3,2.3800595E-2,7.9194905E-4,-5.3698815E-2,-2.8982614E-3,1.8288849E-2,-1.0043419E-2,-6.2367585E-2,-6.91002E-2,7.1603777E-3,4.956484E-3,3.2206878E-2,1.9113148E-2,-2.3847222E-3,-1.916064E-3,-1.6048415E-2,-4.1932776E-3,1.6087236E-2,-3.8833972E-2,-1.00514125E-2,-2.6245344E-2,2.7624757E-3,-1.4983097E-2,1.2375537E-3,1.589225E-2,-1.5109477E-2,3.0705482E-3,2.8115226E-2,-4.0423468E-2,1.1549557E-2,1.2541971E-2,-5.2949507E-2,1.8281747E-3,2.959486E-2,1.089373E-2,2.817658E-3,-8.727424E-3,2.636242E-3,-8.107295E-3,-3.0440846E-4,3.701904E-3,-2.343512E-3,1.1100098E-2,3.6007718E-3,-9.638841E-3,1.5915222E-2],"categories":[],"categories_nodes":[],"categories_segments":[],"categories_sizes":[],"default_left":[0,0,0,0,0,0,0,0,0,0,0,0,0,0,0,0,0,0,0,0,0,0,0,0,0,0,0,0,0,0,0,0,0,0,0,0,0,0,0,0,0,0,0,0,0,0,0,0,0,0,0,0,0,0,0,0,0,0,0,0,0,0,0,0,0,0,0,0,0,0,0,0,0,0,0,0,0,0,0,0,0,0,0,0,0,0,0,0,0,0,0,0,0,0,0,0,0,0,0],"id":12,"left_children":[1,3,5,7,9,11,13,15,17,19,21,23,25,27,-1,29,31,33,35,37,39,41,43,45,47,49,51,-1,-1,53,55,57,59,61,63,-1,65,67,69,71,73,75,77,79,81,83,85,87,89,91,93,95,97,-1,-1,-1,-1,-1,-1,-1,-1,-1,-1,-1,-1,-1,-1,-1,-1,-1,-1,-1,-1,-1,-1,-1,-1,-1,-1,-1,-1,-1,-1,-1,-1,-1,-1,-1,-1,-1,-1,-1,-1,-1,-1,-1,-1,-1,-1],"loss_changes":[1.43203945E1,7.192993E0,7.3636675E0,4.336681E0,8.46142E0,5.6925783E0,4.6888814E0,1.8467592E0,2.8520412E0,8.084972E0,2.6218572E0,3.7994204E0,5.6437526E0,2.0587228E-2,0E0,5.679823E0,3.338321E0,3.8868346E0,1.4902115E-1,4.288872E0,5.8139267E0,2.5915556E0,5.852066E0,2.3987026E0,3.7061667E0,4.95315E0,3.6375952E0,0E0,0E0,1.5014741E0,9.774747E-1,1.6535808E0,2.590704E0,3.683901E0,7.404337E-1,0E0,1.4755134E-1,4.6084223E0,2.8303008E0,5.4479046E0,4.527772E0,2.693346E0,2.2458258E0,4.5658457E-1,4.4898653E0,6.3706427E0,1.0325279E0,3.852395E0,3.6722815E0,6.7131004E0,5.861412E0,2.6424704E0,1.0722125E1,0E0,0E0,0E0,0E0,0E0,0E0,0E0,0E0,0E0,0E0,0E0,0E0,0E0,0E0,0E0,0E0,0E0,0E0,0E0,0E0,0E0,0E0,0E0,0E0,0E0,0E0,0E0,0E0,0E0,0E0,0E0,0E0,0E0,0E0,0E0,0E0,0E0,0E0,0E0,0E0,0E0,0E0,0E0,0E0,0E0,0E0],"parents":[2147483647,0,0,1,1,2,2,3,3,4,4,5,5,6,6,7,7,8,8,9,9,10,10,11,11,12,12,13,13,15,15,16,16,17,17,18,18,19,19,20,20,21,21,22,22,23,23,24,24,25,25,26,26,29,29,30,30,31,31,32,32,33,33,34,34,36,36,37,37,38,38,39,39,40,40,41,41,42,42,43,43,44,44,45,45,46,46,47,47,48,48,49,49,50,50,51,51,52,52],"right_children":[2,4,6,8,10,12,14,16,18,20,22,24,26,28,-1,30,32,34,36,38,40,42,44,46,48,50,52,-1,-1,54,56,58,60,62,64,-1,66,68,70,72,74,76,78,80,82,84,86,88,90,92,94,96,98,-1,-1,-1,-1,-1,-1,-1,-1,-1,-1,-1,-1,-1,-1,-1,-1,-1,-1,-1,-1,-1,-1,-1,-1,-1,-1,-1,-1,-1,-1,-1,-1,-1,-1,-1,-1,-1,-1,-1,-1,-1,-1,-1,-1,-1,-1],"split_conditions":[1E2,1.7E1,1.121E3,2E0,1.36E2,1.16E2,2E0,2E0,2E0,3E0,9.7E1,1.3E1,1E0,1.123E3,-8.5519604E-2,1E0,1E0,9.5E1,9.9E1,2.1E1,3E0,1.53E2,1.4E2,1.05E2,3E0,2E0,3E0,-1.1839867E-4,8.552069E-3,3E0,1.4E1,1E0,1.4E2,1E0,2E0,3.446259E-2,1.2E2,1E0,3E0,3E0,1E0,8.5E1,1.118E3,9.9E1,1.55E2,1.29E2,1.16E2,2E0,2E0,1.12E2,1.14E2,2E0,3E0,4.6063806E-3,2.3800595E-2,7.9194905E-4,-5.3698815E-2,-2.8982614E-3,1.8288849E-2,-1.0043419E-2,-6.2367585E-2,-6.91002E-2,7.1603777E-3,4.956484E-3,3.2206878E-2,1.9113148E-2,-2.3847222E-3,-1.916064E-3,-1.6048415E-2,-4.1932776E-3,1.6087236E-2,-3.8833972E-2,-1.00514125E-2,-2.6245344E-2,2.7624757E-3,-1.4983097E-2,1.2375537E-3,1.589225E-2,-1.5109477E-2,3.0705482E-3,2.8115226E-2,-4.0423468E-2,1.1549557E-2,1.2541971E-2,-5.2949507E-2,1.8281747E-3,2.959486E-2,1.089373E-2,2.817658E-3,-8.727424E-3,2.636242E-3,-8.107295E-3,-3.0440846E-4,3.701904E-3,-2.343512E-3,1.1100098E-2,3.6007718E-3,-9.638841E-3,1.5915222E-2],"split_indices":[11,1,0,6,0,11,6,10,4,4,11,1,24,0,0,22,19,11,11,1,8,0,0,11,16,6,5,0,0,13,1,24,0,3,10,0,0,12,10,7,3,11,0,11,0,0,0,5,7,0,0,4,15,0,0,0,0,0,0,0,0,0,0,0,0,0,0,0,0,0,0,0,0,0,0,0,0,0,0,0,0,0,0,0,0,0,0,0,0,0,0,0,0,0,0,0,0,0,0],"split_type":[0,0,0,0,0,0,0,0,0,0,0,0,0,0,0,0,0,0,0,0,0,0,0,0,0,0,0,0,0,0,0,0,0,0,0,0,0,0,0,0,0,0,0,0,0,0,0,0,0,0,0,0,0,0,0,0,0,0,0,0,0,0,0,0,0,0,0,0,0,0,0,0,0,0,0,0,0,0,0,0,0,0,0,0,0,0,0,0,0,0,0,0,0,0,0,0,0,0,0],"sum_hessian":[5.479E3,9.23E2,4.556E3,2.12E2,7.11E2,4.551E3,5E0,1.8E2,3.2E1,4.6E2,2.51E2,1.066E3,3.485E3,2E0,3E0,4.5E1,1.35E2,1.5E1,1.7E1,3.24E2,1.36E2,2.22E2,2.9E1,8.6E1,9.8E2,2.805E3,6.8E2,1E0,1E0,4.1E1,4E0,1.25E2,1E1,5E0,1E1,1.5E1,2E0,2.49E2,7.5E1,8.2E1,5.4E1,1.76E2,4.6E1,8E0,2.1E1,5.7E1,2.9E1,6.36E2,3.44E2,1.179E3,1.626E3,4.92E2,1.88E2,2.2E1,1.9E1,1E0,3E0,1.16E2,9E0,7E0,3E0,2E0,3E0,5E0,5E0,1E0,1E0,9.1E1,1.58E2,5E1,2.5E1,5.8E1,2.4E1,2.2E1,3.2E1,3E1,1.46E2,4E1,6E0,3E0,5E0,1.6E1,5E0,5.4E1,3E0,4E0,2.5E1,2.33E2,4.03E2,9.9E1,2.45E2,4.38E2,7.41E2,9.12E2,7.14E2,1.95E2,2.97E2,1.29E2,5.9E1],"tree_param":{"num_deleted":"0","num_feature":"25","num_nodes":"99","size_leaf_vector":"1"}},{"base_weights":[5.818187E-4,-1.1708605E-1,2.4833256E-2,8.0611035E-2,-1.6867511E-1,1.4272381E-1,7.156792E-3,1.9898887E-1,-1.2438149E-1,-1.9018833E-1,1.4078197E-1,2.0641536E-1,7.0074186E-2,1.2585345E-2,-3.461803E-1,2.353579E-1,-5.554951E-1,-6.35426E-1,-5.957015E-2,-2.8518754E-1,-1.3773824E-1,2.0265117E-1,-8.754296E-1,4.5984122E-1,1.8306316E-1,2.7198118E-1,-2.910411E-2,2.7863577E-2,-6.6111356E-2,-5.841868E-1,6.2099196E-2,-4.592827E-1,2.6351306E-1,1.8635321E-2,-8.156766E-1,1.00028515E-2,-8.522361E-1,-9.1184005E-2,4.4533718E-1,-6.5481573E-1,-1.7338654E-1,-4.3030694E-2,-1.8767501E-1,5.0488985E-1,9.627575E-2,-6.851475E-2,2.8575303E-3,1.294477E-1,5.7475215E-1,-2.99788E-1,1.9602E-1,3.237339E-1,-2.4126428E-1,5.6636095E-1,-6.5739006E-2,9.0117574E-2,1.1240468E-2,-3.5029957E-1,-1.1704412E-2,-1.5993658E-1,-1.0000193E0,-7.4025095E-2,3.6359794E-2,2.3669403E-3,-4.06405E-2,1.4772135E-2,-7.268698E-3,5.526662E-4,-5.125612E-2,7.7214837E-4,-2.193451E-5,-3.7469863E-4,-5.098429E-2,-4.960857E-4,-1.9835858E-2,-6.726384E-4,3.0137572E-2,-3.579073E-2,3.4088414E-2,3.7852065E-3,-1.6933065E-2,-1.6958311E-2,4.3291636E-3,-1.7619906E-2,-5.444355E-3,2.353986E-5,3.0286327E-2,2.280584E-2,-5.132483E-3,1.8016582E-2,-4.05745E-3,3.5356324E-2,3.1339359E-3,-4.09648E-2,2.12272E-2,3.550725E-3,1.3178592E-2,1.2303415E-2,3.3229556E-2,2.3943504E-2,-6.305749E-2,3.1235516E-2,-4.283309E-4,-7.4131745E-3,9.073071E-3,5.527512E-3,-1.2663077E-2,-4.536795E-4,4.9434374E-3,-3.4725107E-2,-8.006329E-3,1.0851613E-2,-2.8049066E-3,2.1732163E-3,-4.9220312E-2,-3.525681E-2,-7.023998E-2,8.447343E-3,-1.9488133E-2],"categories":[],"categories_nodes":[],"categories_segments":[],"categories_sizes":[],"default_left":[0,0,0,0,0,0,0,0,0,0,0,0,0,0,0,0,0,0,0,0,0,0,0,0,0,0,0,0,0,0,0,0,0,0,0,0,0,0,0,0,0,0,0,0,0,0,0,0,0,0,0,0,0,0,0,0,0,0,0,0,0,0,0,0,0,0,0,0,0,0,0,0,0,0,0,0,0,0,0,0,0,0,0,0,0,0,0,0,0,0,0,0,0,0,0,0,0,0,0,0,0,0,0,0,0,0,0,0,0,0,0,0,0,0,0,0,0,0,0],"id":13,"left_children":[1,3,5,7,9,11,13,15,17,19,21,23,25,27,29,31,33,35,37,39,41,43,45,47,49,51,53,55,57,59,61,63,65,-1,67,69,71,73,75,77,79,81,83,85,87,-1,-1,89,91,93,95,97,99,101,103,105,107,109,111,113,115,117,-1,-1,-1,-1,-1,-1,-1,-1,-1,-1,-1,-1,-1,-1,-1,-1,-1,-1,-1,-1,-1,-1,-1,-1,-1,-1,-1,-1,-1,-1,-1,-1,-1,-1,-1,-1,-1,-1,-1,-1,-1,-1,-1,-1,-1,-1,-1,-1,-1,-1,-1,-1,-1,-1,-1,-1,-1],"loss_changes":[1.5680669E1,9.590465E0,9.493174E0,4.756732E0,4.986553E0,2.7340727E0,7.605822E0,3.5332818E0,2.3468943E0,3.4336739E0,3.2581444E0,1.785923E0,5.5948324E0,4.6958027E0,5.866669E0,2.4483967E0,1.7530134E0,1.1280091E0,1.078142E0,1.0093691E1,2.1248798E0,1.4624772E0,1.4628181E0,9.1271114E-1,1.8793287E0,2.5217957E0,4.1384144E0,3.382963E0,9.814151E0,6.543908E0,2.1361547E0,9.339999E-1,1.5443454E0,0E0,8.771064E-1,1.7718427E-4,8.4106874E-1,1.5354196E0,2.969889E-1,5.135235E0,7.888801E0,6.055544E0,3.7901945E0,6.100824E-1,2.623755E0,0E0,0E0,4.1822773E-1,1.2436008E0,3.3581972E0,2.3794775E0,2.0601873E0,7.214018E0,3.7436533E-1,3.6581194E0,4.862127E0,4.597079E0,6.565509E0,5.434663E0,3.3967438E0,1.277319E0,1.6001565E0,0E0,0E0,0E0,0E0,0E0,0E0,0E0,0E0,0E0,0E0,0E0,0E0,0E0,0E0,0E0,0E0,0E0,0E0,0E0,0E0,0E0,0E0,0E0,0E0,0E0,0E0,0E0,0E0,0E0,0E0,0E0,0E0,0E0,0E0,0E0,0E0,0E0,0E0,0E0,0E0,0E0,0E0,0E0,0E0,0E0,0E0,0E0,0E0,0E0,0E0,0E0,0E0,0E0,0E0,0E0,0E0,0E0],"parents":[2147483647,0,0,1,1,2,2,3,3,4,4,5,5,6,6,7,7,8,8,9,9,10,10,11,11,12,12,13,13,14,14,15,15,16,16,17,17,18,18,19,19,20,20,21,21,22,22,23,23,24,24,25,25,26,26,27,27,28,28,29,29,30,30,31,31,32,32,34,34,35,35,36,36,37,37,38,38,39,39,40,40,41,41,42,42,43,43,44,44,47,47,48,48,49,49,50,50,51,51,52,52,53,53,54,54,55,55,56,56,57,57,58,58,59,59,60,60,61,61],"right_children":[2,4,6,8,10,12,14,16,18,20,22,24,26,28,30,32,34,36,38,40,42,44,46,48,50,52,54,56,58,60,62,64,66,-1,68,70,72,74,76,78,80,82,84,86,88,-1,-1,90,92,94,96,98,100,102,104,106,108,110,112,114,116,118,-1,-1,-1,-1,-1,-1,-1,-1,-1,-1,-1,-1,-1,-1,-1,-1,-1,-1,-1,-1,-1,-1,-1,-1,-1,-1,-1,-1,-1,-1,-1,-1,-1,-1,-1,-1,-1,-1,-1,-1,-1,-1,-1,-1,-1,-1,-1,-1,-1,-1,-1,-1,-1,-1,-1,-1,-1],"split_conditions":[1E2,1.6E1,1.3E1,1.33E2,1.53E2,1.13E2,1.56E2,1E0,1.4E1,2E0,9.8E1,1.26E2,1.2E2,1.44E2,1.29E2,1.03E2,1.1E1,2E0,1E0,1.15E2,1.19E2,1.55E2,1.55E2,2E0,1.27E2,1.29E2,9E0,1.7E1,1.5E1,2E0,3E0,2E0,1E0,1.8635321E-2,1.09E2,1.39E2,8.9E1,2E0,1E0,2.3E1,2E0,2E0,2E0,2E0,2E0,-6.851475E-2,2.8575303E-3,3E0,1E0,1.1E1,2E0,3E0,3E0,3E0,3E0,1.42E2,1E0,2E0,1E2,3E0,2.1E1,3E0,3.6359794E-2,2.3669403E-3,-4.06405E-2,1.4772135E-2,-7.268698E-3,5.526662E-4,-5.125612E-2,7.7214837E-4,-2.193451E-5,-3.7469863E-4,-5.098429E-2,-4.960857E-4,-1.9835858E-2,-6.726384E-4,3.0137572E-2,-3.579073E-2,3.4088414E-2,3.7852065E-3,-1.6933065E-2,-1.6958311E-2,4.3291636E-3,-1.7619906E-2,-5.444355E-3,2.353986E-5,3.0286327E-2,2.280584E-2,-5.132483E-3,1.8016582E-2,-4.05745E-3,3.5356324E-2,3.1339359E-3,-4.09648E-2,2.12272E-2,3.550725E-3,1.3178592E-2,1.2303415E-2,3.3229556E-2,2.3943504E-2,-6.305749E-2,3.1235516E-2,-4.283309E-4,-7.4131745E-3,9.073071E-3,5.527512E-3,-1.2663077E-2,-4.536795E-4,4.9434374E-3,-3.4725107E-2,-8.006329E-3,1.0851613E-2,-2.8049066E-3,2.1732163E-3,-4.9220312E-2,-3.525681E-2,-7.023998E-2,8.447343E-3,-1.9488133E-2],"split_indices":[11,1,1,0,0,0,0,23,1,16,11,11,11,11,11,0,1,7,24,0,0,0,0,17,11,0,1,1,1,8,2,2,21,0,0,0,11,4,3,1,9,10,7,8,13,0,0,4,18,1,10,2,17,17,8,11,24,4,0,13,1,10,0,0,0,0,0,0,0,0,0,0,0,0,0,0,0,0,0,0,0,0,0,0,0,0,0,0,0,0,0,0,0,0,0,0,0,0,0,0,0,0,0,0,0,0,0,0,0,0,0,0,0,0,0,0,0,0,0],"split_type":[0,0,0,0,0,0,0,0,0,0,0,0,0,0,0,0,0,0,0,0,0,0,0,0,0,0,0,0,0,0,0,0,0,0,0,0,0,0,0,0,0,0,0,0,0,0,0,0,0,0,0,0,0,0,0,0,0,0,0,0,0,0,0,0,0,0,0,0,0,0,0,0,0,0,0,0,0,0,0,0,0,0,0,0,0,0,0,0,0,0,0,0,0,0,0,0,0,0,0,0,0,0,0,0,0,0,0,0,0,0,0,0,0,0,0,0,0,0,0],"sum_hessian":[5.493E3,9.38E2,4.555E3,1.94E2,7.44E2,5.93E2,3.962E3,1.23E2,7.1E1,6.96E2,4.8E1,3.15E2,2.78E2,3.903E3,5.9E1,1.18E2,5E0,7E0,6.4E1,2.46E2,4.5E2,4.6E1,2E0,2.5E1,2.9E2,9.1E1,1.87E2,3.269E3,6.34E2,3.7E1,2.2E1,4E0,1.14E2,1E0,4E0,2E0,5E0,6.1E1,3E0,5.6E1,1.9E2,1.56E2,2.94E2,1.1E1,3.5E1,1E0,1E0,7E0,1.8E1,7E0,2.83E2,8.3E1,8E0,1E1,1.77E2,6.88E2,2.581E3,1.01E2,5.33E2,1.9E1,1.8E1,1.9E1,3E0,2E0,2E0,1.06E2,8E0,1E0,3E0,1E0,1E0,1E0,4E0,4.9E1,1.2E1,1E0,2E0,5.4E1,2E0,7.6E1,1.14E2,4.7E1,1.09E2,9.4E1,2E2,2E0,9E0,1.2E1,2.3E1,3E0,4E0,1.4E1,4E0,4E0,3E0,1E2,1.83E2,6.9E1,1.4E1,5E0,3E0,9E0,1E0,1.33E2,4.4E1,6.5E2,3.8E1,2.096E3,4.85E2,3.5E1,6.6E1,8.6E1,4.47E2,1.6E1,3E0,1.2E1,6E0,1.1E1,8E0],"tree_param":{"num_deleted":"0","num_feature":"25","num_nodes":"119","size_leaf_vector":"1"}},{"base_weights":[8.357148E-4,-1.3216569E-1,2.792304E-2,3.4314085E-2,-1.7305447E-1,5.2401572E-2,-3.0362576E-2,2.699833E-1,-2.8443828E-2,-1.231433E-1,-2.942912E-1,2.7959096E-1,4.7133293E-2,-6.7215586E-1,-2.0259345E-2,4.1745993E-1,3.189437E-2,-1.9923465E-3,-6.4972156E-1,-9.461554E-2,-4.0299672E-1,-3.821818E-1,-1.5494533E-1,1.1152292E-1,5.167711E-1,2.4351886E-2,9.1253586E-2,-7.5667256E-1,2.5454445E-2,2.7237365E-2,-9.5171764E-2,4.6872374E-1,-9.762796E-2,-2.3672467E-1,3.30104E-1,4.5104597E-2,-2.6093498E-1,-4.9334016E-2,8.065303E-4,-1.4786124E-1,1.0504774E-2,-7.420629E-1,-1.4356957E-1,-1.1938813E-1,-5.441707E-1,-6.1415926E-2,-1.05918E0,4.8370504E-1,-9.7664565E-2,2.5778022E-1,6.3337755E-1,5.967172E-2,-1.5960934E-2,1.2624703E-1,-5.697726E-2,-1.7548943E-1,-9.932161E-1,1.5762237E-1,-2.9668242E-2,-7.265865E-1,-8.133928E-2,9.654665E-3,2.800084E-2,1.8169438E-2,-2.5491536E-2,7.622192E-3,-2.8927414E-2,8.918166E-4,2.5694866E-2,4.5908528E-5,1.4894907E-2,8.637122E-3,-3.551581E-2,-1.5697572E-3,-1.3063835E-2,-1.0906886E-2,5.7813916E-3,-1.7346624E-2,-8.3603345E-2,-1.0759803E-3,-4.50501E-2,-1.1581199E-2,2.212929E-2,-3.1445567E-2,6.4426507E-3,-1.0336825E-2,6.8500303E-3,-7.262204E-2,4.020063E-3,3.6851835E-2,-1.10516E-2,1.843314E-2,-2.2426143E-2,-7.647908E-3,3.90629E-2,3.3382457E-2,-4.4459105E-4,4.2072595E-3,-2.5105171E-3,1.8960828E-3,-3.691105E-3,1.2578099E-2,3.9601526E-3,-1.5919E-2,6.1002458E-3,6.138571E-3,-4.9126364E-2,-2.9953575E-2,-7.91431E-2,1.2761372E-2,-4.2934166E-3,-1.7908185E-4,-1.3717147E-2,-2.699375E-5,-5.706966E-2,1.21598445E-4,-9.270912E-3],"categories":[],"categories_nodes":[],"categories_segments":[],"categories_sizes":[],"default_left":[0,0,0,0,0,0,0,0,0,0,0,0,0,0,0,0,0,0,0,0,0,0,0,0,0,0,0,0,0,0,0,0,0,0,0,0,0,0,0,0,0,0,0,0,0,0,0,0,0,0,0,0,0,0,0,0,0,0,0,0,0,0,0,0,0,0,0,0,0,0,0,0,0,0,0,0,0,0,0,0,0,0,0,0,0,0,0,0,0,0,0,0,0,0,0,0,0,0,0,0,0,0,0,0,0,0,0,0,0,0,0,0,0,0,0,0,0],"id":14,"left_children":[1,3,5,7,9,11,13,15,17,19,21,23,25,27,29,31,33,35,37,39,41,43,45,47,49,51,53,55,-1,57,59,61,63,65,67,69,71,-1,-1,73,75,77,79,81,83,85,87,89,91,93,95,97,99,101,103,105,107,109,111,113,115,-1,-1,-1,-1,-1,-1,-1,-1,-1,-1,-1,-1,-1,-1,-1,-1,-1,-1,-1,-1,-1,-1,-1,-1,-1,-1,-1,-1,-1,-1,-1,-1,-1,-1,-1,-1,-1,-1,-1,-1,-1,-1,-1,-1,-1,-1,-1,-1,-1,-1,-1,-1,-1,-1,-1,-1],"loss_changes":[1.9886728E1,6.363821E0,6.54465E0,2.7438493E0,4.50206E0,3.8528004E0,8.785423E0,1.3560748E0,2.4144619E0,4.217124E0,2.610672E0,2.8523235E0,3.1719542E0,2.4817467E0,4.7597632E0,6.7948914E-1,1.3598202E0,1.743517E0,1.3621042E0,2.7161975E0,4.2036476E0,5.596796E0,7.208188E0,3.4728978E0,7.4272823E-1,2.968239E0,5.583335E0,2.575203E0,0E0,6.081359E0,4.4738636E0,4.4545364E-1,7.553639E-1,1.2854388E0,4.4997573E-1,1.3513016E0,4.410205E0,0E0,0E0,4.2451124E0,3.967061E0,7.136837E0,2.6615043E0,3.3823419E0,4.757698E0,2.3062096E0,3.7019987E0,3.0194237E0,4.9101834E0,2.4846358E0,4.461689E-1,2.9919214E0,3.0394485E0,5.1089993E0,9.676848E0,1.8055807E0,2.3054333E0,5.939634E0,3.643557E0,3.3122435E0,4.4383326E0,0E0,0E0,0E0,0E0,0E0,0E0,0E0,0E0,0E0,0E0,0E0,0E0,0E0,0E0,0E0,0E0,0E0,0E0,0E0,0E0,0E0,0E0,0E0,0E0,0E0,0E0,0E0,0E0,0E0,0E0,0E0,0E0,0E0,0E0,0E0,0E0,0E0,0E0,0E0,0E0,0E0,0E0,0E0,0E0,0E0,0E0,0E0,0E0,0E0,0E0,0E0,0E0,0E0,0E0,0E0,0E0],"parents":[2147483647,0,0,1,1,2,2,3,3,4,4,5,5,6,6,7,7,8,8,9,9,10,10,11,11,12,12,13,13,14,14,15,15,16,16,17,17,18,18,19,19,20,20,21,21,22,22,23,23,24,24,25,25,26,26,27,27,29,29,30,30,31,31,32,32,33,33,34,34,35,35,36,36,39,39,40,40,41,41,42,42,43,43,44,44,45,45,46,46,47,47,48,48,49,49,50,50,51,51,52,52,53,53,54,54,55,55,56,56,57,57,58,58,59,59,60,60],"right_children":[2,4,6,8,10,12,14,16,18,20,22,24,26,28,30,32,34,36,38,40,42,44,46,48,50,52,54,56,-1,58,60,62,64,66,68,70,72,-1,-1,74,76,78,80,82,84,86,88,90,92,94,96,98,100,102,104,106,108,110,112,114,116,-1,-1,-1,-1,-1,-1,-1,-1,-1,-1,-1,-1,-1,-1,-1,-1,-1,-1,-1,-1,-1,-1,-1,-1,-1,-1,-1,-1,-1,-1,-1,-1,-1,-1,-1,-1,-1,-1,-1,-1,-1,-1,-1,-1,-1,-1,-1,-1,-1,-1,-1,-1,-1,-1,-1,-1],"split_conditions":[1E2,1.6E1,3E0,2E0,3E0,1.02E2,1.01E2,3E0,1E0,9.8E1,3E0,3E0,3E0,1E0,3E0,9.9E1,1E0,3E0,1.4E1,3E0,2E0,2E0,9.8E1,1E0,2E0,2E0,1.43E2,2E0,2.5454445E-2,2E0,1.04E2,2E0,1.1E1,3E0,2E0,3E0,3E0,-4.9334016E-2,8.065303E-4,1E0,2E0,1E0,1E0,1E0,9.8E1,3E0,3E0,3E0,2E0,1E0,1E0,1.42E2,1.9E1,2E0,1.5E2,1E0,3E0,3E0,1.51E2,2E0,3E0,9.654665E-3,2.800084E-2,1.8169438E-2,-2.5491536E-2,7.622192E-3,-2.8927414E-2,8.918166E-4,2.5694866E-2,4.5908528E-5,1.4894907E-2,8.637122E-3,-3.551581E-2,-1.5697572E-3,-1.3063835E-2,-1.0906886E-2,5.7813916E-3,-1.7346624E-2,-8.3603345E-2,-1.0759803E-3,-4.50501E-2,-1.1581199E-2,2.212929E-2,-3.1445567E-2,6.4426507E-3,-1.0336825E-2,6.8500303E-3,-7.262204E-2,4.020063E-3,3.6851835E-2,-1.10516E-2,1.843314E-2,-2.2426143E-2,-7.647908E-3,3.90629E-2,3.3382457E-2,-4.4459105E-4,4.2072595E-3,-2.5105171E-3,1.8960828E-3,-3.691105E-3,1.2578099E-2,3.9601526E-3,-1.5919E-2,6.1002458E-3,6.138571E-3,-4.9126364E-2,-2.9953575E-2,-7.91431E-2,1.2761372E-2,-4.2934166E-3,-1.7908185E-4,-1.3717147E-2,-2.699375E-5,-5.706966E-2,1.21598445E-4,-9.270912E-3],"split_indices":[11,1,9,16,4,11,11,14,23,11,8,13,8,20,14,11,12,15,1,16,13,9,11,3,16,9,11,2,0,4,11,4,1,10,17,2,13,0,0,3,15,18,24,24,11,15,13,15,10,22,23,11,1,16,11,24,4,5,11,8,16,0,0,0,0,0,0,0,0,0,0,0,0,0,0,0,0,0,0,0,0,0,0,0,0,0,0,0,0,0,0,0,0,0,0,0,0,0,0,0,0,0,0,0,0,0,0,0,0,0,0,0,0,0,0,0,0],"split_type":[0,0,0,0,0,0,0,0,0,0,0,0,0,0,0,0,0,0,0,0,0,0,0,0,0,0,0,0,0,0,0,0,0,0,0,0,0,0,0,0,0,0,0,0,0,0,0,0,0,0,0,0,0,0,0,0,0,0,0,0,0,0,0,0,0,0,0,0,0,0,0,0,0,0,0,0,0,0,0,0,0,0,0,0,0,0,0,0,0,0,0,0,0,0,0,0,0,0,0,0,0,0,0,0,0,0,0,0,0,0,0,0,0,0,0,0,0],"sum_hessian":[5.518E3,9.33E2,4.585E3,1.84E2,7.49E2,3.229E3,1.356E3,3.8E1,1.46E2,5.32E2,2.17E2,7.2E1,3.157E3,2E1,1.336E3,2.3E1,1.5E1,1.41E2,5E0,4.84E2,4.8E1,1.32E2,8.5E1,4.3E1,2.9E1,2.083E3,1.074E3,1.9E1,1E0,8.18E2,5.18E2,2.1E1,2E0,8E0,7E0,1.2E2,2.1E1,3E0,2E0,3.21E2,1.63E2,2E1,2.8E1,5.1E1,8.1E1,7.8E1,7E0,1.5E1,2.8E1,1E1,1.9E1,1.11E3,9.73E2,8.69E2,2.05E2,6E0,1.3E1,2.48E2,5.7E2,1E1,5.08E2,6E0,1.5E1,1E0,1E0,4E0,4E0,3E0,4E0,1.03E2,1.7E1,1.1E1,1E1,1.59E2,1.62E2,5.1E1,1.12E2,1.5E1,5E0,2.5E1,3E0,4.3E1,8E0,7.2E1,9E0,4.5E1,3.3E1,5E0,2E0,1.1E1,4E0,1.2E1,1.6E1,6E0,4E0,1.8E1,1E0,9.08E2,2.02E2,5.04E2,4.69E2,2.36E2,6.33E2,8.3E1,1.22E2,5E0,1E0,9E0,4E0,1.77E2,7.1E1,5.16E2,5.4E1,4E0,6E0,2.82E2,2.26E2],"tree_param":{"num_deleted":"0","num_feature":"25","num_nodes":"117","size_leaf_vector":"1"}},{"base_weights":[8.730294E-3,-8.765821E-2,2.8516175E-2,4.906353E-2,-1.3155633E-1,2.9985102E-2,-1.0852768E0,1.3860269E-1,-1.2043517E-1,-1.7568848E-1,-1.18725365E-2,8.48555E-2,1.0365461E-2,-2.8728645E-3,-8.128803E-2,1.6628668E-1,-5.4891354E-1,-5.8342266E-1,-6.731941E-2,-3.0653408E-1,-8.164365E-2,3.4130823E-2,-5.959244E-1,3.3263406E-1,6.530573E-2,5.0519793E-3,2.7370876E-1,-2.7495623E-4,5.9491398E-5,-3.8694646E-2,1.8497859E-1,1.7715205E-2,-8.0041784E-1,-1.0232606E-1,-5.194689E-2,2.507485E-1,-1.2878655E-1,-2.0839585E-1,-5.5087656E-1,-1.0733644E-1,4.5272538E-1,2.776428E-1,-7.70139E-2,-1.3763039E-1,-1.1840446E0,4.8630226E-1,2.1985158E-1,1.180237E-1,-2.816835E-2,9.52806E-3,-2.3079559E-1,4.83748E-1,-2.8621146E-2,3.4761147E-3,1.5137023E-2,-4.1882994E-4,-4.98167E-2,2.582261E-3,-1.7955279E-2,1.7752232E-2,-2.2412723E-2,-3.508332E-3,-3.2722063E-2,-6.503511E-3,-4.1828226E-2,-3.6387097E-2,-1.13511635E-2,-1.3238852E-2,-1.484298E-3,2.7882067E-2,2.5512576E-3,2.1832284E-2,6.766467E-3,-1.8221648E-2,-1.3740172E-3,-2.1145578E-2,1.623495E-2,4.0627182E-3,-7.266777E-2,-4.881907E-3,2.5288796E-2,-1.6797146E-2,1.365833E-2,4.088839E-3,1.4659518E-2,1.4067002E-3,-9.867839E-3,1.727706E-3,-1.4493589E-3,-2.7263686E-2,2.6278896E-3,2.681436E-2,-1.6274242E-2,7.520355E-3,-3.5506293E-2],"categories":[],"categories_nodes":[],"categories_segments":[],"categories_sizes":[],"default_left":[0,0,0,0,0,0,0,0,0,0,0,0,0,0,0,0,0,0,0,0,0,0,0,0,0,0,0,0,0,0,0,0,0,0,0,0,0,0,0,0,0,0,0,0,0,0,0,0,0,0,0,0,0,0,0,0,0,0,0,0,0,0,0,0,0,0,0,0,0,0,0,0,0,0,0,0,0,0,0,0,0,0,0,0,0,0,0,0,0,0,0,0,0,0,0],"id":15,"left_children":[1,3,5,7,9,11,13,15,17,19,21,23,25,27,-1,29,31,33,35,37,39,41,43,45,47,49,51,-1,-1,-1,53,-1,55,57,-1,59,61,63,65,67,69,71,73,75,77,79,81,83,85,87,89,91,93,-1,-1,-1,-1,-1,-1,-1,-1,-1,-1,-1,-1,-1,-1,-1,-1,-1,-1,-1,-1,-1,-1,-1,-1,-1,-1,-1,-1,-1,-1,-1,-1,-1,-1,-1,-1,-1,-1,-1,-1,-1,-1],"loss_changes":[1.04249735E1,5.5941563E0,7.45217E0,3.4618196E0,3.7216558E0,4.875835E0,3.5054603E0,2.9272227E0,1.9034872E0,6.312229E0,5.152194E0,5.757184E0,4.6693797E0,3.8552076E-5,0E0,2.6737752E0,1.6465698E0,1.6468632E0,1.4399452E0,5.040756E0,4.1811523E0,4.838965E0,3.6104865E0,1.4008913E0,5.4583597E0,3.4574165E0,4.20492E0,0E0,0E0,0E0,1.9096351E0,0E0,7.675226E-1,2.1622944E-1,0E0,1.0339899E0,1.8337235E0,7.5174522E0,3.3287678E0,3.5130367E0,5.61573E-1,1.2080908E0,1.7411225E0,1.3243638E0,2.1626425E0,4.587555E-1,1.6326423E0,4.4712954E0,3.815835E0,3.0979629E0,5.4642735E0,1.832696E0,3.5230486E0,0E0,0E0,0E0,0E0,0E0,0E0,0E0,0E0,0E0,0E0,0E0,0E0,0E0,0E0,0E0,0E0,0E0,0E0,0E0,0E0,0E0,0E0,0E0,0E0,0E0,0E0,0E0,0E0,0E0,0E0,0E0,0E0,0E0,0E0,0E0,0E0,0E0,0E0,0E0,0E0,0E0,0E0],"parents":[2147483647,0,0,1,1,2,2,3,3,4,4,5,5,6,6,7,7,8,8,9,9,10,10,11,11,12,12,13,13,15,15,16,16,17,17,18,18,19,19,20,20,21,21,22,22,23,23,24,24,25,25,26,26,30,30,32,32,33,33,35,35,36,36,37,37,38,38,39,39,40,40,41,41,42,42,43,43,44,44,45,45,46,46,47,47,48,48,49,49,50,50,51,51,52,52],"right_children":[2,4,6,8,10,12,14,16,18,20,22,24,26,28,-1,30,32,34,36,38,40,42,44,46,48,50,52,-1,-1,-1,54,-1,56,58,-1,60,62,64,66,68,70,72,74,76,78,80,82,84,86,88,90,92,94,-1,-1,-1,-1,-1,-1,-1,-1,-1,-1,-1,-1,-1,-1,-1,-1,-1,-1,-1,-1,-1,-1,-1,-1,-1,-1,-1,-1,-1,-1,-1,-1,-1,-1,-1,-1,-1,-1,-1,-1,-1,-1],"split_conditions":[1E2,1.7E1,1.121E3,1.33E2,3E0,1.18E2,2E0,1E0,1.4E1,2E0,1E0,1.3E1,1.64E2,1.123E3,-8.128803E-2,1.03E2,1.1E1,2E0,2E0,3E0,1.6E2,2E0,9.2E1,3E0,3E0,1.54E2,3E0,-2.7495623E-4,5.9491398E-5,-3.8694646E-2,1.16E2,1.7715205E-2,1.03E2,1.44E2,-5.194689E-2,3E0,1E0,1E0,3E0,2E1,9.7E1,2E0,1.09E2,2E0,1.07E2,1.05E2,2E0,1E0,3E0,3E0,1.29E2,1E0,3E0,3.4761147E-3,1.5137023E-2,-4.1882994E-4,-4.98167E-2,2.582261E-3,-1.7955279E-2,1.7752232E-2,-2.2412723E-2,-3.508332E-3,-3.2722063E-2,-6.503511E-3,-4.1828226E-2,-3.6387097E-2,-1.13511635E-2,-1.3238852E-2,-1.484298E-3,2.7882067E-2,2.5512576E-3,2.1832284E-2,6.766467E-3,-1.8221648E-2,-1.3740172E-3,-2.1145578E-2,1.623495E-2,4.0627182E-3,-7.266777E-2,-4.881907E-3,2.5288796E-2,-1.6797146E-2,1.365833E-2,4.088839E-3,1.4659518E-2,1.4067002E-3,-9.867839E-3,1.727706E-3,-1.4493589E-3,-2.7263686E-2,2.6278896E-3,2.681436E-2,-1.6274242E-2,7.520355E-3,-3.5506293E-2],"split_indices":[11,1,0,0,13,11,6,23,1,6,23,1,11,0,0,0,1,10,10,9,0,10,11,8,16,0,16,0,0,0,0,0,0,0,0,14,19,21,16,1,11,6,0,10,0,0,2,19,9,14,11,20,13,0,0,0,0,0,0,0,0,0,0,0,0,0,0,0,0,0,0,0,0,0,0,0,0,0,0,0,0,0,